{"learner":{"attributes":{"scikit_learn":"{\"_estimator_type\": \"regressor\"}"},"feature_names":["station1_velocity_lag3","station1_velocity_lag5","station1_water_level_lag3","station1_water_level_lag5","station1_pressure_lag3","station1_pressure_lag5","station1_rainfall_lag3","station1_rainfall_lag5","station2_velocity_lag2","station2_velocity_lag3","station2_water_level_lag2","station2_water_level_lag3","station2_pressure_lag2","station2_pressure_lag3","station2_rainfall_lag2","station2_rainfall_lag3","station3_velocity_lag0","station3_velocity_lag1","station3_water_level_lag0","station3_water_level_lag1","station3_pressure_lag0","station3_pressure_lag1","station3_rainfall_lag0","station3_rainfall_lag1"],"feature_types":["float","float","float","float","float","float","float","float","float","float","float","float","float","float","float","float","float","float","float","float","float","float","float","float"],"gradient_booster":{"model":{"cats":{"enc":[],"feature_segments":[],"sorted_idx":[]},"gbtree_model_param":{"num_parallel_tree":"1","num_trees":"1000"},"iteration_indptr":[0,1,2,3,4,5,6,7,8,9,10,11,12,13,14,15,16,17,18,19,20,21,22,23,24,25,26,27,28,29,30,31,32,33,34,35,36,37,38,39,40,41,42,43,44,45,46,47,48,49,50,51,52,53,54,55,56,57,58,59,60,61,62,63,64,65,66,67,68,69,70,71,72,73,74,75,76,77,78,79,80,81,82,83,84,85,86,87,88,89,90,91,92,93,94,95,96,97,98,99,100,101,102,103,104,105,106,107,108,109,110,111,112,113,114,115,116,117,118,119,120,121,122,123,124,125,126,127,128,129,130,131,132,133,134,135,136,137,138,139,140,141,142,143,144,145,146,147,148,149,150,151,152,153,154,155,156,157,158,159,160,161,162,163,164,165,166,167,168,169,170,171,172,173,174,175,176,177,178,179,180,181,182,183,184,185,186,187,188,189,190,191,192,193,194,195,196,197,198,199,200,201,202,203,204,205,206,207,208,209,210,211,212,213,214,215,216,217,218,219,220,221,222,223,224,225,226,227,228,229,230,231,232,233,234,235,236,237,238,239,240,241,242,243,244,245,246,247,248,249,250,251,252,253,254,255,256,257,258,259,260,261,262,263,264,265,266,267,268,269,270,271,272,273,274,275,276,277,278,279,280,281,282,283,284,285,286,287,288,289,290,291,292,293,294,295,296,297,298,299,300,301,302,303,304,305,306,307,308,309,310,311,312,313,314,315,316,317,318,319,320,321,322,323,324,325,326,327,328,329,330,331,332,333,334,335,336,337,338,339,340,341,342,343,344,345,346,347,348,349,350,351,352,353,354,355,356,357,358,359,360,361,362,363,364,365,366,367,368,369,370,371,372,373,374,375,376,377,378,379,380,381,382,383,384,385,386,387,388,389,390,391,392,393,394,395,396,397,398,399,400,401,402,403,404,405,406,407,408,409,410,411,412,413,414,415,416,417,418,419,420,421,422,423,424,425,426,427,428,429,430,431,432,433,434,435,436,437,438,439,440,441,442,443,444,445,446,447,448,449,450,451,452,453,454,455,456,457,458,459,460,461,462,463,464,465,466,467,468,469,470,471,472,473,474,475,476,477,478,479,480,481,482,483,484,485,486,487,488,489,490,491,492,493,494,495,496,497,498,499,500,501,502,503,504,505,506,507,508,509,510,511,512,513,514,515,516,517,518,519,520,521,522,523,524,525,526,527,528,529,530,531,532,533,534,535,536,537,538,539,540,541,542,543,544,545,546,547,548,549,550,551,552,553,554,555,556,557,558,559,560,561,562,563,564,565,566,567,568,569,570,571,572,573,574,575,576,577,578,579,580,581,582,583,584,585,586,587,588,589,590,591,592,593,594,595,596,597,598,599,600,601,602,603,604,605,606,607,608,609,610,611,612,613,614,615,616,617,618,619,620,621,622,623,624,625,626,627,628,629,630,631,632,633,634,635,636,637,638,639,640,641,642,643,644,645,646,647,648,649,650,651,652,653,654,655,656,657,658,659,660,661,662,663,664,665,666,667,668,669,670,671,672,673,674,675,676,677,678,679,680,681,682,683,684,685,686,687,688,689,690,691,692,693,694,695,696,697,698,699,700,701,702,703,704,705,706,707,708,709,710,711,712,713,714,715,716,717,718,719,720,721,722,723,724,725,726,727,728,729,730,731,732,733,734,735,736,737,738,739,740,741,742,743,744,745,746,747,748,749,750,751,752,753,754,755,756,757,758,759,760,761,762,763,764,765,766,767,768,769,770,771,772,773,774,775,776,777,778,779,780,781,782,783,784,785,786,787,788,789,790,791,792,793,794,795,796,797,798,799,800,801,802,803,804,805,806,807,808,809,810,811,812,813,814,815,816,817,818,819,820,821,822,823,824,825,826,827,828,829,830,831,832,833,834,835,836,837,838,839,840,841,842,843,844,845,846,847,848,849,850,851,852,853,854,855,856,857,858,859,860,861,862,863,864,865,866,867,868,869,870,871,872,873,874,875,876,877,878,879,880,881,882,883,884,885,886,887,888,889,890,891,892,893,894,895,896,897,898,899,900,901,902,903,904,905,906,907,908,909,910,911,912,913,914,915,916,917,918,919,920,921,922,923,924,925,926,927,928,929,930,931,932,933,934,935,936,937,938,939,940,941,942,943,944,945,946,947,948,949,950,951,952,953,954,955,956,957,958,959,960,961,962,963,964,965,966,967,968,969,970,971,972,973,974,975,976,977,978,979,980,981,982,983,984,985,986,987,988,989,990,991,992,993,994,995,996,997,998,999,1000],"tree_info":[0,0,0,0,0,0,0,0,0,0,0,0,0,0,0,0,0,0,0,0,0,0,0,0,0,0,0,0,0,0,0,0,0,0,0,0,0,0,0,0,0,0,0,0,0,0,0,0,0,0,0,0,0,0,0,0,0,0,0,0,0,0,0,0,0,0,0,0,0,0,0,0,0,0,0,0,0,0,0,0,0,0,0,0,0,0,0,0,0,0,0,0,0,0,0,0,0,0,0,0,0,0,0,0,0,0,0,0,0,0,0,0,0,0,0,0,0,0,0,0,0,0,0,0,0,0,0,0,0,0,0,0,0,0,0,0,0,0,0,0,0,0,0,0,0,0,0,0,0,0,0,0,0,0,0,0,0,0,0,0,0,0,0,0,0,0,0,0,0,0,0,0,0,0,0,0,0,0,0,0,0,0,0,0,0,0,0,0,0,0,0,0,0,0,0,0,0,0,0,0,0,0,0,0,0,0,0,0,0,0,0,0,0,0,0,0,0,0,0,0,0,0,0,0,0,0,0,0,0,0,0,0,0,0,0,0,0,0,0,0,0,0,0,0,0,0,0,0,0,0,0,0,0,0,0,0,0,0,0,0,0,0,0,0,0,0,0,0,0,0,0,0,0,0,0,0,0,0,0,0,0,0,0,0,0,0,0,0,0,0,0,0,0,0,0,0,0,0,0,0,0,0,0,0,0,0,0,0,0,0,0,0,0,0,0,0,0,0,0,0,0,0,0,0,0,0,0,0,0,0,0,0,0,0,0,0,0,0,0,0,0,0,0,0,0,0,0,0,0,0,0,0,0,0,0,0,0,0,0,0,0,0,0,0,0,0,0,0,0,0,0,0,0,0,0,0,0,0,0,0,0,0,0,0,0,0,0,0,0,0,0,0,0,0,0,0,0,0,0,0,0,0,0,0,0,0,0,0,0,0,0,0,0,0,0,0,0,0,0,0,0,0,0,0,0,0,0,0,0,0,0,0,0,0,0,0,0,0,0,0,0,0,0,0,0,0,0,0,0,0,0,0,0,0,0,0,0,0,0,0,0,0,0,0,0,0,0,0,0,0,0,0,0,0,0,0,0,0,0,0,0,0,0,0,0,0,0,0,0,0,0,0,0,0,0,0,0,0,0,0,0,0,0,0,0,0,0,0,0,0,0,0,0,0,0,0,0,0,0,0,0,0,0,0,0,0,0,0,0,0,0,0,0,0,0,0,0,0,0,0,0,0,0,0,0,0,0,0,0,0,0,0,0,0,0,0,0,0,0,0,0,0,0,0,0,0,0,0,0,0,0,0,0,0,0,0,0,0,0,0,0,0,0,0,0,0,0,0,0,0,0,0,0,0,0,0,0,0,0,0,0,0,0,0,0,0,0,0,0,0,0,0,0,0,0,0,0,0,0,0,0,0,0,0,0,0,0,0,0,0,0,0,0,0,0,0,0,0,0,0,0,0,0,0,0,0,0,0,0,0,0,0,0,0,0,0,0,0,0,0,0,0,0,0,0,0,0,0,0,0,0,0,0,0,0,0,0,0,0,0,0,0,0,0,0,0,0,0,0,0,0,0,0,0,0,0,0,0,0,0,0,0,0,0,0,0,0,0,0,0,0,0,0,0,0,0,0,0,0,0,0,0,0,0,0,0,0,0,0,0,0,0,0,0,0,0,0,0,0,0,0,0,0,0,0,0,0,0,0,0,0,0,0,0,0,0,0,0,0,0,0,0,0,0,0,0,0,0,0,0,0,0,0,0,0,0,0,0,0,0,0,0,0,0,0,0,0,0,0,0,0,0,0,0,0,0,0,0,0,0,0,0,0,0,0,0,0,0,0,0,0,0,0,0,0,0,0,0,0,0,0,0,0,0,0,0,0,0,0,0,0,0,0,0,0,0,0,0,0,0,0,0,0,0,0,0,0,0,0,0,0,0,0,0,0,0,0,0,0,0,0,0,0,0,0,0,0,0,0,0,0,0,0,0,0,0,0,0,0,0,0,0,0,0,0,0,0,0,0,0,0,0,0,0,0,0,0,0,0,0,0,0,0,0,0,0,0,0,0,0,0,0,0,0,0,0,0,0,0,0,0,0,0,0,0,0,0,0,0,0,0,0,0,0,0,0,0,0,0,0,0,0,0,0,0,0,0,0,0,0,0,0,0,0,0,0,0,0,0,0,0,0,0,0,0,0,0,0,0,0,0,0,0,0,0,0,0,0,0,0,0,0,0,0,0,0,0,0,0,0,0,0,0,0,0,0,0,0,0,0],"trees":[{"base_weights":[8.967093E-3,-4.100927E-1,4.2776316E-1,-5.785843E-1,-2.0756671E-1,2.715301E-1,6.3155824E-1,-3.2667574E-2,-1.838786E-2,-2.779431E-1,-3.221949E-2,1.0791474E-1,3.6391532E-1,3.2634612E-2,8.920413E-3,-1.4656062E-2,-2.7745843E-3,6.374717E-4,-3.264447E-3,-2.9470862E-3,1.3613951E-1,1.2625727E-2,2.2589857E-2,-1.0255575E-2,8.329153E-4,6.304145E-4,7.5992825E-3,-1.1458397E-4,-6.545842E-4],"categories":[],"categories_nodes":[],"categories_segments":[],"categories_sizes":[],"default_left":[0,0,0,0,0,0,0,0,0,0,0,0,0,0,0,0,0,0,0,0,0,0,0,0,0,0,0,0,0],"id":0,"left_children":[1,3,5,7,9,11,13,-1,-1,15,17,19,21,-1,-1,-1,-1,23,-1,-1,25,-1,-1,27,-1,-1,-1,-1,-1],"loss_changes":[1.1933962E1,1.0401192E0,9.110575E-1,4.345846E-2,2.0082992E-1,2.7815676E-1,1.7630577E-2,0E0,0E0,2.4251044E-2,6.560989E-3,5.0409667E-2,1.3186097E-2,0E0,0E0,0E0,0E0,8.689033E-4,0E0,0E0,1.3743654E-2,0E0,0E0,3.7757505E-5,0E0,0E0,0E0,0E0,0E0],"parents":[2147483647,0,0,1,1,2,2,3,3,4,4,5,5,6,6,9,9,10,10,11,11,12,12,17,17,20,20,23,23],"right_children":[2,4,6,8,10,12,14,-1,-1,16,18,20,22,-1,-1,-1,-1,24,-1,-1,26,-1,-1,28,-1,-1,-1,-1,-1],"split_conditions":[9.407E-1,1.5184E0,1.1844E0,7.161E-1,1.9352E0,2.1052E0,1.8275E0,-3.2667574E-2,-1.838786E-2,5.3385E0,4.806E-1,1.7195E0,3.1246E0,3.2634612E-2,8.920413E-3,-1.4656062E-2,-2.7745843E-3,8.658E-1,-3.264447E-3,-2.9470862E-3,3.195E-1,1.2625727E-2,2.2589857E-2,7.579E-1,8.329153E-4,6.304145E-4,7.5992825E-3,-1.1458397E-4,-6.545842E-4],"split_indices":[0,3,0,0,3,3,9,0,0,14,7,3,10,0,0,0,0,0,0,0,6,0,0,0,0,0,0,0,0],"split_type":[0,0,0,0,0,0,0,0,0,0,0,0,0,0,0,0,0,0,0,0,0,0,0,0,0,0,0,0,0],"sum_hessian":[6.6E1,3.3E1,3.3E1,1.7E1,1.6E1,2E1,1.3E1,1.1E1,6E0,1.1E1,5E0,8E0,1.2E1,1.2E1,1E0,1E1,1E0,3E0,2E0,1E0,7E0,7E0,5E0,2E0,1E0,1E0,6E0,1E0,1E0],"tree_param":{"num_deleted":"0","num_feature":"24","num_nodes":"29","size_leaf_vector":"1"}},{"base_weights":[4.1566618E-2,-3.7606874E-1,3.6777902E-1,-4.656445E-1,-8.272681E-2,1.9084762E-1,6.1455524E-1,-2.8703496E-2,-1.6372543E-2,6.2161684E-4,-6.6430094E-3,2.788042E-1,2.3047976E-2,5.1604332E-3,3.2185398E-2,-9.999116E-3,8.120954E-4,6.280112E-2,3.072046E-1,-6.484218E-2,1.0632853E-1,-1.1171699E-4,-6.3821673E-4,4.095429E-3,6.1465503E-4,1.7090937E-2,7.1934075E-3,-6.2434077E-3,-9.309322E-4,1.4754295E-3,5.9078187E-3],"categories":[],"categories_nodes":[],"categories_segments":[],"categories_sizes":[],"default_left":[0,0,0,0,0,0,0,0,0,0,0,0,0,0,0,0,0,0,0,0,0,0,0,0,0,0,0,0,0,0,0],"id":1,"left_children":[1,3,5,7,9,11,13,-1,-1,15,-1,17,19,-1,-1,21,-1,23,25,27,29,-1,-1,-1,-1,-1,-1,-1,-1,-1,-1],"loss_changes":[8.99377E0,7.234926E-1,1.4982247E0,1.4166212E-1,3.3510894E-2,3.330332E-1,1.5717125E-1,0E0,0E0,8.2600047E-4,0E0,7.272577E-2,7.277045E-2,0E0,0E0,3.5894016E-5,0E0,1.8883292E-3,2.4321914E-2,1.1548188E-2,1.0564402E-3,0E0,0E0,0E0,0E0,0E0,0E0,0E0,0E0,0E0,0E0],"parents":[2147483647,0,0,1,1,2,2,3,3,4,4,5,5,6,6,9,9,11,11,12,12,15,15,17,17,18,18,19,19,20,20],"right_children":[2,4,6,8,10,12,14,-1,-1,16,-1,18,20,-1,-1,22,-1,24,26,28,30,-1,-1,-1,-1,-1,-1,-1,-1,-1,-1],"split_conditions":[9.407E-1,9.31E-1,1.1667E0,6.738E-1,4.806E-1,1.1648E0,9.555E-1,-2.8703496E-2,-1.6372543E-2,8.658E-1,-6.6430094E-3,9.853E-1,1.0139329E3,5.1604332E-3,3.2185398E-2,7.579E-1,8.120954E-4,1.0259E0,7.771E-1,7.409E-1,8.744E-1,-1.1171699E-4,-6.3821673E-4,4.095429E-3,6.1465503E-4,1.7090937E-2,7.1934075E-3,-6.2434077E-3,-9.309322E-4,1.4754295E-3,5.9078187E-3],"split_indices":[0,1,0,0,7,6,1,0,0,0,0,1,13,0,0,0,0,0,6,1,1,0,0,0,0,0,0,0,0,0,0],"split_type":[0,0,0,0,0,0,0,0,0,0,0,0,0,0,0,0,0,0,0,0,0,0,0,0,0,0,0,0,0,0,0],"sum_hessian":[6.4E1,2.8E1,3.6E1,2.1E1,7E0,2.2E1,1.4E1,1E1,1.1E1,3E0,4E0,1.4E1,8E0,1E0,1.3E1,2E0,1E0,2E0,1.2E1,4E0,4E0,1E0,1E0,1E0,1E0,9E0,3E0,1E0,3E0,1E0,3E0],"tree_param":{"num_deleted":"0","num_feature":"24","num_nodes":"31","size_leaf_vector":"1"}},{"base_weights":[-3.490155E-2,-4.4089752E-1,3.1241566E-1,-2.8954199E-2,-2.514775E-1,1.3502844E-1,5.5618113E-1,-1.4896366E-2,-5.4141213E-3,2.1449517E-2,2.1842515E-1,2.8741155E-2,7.845891E-3,-2.9146502E-2,1.0463017E-1,-5.0694944E-4,2.4012543E-1,-3.7526686E-3,4.226923E-3,1.4385462E-3,6.016314E-3,1.30870715E-2,4.7617834E-3,-5.751451E-4,9.2738867E-4],"categories":[],"categories_nodes":[],"categories_segments":[],"categories_sizes":[],"default_left":[0,0,0,0,0,0,0,0,0,0,0,0,0,0,0,0,0,0,0,0,0,0,0,0,0],"id":2,"left_children":[1,3,5,-1,7,9,11,-1,-1,13,15,-1,-1,17,19,-1,21,-1,23,-1,-1,-1,-1,-1,-1],"loss_changes":[8.880325E0,6.1345625E-1,1.3950896E0,0E0,6.0859025E-2,1.9422922E-1,1.40028E-2,0E0,0E0,4.5135703E-2,6.1953485E-2,0E0,0E0,1.1041732E-2,1.3008788E-3,0E0,9.524167E-3,0E0,1.3396755E-3,0E0,0E0,0E0,0E0,0E0,0E0],"parents":[2147483647,0,0,1,1,2,2,4,4,5,5,6,6,9,9,10,10,13,13,14,14,16,16,18,18],"right_children":[2,4,6,-1,8,10,12,-1,-1,14,16,-1,-1,18,20,-1,22,-1,24,-1,-1,-1,-1,-1,-1],"split_conditions":[1.7407E0,1.3796E0,2.2764E0,-2.8954199E-2,1.6079E0,2.0463E0,1.8045E0,-1.4896366E-2,-5.4141213E-3,1.6066E0,1.0107607E3,2.8741155E-2,7.845891E-3,1.0121415E3,8.744E-1,-5.0694944E-4,2.0415E0,-3.7526686E-3,1.0116568E3,1.4385462E-3,6.016314E-3,1.30870715E-2,4.7617834E-3,-5.751451E-4,9.2738867E-4],"split_indices":[3,2,2,0,3,3,16,0,0,8,4,0,0,21,1,0,14,0,5,0,0,0,0,0,0],"split_type":[0,0,0,0,0,0,0,0,0,0,0,0,0,0,0,0,0,0,0,0,0,0,0,0,0],"sum_hessian":[6.1E1,2.8E1,3.3E1,1.5E1,1.3E1,2E1,1.3E1,9E0,4E0,9E0,1.1E1,1.2E1,1E0,6E0,3E0,1E0,1E1,2E0,4E0,1E0,2E0,8E0,2E0,2E0,2E0],"tree_param":{"num_deleted":"0","num_feature":"24","num_nodes":"25","size_leaf_vector":"1"}},{"base_weights":[2.656494E-2,-3.055271E-1,3.948182E-1,-2.6363108E-2,-1.3573448E-1,2.2073087E-1,2.7832134E-2,-2.0959423E-1,1.06533365E-2,6.5369226E-2,2.578027E-1,-2.36332E-1,-7.029796E-2,-3.608048E-2,7.809073E-2,3.7975253E-3,5.7610276E-4,2.869764E-1,7.103E-3,-1.2361185E-2,-2.6407898E-3,-4.394881E-3,-4.3747426E-4,-7.850965E-3,-4.8232496E-2,7.686079E-4,4.6936437E-3,1.5071963E-2,3.5586953E-3,-9.454489E-5,-4.942775E-4,-5.2844285E-4,-2.8632046E-3],"categories":[],"categories_nodes":[],"categories_segments":[],"categories_sizes":[],"default_left":[0,0,0,0,0,0,0,0,0,0,0,0,0,0,0,0,0,0,0,0,0,0,0,0,0,0,0,0,0,0,0,0,0],"id":3,"left_children":[1,3,5,-1,7,9,-1,11,13,15,17,19,21,23,25,-1,-1,27,-1,-1,-1,-1,-1,29,31,-1,-1,-1,-1,-1,-1,-1,-1],"loss_changes":[9.292676E0,1.4343913E0,8.913083E-1,0E0,2.6172492E-1,9.257889E-2,0E0,4.297787E-2,3.1182012E-2,1.9737538E-3,9.881794E-3,1.2927115E-2,3.5638716E-3,1.6796016E-3,2.5163032E-3,0E0,0E0,1.2877822E-2,0E0,0E0,0E0,0E0,0E0,1.7686223E-5,7.5543486E-4,0E0,0E0,0E0,0E0,0E0,0E0,0E0,0E0],"parents":[2147483647,0,0,1,1,2,2,4,4,5,5,7,7,8,8,9,9,10,10,11,11,12,12,13,13,14,14,17,17,23,23,24,24],"right_children":[2,4,6,-1,8,10,-1,12,14,16,18,20,22,24,26,-1,-1,28,-1,-1,-1,-1,-1,30,32,-1,-1,-1,-1,-1,-1,-1,-1],"split_conditions":[1.9525E0,1.424E0,2.2764E0,-2.6363108E-2,1.9352E0,1.952E0,2.7832134E-2,1.942E0,1.7029E0,2.1214E0,1.0140457E3,1.0147904E3,1.952E0,1.0120646E3,9.31E-1,3.7975253E-3,5.7610276E-4,4.5363E0,7.103E-3,-1.2361185E-2,-2.6407898E-3,-4.394881E-3,-4.3747426E-4,7.579E-1,1.9582E0,7.686079E-4,4.6936437E-3,1.5071963E-2,3.5586953E-3,-9.454489E-5,-4.942775E-4,-5.2844285E-4,-2.8632046E-3],"split_indices":[2,2,2,0,3,3,0,2,15,2,5,5,2,5,0,0,0,7,0,0,0,0,0,0,3,0,0,0,0,0,0,0,0],"split_type":[0,0,0,0,0,0,0,0,0,0,0,0,0,0,0,0,0,0,0,0,0,0,0,0,0,0,0,0,0,0,0,0,0],"sum_hessian":[7.4E1,3.9E1,3.5E1,1.6E1,2.3E1,1.8E1,1.7E1,1.5E1,8E0,4E0,1.4E1,1.2E1,3E0,5E0,3E0,3E0,1E0,1E1,4E0,1.1E1,1E0,2E0,1E0,2E0,3E0,1E0,2E0,9E0,1E0,1E0,1E0,1E0,2E0],"tree_param":{"num_deleted":"0","num_feature":"24","num_nodes":"33","size_leaf_vector":"1"}},{"base_weights":[-2.8757144E-2,-3.9995447E-1,2.8747952E-1,-5.3618246E-1,-2.1318656E-1,1.1793945E-1,5.0991964E-1,-2.8978972E-2,-1.4937763E-2,-2.756858E-1,-6.307355E-2,-2.9425276E-2,1.934609E-1,2.6220238E-2,6.953943E-3,-3.9319876E-3,-1.4376322E-2,-4.4268104E-3,-8.098841E-3,-4.7420147E-3,1.9088944E-2,6.827712E-2,2.441556E-1,-5.152345E-4,-9.217858E-5,-8.405964E-4,4.124236E-2,3.566265E-3,4.9870494E-3,1.2734613E-2,3.4697296E-3,2.3750225E-3,5.6170224E-4,-4.8192145E-4,7.493913E-4],"categories":[],"categories_nodes":[],"categories_segments":[],"categories_sizes":[],"default_left":[0,0,0,0,0,0,0,0,0,0,0,0,0,0,0,0,0,0,0,0,0,0,0,0,0,0,0,0,0,0,0,0,0,0,0],"id":4,"left_children":[1,3,5,7,9,11,13,-1,-1,15,17,19,21,-1,-1,-1,-1,-1,23,-1,25,27,29,-1,-1,-1,31,33,-1,-1,-1,-1,-1,-1,-1],"loss_changes":[8.684172E0,7.507558E-1,1.4483609E0,2.261591E-2,1.3272268E-1,2.7279338E-1,1.8384457E-2,0E0,0E0,3.0536056E-3,7.6817684E-3,3.0372426E-2,8.486825E-2,0E0,0E0,0E0,0E0,0E0,2.23971E-5,0E0,5.465326E-3,1.1860618E-2,2.58106E-3,0E0,0E0,0E0,2.1755649E-4,5.969138E-4,0E0,0E0,0E0,0E0,0E0,0E0,0E0],"parents":[2147483647,0,0,1,1,2,2,3,3,4,4,5,5,6,6,9,9,10,10,11,11,12,12,18,18,20,20,21,21,22,22,26,26,27,27],"right_children":[2,4,6,8,10,12,14,-1,-1,16,18,20,22,-1,-1,-1,-1,-1,24,-1,26,28,30,-1,-1,-1,32,34,-1,-1,-1,-1,-1,-1,-1],"split_conditions":[1.8078E0,1.3796E0,2.2764E0,7.333E-1,9.31E-1,9.954E-1,1.8045E0,-2.8978972E-2,-1.4937763E-2,1.0636E0,1.6618E0,1.9436E0,2.0322E0,2.6220238E-2,6.953943E-3,-3.9319876E-3,-1.4376322E-2,-4.4268104E-3,9.525E-1,-4.7420147E-3,1.013076E3,1.0123567E3,1.3805E0,-5.152345E-4,-9.217858E-5,-8.405964E-4,8.97E-1,1.1314E0,4.9870494E-3,1.2734613E-2,3.4697296E-3,2.3750225E-3,5.6170224E-4,-4.8192145E-4,7.493913E-4],"split_indices":[2,2,2,1,1,1,16,0,0,9,2,2,2,0,0,0,0,0,1,0,5,5,6,0,0,0,1,1,0,0,0,0,0,0,0],"split_type":[0,0,0,0,0,0,0,0,0,0,0,0,0,0,0,0,0,0,0,0,0,0,0,0,0,0,0,0,0,0,0,0,0,0,0],"sum_hessian":[7.2E1,3.3E1,3.9E1,1.8E1,1.5E1,2.3E1,1.6E1,1.4E1,4E0,1E1,5E0,8E0,1.5E1,1.5E1,1E0,1E0,9E0,3E0,2E0,3E0,5E0,5E0,1E1,1E0,1E0,2E0,3E0,2E0,3E0,9E0,1E0,2E0,1E0,1E0,1E0],"tree_param":{"num_deleted":"0","num_feature":"24","num_nodes":"35","size_leaf_vector":"1"}},{"base_weights":[-3.555276E-2,-3.4629723E-1,3.0065978E-1,-5.1168466E-1,-1.9461644E-1,1.2313776E-1,4.9106547E-1,-2.7626613E-2,-1.4340249E-2,-2.4759644E-1,-6.4329356E-2,9.7169345E-3,1.9218773E-1,2.5199926E-2,6.780094E-3,-4.1985274E-3,-1.3248684E-2,-5.1581096E-3,2.940297E-4,-3.4005165E-2,7.287085E-2,5.476594E-4,1.0318893E-2,1.2482643E-3,-8.1257423E-4,-1.0621011E-2,-2.6924491E-3,4.3709516E-3,7.306576E-4,-8.9871886E-5,-6.4815284E-4],"categories":[],"categories_nodes":[],"categories_segments":[],"categories_sizes":[],"default_left":[0,0,0,0,0,0,0,0,0,0,0,0,0,0,0,0,0,0,0,0,0,0,0,0,0,0,0,0,0,0,0],"id":5,"left_children":[1,3,5,7,9,11,13,-1,-1,15,17,19,21,-1,-1,-1,-1,-1,23,25,27,-1,-1,-1,-1,29,-1,-1,-1,-1,-1],"loss_changes":[8.253261E0,9.289479E-1,1.2239773E0,1.6060352E-2,1.4283234E-1,1.6259837E-1,1.4406681E-2,0E0,0E0,2.3243845E-2,2.0106405E-2,2.7328983E-2,3.1172127E-2,0E0,0E0,0E0,0E0,0E0,2.0385175E-3,2.2122553E-3,2.1127053E-3,0E0,0E0,0E0,0E0,5.936058E-5,0E0,0E0,0E0,0E0,0E0],"parents":[2147483647,0,0,1,1,2,2,3,3,4,4,5,5,6,6,9,9,10,10,11,11,12,12,18,18,19,19,20,20,25,25],"right_children":[2,4,6,8,10,12,14,-1,-1,16,18,20,22,-1,-1,-1,-1,-1,24,26,28,-1,-1,-1,-1,30,-1,-1,-1,-1,-1],"split_conditions":[1.942E0,1.3796E0,2.2764E0,7.333E-1,1.8078E0,1.9352E0,1.8045E0,-2.7626613E-2,-1.4340249E-2,1.1086E0,1.952E0,1.7029E0,1.9436E0,2.5199926E-2,6.780094E-3,-4.1985274E-3,-1.3248684E-2,-5.1581096E-3,8.744E-1,1.5176E0,1.9004E0,5.476594E-4,1.0318893E-2,1.2482643E-3,-8.1257423E-4,1.6684E0,-2.6924491E-3,4.3709516E-3,7.306576E-4,-8.9871886E-5,-6.4815284E-4],"split_indices":[3,2,2,1,2,2,16,0,0,9,2,15,3,0,0,0,0,0,1,14,2,0,0,0,0,2,0,0,0,0,0],"split_type":[0,0,0,0,0,0,0,0,0,0,0,0,0,0,0,0,0,0,0,0,0,0,0,0,0,0,0,0,0,0,0],"sum_hessian":[7.7E1,4E1,3.7E1,1.8E1,2.2E1,2E1,1.7E1,1.4E1,4E0,1.5E1,7E0,8E0,1.2E1,1.6E1,1E0,2E0,1.3E1,4E0,3E0,5E0,3E0,1E0,1.1E1,1E0,2E0,3E0,2E0,2E0,1E0,1E0,2E0],"tree_param":{"num_deleted":"0","num_feature":"24","num_nodes":"31","size_leaf_vector":"1"}},{"base_weights":[2.624226E-2,-2.7945644E-1,3.3116913E-1,-2.509748E-2,-1.1782022E-1,1.8495539E-1,5.040428E-1,-2.0537774E-1,-9.691715E-4,1.0196981E-1,1.4834377E-2,1.6160823E-2,2.943404E-2,-1.1597317E-2,-4.712698E-3,-5.8677435E-2,4.7282577E-2,2.2461176E-2,8.345567E-3,-4.037003E-3,-8.527835E-4,3.4718127E-3,1.9834836E-3,-1.7859638E-2,5.7166696E-2,-3.8520695E-4,5.339682E-4,-8.762479E-5,-1.132226E-3,7.123888E-4,3.3361872E-3],"categories":[],"categories_nodes":[],"categories_segments":[],"categories_sizes":[],"default_left":[0,0,0,0,0,0,0,0,0,0,0,0,0,0,0,0,0,0,0,0,0,0,0,0,0,0,0,0,0,0,0],"id":6,"left_children":[1,3,5,-1,7,9,11,13,15,17,-1,-1,-1,-1,-1,19,21,23,-1,-1,-1,-1,25,27,29,-1,-1,-1,-1,-1,-1],"loss_changes":[6.3380017E0,1.1636007E0,7.66176E-1,0E0,2.1465594E-1,1.5518999E-1,3.930044E-2,1.3566971E-2,3.0619668E-2,6.3375324E-2,0E0,0E0,0E0,0E0,0E0,3.21435E-3,5.8835214E-3,1.08164605E-2,0E0,0E0,0E0,0E0,3.3500252E-4,2.6859867E-4,6.9004763E-4,0E0,0E0,0E0,0E0,0E0,0E0],"parents":[2147483647,0,0,1,1,2,2,4,4,5,5,6,6,7,7,8,8,9,9,15,15,16,16,17,17,22,22,23,23,24,24],"right_children":[2,4,6,-1,8,10,12,14,16,18,-1,-1,-1,-1,-1,20,22,24,-1,-1,-1,-1,26,28,30,-1,-1,-1,-1,-1,-1],"split_conditions":[9.954E-1,7.058E-1,1.1667E0,-2.509748E-2,1.3911E0,3.1246E0,1.2257E0,9.31E-1,1.5415E0,5.561E-1,1.4834377E-2,1.6160823E-2,2.943404E-2,-1.1597317E-2,-4.712698E-3,8.444E-1,9.486E-1,2.8939E0,8.345567E-3,-4.037003E-3,-8.527835E-4,3.4718127E-3,9.555E-1,7.579E-1,9.31E-1,-3.8520695E-4,5.339682E-4,-8.762479E-5,-1.132226E-3,7.123888E-4,3.3361872E-3],"split_indices":[1,1,0,0,9,11,0,1,17,22,0,0,0,0,0,1,1,11,0,0,0,0,0,0,0,0,0,0,0,0,0],"split_type":[0,0,0,0,0,0,0,0,0,0,0,0,0,0,0,0,0,0,0,0,0,0,0,0,0,0,0,0,0,0,0],"sum_hessian":[6.6E1,3.3E1,3.3E1,1.3E1,2E1,1.9E1,1.4E1,1.1E1,9E0,1.2E1,7E0,6E0,8E0,8E0,3E0,4E0,5E0,6E0,6E0,2E0,2E0,3E0,2E0,3E0,3E0,1E0,1E0,1E0,2E0,1E0,2E0],"tree_param":{"num_deleted":"0","num_feature":"24","num_nodes":"31","size_leaf_vector":"1"}},{"base_weights":[-3.6201414E-2,-3.249408E-1,2.7171546E-1,-2.2959307E-2,-1.9478993E-1,1.3909124E-1,2.0637508E-2,-1.1498899E-1,-2.4237342E-1,1.0689455E-2,4.0639028E-2,-6.5615247E-3,-1.9381245E-3,-3.4387887E-3,-1.264278E-2,6.6729398E-3,-2.8013984E-2,-4.425317E-3,1.7857552E-3,1.7958641E-3,-7.8632234E-4],"categories":[],"categories_nodes":[],"categories_segments":[],"categories_sizes":[],"default_left":[0,0,0,0,0,0,0,0,0,0,0,0,0,0,0,0,0,0,0,0,0],"id":7,"left_children":[1,3,5,-1,7,9,-1,11,13,-1,15,-1,-1,-1,-1,-1,17,-1,19,-1,-1],"loss_changes":[5.867294E0,5.0460815E-1,5.411377E-1,0E0,4.4276714E-2,1.2368688E-1,0E0,6.0554743E-3,2.6261806E-3,0E0,6.1089925E-2,0E0,0E0,0E0,0E0,0E0,1.097399E-2,0E0,3.5534422E-3,0E0,0E0],"parents":[2147483647,0,0,1,1,2,2,4,4,5,5,7,7,8,8,10,10,16,16,18,18],"right_children":[2,4,6,-1,8,10,-1,12,14,-1,16,-1,-1,-1,-1,-1,18,-1,20,-1,-1],"split_conditions":[9.486E-1,1.3796E0,2.2764E0,-2.2959307E-2,1.0125536E3,1.142E0,2.0637508E-2,1.8192E0,2.2538E0,1.0689455E-2,1.0109805E3,-6.5615247E-3,-1.9381245E-3,-3.4387887E-3,-1.264278E-2,6.6729398E-3,7.409E-1,-4.425317E-3,1.9004E0,1.7958641E-3,-7.8632234E-4],"split_indices":[0,2,2,0,20,6,0,14,10,0,12,0,0,0,0,0,1,0,2,0,0],"split_type":[0,0,0,0,0,0,0,0,0,0,0,0,0,0,0,0,0,0,0,0,0],"sum_hessian":[6.4E1,3.3E1,3.1E1,1.5E1,1.8E1,1.7E1,1.4E1,8E0,1E1,9E0,8E0,6E0,2E0,1E0,9E0,3E0,5E0,1E0,4E0,1E0,3E0],"tree_param":{"num_deleted":"0","num_feature":"24","num_nodes":"21","size_leaf_vector":"1"}},{"base_weights":[-1.9601995E-2,-2.7675477E-1,2.5372982E-1,-4.0243486E-1,-1.200091E-1,6.320238E-2,3.338199E-1,-2.2248508E-2,-1.1805668E-2,-9.139138E-3,-2.6540875E-2,-2.0865727E-2,5.711106E-3,2.5736654E-1,2.5377164E-2,-5.6135338E-2,2.0747504E-3,-2.3636261E-3,1.2496312E-2,2.5337934E-4,2.7190956E-1,-3.6561668E-3,-7.386446E-4,7.860661E-5,8.5861684E-4,1.4306359E-2,5.5092457E-3],"categories":[],"categories_nodes":[],"categories_segments":[],"categories_sizes":[],"default_left":[0,0,0,0,0,0,0,0,0,0,0,0,0,0,0,0,0,0,0,0,0,0,0,0,0,0,0],"id":8,"left_children":[1,3,5,7,9,11,13,-1,-1,-1,15,17,-1,19,-1,21,-1,-1,23,-1,25,-1,-1,-1,-1,-1,-1],"loss_changes":[4.7795186E0,6.411977E-1,4.8246074E-1,2.9352665E-2,9.489365E-2,4.9563784E-2,1.74855E-1,0E0,0E0,0E0,1.8437218E-2,4.9956553E-3,0E0,6.466758E-2,0E0,3.1357463E-3,0E0,0E0,1.2624802E-4,0E0,7.561922E-3,0E0,0E0,0E0,0E0,0E0,0E0],"parents":[2147483647,0,0,1,1,2,2,3,3,4,4,5,5,6,6,10,10,11,11,13,13,15,15,18,18,20,20],"right_children":[2,4,6,8,10,12,14,-1,-1,-1,16,18,-1,20,-1,22,-1,-1,24,-1,26,-1,-1,-1,-1,-1,-1],"split_conditions":[1.942E0,1.5184E0,1.0479E0,7.431E-1,1.4503E0,9.31E-1,1.2257E0,-2.2248508E-2,-1.1805668E-2,-9.139138E-3,1.0140319E3,1.0121415E3,5.711106E-3,1.9436E0,2.5377164E-2,8.914E-1,2.0747504E-3,-2.3636261E-3,7.579E-1,2.5337934E-4,1.0159531E3,-3.6561668E-3,-7.386446E-4,7.860661E-5,8.5861684E-4,1.4306359E-2,5.5092457E-3],"split_indices":[3,3,0,0,8,0,0,0,0,0,13,21,0,3,0,1,0,0,0,0,5,0,0,0,0,0,0],"split_type":[0,0,0,0,0,0,0,0,0,0,0,0,0,0,0,0,0,0,0,0,0,0,0,0,0,0,0],"sum_hessian":[6.6E1,3.4E1,3.2E1,1.8E1,1.6E1,1E1,2.2E1,1.3E1,5E0,9E0,7E0,4E0,6E0,1.7E1,5E0,5E0,2E0,2E0,2E0,1E0,1.6E1,3E0,2E0,1E0,1E0,1.4E1,2E0],"tree_param":{"num_deleted":"0","num_feature":"24","num_nodes":"27","size_leaf_vector":"1"}},{"base_weights":[-1.8221734E-2,-3.014846E-1,2.4315782E-1,-4.3932086E-1,-1.6228987E-1,1.33146E-1,3.8610244E-1,-5.973792E-3,-2.2592196E-2,-1.8434268E-1,-3.3506155E-2,-1.2876868E-2,1.7442329E-1,5.366135E-3,1.9876646E-2,-1.9249628E-1,-1.5509665E-3,7.6639655E-5,-2.2848367E-3,-3.2766223E-2,1.793456E-2,1.9357693E-1,1.4129479E-2,-1.8488109E-3,-1.00481855E-2,-3.374517E-4,-1.959447E-3,1.0980488E-3,2.4704338E-4,2.2007193E-1,5.636998E-3,1.6081929E-3,-5.4848194E-4,3.8116933E-3,1.2178275E-2],"categories":[],"categories_nodes":[],"categories_segments":[],"categories_sizes":[],"default_left":[0,0,0,0,0,0,0,0,0,0,0,0,0,0,0,0,0,0,0,0,0,0,0,0,0,0,0,0,0,0,0,0,0,0,0],"id":9,"left_children":[1,3,5,7,9,11,13,-1,-1,15,17,19,21,-1,-1,23,-1,-1,-1,25,27,29,31,-1,-1,-1,-1,-1,-1,33,-1,-1,-1,-1,-1],"loss_changes":[5.4041257E0,6.0021544E-1,5.4616475E-1,1.4107943E-2,4.778427E-2,1.4087683E-1,8.321047E-3,0E0,0E0,1.4031112E-2,1.778624E-3,4.2645643E-3,5.252862E-2,0E0,0E0,1.2321889E-2,0E0,0E0,0E0,4.0391646E-4,4.8447633E-5,9.457529E-3,1.7107669E-3,0E0,0E0,0E0,0E0,0E0,0E0,1.86041E-2,0E0,0E0,0E0,0E0,0E0],"parents":[2147483647,0,0,1,1,2,2,3,3,4,4,5,5,6,6,9,9,10,10,11,11,12,12,15,15,19,19,20,20,21,21,22,22,29,29],"right_children":[2,4,6,8,10,12,14,-1,-1,16,18,20,22,-1,-1,24,-1,-1,-1,26,28,30,32,-1,-1,-1,-1,-1,-1,34,-1,-1,-1,-1,-1],"split_conditions":[9.486E-1,7.333E-1,2.2764E0,1.0098736E3,1.9352E0,1.9436E0,1.525E-1,-5.973792E-3,-2.2592196E-2,1.0164551E3,7.579E-1,1.0132401E3,2.3804E0,5.366135E-3,1.9876646E-2,1.0636E0,-1.5509665E-3,7.6639655E-5,-2.2848367E-3,9.555E-1,1.0207E0,1.0140457E3,9.693E-1,-1.8488109E-3,-1.00481855E-2,-3.374517E-4,-1.959447E-3,1.0980488E-3,2.4704338E-4,2.1052E0,5.636998E-3,1.6081929E-3,-5.4848194E-4,3.8116933E-3,1.2178275E-2],"split_indices":[0,1,2,13,3,3,6,0,0,4,0,5,6,0,0,8,0,0,0,0,0,5,0,0,0,0,0,0,0,3,0,0,0,0,0],"split_type":[0,0,0,0,0,0,0,0,0,0,0,0,0,0,0,0,0,0,0,0,0,0,0,0,0,0,0,0,0,0,0,0,0,0,0],"sum_hessian":[7.1E1,3.4E1,3.7E1,1.6E1,1.8E1,2.2E1,1.5E1,1E0,1.5E1,1.5E1,3E0,5E0,1.7E1,1E0,1.4E1,1.4E1,1E0,1E0,2E0,3E0,2E0,1.5E1,2E0,1E0,1.3E1,1E0,2E0,1E0,1E0,1E1,5E0,1E0,1E0,2E0,8E0],"tree_param":{"num_deleted":"0","num_feature":"24","num_nodes":"35","size_leaf_vector":"1"}},{"base_weights":[5.4646465E-3,-2.2167313E-1,2.843635E-1,-1.9479755E-2,-1.17800824E-1,1.7851716E-1,2.151909E-2,-1.886614E-1,-2.1526208E-2,3.6331177E-2,2.1819943E-1,-2.1158585E-1,-3.3495785E-3,-5.6546476E-2,4.5815516E-2,-5.916357E-3,2.9467016E-3,2.253161E-1,2.6083172E-3,-4.315861E-3,-1.1325748E-2,-1.0095179E-2,-7.8089595E-2,6.261712E-2,-5.347729E-4,2.4086834E-4,-6.8459514E-4,2.6742697E-3,1.166029E-2,2.8121472E-5,-1.0517001E-3,-4.553769E-3,-3.2901764E-4,8.9427235E-4,3.5782934E-3],"categories":[],"categories_nodes":[],"categories_segments":[],"categories_sizes":[],"default_left":[0,0,0,0,0,0,0,0,0,0,0,0,0,0,0,0,0,0,0,0,0,0,0,0,0,0,0,0,0,0,0,0,0,0,0],"id":10,"left_children":[1,3,5,-1,7,9,-1,11,13,15,17,19,-1,21,23,25,-1,27,-1,-1,-1,29,31,33,-1,-1,-1,-1,-1,-1,-1,-1,-1,-1,-1],"loss_changes":[4.9408674E0,7.041304E-1,4.641118E-1,0E0,1.8695688E-1,1.16202354E-1,0E0,3.0452967E-2,3.3248935E-2,6.078164E-3,8.333385E-3,4.7597885E-3,0E0,8.218024E-3,5.4170936E-3,3.1634056E-4,0E0,9.2179775E-3,0E0,0E0,0E0,4.7815687E-4,4.9723126E-3,3.211815E-4,0E0,0E0,0E0,0E0,0E0,0E0,0E0,0E0,0E0,0E0,0E0],"parents":[2147483647,0,0,1,1,2,2,4,4,5,5,7,7,8,8,9,9,10,10,11,11,13,13,14,14,15,15,17,17,21,21,22,22,23,23],"right_children":[2,4,6,-1,8,10,-1,12,14,16,18,20,-1,22,24,26,-1,28,-1,-1,-1,30,32,34,-1,-1,-1,-1,-1,-1,-1,-1,-1,-1,-1],"split_conditions":[1.9525E0,1.3796E0,2.3653E0,-1.9479755E-2,9.31E-1,9.853E-1,2.151909E-2,1.8078E0,1.0479E0,1.0120322E3,1.3805E0,2.2833E0,-3.3495785E-3,5.859E-1,9.693E-1,1.1137E0,2.9467016E-3,1.0081515E3,2.6083172E-3,-4.315861E-3,-1.1325748E-2,1.0337E0,9.257E-1,9.31E-1,-5.347729E-4,2.4086834E-4,-6.8459514E-4,2.6742697E-3,1.166029E-2,2.8121472E-5,-1.0517001E-3,-4.553769E-3,-3.2901764E-4,8.9427235E-4,3.5782934E-3],"split_indices":[2,2,2,0,1,1,0,2,1,4,6,10,0,6,0,0,0,13,0,0,0,1,0,0,0,0,0,0,0,0,0,0,0,0,0],"split_type":[0,0,0,0,0,0,0,0,0,0,0,0,0,0,0,0,0,0,0,0,0,0,0,0,0,0,0,0,0,0,0,0,0,0,0],"sum_hessian":[7.6E1,4.2E1,3.4E1,1.5E1,2.7E1,2.1E1,1.3E1,1.5E1,1.2E1,5E0,1.6E1,1.2E1,3E0,8E0,4E0,2E0,3E0,1.5E1,1E0,2E0,1E1,3E0,5E0,3E0,1E0,1E0,1E0,1E0,1.4E1,2E0,1E0,4E0,1E0,1E0,2E0],"tree_param":{"num_deleted":"0","num_feature":"24","num_nodes":"35","size_leaf_vector":"1"}},{"base_weights":[2.4913486E-2,-1.8813789E-1,3.1057176E-1,-3.391044E-1,-6.8374045E-2,1.5501998E-1,4.2726886E-1,-2.0471096E-2,-1.15554305E-2,-1.11270316E-1,4.557034E-2,2.6512574E-3,1.905154E-1,2.4387864E-2,1.3990918E-2,-1.3587008E-1,-2.5056839E-2,1.9480229E-3,5.1542046E-3,2.6074112E-3,1.0004764E-2,-1.4243108E-1,-1.4284551E-3,5.436738E-4,-2.1152536E-3,-6.588499E-4,1.6423702E-2,-7.4619227E-3,-1.6887486E-3,7.402301E-5,-3.324747E-5,9.969295E-4,2.3484827E-4],"categories":[],"categories_nodes":[],"categories_segments":[],"categories_sizes":[],"default_left":[0,0,0,0,0,0,0,0,0,0,0,0,0,0,0,0,0,0,0,0,0,0,0,0,0,0,0,0,0,0,0,0,0],"id":11,"left_children":[1,3,5,7,9,11,13,-1,-1,15,17,-1,19,-1,-1,21,23,25,-1,-1,-1,27,-1,29,-1,-1,31,-1,-1,-1,-1,-1,-1],"loss_changes":[4.136043E0,6.8194675E-1,4.6018553E-1,3.4477115E-2,1.1748979E-1,4.0582776E-2,6.221056E-3,0E0,0E0,3.2649666E-2,1.7361373E-2,0E0,2.8207898E-3,0E0,0E0,5.0828904E-3,2.230818E-3,1.3111398E-3,0E0,0E0,0E0,3.8354099E-3,0E0,4.3810965E-6,0E0,0E0,3.0003546E-5,0E0,0E0,0E0,0E0,0E0,0E0],"parents":[2147483647,0,0,1,1,2,2,3,3,4,4,5,5,6,6,9,9,10,10,12,12,15,15,16,16,17,17,21,21,23,23,26,26],"right_children":[2,4,6,8,10,12,14,-1,-1,16,18,-1,20,-1,-1,22,24,26,-1,-1,-1,28,-1,30,-1,-1,32,-1,-1,-1,-1,-1,-1],"split_conditions":[1.0479E0,1.5184E0,2.356E0,6.738E-1,1.952E0,2.179E0,3.1183E0,-2.0471096E-2,-1.15554305E-2,1.9352E0,1.1479E0,2.6512574E-3,1.0081515E3,2.4387864E-2,1.3990918E-2,1.0150991E3,4.806E-1,1.013076E3,5.1542046E-3,2.6074112E-3,1.0004764E-2,2.4168E0,-1.4284551E-3,7.579E-1,-2.1152536E-3,-6.588499E-4,1.0207E0,-7.4619227E-3,-1.6887486E-3,7.402301E-5,-3.324747E-5,9.969295E-4,2.3484827E-4],"split_indices":[1,3,2,0,2,3,18,0,0,3,0,0,13,0,0,4,7,5,0,0,0,6,0,0,0,0,0,0,0,0,0,0,0],"split_type":[0,0,0,0,0,0,0,0,0,0,0,0,0,0,0,0,0,0,0,0,0,0,0,0,0,0,0,0,0,0,0,0,0],"sum_hessian":[6.6E1,3.8E1,2.8E1,1.6E1,2.2E1,1.3E1,1.5E1,8E0,8E0,1.6E1,6E0,4E0,9E0,9E0,6E0,1.2E1,4E0,4E0,2E0,1E0,8E0,1.1E1,1E0,2E0,2E0,2E0,2E0,1E1,1E0,1E0,1E0,1E0,1E0],"tree_param":{"num_deleted":"0","num_feature":"24","num_nodes":"33","size_leaf_vector":"1"}},{"base_weights":[1.654709E-2,-2.4202722E-1,2.4593128E-1,-1.9367786E-2,-1.4745727E-1,1.0937692E-1,3.7640914E-1,-1.8409494E-1,-2.5180617E-2,-3.0131722E-2,1.48588E-1,3.9040998E-1,3.4598769E-3,-1.1597696E-1,-1.1209463E-2,-4.4813775E-2,1.8246294E-3,7.2175266E-5,-1.9193202E-3,2.2897721E-4,1.5854721E-1,2.3338689E-2,1.3533364E-2,-1.24586545E-1,-1.392746E-3,-3.0975898E-3,-6.368915E-4,1.6639775E-1,1.4122546E-3,-6.718705E-3,-1.6465307E-3,8.920039E-3,3.3460378E-3],"categories":[],"categories_nodes":[],"categories_segments":[],"categories_sizes":[],"default_left":[0,0,0,0,0,0,0,0,0,0,0,0,0,0,0,0,0,0,0,0,0,0,0,0,0,0,0,0,0,0,0,0,0],"id":12,"left_children":[1,3,5,-1,7,9,11,13,15,17,19,21,-1,23,-1,25,-1,-1,-1,-1,27,-1,-1,29,-1,-1,-1,31,-1,-1,-1,-1,-1],"loss_changes":[4.033484E0,3.826803E-1,6.002531E-1,0E0,8.944291E-2,1.0841262E-1,5.0406456E-2,1.7697513E-2,8.90041E-3,1.3586283E-3,2.078709E-2,2.9107809E-2,0E0,2.5992095E-3,0E0,1.959459E-3,0E0,0E0,0E0,0E0,9.621233E-3,0E0,0E0,1.8545836E-3,0E0,0E0,0E0,3.58361E-3,0E0,0E0,0E0,0E0,0E0],"parents":[2147483647,0,0,1,1,2,2,4,4,5,5,6,6,7,7,8,8,9,9,10,10,11,11,13,13,15,15,20,20,23,23,27,27],"right_children":[2,4,6,-1,8,10,12,14,16,18,20,22,-1,24,-1,26,-1,-1,-1,-1,28,-1,-1,30,-1,-1,-1,32,-1,-1,-1,-1,-1],"split_conditions":[1.942E0,1.3466E0,1.1479E0,-1.9367786E-2,1.4956E0,1.3651E0,1.0151574E3,6.062E-1,1.0160015E3,1.0116568E3,1.9436E0,1.58E0,3.4598769E-3,1.0140872E3,-1.1209463E-2,8.444E-1,1.8246294E-3,7.2175266E-5,-1.9193202E-3,2.2897721E-4,1.0162494E3,2.3338689E-2,1.3533364E-2,1.0140872E3,-1.392746E-3,-3.0975898E-3,-6.368915E-4,1.1315E0,1.4122546E-3,-6.718705E-3,-1.6465307E-3,8.920039E-3,3.3460378E-3],"split_indices":[3,3,1,0,8,8,4,23,5,5,3,9,0,4,0,1,0,0,0,0,13,0,0,5,0,0,0,1,0,0,0,0,0],"split_type":[0,0,0,0,0,0,0,0,0,0,0,0,0,0,0,0,0,0,0,0,0,0,0,0,0,0,0,0,0,0,0,0,0],"sum_hessian":[6.6E1,3.1E1,3.5E1,1.1E1,2E1,1.8E1,1.7E1,1.5E1,5E0,4E0,1.4E1,1.6E1,1E0,7E0,8E0,4E0,1E0,1E0,3E0,1E0,1.3E1,8E0,8E0,6E0,1E0,2E0,2E0,1.2E1,1E0,5E0,1E0,1E1,2E0],"tree_param":{"num_deleted":"0","num_feature":"24","num_nodes":"33","size_leaf_vector":"1"}},{"base_weights":[3.1190112E-3,-1.9757542E-1,2.639178E-1,-1.862867E-2,-1.0599952E-1,1.9143519E-1,2.1965781E-2,-1.4077117E-1,1.3458184E-2,2.4713601E-1,1.2957793E-1,-7.687945E-2,-1.7417534E-1,4.9724936E-2,-2.6173115E-2,1.2860511E-2,3.6598444E-3,5.985723E-2,9.039375E-3,7.036924E-5,-8.6841226E-2,-2.5541784E-4,-1.8783855E-1,2.221644E-4,3.166886E-3,-1.5526057E-3,-2.8840304E-4,2.2325516E-4,6.834507E-2,-9.245455E-4,-4.6981997E-3,-9.916854E-3,-1.8088699E-3,3.7055325E-3,9.879292E-4],"categories":[],"categories_nodes":[],"categories_segments":[],"categories_sizes":[],"default_left":[0,0,0,0,0,0,0,0,0,0,0,0,0,0,0,0,0,0,0,0,0,0,0,0,0,0,0,0,0,0,0,0,0,0,0],"id":13,"left_children":[1,3,5,-1,7,9,-1,11,13,15,17,19,21,23,25,-1,-1,27,-1,-1,29,-1,31,-1,-1,-1,-1,-1,33,-1,-1,-1,-1,-1,-1],"loss_changes":[3.6113222E0,5.8550584E-1,2.9729843E-1,0E0,1.1404547E-1,4.722315E-2,0E0,3.1428784E-2,1.1362546E-2,4.4828653E-4,3.5593346E-2,7.141102E-3,2.9070437E-2,2.1842094E-3,2.1911436E-4,0E0,0E0,2.9859468E-3,0E0,0E0,2.157271E-3,0E0,1.1931241E-2,0E0,0E0,0E0,0E0,0E0,2.1645427E-4,0E0,0E0,0E0,0E0,0E0,0E0],"parents":[2147483647,0,0,1,1,2,2,4,4,5,5,7,7,8,8,9,9,10,10,11,11,12,12,13,13,14,14,17,17,20,20,22,22,28,28],"right_children":[2,4,6,-1,8,10,-1,12,14,16,18,20,22,24,26,-1,-1,28,-1,-1,30,-1,32,-1,-1,-1,-1,-1,34,-1,-1,-1,-1,-1,-1],"split_conditions":[1.9525E0,1.3372E0,1.2257E0,-1.862867E-2,2.0027E0,1.0133958E3,2.1965781E-2,1.0125536E3,1.142E0,1.0156348E3,2.2089E0,1.0116568E3,1.079E-1,9.31E-1,1.9352E0,1.2860511E-2,3.6598444E-3,1.0100713E3,9.039375E-3,7.036924E-5,1.0104106E3,-2.5541784E-4,1.8078E0,2.221644E-4,3.166886E-3,-1.5526057E-3,-2.8840304E-4,2.2325516E-4,3.1814E0,-9.245455E-4,-4.6981997E-3,-9.916854E-3,-1.8088699E-3,3.7055325E-3,9.879292E-4],"split_indices":[2,2,0,0,6,5,0,20,7,4,2,5,7,0,2,0,0,4,0,0,4,0,2,0,0,0,0,0,6,0,0,0,0,0,0],"split_type":[0,0,0,0,0,0,0,0,0,0,0,0,0,0,0,0,0,0,0,0,0,0,0,0,0,0,0,0,0,0,0,0,0,0,0],"sum_hessian":[6.7E1,3.8E1,2.9E1,1.2E1,2.6E1,2.2E1,7E0,2E1,6E0,1E1,1.2E1,8E0,1.2E1,3E0,3E0,9E0,1E0,6E0,6E0,1E0,7E0,1E0,1.1E1,1E0,2E0,2E0,1E0,1E0,5E0,1E0,6E0,1E1,1E0,4E0,1E0],"tree_param":{"num_deleted":"0","num_feature":"24","num_nodes":"35","size_leaf_vector":"1"}},{"base_weights":[-7.5768214E-3,-2.3754412E-1,2.1048632E-1,-1.8535754E-2,-1.3594829E-1,1.0556917E-1,3.2119596E-1,-1.5623817E-1,-5.5842996E-3,-2.1533927E-2,1.4663476E-1,3.2942058E-3,1.6616939E-2,-2.4113932E-3,-1.6610833E-1,-2.0288786E-2,9.6322893E-4,1.9014678E-4,-1.7576546E-3,2.1767616E-4,1.5582994E-1,-1.7671256E-1,-2.8858862E-3,-1.240468E-3,-2.8119088E-4,9.528273E-3,4.4454285E-3,-9.320258E-3,-3.7903588E-3],"categories":[],"categories_nodes":[],"categories_segments":[],"categories_sizes":[],"default_left":[0,0,0,0,0,0,0,0,0,0,0,0,0,0,0,0,0,0,0,0,0,0,0,0,0,0,0,0,0],"id":14,"left_children":[1,3,5,-1,7,9,11,13,15,17,19,-1,-1,-1,21,23,-1,-1,-1,-1,25,27,-1,-1,-1,-1,-1,-1,-1],"loss_changes":[3.7107594E0,4.3666792E-1,4.0747452E-1,0E0,5.7318985E-2,1.1276843E-1,2.9312253E-2,1.2244433E-2,1.8524148E-3,2.2040864E-3,2.0254433E-2,0E0,0E0,0E0,9.340376E-3,5.935901E-5,0E0,0E0,0E0,0E0,1.7925292E-2,5.3966045E-4,0E0,0E0,0E0,0E0,0E0,0E0,0E0],"parents":[2147483647,0,0,1,1,2,2,4,4,5,5,6,6,7,7,8,8,9,9,10,10,14,14,15,15,20,20,21,21],"right_children":[2,4,6,-1,8,10,12,14,16,18,20,-1,-1,-1,22,24,-1,-1,-1,-1,26,28,-1,-1,-1,-1,-1,-1,-1],"split_conditions":[1.9123E0,1.3466E0,1.1519E0,-1.8535754E-2,1.5948E0,1.3903E0,9.578E-1,1.1086E0,9.555E-1,4.806E-1,1.9436E0,3.2942058E-3,1.6616939E-2,-2.4113932E-3,1.4956E0,8.97E-1,9.6322893E-4,1.9014678E-4,-1.7576546E-3,2.1767616E-4,1.1201E0,2.2748E0,-2.8858862E-3,-1.240468E-3,-2.8119088E-4,9.528273E-3,4.4454285E-3,-9.320258E-3,-3.7903588E-3],"split_indices":[3,3,1,0,16,8,0,9,0,7,3,0,0,0,8,0,0,0,0,0,1,7,0,0,0,0,0,0,0],"split_type":[0,0,0,0,0,0,0,0,0,0,0,0,0,0,0,0,0,0,0,0,0,0,0,0,0,0,0,0,0],"sum_hessian":[7.2E1,3.5E1,3.7E1,1.4E1,2.1E1,2E1,1.7E1,1.8E1,3E0,5E0,1.5E1,1E0,1.6E1,2E0,1.6E1,2E0,1E0,2E0,3E0,1E0,1.4E1,1.4E1,2E0,1E0,1E0,8E0,6E0,1.2E1,2E0],"tree_param":{"num_deleted":"0","num_feature":"24","num_nodes":"29","size_leaf_vector":"1"}},{"base_weights":[1.1374818E-3,-1.973063E-1,2.4164094E-1,-3.1885895E-1,-7.2146356E-2,1.4471363E-1,1.8142423E-2,-1.7544279E-2,-7.630096E-3,-1.0954683E-1,2.3227632E-3,3.913927E-2,1.6866101E-1,-1.2787734E-1,-3.1751215E-2,-1.5482903E-3,4.3352783E-2,2.3400874E-3,2.1223426E-4,1.7659432E-1,1.241535E-3,-2.3310145E-3,-7.0377216E-3,-1.933972E-3,-2.741635E-4,6.385446E-5,2.8476159E-3,4.4424753E-3,2.004243E-1,1.0450141E-2,2.865982E-3],"categories":[],"categories_nodes":[],"categories_segments":[],"categories_sizes":[],"default_left":[0,0,0,0,0,0,0,0,0,0,0,0,0,0,0,0,0,0,0,0,0,0,0,0,0,0,0,0,0,0,0],"id":15,"left_children":[1,3,5,7,9,11,-1,-1,-1,13,15,17,19,21,23,-1,25,-1,-1,27,-1,-1,-1,-1,-1,-1,-1,-1,29,-1,-1],"loss_changes":[3.4839795E0,5.855365E-1,3.351854E-1,5.2947283E-2,5.8743253E-2,4.3963283E-2,0E0,0E0,0E0,1.5904203E-2,1.2269098E-2,1.1382354E-3,1.3871878E-2,4.947886E-3,5.158712E-4,0E0,2.2161058E-3,0E0,0E0,1.3556719E-2,0E0,0E0,0E0,0E0,0E0,0E0,0E0,0E0,1.5239418E-3,0E0,0E0],"parents":[2147483647,0,0,1,1,2,2,3,3,4,4,5,5,9,9,10,10,11,11,12,12,13,13,14,14,16,16,19,19,28,28],"right_children":[2,4,6,8,10,12,-1,-1,-1,14,16,18,20,22,24,-1,26,-1,-1,28,-1,-1,-1,-1,-1,-1,-1,-1,30,-1,-1],"split_conditions":[1.9525E0,1.5184E0,2.3653E0,7.431E-1,1.9352E0,1.952E0,1.8142423E-2,-1.7544279E-2,-7.630096E-3,1.4503E0,1.0121415E3,9.486E-1,4.0269E0,1.1086E0,8.914E-1,-1.5482903E-3,7.579E-1,2.3400874E-3,2.1223426E-4,3.479E-1,1.241535E-3,-2.3310145E-3,-7.0377216E-3,-1.933972E-3,-2.741635E-4,6.385446E-5,2.8476159E-3,4.4424753E-3,1.0157602E3,1.0450141E-2,2.865982E-3],"split_indices":[2,3,2,0,3,3,0,0,0,8,21,1,14,9,1,0,0,0,0,14,0,0,0,0,0,0,0,0,5,0,0],"split_type":[0,0,0,0,0,0,0,0,0,0,0,0,0,0,0,0,0,0,0,0,0,0,0,0,0,0,0,0,0,0,0],"sum_hessian":[7.1E1,3.9E1,3.2E1,1.9E1,2E1,1.9E1,1.3E1,1.5E1,4E0,1.3E1,7E0,4E0,1.5E1,1E1,3E0,4E0,3E0,3E0,1E0,1.4E1,1E0,2E0,8E0,2E0,1E0,1E0,2E0,4E0,1E1,9E0,1E0],"tree_param":{"num_deleted":"0","num_feature":"24","num_nodes":"31","size_leaf_vector":"1"}},{"base_weights":[1.599397E-2,-1.3040088E-1,2.3228285E-1,-2.7519768E-1,-6.598838E-2,1.1412486E-1,3.3384922E-1,-5.7857516E-3,-1.4776135E-2,-1.1082359E-1,-2.2816842E-3,2.0692944E-4,1.2226699E-1,1.2346302E-2,2.2046285E-2,-5.6235738E-2,-7.6548853E-3,5.082631E-2,-4.182747E-2,6.8826936E-3,2.6616515E-3,-1.2050569E-2,-3.8159948E-3,1.4066101E-4,2.9933143E-3,-2.9929439E-3,8.177836E-3,6.225705E-5,-8.44876E-4,-2.6730896E-4,8.806467E-4],"categories":[],"categories_nodes":[],"categories_segments":[],"categories_sizes":[],"default_left":[0,0,0,0,0,0,0,0,0,0,0,0,0,0,0,0,0,0,0,0,0,0,0,0,0,0,0,0,0,0,0],"id":16,"left_children":[1,3,5,7,9,11,13,-1,-1,15,17,-1,19,-1,-1,21,-1,23,25,-1,-1,27,-1,-1,-1,-1,29,-1,-1,-1,-1],"loss_changes":[2.120086E0,3.5490906E-1,2.8592312E-1,4.7014356E-3,8.257994E-2,1.2031317E-2,2.1427989E-2,0E0,0E0,3.0620545E-2,2.9428503E-2,0E0,6.4810812E-3,0E0,0E0,7.067101E-3,0E0,2.4358062E-3,7.7028433E-3,0E0,0E0,2.7881446E-4,0E0,0E0,0E0,0E0,4.7696312E-4,0E0,0E0,0E0,0E0],"parents":[2147483647,0,0,1,1,2,2,3,3,4,4,5,5,6,6,9,9,10,10,12,12,15,15,17,17,18,18,21,21,26,26],"right_children":[2,4,6,8,10,12,14,-1,-1,16,18,-1,20,-1,-1,22,-1,24,26,-1,-1,28,-1,-1,-1,-1,30,-1,-1,-1,-1],"split_conditions":[2.1052E0,1.424E0,2.3653E0,7.941E-1,1.7848E0,1.0100713E3,1.3104E0,-5.7857516E-3,-1.4776135E-2,1.2059E0,1.3E0,2.0692944E-4,1.0132265E3,1.2346302E-2,2.2046285E-2,5.859E-1,-7.6548853E-3,9.31E-1,1.0586E0,6.8826936E-3,2.6616515E-3,7.579E-1,-3.8159948E-3,1.4066101E-4,2.9933143E-3,-2.9929439E-3,9.555E-1,6.225705E-5,-8.44876E-4,-2.6730896E-4,8.806467E-4],"split_indices":[2,2,2,6,2,4,0,0,0,16,16,0,13,0,0,6,0,0,15,0,0,0,0,0,0,0,0,0,0,0,0],"split_type":[0,0,0,0,0,0,0,0,0,0,0,0,0,0,0,0,0,0,0,0,0,0,0,0,0,0,0,0,0,0,0],"sum_hessian":[6.5E1,3.9E1,2.6E1,1.1E1,2.8E1,1.3E1,1.3E1,2E0,9E0,1.6E1,1.2E1,1E0,1.2E1,9E0,4E0,8E0,8E0,5E0,7E0,9E0,3E0,3E0,5E0,1E0,4E0,5E0,2E0,1E0,2E0,1E0,1E0],"tree_param":{"num_deleted":"0","num_feature":"24","num_nodes":"31","size_leaf_vector":"1"}},{"base_weights":[1.9508039E-3,-1.6954055E-1,2.1210308E-1,-2.862992E-1,-8.950221E-2,1.5969379E-1,1.8448936E-2,-1.765658E-2,-1.0125373E-2,-1.20728984E-1,-3.3711813E-2,-1.1613369E-3,1.7373168E-1,-1.3677955E-1,-3.0635977E-3,-3.231597E-3,-1.1227199E-2,8.586288E-4,-9.45729E-4,1.23909965E-1,1.0840906E-2,-1.8365801E-3,-7.1555595E-3,-1.7300844E-2,1.3189713E-4,7.67458E-3,7.662691E-2,-9.5098914E-4,-2.6062728E-4,1.1356652E-3,4.091348E-3],"categories":[],"categories_nodes":[],"categories_segments":[],"categories_sizes":[],"default_left":[0,0,0,0,0,0,0,0,0,0,0,0,0,0,0,0,0,0,0,0,0,0,0,0,0,0,0,0,0,0,0],"id":17,"left_children":[1,3,5,7,9,11,-1,-1,-1,13,15,17,19,21,-1,-1,23,-1,-1,25,-1,-1,-1,27,-1,-1,29,-1,-1,-1,-1],"loss_changes":[2.4866326E0,3.294921E-1,1.9595027E-1,1.2488246E-2,3.774169E-2,5.665344E-2,0E0,0E0,0E0,5.9340447E-3,6.2266365E-3,1.3012711E-3,2.2506833E-2,1.7114133E-3,0E0,0E0,6.3512224E-4,0E0,0E0,6.4216405E-3,0E0,0E0,0E0,4.7537033E-6,0E0,0E0,1.0391697E-4,0E0,0E0,0E0,0E0],"parents":[2147483647,0,0,1,1,2,2,3,3,4,4,5,5,9,9,10,10,11,11,12,12,13,13,16,16,19,19,23,23,26,26],"right_children":[2,4,6,8,10,12,-1,-1,-1,14,16,18,20,22,-1,-1,24,-1,-1,26,-1,-1,-1,28,-1,-1,30,-1,-1,-1,-1],"split_conditions":[1.9525E0,1.3796E0,1.2634E0,6.373E-1,9.31E-1,9.407E-1,1.8448936E-2,-1.765658E-2,-1.0125373E-2,1.8078E0,1.5485E0,1.0207E0,1.1479E0,1.0636E0,-3.0635977E-3,-3.231597E-3,1.011676E3,8.586288E-4,-9.45729E-4,1.1201E0,1.0840906E-2,-1.8365801E-3,-7.1555595E-3,1.9352E0,1.3189713E-4,7.67458E-3,9.537E-1,-9.5098914E-4,-2.6062728E-4,1.1356652E-3,4.091348E-3],"split_indices":[2,2,0,0,1,1,0,0,0,2,2,0,1,9,0,0,21,0,0,1,0,0,0,2,0,0,0,0,0,0,0],"split_type":[0,0,0,0,0,0,0,0,0,0,0,0,0,0,0,0,0,0,0,0,0,0,0,0,0,0,0,0,0,0,0],"sum_hessian":[6.7E1,3.7E1,3E1,1.4E1,2.3E1,2.4E1,6E0,6E0,8E0,1.4E1,9E0,2E0,2.2E1,1E1,4E0,3E0,6E0,1E0,1E0,1.2E1,1E1,1E0,9E0,4E0,2E0,6E0,6E0,3E0,1E0,1E0,5E0],"tree_param":{"num_deleted":"0","num_feature":"24","num_nodes":"31","size_leaf_vector":"1"}},{"base_weights":[7.407369E-3,-1.7156887E-1,1.9158266E-1,-2.5219288E-1,-7.610995E-2,9.2293136E-2,2.7960262E-1,-1.4962584E-2,-8.594197E-3,-9.411335E-2,5.9294105E-3,-9.886121E-3,1.24493375E-1,9.943261E-3,3.6653242E-1,-4.937808E-2,-5.673991E-3,8.371651E-4,-3.256321E-3,1.275023E-4,-9.513457E-4,1.3450186E-3,1.3979207E-1,1.9746331E-2,4.9041808E-3,-2.8012325E-3,-4.0363075E-4,9.888411E-6,-2.541125E-4,8.621477E-3,3.3070613E-3],"categories":[],"categories_nodes":[],"categories_segments":[],"categories_sizes":[],"default_left":[0,0,0,0,0,0,0,0,0,0,0,0,0,0,0,0,0,0,0,0,0,0,0,0,0,0,0,0,0,0,0],"id":18,"left_children":[1,3,5,7,9,11,13,-1,-1,15,17,19,21,-1,23,25,-1,-1,27,-1,-1,-1,29,-1,-1,-1,-1,-1,-1,-1,-1],"loss_changes":[2.2084277E0,2.424792E-1,2.6259673E-1,1.658976E-2,2.566681E-2,5.7164118E-2,4.6423674E-2,0E0,0E0,6.5256804E-3,4.518556E-4,6.169017E-4,1.5649125E-2,0E0,1.46209E-2,1.1949725E-3,0E0,0E0,1.9925868E-5,0E0,0E0,0E0,1.5036851E-2,0E0,0E0,0E0,0E0,0E0,0E0,0E0,0E0],"parents":[2147483647,0,0,1,1,2,2,3,3,4,4,5,5,6,6,9,9,10,10,11,11,12,12,14,14,15,15,18,18,22,22],"right_children":[2,4,6,8,10,12,14,-1,-1,16,18,20,22,-1,24,26,-1,-1,28,-1,-1,-1,30,-1,-1,-1,-1,-1,-1,-1,-1],"split_conditions":[2.0248E0,1.5184E0,1.1519E0,2.4622E0,1.5415E0,1.3903E0,1.2634E0,-1.4962584E-2,-8.594197E-3,7.264E-1,8.744E-1,2.0463E0,1.1692E0,9.943261E-3,1.0151574E3,1.8191E0,-5.673991E-3,8.371651E-4,9.853E-1,1.275023E-4,-9.513457E-4,1.3450186E-3,1.1201E0,1.9746331E-2,4.9041808E-3,-2.8012325E-3,-4.0363075E-4,9.888411E-6,-2.541125E-4,8.621477E-3,3.3070613E-3],"split_indices":[3,3,1,19,17,8,1,0,0,14,1,3,16,0,4,3,0,0,1,0,0,0,1,0,0,0,0,0,0,0,0],"split_type":[0,0,0,0,0,0,0,0,0,0,0,0,0,0,0,0,0,0,0,0,0,0,0,0,0,0,0,0,0,0,0],"sum_hessian":[6.5E1,3.3E1,3.2E1,1.7E1,1.6E1,1.6E1,1.6E1,9E0,8E0,1.3E1,3E0,4E0,1.2E1,1E1,6E0,5E0,8E0,1E0,2E0,2E0,2E0,2E0,1E1,5E0,1E0,4E0,1E0,1E0,1E0,6E0,4E0],"tree_param":{"num_deleted":"0","num_feature":"24","num_nodes":"31","size_leaf_vector":"1"}},{"base_weights":[-3.7486476E-3,-1.6102369E-1,2.2625905E-1,-2.8973374E-1,-7.387059E-2,1.5399049E-1,1.8480724E-2,-1.636426E-2,-8.942952E-3,-1.1731442E-1,-1.1862928E-2,3.0580282E-2,1.7521864E-1,-1.4080916E-1,-3.1259954E-3,1.848088E-2,-5.1971674E-2,-9.119928E-4,2.6466807E-3,1.0736525E-3,1.840368E-1,-1.7206371E-3,-7.4903565E-3,-3.6513805E-3,2.4603845E-3,-2.933553E-3,-6.293535E-4,1.8839538E-3,9.5899785E-3,-4.275322E-4,1.2325049E-4],"categories":[],"categories_nodes":[],"categories_segments":[],"categories_sizes":[],"default_left":[0,0,0,0,0,0,0,0,0,0,0,0,0,0,0,0,0,0,0,0,0,0,0,0,0,0,0,0,0,0,0],"id":19,"left_children":[1,3,5,7,9,11,-1,-1,-1,13,15,17,19,21,-1,23,25,-1,-1,-1,27,-1,-1,29,-1,-1,-1,-1,-1,-1,-1],"loss_changes":[2.3154247E0,4.048614E-1,2.1244514E-1,3.9145947E-3,6.3260704E-2,4.441738E-2,0E0,0E0,0E0,9.220004E-3,1.4348054E-2,5.330672E-3,1.774028E-2,3.460884E-3,0E0,4.9400516E-3,5.8076624E-4,0E0,0E0,0E0,9.815276E-3,0E0,0E0,1.7090645E-4,0E0,0E0,0E0,0E0,0E0,0E0,0E0],"parents":[2147483647,0,0,1,1,2,2,3,3,4,4,5,5,9,9,10,10,11,11,12,12,13,13,15,15,16,16,20,20,23,23],"right_children":[2,4,6,8,10,12,-1,-1,-1,14,16,18,20,22,-1,24,26,-1,-1,-1,28,-1,-1,30,-1,-1,-1,-1,-1,-1,-1],"split_conditions":[1.9525E0,7.333E-1,1.2634E0,1.156E0,9.31E-1,1.0207E0,1.8480724E-2,-1.636426E-2,-8.942952E-3,8.914E-1,1.3539E0,2.1052E0,9.537E-1,1.0636E0,-3.1259954E-3,9.555E-1,7.803E-1,-9.119928E-4,2.6466807E-3,1.0736525E-3,1.0081515E3,-1.7206371E-3,-7.4903565E-3,9.954E-1,2.4603845E-3,-2.933553E-3,-6.293535E-4,1.8839538E-3,9.5899785E-3,-4.275322E-4,1.2325049E-4],"split_indices":[2,1,0,8,1,1,0,0,0,0,7,2,0,9,0,0,0,0,0,0,13,0,0,1,0,0,0,0,0,0,0],"split_type":[0,0,0,0,0,0,0,0,0,0,0,0,0,0,0,0,0,0,0,0,0,0,0,0,0,0,0,0,0,0,0],"sum_hessian":[6.2E1,3.7E1,2.5E1,1.4E1,2.3E1,1.8E1,7E0,9E0,5E0,1.3E1,1E1,3E0,1.5E1,8E0,5E0,6E0,4E0,1E0,2E0,1E0,1.4E1,1E0,7E0,4E0,2E0,3E0,1E0,1E0,1.3E1,2E0,2E0],"tree_param":{"num_deleted":"0","num_feature":"24","num_nodes":"31","size_leaf_vector":"1"}},{"base_weights":[2.4979673E-2,-1.3970871E-1,1.9354886E-1,-2.4062353E-1,-7.502053E-2,1.375544E-1,1.7312419E-2,-1.279557E-2,-4.9632112E-3,-1.0059014E-1,1.845332E-2,9.09176E-2,9.608018E-3,-5.272776E-2,-1.24115884E-1,-7.995546E-3,2.3783685E-3,1.4443278E-2,1.0627329E-1,-3.8285257E-4,-2.9036284E-3,-1.3201083E-1,-9.317875E-4,5.1134826E-5,-5.6712626E-4,1.5556812E-3,-8.89194E-4,6.4514205E-3,3.2542774E-3,-7.150614E-3,-2.7501425E-3],"categories":[],"categories_nodes":[],"categories_segments":[],"categories_sizes":[],"default_left":[0,0,0,0,0,0,0,0,0,0,0,0,0,0,0,0,0,0,0,0,0,0,0,0,0,0,0,0,0,0,0],"id":20,"left_children":[1,3,5,7,9,11,-1,-1,-1,13,15,17,-1,19,21,23,-1,25,27,-1,-1,29,-1,-1,-1,-1,-1,-1,-1,-1,-1],"loss_changes":[2.02586E0,2.2348416E-1,2.601837E-1,4.852295E-3,5.9218377E-2,5.3835332E-2,0E0,0E0,0E0,1.4849603E-2,5.000528E-3,1.842846E-2,0E0,1.4824886E-3,7.533014E-3,1.3233547E-4,0E0,2.7022727E-3,4.7233403E-3,0E0,0E0,1.4531165E-3,0E0,0E0,0E0,0E0,0E0,0E0,0E0,0E0,0E0],"parents":[2147483647,0,0,1,1,2,2,3,3,4,4,5,5,9,9,10,10,11,11,13,13,14,14,15,15,17,17,18,18,21,21],"right_children":[2,4,6,8,10,12,-1,-1,-1,14,16,18,-1,20,22,24,-1,26,28,-1,-1,30,-1,-1,-1,-1,-1,-1,-1,-1,-1],"split_conditions":[1.9525E0,7.161E-1,1.2634E0,1.6079E0,9.693E-1,1.1479E0,1.7312419E-2,-1.279557E-2,-4.9632112E-3,1.0126392E3,1.013076E3,9.407E-1,9.608018E-3,1.079E-1,1.8078E0,7.579E-1,2.3783685E-3,1.1315E0,1.1201E0,-3.8285257E-4,-2.9036284E-3,1.8966E0,-9.317875E-4,5.1134826E-5,-5.6712626E-4,1.5556812E-3,-8.89194E-4,6.4514205E-3,3.2542774E-3,-7.150614E-3,-2.7501425E-3],"split_indices":[2,1,0,2,1,1,0,0,0,21,5,1,0,7,2,0,0,0,1,0,0,7,0,0,0,0,0,0,0,0,0],"split_type":[0,0,0,0,0,0,0,0,0,0,0,0,0,0,0,0,0,0,0,0,0,0,0,0,0,0,0,0,0,0,0],"sum_hessian":[7.1E1,3.6E1,3.5E1,1.3E1,2.3E1,2.7E1,8E0,1.1E1,2E0,1.8E1,5E0,1.6E1,1.1E1,7E0,1.1E1,3E0,2E0,3E0,1.3E1,1E0,6E0,1E1,1E0,1E0,2E0,2E0,1E0,7E0,6E0,8E0,2E0],"tree_param":{"num_deleted":"0","num_feature":"24","num_nodes":"31","size_leaf_vector":"1"}},{"base_weights":[8.8003175E-3,-1.354544E-1,1.6590242E-1,-2.0732965E-1,-6.0232878E-2,9.970976E-2,2.7343044E-1,-1.0726637E-2,-2.1219254E-3,-8.770578E-2,1.390938E-2,1.8033942E-2,1.2267124E-1,3.3338964E-3,2.861645E-1,-1.0833207E-1,-2.5801745E-3,-1.3622224E-2,2.2990862E-3,-1.4463584E-2,1.89493E-3,1.813972E-3,1.3177152E-1,4.202414E-3,1.4898564E-2,-1.6050279E-3,-5.7318243E-3,4.9859285E-5,-9.4138784E-4,-2.1780729E-4,-8.669615E-4,3.4088416E-3,1.5675119E-1,2.2797883E-3,8.20178E-3],"categories":[],"categories_nodes":[],"categories_segments":[],"categories_sizes":[],"default_left":[0,0,0,0,0,0,0,0,0,0,0,0,0,0,0,0,0,0,0,0,0,0,0,0,0,0,0,0,0,0,0,0,0,0,0],"id":21,"left_children":[1,3,5,7,9,11,13,-1,-1,15,17,19,21,-1,23,25,-1,27,-1,29,-1,-1,31,-1,-1,-1,-1,-1,-1,-1,-1,-1,33,-1,-1],"loss_changes":[1.563537E0,1.8214834E-1,2.0761591E-1,1.2274563E-2,3.9921083E-2,3.9046526E-2,1.2512684E-2,0E0,0E0,4.8348755E-3,5.924392E-3,4.421463E-3,8.584619E-3,0E0,1.205802E-3,1.6486645E-4,0E0,3.231819E-4,0E0,1.1664059E-5,0E0,0E0,1.3141811E-2,0E0,0E0,0E0,0E0,0E0,0E0,0E0,0E0,0E0,6.1768293E-4,0E0,0E0],"parents":[2147483647,0,0,1,1,2,2,3,3,4,4,5,5,6,6,9,9,10,10,11,11,12,12,14,14,15,15,17,17,19,19,22,22,32,32],"right_children":[2,4,6,8,10,12,14,-1,-1,16,18,20,22,-1,24,26,-1,28,-1,30,-1,-1,32,-1,-1,-1,-1,-1,-1,-1,-1,-1,34,-1,-1],"split_conditions":[1.952E0,1.5616E0,1.1844E0,9.133E-1,2.0248E0,1.952E0,1.0081515E3,-1.0726637E-2,-2.1219254E-3,1.5221E0,1.0621E0,1.0120322E3,2.8994E0,3.3338964E-3,5.61E-2,7.744E-1,-2.5801745E-3,7.579E-1,2.2990862E-3,1.1137E0,1.89493E-3,1.813972E-3,1.0124373E3,4.202414E-3,1.4898564E-2,-1.6050279E-3,-5.7318243E-3,4.9859285E-5,-9.4138784E-4,-2.1780729E-4,-8.669615E-4,3.4088416E-3,9.555E-1,2.2797883E-3,8.20178E-3],"split_indices":[2,3,1,0,3,3,12,0,0,2,15,4,10,0,15,1,0,0,0,0,0,0,12,0,0,0,0,0,0,0,0,0,1,0,0],"split_type":[0,0,0,0,0,0,0,0,0,0,0,0,0,0,0,0,0,0,0,0,0,0,0,0,0,0,0,0,0,0,0,0,0,0,0],"sum_hessian":[6.7E1,3.5E1,3.2E1,1.7E1,1.8E1,2.1E1,1.1E1,1.6E1,1E0,1.3E1,5E0,5E0,1.6E1,1E0,1E1,7E0,6E0,3E0,2E0,2E0,3E0,2E0,1.4E1,1E0,9E0,1E0,6E0,1E0,2E0,1E0,1E0,5E0,9E0,1E0,8E0],"tree_param":{"num_deleted":"0","num_feature":"24","num_nodes":"35","size_leaf_vector":"1"}},{"base_weights":[-6.3160504E-3,-1.3854179E-1,1.7460299E-1,-2.7784023E-1,-7.820435E-2,9.310171E-2,2.4989748E-1,-1.640372E-2,-8.64635E-3,-1.2411612E-1,-2.4018161E-2,9.454966E-3,1.20196044E-1,1.4251724E-2,7.484311E-3,-1.3013989E-1,-8.4398984E-4,-4.419819E-2,2.5181532E-2,1.4930129E-3,-1.4101982E-2,3.2548762E-3,6.9804057E-3,-6.9120447E-3,-2.5827806E-3,-3.1076192E-3,-1.8877625E-2,-2.4797916E-3,4.4449013E-2,-2.1235943E-4,-8.4528927E-4,-1.7344157E-4,-1.2857408E-3,8.428097E-5,-2.7026536E-4,2.635497E-3,6.98179E-4],"categories":[],"categories_nodes":[],"categories_segments":[],"categories_sizes":[],"default_left":[0,0,0,0,0,0,0,0,0,0,0,0,0,0,0,0,0,0,0,0,0,0,0,0,0,0,0,0,0,0,0,0,0,0,0,0,0],"id":22,"left_children":[1,3,5,7,9,11,13,-1,-1,15,17,19,21,-1,-1,23,-1,25,27,-1,29,-1,-1,-1,-1,-1,31,33,35,-1,-1,-1,-1,-1,-1,-1,-1],"loss_changes":[1.6987404E0,3.2287306E-1,1.6083205E-1,6.509781E-3,7.165249E-2,3.5125196E-2,1.0151088E-2,0E0,0E0,8.138731E-3,1.6005745E-2,2.8245207E-3,3.7467778E-3,0E0,0E0,2.3961067E-3,0E0,3.8274247E-3,2.7750442E-3,0E0,1.1090597E-5,0E0,0E0,0E0,0E0,0E0,5.429168E-4,4.566921E-5,1.9494444E-5,0E0,0E0,0E0,0E0,0E0,0E0,0E0,0E0],"parents":[2147483647,0,0,1,1,2,2,3,3,4,4,5,5,6,6,9,9,10,10,11,11,12,12,15,15,17,17,18,18,20,20,26,26,27,27,28,28],"right_children":[2,4,6,8,10,12,14,-1,-1,16,18,20,22,-1,-1,24,-1,26,28,-1,30,-1,-1,-1,-1,-1,32,34,36,-1,-1,-1,-1,-1,-1,-1,-1],"split_conditions":[1.9525E0,1.2795E0,2.2485E0,2.2446E0,1.7085E0,1.952E0,1.0133467E3,-1.640372E-2,-8.64635E-3,1.0164551E3,1.7404E0,1.0259E0,4.861E-1,1.4251724E-2,7.484311E-3,1.9676E0,-8.4398984E-4,4.883E-1,9.555E-1,1.4930129E-3,1.1137E0,3.2548762E-3,6.9804057E-3,-6.9120447E-3,-2.5827806E-3,-3.1076192E-3,4.806E-1,9.31E-1,9.578E-1,-2.1235943E-4,-8.4528927E-4,-1.7344157E-4,-1.2857408E-3,8.428097E-5,-2.7026536E-4,2.635497E-3,6.98179E-4],"split_indices":[2,2,3,11,3,3,21,0,0,4,15,0,14,0,0,7,0,23,0,0,0,0,0,0,0,0,7,0,0,0,0,0,0,0,0,0,0],"split_type":[0,0,0,0,0,0,0,0,0,0,0,0,0,0,0,0,0,0,0,0,0,0,0,0,0,0,0,0,0,0,0,0,0,0,0,0,0],"sum_hessian":[6.9E1,4E1,2.9E1,1.1E1,2.9E1,1.5E1,1.4E1,6E0,5E0,1.5E1,1.4E1,4E0,1.1E1,9E0,5E0,1.4E1,1E0,1E1,4E0,2E0,2E0,4E0,7E0,1.2E1,2E0,5E0,5E0,2E0,2E0,1E0,1E0,2E0,3E0,1E0,1E0,1E0,1E0],"tree_param":{"num_deleted":"0","num_feature":"24","num_nodes":"37","size_leaf_vector":"1"}},{"base_weights":[-3.0449545E-3,-1.2670232E-1,1.554862E-1,-2.3605673E-1,-6.1257195E-2,9.928412E-2,1.2687764E-2,-1.4731183E-2,-8.213809E-3,-1.020758E-1,-1.6063077E-2,5.28224E-2,1.2738666E-1,-5.8261133E-3,-2.6383854E-3,-3.476434E-2,2.4552058E-2,-8.241594E-4,6.2354486E-2,3.3996725E-3,1.4622882E-1,-3.353278E-3,-4.2197943E-2,-2.4177234E-3,4.3337822E-2,1.0750294E-3,3.5477758E-3,2.0719827E-3,7.7073756E-3,5.2946805E-5,-3.0444266E-4,-2.3796202E-3,-8.6715224E-4,8.217693E-5,-2.6350617E-4,2.56961E-3,6.807268E-4],"categories":[],"categories_nodes":[],"categories_segments":[],"categories_sizes":[],"default_left":[0,0,0,0,0,0,0,0,0,0,0,0,0,0,0,0,0,0,0,0,0,0,0,0,0,0,0,0,0,0,0,0,0,0,0,0,0],"id":23,"left_children":[1,3,5,7,9,11,-1,-1,-1,13,15,17,19,-1,-1,21,23,-1,25,-1,27,29,31,33,35,-1,-1,-1,-1,-1,-1,-1,-1,-1,-1,-1,-1],"loss_changes":[1.4311557E0,2.7896506E-1,1.5153986E-1,1.4659882E-2,4.816889E-2,2.199635E-2,0E0,0E0,0E0,3.8239807E-3,1.1487296E-2,7.6340716E-3,4.605666E-3,0E0,0E0,2.1934723E-3,2.6380185E-3,0E0,1.6368814E-3,0E0,1.0803044E-3,4.265753E-5,2.4723262E-4,4.3414686E-5,1.85268E-5,0E0,0E0,0E0,0E0,0E0,0E0,0E0,0E0,0E0,0E0,0E0,0E0],"parents":[2147483647,0,0,1,1,2,2,3,3,4,4,5,5,9,9,10,10,11,11,12,12,15,15,16,16,18,18,20,20,21,21,22,22,23,23,24,24],"right_children":[2,4,6,8,10,12,-1,-1,-1,14,16,18,20,-1,-1,22,24,-1,26,-1,28,30,32,34,36,-1,-1,-1,-1,-1,-1,-1,-1,-1,-1,-1,-1],"split_conditions":[1.9525E0,1.3796E0,2.3653E0,2.2375E0,1.6605E0,2.179E0,1.2687764E-2,-1.4731183E-2,-8.213809E-3,2.2748E0,1.7029E0,1.0105485E3,1.367E-1,-5.8261133E-3,-2.6383854E-3,4.806E-1,9.555E-1,-8.241594E-4,3.1993E0,3.3996725E-3,1.0100713E3,7.579E-1,9.537E-1,9.31E-1,9.578E-1,1.0750294E-3,3.5477758E-3,2.0719827E-3,7.7073756E-3,5.2946805E-5,-3.0444266E-4,-2.3796202E-3,-8.6715224E-4,8.217693E-5,-2.6350617E-4,2.56961E-3,6.807268E-4],"split_indices":[2,3,2,19,2,3,0,0,0,7,15,5,15,0,0,7,0,0,10,0,5,0,1,0,0,0,0,0,0,0,0,0,0,0,0,0,0],"split_type":[0,0,0,0,0,0,0,0,0,0,0,0,0,0,0,0,0,0,0,0,0,0,0,0,0,0,0,0,0,0,0,0,0,0,0,0,0],"sum_hessian":[7.1E1,4E1,3.1E1,1.4E1,2.6E1,2.1E1,1E1,6E0,8E0,1.3E1,1.3E1,9E0,1.2E1,9E0,4E0,9E0,4E0,1E0,8E0,4E0,8E0,2E0,7E0,2E0,2E0,2E0,6E0,1E0,7E0,1E0,1E0,5E0,2E0,1E0,1E0,1E0,1E0],"tree_param":{"num_deleted":"0","num_feature":"24","num_nodes":"37","size_leaf_vector":"1"}},{"base_weights":[-7.340133E-3,-1.5019417E-1,1.4006524E-1,-1.2265525E-2,-8.716207E-2,8.543262E-2,2.2855295E-1,-1.1111307E-1,-3.135869E-2,5.0683055E-2,1.3990897E-1,7.2528343E-3,1.3373539E-2,-1.2032309E-1,-1.7082653E-3,-4.91725E-2,-1.2517571E-3,-6.916523E-4,6.1672688E-2,2.7597547E-3,7.947388E-3,-1.5428066E-3,-6.260366E-3,-3.042384E-3,-1.0553241E-3,8.782943E-5,-2.5691986E-4,3.5716153E-3,1.0927737E-3],"categories":[],"categories_nodes":[],"categories_segments":[],"categories_sizes":[],"default_left":[0,0,0,0,0,0,0,0,0,0,0,0,0,0,0,0,0,0,0,0,0,0,0,0,0,0,0,0,0],"id":24,"left_children":[1,3,5,-1,7,9,11,13,15,17,19,-1,-1,21,-1,23,25,-1,27,-1,-1,-1,-1,-1,-1,-1,-1,-1,-1],"loss_changes":[1.410829E0,1.824612E-1,1.400066E-1,0E0,2.591966E-2,3.4555614E-2,1.9550323E-4,6.5194666E-3,4.229001E-3,1.1488248E-2,4.129648E-3,0E0,0E0,1.8173158E-3,0E0,3.5410002E-4,5.5795477E-5,0E0,3.4906194E-3,0E0,0E0,0E0,0E0,0E0,0E0,0E0,0E0,0E0,0E0],"parents":[2147483647,0,0,1,1,2,2,4,4,5,5,6,6,7,7,8,8,9,9,10,10,13,13,15,15,16,16,18,18],"right_children":[2,4,6,-1,8,10,12,14,16,18,20,-1,-1,22,-1,24,26,-1,28,-1,-1,-1,-1,-1,-1,-1,-1,-1,-1],"split_conditions":[1.9525E0,1.3466E0,2.3653E0,-1.2265525E-2,1.7407E0,2.2485E0,1.2634E0,8.914E-1,1.6618E0,4.691E-1,1.813E-1,7.2528343E-3,1.3373539E-2,2.2538E0,-1.7082653E-3,1.5221E0,9.31E-1,-6.916523E-4,2.0415E0,2.7597547E-3,7.947388E-3,-1.5428066E-3,-6.260366E-3,-3.042384E-3,-1.0553241E-3,8.782943E-5,-2.5691986E-4,3.5716153E-3,1.0927737E-3],"split_indices":[2,3,2,0,3,3,0,0,2,23,14,0,0,11,0,2,0,0,14,0,0,0,0,0,0,0,0,0,0],"split_type":[0,0,0,0,0,0,0,0,0,0,0,0,0,0,0,0,0,0,0,0,0,0,0,0,0,0,0,0,0],"sum_hessian":[6.5E1,3.3E1,3.2E1,1.2E1,2.1E1,2.1E1,1.1E1,1.4E1,7E0,1.4E1,7E0,5E0,6E0,1.2E1,2E0,4E0,3E0,2E0,1.2E1,2E0,5E0,1E0,1.1E1,2E0,2E0,2E0,1E0,9E0,3E0],"tree_param":{"num_deleted":"0","num_feature":"24","num_nodes":"29","size_leaf_vector":"1"}},{"base_weights":[-2.5974256E-3,-1.4086029E-1,1.3189696E-1,-2.207554E-1,-7.7084735E-2,4.998513E-2,2.025557E-1,-1.3785391E-2,-7.6743118E-3,-9.177895E-2,-2.5052706E-2,-5.3272545E-3,8.566821E-2,7.5548254E-3,1.4443392E-2,-1.06671005E-1,-4.9180347E-2,-1.6453892E-3,-3.1141838E-4,-1.2771756E-3,1.1911201E-2,2.2078871E-3,5.6450325E-3,-6.6126506E-3,-3.1655252E-3,-7.206917E-4,-2.6625444E-3,8.490483E-5,9.076953E-4],"categories":[],"categories_nodes":[],"categories_segments":[],"categories_sizes":[],"default_left":[0,0,0,0,0,0,0,0,0,0,0,0,0,0,0,0,0,0,0,0,0,0,0,0,0,0,0,0,0],"id":25,"left_children":[1,3,5,7,9,11,13,-1,-1,15,17,19,21,-1,-1,23,25,-1,-1,-1,27,-1,-1,-1,-1,-1,-1,-1,-1],"loss_changes":[1.3202696E0,1.6132057E-1,1.9823557E-1,1.3131738E-2,1.3756648E-2,3.5983272E-2,4.0742576E-2,0E0,0E0,4.903972E-3,6.822378E-4,3.0922305E-3,7.4493065E-3,0E0,0E0,3.8287193E-3,8.1560574E-5,0E0,0E0,0E0,2.8795982E-4,0E0,0E0,0E0,0E0,0E0,0E0,0E0,0E0],"parents":[2147483647,0,0,1,1,2,2,3,3,4,4,5,5,6,6,9,9,10,10,11,11,12,12,15,15,16,16,20,20],"right_children":[2,4,6,8,10,12,14,-1,-1,16,18,20,22,-1,-1,24,26,-1,-1,-1,28,-1,-1,-1,-1,-1,-1,-1,-1],"split_conditions":[1.9436E0,1.3466E0,1.1519E0,1.1933E0,9.257E-1,1.3E0,1.3104E0,-1.3785391E-2,-7.6743118E-3,8.914E-1,9.693E-1,1.0121415E3,1.1278E0,7.5548254E-3,1.4443392E-2,6.098E-1,8.97E-1,-1.6453892E-3,-3.1141838E-4,-1.2771756E-3,9.31E-1,2.2078871E-3,5.6450325E-3,-6.6126506E-3,-3.1655252E-3,-7.206917E-4,-2.6625444E-3,8.490483E-5,9.076953E-4],"split_indices":[3,3,1,3,1,17,0,0,0,0,1,21,0,0,0,22,0,0,0,0,0,0,0,0,0,0,0,0,0],"split_type":[0,0,0,0,0,0,0,0,0,0,0,0,0,0,0,0,0,0,0,0,0,0,0,0,0,0,0,0,0],"sum_hessian":[6.9E1,3.4E1,3.5E1,1.4E1,2E1,1.7E1,1.8E1,6E0,8E0,1.5E1,5E0,7E0,1E1,1.3E1,5E0,1E1,5E0,3E0,2E0,3E0,4E0,5E0,5E0,5E0,5E0,1E0,4E0,2E0,2E0],"tree_param":{"num_deleted":"0","num_feature":"24","num_nodes":"29","size_leaf_vector":"1"}},{"base_weights":[-1.0956772E-2,-1.1722138E-1,1.24010295E-1,-2.0261319E-1,-6.471311E-2,6.489326E-2,1.788011E-1,-1.1529376E-2,-6.344142E-3,-8.1148006E-2,8.553664E-4,3.8500506E-2,5.762861E-3,2.5565864E-3,9.213405E-3,-8.80636E-2,-6.3025556E-4,-1.7556954E-2,2.322924E-3,-6.359855E-4,5.0016522E-2,-1.0108054E-3,-9.086544E-2,-2.9304822E-3,-1.3165553E-3,9.508451E-4,2.7694658E-3,-4.789671E-3,-1.7968536E-3,-2.6709438E-4,4.7308207E-5],"categories":[],"categories_nodes":[],"categories_segments":[],"categories_sizes":[],"default_left":[0,0,0,0,0,0,0,0,0,0,0,0,0,0,0,0,0,0,0,0,0,0,0,0,0,0,0,0,0,0,0],"id":26,"left_children":[1,3,5,7,9,11,13,-1,-1,15,17,19,-1,-1,-1,21,-1,23,-1,-1,25,-1,27,29,-1,-1,-1,-1,-1,-1,-1],"loss_changes":[9.754656E-1,1.5727168E-1,8.556908E-2,4.0143728E-4,2.700968E-2,1.6830437E-2,1.0475516E-3,0E0,0E0,8.37025E-3,5.8536245E-3,7.71443E-3,0E0,0E0,0E0,1.5848279E-3,0E0,5.6451175E-4,0E0,0E0,6.122105E-4,0E0,1.1591315E-3,3.3098797E-5,0E0,0E0,0E0,0E0,0E0,0E0,0E0],"parents":[2147483647,0,0,1,1,2,2,3,3,4,4,5,5,6,6,9,9,10,10,11,11,15,15,17,17,20,20,22,22,23,23],"right_children":[2,4,6,8,10,12,14,-1,-1,16,18,20,-1,-1,-1,22,-1,24,-1,-1,26,-1,28,30,-1,-1,-1,-1,-1,-1,-1],"split_conditions":[1.9525E0,1.3372E0,1.1479E0,1.2285E0,1.9352E0,2.2485E0,9.3E-2,-1.1529376E-2,-6.344142E-3,1.0160015E3,1.0479E0,1.0120322E3,5.762861E-3,2.5565864E-3,9.213405E-3,1.0636E0,-6.3025556E-4,4.806E-1,2.322924E-3,-6.359855E-4,1.0123027E3,-1.0108054E-3,1.942E0,9.525E-1,-1.3165553E-3,9.508451E-4,2.7694658E-3,-4.789671E-3,-1.7968536E-3,-2.6709438E-4,4.7308207E-5],"split_indices":[2,2,1,2,3,2,6,0,0,4,1,4,0,0,0,9,0,7,0,0,4,0,2,1,0,0,0,0,0,0,0],"split_type":[0,0,0,0,0,0,0,0,0,0,0,0,0,0,0,0,0,0,0,0,0,0,0,0,0,0,0,0,0,0,0],"sum_hessian":[6.6E1,3.7E1,2.9E1,1.3E1,2.4E1,1.5E1,1.4E1,8E0,5E0,1.9E1,5E0,1.1E1,4E0,1E0,1.3E1,1.7E1,2E0,4E0,1E0,2E0,9E0,1E0,1.6E1,2E0,2E0,2E0,7E0,1.4E1,2E0,1E0,1E0],"tree_param":{"num_deleted":"0","num_feature":"24","num_nodes":"31","size_leaf_vector":"1"}},{"base_weights":[2.4842762E-3,-1.3261455E-1,1.232968E-1,-1.2066207E-2,-8.382613E-2,8.703867E-2,1.3571719E-2,-9.7009204E-2,-1.1692E-2,4.884889E-2,6.954845E-3,-1.00485824E-1,-6.869197E-4,-1.9655824E-3,-1.2649418E-3,9.908748E-3,7.980821E-2,-9.85533E-4,-1.03699744E-1,-2.6041866E-4,4.257361E-5,-1.9668913E-2,1.645267E-3,4.946792E-3,2.3689608E-3,-1.3053596E-3,-5.3280024E-3,-2.269566E-4,-1.1158288E-3],"categories":[],"categories_nodes":[],"categories_segments":[],"categories_sizes":[],"default_left":[0,0,0,0,0,0,0,0,0,0,0,0,0,0,0,0,0,0,0,0,0,0,0,0,0,0,0,0,0],"id":27,"left_children":[1,3,5,-1,7,9,-1,11,13,15,-1,17,-1,19,-1,21,23,-1,25,-1,-1,27,-1,-1,-1,-1,-1,-1,-1],"loss_changes":[1.1751866E0,1.6009885E-1,1.8047994E-1,0E0,2.2639513E-2,5.6824207E-2,0E0,4.6990067E-3,6.1200175E-4,2.3320407E-2,0E0,3.1481236E-3,0E0,4.097526E-5,0E0,7.4490663E-3,2.1356866E-3,0E0,1.4348328E-3,0E0,0E0,9.899493E-5,0E0,0E0,0E0,0E0,0E0,0E0,0E0],"parents":[2147483647,0,0,1,1,2,2,4,4,5,5,7,7,8,8,9,9,11,11,13,13,15,15,16,16,18,18,21,21],"right_children":[2,4,6,-1,8,10,-1,12,14,16,-1,18,-1,20,-1,22,24,-1,26,-1,-1,28,-1,-1,-1,-1,-1,-1,-1],"split_conditions":[9.486E-1,1.2285E0,1.2634E0,-1.2066207E-2,1.9123E0,2.2617E0,1.3571719E-2,1.0164551E3,1.0147004E3,1.2068E0,6.954845E-3,1.0636E0,-6.869197E-4,9.525E-1,-1.2649418E-3,2.9928E0,1.5397E0,-9.85533E-4,2.2538E0,-2.6041866E-4,4.257361E-5,9.555E-1,1.645267E-3,4.946792E-3,2.3689608E-3,-1.3053596E-3,-5.3280024E-3,-2.269566E-4,-1.1158288E-3],"split_indices":[0,2,0,0,3,3,0,4,4,23,0,9,0,1,0,11,22,0,11,0,0,0,0,0,0,0,0,0,0],"split_type":[0,0,0,0,0,0,0,0,0,0,0,0,0,0,0,0,0,0,0,0,0,0,0,0,0,0,0,0,0],"sum_hessian":[7E1,3.3E1,3.7E1,9E0,2.4E1,3.1E1,6E0,2E1,4E0,1.9E1,1.2E1,1.9E1,1E0,3E0,1E0,9E0,1E1,1E0,1.8E1,1E0,2E0,4E0,5E0,5E0,5E0,1E0,1.7E1,1E0,3E0],"tree_param":{"num_deleted":"0","num_feature":"24","num_nodes":"29","size_leaf_vector":"1"}},{"base_weights":[-7.3588835E-3,-1.230711E-1,1.3559814E-1,-2.0786834E-1,-6.241763E-2,8.1357144E-2,1.265604E-2,-1.2985318E-2,-7.2226697E-3,-8.3142675E-2,-2.0940594E-2,1.07347965E-2,9.645462E-2,-9.557011E-2,-1.9586897E-3,-3.37017E-2,3.4362078E-3,-6.2360766E-4,1.518174E-3,1.708293E-3,1.0663465E-1,-1.0003622E-1,-1.2727261E-3,-2.2459826E-3,-8.431405E-4,5.482376E-4,-2.7282238E-3,5.613621E-3,6.926477E-4,-1.4859319E-3,-5.2273604E-3,-2.2128224E-4,1.6665459E-5],"categories":[],"categories_nodes":[],"categories_segments":[],"categories_sizes":[],"default_left":[0,0,0,0,0,0,0,0,0,0,0,0,0,0,0,0,0,0,0,0,0,0,0,0,0,0,0,0,0,0,0,0,0],"id":28,"left_children":[1,3,5,7,9,11,-1,-1,-1,13,15,17,19,21,-1,23,25,-1,-1,-1,27,29,-1,-1,-1,-1,31,-1,-1,-1,-1,-1,-1],"loss_changes":[1.1084518E0,1.7732549E-1,1.7064327E-1,1.179409E-2,1.8030062E-2,2.2421405E-2,0E0,0E0,0E0,4.4524446E-3,2.9154802E-3,2.6563075E-3,7.770553E-3,8.982122E-4,0E0,3.7591532E-4,2.1555106E-4,0E0,0E0,0E0,6.2909275E-3,6.5013766E-5,0E0,0E0,0E0,0E0,1.7065238E-5,0E0,0E0,0E0,0E0,0E0,0E0],"parents":[2147483647,0,0,1,1,2,2,3,3,4,4,5,5,9,9,10,10,11,11,12,12,13,13,15,15,16,16,20,20,21,21,26,26],"right_children":[2,4,6,8,10,12,-1,-1,-1,14,16,18,20,22,-1,24,26,-1,-1,-1,28,30,-1,-1,-1,-1,32,-1,-1,-1,-1,-1,-1],"split_conditions":[1.9525E0,1.3466E0,2.5731E0,2.2446E0,9.31E-1,1.952E0,1.265604E-2,-1.2985318E-2,-7.2226697E-3,1.7223E0,1.3651E0,1.0120322E3,2.179E0,2.2748E0,-1.9586897E-3,1.5184E0,1.9004E0,-6.2360766E-4,1.518174E-3,1.708293E-3,3.1814E0,6.738E-1,-1.2727261E-3,-2.2459826E-3,-8.431405E-4,5.482376E-4,9.954E-1,5.613621E-3,6.926477E-4,-1.4859319E-3,-5.2273604E-3,-2.2128224E-4,1.6665459E-5],"split_indices":[2,3,2,11,1,3,0,0,0,2,8,4,2,7,0,2,2,0,0,0,7,1,0,0,0,0,1,0,0,0,0,0,0],"split_type":[0,0,0,0,0,0,0,0,0,0,0,0,0,0,0,0,0,0,0,0,0,0,0,0,0,0,0,0,0,0,0,0,0],"sum_hessian":[6.5E1,3.6E1,2.9E1,1.4E1,2.2E1,2.1E1,8E0,6E0,8E0,1.4E1,8E0,4E0,1.7E1,1E1,4E0,5E0,3E0,2E0,2E0,3E0,1.4E1,9E0,1E0,2E0,3E0,1E0,2E0,1.3E1,1E0,1E0,8E0,1E0,1E0],"tree_param":{"num_deleted":"0","num_feature":"24","num_nodes":"33","size_leaf_vector":"1"}},{"base_weights":[8.1464363E-4,-1.16324015E-1,1.24438375E-1,-2.0543872E-1,-6.729266E-2,8.777179E-2,1.31902E-2,-3.6575198E-3,-1.11420555E-2,-8.787681E-2,-1.8647406E-2,1.209867E-2,1.0242247E-1,-9.699844E-2,-1.5850753E-3,-3.1538606E-2,2.112055E-3,-6.0281757E-4,1.3595134E-3,7.574649E-2,1.2948766E-1,-2.631762E-3,-5.4172743E-3,-1.4710426E-2,-2.234459E-3,4.597722E-2,5.1600165E-3,7.140662E-3,2.3174207E-3,-8.115262E-4,-2.1575093E-4,7.692695E-4,2.6259916E-3],"categories":[],"categories_nodes":[],"categories_segments":[],"categories_sizes":[],"default_left":[0,0,0,0,0,0,0,0,0,0,0,0,0,0,0,0,0,0,0,0,0,0,0,0,0,0,0,0,0,0,0,0,0],"id":29,"left_children":[1,3,5,7,9,11,-1,-1,-1,13,15,17,19,21,-1,23,-1,-1,-1,25,27,-1,-1,29,-1,31,-1,-1,-1,-1,-1,-1,-1],"loss_changes":[1.0715969E0,1.5221322E-1,1.6080773E-1,1.36268735E-2,2.4395674E-2,3.2020703E-2,0E0,0E0,0E0,6.148383E-3,8.3965575E-3,2.5150427E-3,8.241534E-3,1.8480867E-3,0E0,1.1130059E-3,0E0,0E0,0E0,7.5143576E-3,5.567476E-3,0E0,0E0,8.975156E-6,0E0,9.933151E-4,0E0,0E0,0E0,0E0,0E0,0E0,0E0],"parents":[2147483647,0,0,1,1,2,2,3,3,4,4,5,5,9,9,10,10,11,11,12,12,13,13,15,15,19,19,20,20,23,23,25,25],"right_children":[2,4,6,8,10,12,-1,-1,-1,14,16,18,20,22,-1,24,-1,-1,-1,26,28,-1,-1,30,-1,32,-1,-1,-1,-1,-1,-1,-1],"split_conditions":[1.9525E0,1.3372E0,2.6642E0,2.2E-1,9.31E-1,1.952E0,1.31902E-2,-3.6575198E-3,-1.11420555E-2,1.8078E0,1.1314E0,1.0120322E3,2.259E0,4.468E-1,-1.5850753E-3,1.011676E3,2.112055E-3,-6.0281757E-4,1.3595134E-3,2.259E0,1.0157602E3,-2.631762E-3,-5.4172743E-3,1.9352E0,-2.234459E-3,1.0123027E3,5.1600165E-3,7.140662E-3,2.3174207E-3,-8.115262E-4,-2.1575093E-4,7.692695E-4,2.6259916E-3],"split_indices":[2,3,2,7,1,3,0,0,0,2,1,4,3,15,0,21,0,0,0,2,4,0,0,2,0,4,0,0,0,0,0,0,0],"split_type":[0,0,0,0,0,0,0,0,0,0,0,0,0,0,0,0,0,0,0,0,0,0,0,0,0,0,0,0,0,0,0,0,0],"sum_hessian":[7.2E1,3.7E1,3.5E1,1.2E1,2.5E1,2.9E1,6E0,2E0,1E1,1.7E1,8E0,5E0,2.4E1,1.4E1,3E0,7E0,1E0,2E0,3E0,1.4E1,1E1,4E0,1E1,4E0,3E0,8E0,6E0,8E0,2E0,3E0,1E0,2E0,6E0],"tree_param":{"num_deleted":"0","num_feature":"24","num_nodes":"33","size_leaf_vector":"1"}},{"base_weights":[7.6596364E-3,-1.0841806E-1,1.1062705E-1,-9.704818E-3,-7.177129E-2,7.866689E-2,2.573167E-1,-8.967925E-2,-2.4745464E-2,-2.6089806E-4,9.761999E-2,1.3908143E-2,3.8271488E-3,-1.6612649E-3,-9.9403284E-2,-1.6188025E-3,-3.82977E-2,-2.0394946E-2,1.6691408E-3,3.0913413E-2,1.05311185E-1,-5.2903607E-3,-2.0326576E-3,1.2199879E-4,-3.785054E-3,-2.1506667E-3,-4.858792E-4,-1.4237285E-3,-2.758503E-4,2.041608E-3,6.998221E-4,7.190741E-2,6.910249E-3,-2.473235E-4,-3.6555528E-5,1.5496165E-3,4.054135E-3],"categories":[],"categories_nodes":[],"categories_segments":[],"categories_sizes":[],"default_left":[0,0,0,0,0,0,0,0,0,0,0,0,0,0,0,0,0,0,0,0,0,0,0,0,0,0,0,0,0,0,0,0,0,0,0,0,0],"id":30,"left_children":[1,3,5,-1,7,9,11,13,15,17,19,-1,-1,-1,21,23,25,27,-1,29,31,-1,-1,-1,33,-1,-1,-1,-1,-1,-1,35,-1,-1,-1,-1,-1],"loss_changes":[8.127928E-1,8.65441E-2,1.4853382E-1,0E0,1.7992124E-2,4.6399176E-2,1.3192296E-3,6.029606E-3,2.4453471E-3,5.4225293E-3,9.570807E-3,0E0,0E0,0E0,9.6584857E-4,4.4404773E-5,2.5588134E-4,4.4394657E-4,0E0,9.967573E-5,1.4235124E-2,0E0,0E0,0E0,7.024286E-6,0E0,0E0,0E0,0E0,0E0,0E0,2.367355E-3,0E0,0E0,0E0,0E0,0E0],"parents":[2147483647,0,0,1,1,2,2,4,4,5,5,6,6,7,7,8,8,9,9,10,10,14,14,15,15,16,16,17,17,19,19,20,20,24,24,31,31],"right_children":[2,4,6,-1,8,10,12,14,16,18,20,-1,-1,-1,22,24,26,28,-1,30,32,-1,-1,-1,34,-1,-1,-1,-1,-1,-1,36,-1,-1,-1,-1,-1],"split_conditions":[9.486E-1,6.506E-1,1.3104E0,-9.704818E-3,9.31E-1,9.954E-1,1.4019E0,4.468E-1,4.806E-1,1.6066E0,9.693E-1,1.3908143E-2,3.8271488E-3,-1.6612649E-3,9.133E-1,7.579E-1,1.0123027E3,9.407E-1,1.6691408E-3,9.525E-1,7.588E-1,-5.2903607E-3,-2.0326576E-3,1.2199879E-4,8.658E-1,-2.1506667E-3,-4.858792E-4,-1.4237285E-3,-2.758503E-4,2.041608E-3,6.998221E-4,1.5535E0,6.910249E-3,-2.473235E-4,-3.6555528E-5,1.5496165E-3,4.054135E-3],"split_indices":[0,1,0,0,1,1,1,15,7,9,0,0,0,0,0,0,5,1,0,0,14,0,0,0,0,0,0,0,0,0,0,9,0,0,0,0,0],"split_type":[0,0,0,0,0,0,0,0,0,0,0,0,0,0,0,0,0,0,0,0,0,0,0,0,0,0,0,0,0,0,0,0,0,0,0,0,0],"sum_hessian":[6.6E1,3.1E1,3.5E1,8E0,2.3E1,3E1,5E0,1.6E1,7E0,6E0,2.4E1,4E0,1E0,3E0,1.3E1,3E0,4E0,4E0,2E0,3E0,2.1E1,1.1E1,2E0,1E0,2E0,3E0,1E0,2E0,2E0,1E0,2E0,1.2E1,9E0,1E0,1E0,3E0,9E0],"tree_param":{"num_deleted":"0","num_feature":"24","num_nodes":"37","size_leaf_vector":"1"}},{"base_weights":[-1.8240002E-3,-1.0546339E-1,9.640869E-2,-1.7977501E-1,-6.557528E-2,5.246089E-2,1.7688823E-1,-9.760766E-3,-3.419115E-3,-2.6631726E-2,-8.2335085E-2,1.2158012E-2,7.308253E-2,1.0714083E-2,4.877448E-3,-3.471681E-2,1.1107126E-3,-8.6001985E-2,-5.9161783E-4,2.9620409E-2,-2.1440685E-2,-1.9652248E-4,7.8141496E-2,-3.7510276E-2,-4.4890048E-4,1.1894703E-4,-3.5643578E-5,-7.2288513E-4,-8.9807756E-2,7.2835386E-4,1.863432E-3,-2.0346045E-4,-1.2937387E-3,4.1209154E-2,9.6179985E-2,-2.0611237E-3,-4.7373175E-4,-2.716434E-3,-5.1057213E-3,2.242754E-3,4.8334003E-4,2.126819E-3,5.654674E-3],"categories":[],"categories_nodes":[],"categories_segments":[],"categories_sizes":[],"default_left":[0,0,0,0,0,0,0,0,0,0,0,0,0,0,0,0,0,0,0,0,0,0,0,0,0,0,0,0,0,0,0,0,0,0,0,0,0,0,0,0,0,0,0],"id":31,"left_children":[1,3,5,7,9,11,13,-1,-1,15,17,19,21,-1,-1,23,25,27,-1,29,31,-1,33,35,-1,-1,-1,-1,37,-1,-1,-1,-1,39,41,-1,-1,-1,-1,-1,-1,-1,-1],"loss_changes":[7.533642E-1,9.4920635E-2,1.2512243E-1,7.289976E-3,1.4124431E-2,2.0720363E-2,1.7665029E-2,0E0,0E0,2.05726E-3,3.3773407E-3,6.5022195E-3,6.930433E-3,0E0,0E0,1.6653631E-4,8.63404E-6,3.0580834E-3,0E0,2.6302412E-4,2.0281668E-4,0E0,6.695755E-3,2.3387559E-4,0E0,0E0,0E0,0E0,1.0017008E-3,0E0,0E0,0E0,0E0,3.7140213E-4,4.262425E-3,0E0,0E0,0E0,0E0,0E0,0E0,0E0,0E0],"parents":[2147483647,0,0,1,1,2,2,3,3,4,4,5,5,6,6,9,9,10,10,11,11,12,12,15,15,16,16,17,17,19,19,20,20,22,22,23,23,28,28,33,33,34,34],"right_children":[2,4,6,8,10,12,14,-1,-1,16,18,20,22,-1,-1,24,26,28,-1,30,32,-1,34,36,-1,-1,-1,-1,38,-1,-1,-1,-1,40,42,-1,-1,-1,-1,-1,-1,-1,-1],"split_conditions":[9.486E-1,1.3372E0,1.1844E0,1.2974E0,1.0121266E3,1.0479E0,1.0133035E3,-9.760766E-3,-3.419115E-3,9.578E-1,1.0394E0,1.1648E0,1.0100713E3,1.0714083E-2,4.877448E-3,1.0172845E3,7.579E-1,1.0636E0,-5.9161783E-4,1.0137984E3,9.555E-1,-1.9652248E-4,1.0124373E3,9.537E-1,-4.4890048E-4,1.1894703E-4,-3.5643578E-5,-7.2288513E-4,5.561E-1,7.2835386E-4,1.863432E-3,-2.0346045E-4,-1.2937387E-3,1.1278E0,1.0123739E3,-2.0611237E-3,-4.7373175E-4,-2.716434E-3,-5.1057213E-3,2.242754E-3,4.8334003E-4,2.126819E-3,5.654674E-3],"split_indices":[0,3,1,8,20,0,21,0,0,1,1,7,4,0,0,4,0,9,0,4,0,0,12,1,0,0,0,0,23,0,0,0,0,1,21,0,0,0,0,0,0,0,0],"split_type":[0,0,0,0,0,0,0,0,0,0,0,0,0,0,0,0,0,0,0,0,0,0,0,0,0,0,0,0,0,0,0,0,0,0,0,0,0,0,0,0,0,0,0],"sum_hessian":[7.2E1,3.5E1,3.7E1,1.1E1,2.4E1,2.5E1,1.2E1,9E0,2E0,8E0,1.6E1,9E0,1.6E1,7E0,5E0,6E0,2E0,1.5E1,1E0,6E0,3E0,1E0,1.5E1,5E0,1E0,1E0,1E0,1E0,1.4E1,3E0,3E0,1E0,2E0,6E0,9E0,4E0,1E0,5E0,9E0,5E0,1E0,3E0,6E0],"tree_param":{"num_deleted":"0","num_feature":"24","num_nodes":"43","size_leaf_vector":"1"}},{"base_weights":[4.2012078E-4,-9.9993154E-2,1.0968104E-1,-1.728957E-1,-4.8100494E-2,7.440727E-2,2.3510739E-1,-1.1329949E-2,-6.1692083E-3,-6.8799056E-2,-1.4312458E-2,4.1893333E-2,5.4350398E-3,3.46362E-3,1.2560057E-2,-1.4048339E-3,-7.734546E-2,1.7620325E-3,-3.0739356E-2,-1.6716123E-3,5.2075367E-2,-7.04813E-4,-4.1130376E-3,8.942206E-3,-4.0636063E-3,-1.9343933E-3,-6.272197E-4,7.155955E-4,-5.885045E-4,3.395316E-3,1.1144102E-3,1.1597276E-4,5.5469276E-4,-2.4773678E-4,-3.475547E-5],"categories":[],"categories_nodes":[],"categories_segments":[],"categories_sizes":[],"default_left":[0,0,0,0,0,0,0,0,0,0,0,0,0,0,0,0,0,0,0,0,0,0,0,0,0,0,0,0,0,0,0,0,0,0,0],"id":32,"left_children":[1,3,5,7,9,11,13,-1,-1,15,17,19,-1,-1,-1,-1,21,23,25,27,29,-1,-1,31,33,-1,-1,-1,-1,-1,-1,-1,-1,-1,-1],"loss_changes":[7.789547E-1,1.3165858E-1,1.3293111E-1,1.192525E-2,1.5100677E-2,2.6666656E-2,1.2810826E-3,0E0,0E0,2.6968718E-3,2.694704E-3,7.1843266E-3,0E0,0E0,0E0,0E0,2.2602007E-3,2.873122E-4,2.3779832E-4,8.1408944E-4,4.616756E-3,0E0,0E0,1.701781E-5,8.562987E-6,0E0,0E0,0E0,0E0,0E0,0E0,0E0,0E0,0E0,0E0],"parents":[2147483647,0,0,1,1,2,2,3,3,4,4,5,5,6,6,9,9,10,10,11,11,16,16,17,17,18,18,19,19,20,20,23,23,24,24],"right_children":[2,4,6,8,10,12,14,-1,-1,16,18,20,-1,-1,-1,-1,22,24,26,28,30,-1,-1,32,34,-1,-1,-1,-1,-1,-1,-1,-1,-1,-1],"split_conditions":[1.9525E0,1.3522E0,1.3104E0,1.0783E0,9.31E-1,2.2764E0,1.0120125E3,-1.1329949E-2,-6.1692083E-3,1.0104848E3,1.3539E0,4.691E-1,5.4350398E-3,3.46362E-3,1.2560057E-2,-1.4048339E-3,1.0636E0,1.0100649E3,1.5184E0,1.0479E0,1.0129287E3,-7.04813E-4,-4.1130376E-3,7.579E-1,9.954E-1,-1.9343933E-3,-6.272197E-4,7.155955E-4,-5.885045E-4,3.395316E-3,1.1144102E-3,1.1597276E-4,5.5469276E-4,-2.4773678E-4,-3.475547E-5],"split_indices":[2,2,0,8,1,2,4,0,0,20,7,23,0,0,0,0,9,20,2,0,13,0,0,0,1,0,0,0,0,0,0,0,0,0,0],"split_type":[0,0,0,0,0,0,0,0,0,0,0,0,0,0,0,0,0,0,0,0,0,0,0,0,0,0,0,0,0,0,0,0,0,0,0],"sum_hessian":[6.9E1,3.6E1,3.3E1,1.4E1,2.2E1,2.7E1,6E0,5E0,9E0,1.3E1,9E0,1.5E1,1.2E1,1E0,5E0,3E0,1E1,5E0,4E0,3E0,1.2E1,1E0,9E0,2E0,3E0,2E0,2E0,1E0,2E0,7E0,5E0,1E0,1E0,2E0,1E0],"tree_param":{"num_deleted":"0","num_feature":"24","num_nodes":"35","size_leaf_vector":"1"}},{"base_weights":[3.5538184E-3,-8.893437E-2,1.12258926E-1,-1.6735642E-1,-4.9347904E-2,7.990414E-2,2.2564109E-1,-1.0730869E-2,-5.549557E-3,-6.9509E-2,-1.187084E-2,2.4222272E-2,9.398909E-2,1.2036719E-2,3.3770322E-3,-3.123776E-2,-8.182581E-2,-2.0157028E-2,1.774776E-3,-6.7643524E-4,3.2768887E-2,5.9050735E-2,1.1818349E-1,-1.7132426E-3,-4.0255787E-4,-4.6437634E-3,-1.6872854E-3,-2.5592238E-2,1.0558764E-3,3.9589405E-4,1.8077756E-3,1.2141181E-3,3.7724734E-3,1.2421965E-3,6.2205186E-3,-1.9248814E-3,-5.0747395E-4,1.1307597E-4,-3.388524E-5],"categories":[],"categories_nodes":[],"categories_segments":[],"categories_sizes":[],"default_left":[0,0,0,0,0,0,0,0,0,0,0,0,0,0,0,0,0,0,0,0,0,0,0,0,0,0,0,0,0,0,0,0,0,0,0,0,0,0,0],"id":33,"left_children":[1,3,5,7,9,11,13,-1,-1,15,17,19,21,-1,-1,23,25,27,-1,-1,29,31,33,-1,-1,-1,-1,35,37,-1,-1,-1,-1,-1,-1,-1,-1,-1,-1],"loss_changes":[7.4392116E-1,1.1591938E-1,1.0669786E-1,1.0809809E-2,2.033107E-2,1.9683123E-2,4.4441223E-4,0E0,0E0,5.928777E-3,5.0328365E-3,2.7018213E-3,1.1618063E-2,0E0,0E0,1.4525652E-4,3.772229E-3,1.179988E-3,0E0,0E0,2.1869177E-4,4.439637E-3,3.8837194E-3,0E0,0E0,0E0,0E0,1.2036278E-3,7.802883E-6,0E0,0E0,0E0,0E0,0E0,0E0,0E0,0E0,0E0,0E0],"parents":[2147483647,0,0,1,1,2,2,3,3,4,4,5,5,6,6,9,9,10,10,11,11,12,12,15,15,16,16,17,17,20,20,21,21,22,22,27,27,28,28],"right_children":[2,4,6,8,10,12,14,-1,-1,16,18,20,22,-1,-1,24,26,28,-1,-1,30,32,34,-1,-1,-1,-1,36,38,-1,-1,-1,-1,-1,-1,-1,-1,-1,-1],"split_conditions":[1.9525E0,1.3372E0,1.3104E0,1.1059E0,9.31E-1,1.0207E0,2.8517E0,-1.0730869E-2,-5.549557E-3,4.942E-1,1.1519E0,1.0120322E3,6.738E-1,1.2036719E-2,3.3770322E-3,7.745E-1,8.744E-1,1.0139327E3,1.774776E-3,-6.7643524E-4,1.0207E0,2.179E0,1.0100713E3,-1.7132426E-3,-4.0255787E-4,-4.6437634E-3,-1.6872854E-3,1.0115056E3,7.579E-1,3.9589405E-4,1.8077756E-3,1.2141181E-3,3.7724734E-3,1.2421965E-3,6.2205186E-3,-1.9248814E-3,-5.0747395E-4,1.1307597E-4,-3.388524E-5],"split_indices":[2,3,0,9,1,1,3,0,0,15,1,4,15,0,0,1,0,21,0,0,0,2,5,0,0,0,0,13,0,0,0,0,0,0,0,0,0,0,0],"split_type":[0,0,0,0,0,0,0,0,0,0,0,0,0,0,0,0,0,0,0,0,0,0,0,0,0,0,0,0,0,0,0,0,0,0,0,0,0,0,0],"sum_hessian":[7.2E1,3.9E1,3.3E1,1.2E1,2.7E1,2.7E1,6E0,5E0,7E0,1.7E1,1E1,6E0,2.1E1,5E0,1E0,5E0,1.2E1,9E0,1E0,1E0,5E0,1E1,1.1E1,4E0,1E0,9E0,3E0,7E0,2E0,1E0,4E0,4E0,6E0,1E0,1E1,3E0,4E0,1E0,1E0],"tree_param":{"num_deleted":"0","num_feature":"24","num_nodes":"39","size_leaf_vector":"1"}},{"base_weights":[-1.47882085E-2,-1.03277564E-1,6.653886E-2,-1.0283747E-2,-7.66975E-2,2.965653E-2,1.1974405E-1,-8.386838E-2,-1.4497876E-2,9.968787E-3,7.042044E-2,1.5343316E-1,3.7649036E-3,-8.867137E-2,-1.0345142E-3,1.10250716E-4,-1.0400255E-3,-1.8040895E-2,2.4340542E-2,2.1347117E-3,4.6578646E-3,1.7304063E-3,8.373465E-3,-1.0041058E-3,-9.098123E-2,3.6542417E-4,-1.2286234E-3,2.741456E-2,-1.5999078E-4,-4.742792E-3,-1.8057505E-3,1.5449405E-3,4.4925214E-4],"categories":[],"categories_nodes":[],"categories_segments":[],"categories_sizes":[],"default_left":[0,0,0,0,0,0,0,0,0,0,0,0,0,0,0,0,0,0,0,0,0,0,0,0,0,0,0,0,0,0,0,0,0],"id":34,"left_children":[1,3,5,-1,7,9,11,13,15,17,19,21,-1,23,-1,-1,-1,25,27,-1,-1,-1,-1,-1,29,-1,-1,31,-1,-1,-1,-1,-1],"loss_changes":[4.8184627E-1,7.132059E-2,6.513041E-2,0E0,1.0826781E-2,1.6954077E-2,9.409621E-3,5.4480135E-3,4.669543E-4,6.8798987E-3,4.3556467E-4,5.879134E-3,0E0,1.6584098E-3,0E0,0E0,0E0,1.1730153E-3,1.0189759E-3,0E0,0E0,0E0,0E0,0E0,1.0385513E-3,0E0,0E0,3.6450336E-4,0E0,0E0,0E0,0E0,0E0],"parents":[2147483647,0,0,1,1,2,2,4,4,5,5,6,6,7,7,8,8,9,9,10,10,11,11,13,13,17,17,18,18,24,24,27,27],"right_children":[2,4,6,-1,8,10,12,14,16,18,20,22,-1,24,-1,-1,-1,26,28,-1,-1,-1,-1,-1,30,-1,-1,32,-1,-1,-1,-1,-1],"split_conditions":[9.486E-1,2.2446E0,1.1479E0,-1.0283747E-2,1.9352E0,1.1519E0,1.0133035E3,1.5415E0,7.579E-1,2.9928E0,5.881E-1,9.578E-1,3.7649036E-3,2.2538E0,-1.0345142E-3,1.10250716E-4,-1.0400255E-3,9.537E-1,1.0139329E3,2.1347117E-3,4.6578646E-3,1.7304063E-3,8.373465E-3,-1.0041058E-3,9.257E-1,3.6542417E-4,-1.2286234E-3,1.4154E0,-1.5999078E-4,-4.742792E-3,-1.8057505E-3,1.5449405E-3,4.4925214E-4],"split_indices":[0,11,1,0,3,0,21,16,0,11,6,0,0,11,0,0,0,0,12,0,0,0,0,0,1,0,0,14,0,0,0,0,0],"split_type":[0,0,0,0,0,0,0,0,0,0,0,0,0,0,0,0,0,0,0,0,0,0,0,0,0,0,0,0,0,0,0,0,0],"sum_hessian":[6.5E1,3.1E1,3.4E1,5E0,2.6E1,2.1E1,1.3E1,2.3E1,3E0,1.5E1,6E0,6E0,7E0,2.1E1,2E0,1E0,2E0,5E0,1E1,4E0,2E0,1E0,5E0,1E0,2E1,1E0,4E0,9E0,1E0,1.8E1,2E0,7E0,2E0],"tree_param":{"num_deleted":"0","num_feature":"24","num_nodes":"33","size_leaf_vector":"1"}},{"base_weights":[-3.2992275E-3,-7.790549E-2,1.0339898E-1,-1.4848344E-1,-3.842413E-2,7.295435E-2,1.14426715E-2,-1.0086074E-2,-1.0701607E-1,-5.5096176E-2,1.0417567E-3,3.302002E-2,9.4713606E-2,-1.4030695E-3,-5.633544E-3,-6.899177E-2,-3.199087E-2,-1.6450023E-2,1.8325185E-2,4.2637646E-2,-3.6336582E-3,1.0142187E-1,1.7036637E-3,-1.3816078E-3,-3.7556277E-3,-1.3938904E-2,-2.1822334E-3,-1.2835265E-4,-9.639502E-4,1.3394356E-3,1.4601271E-3,3.747642E-4,2.3293614E-3,3.5628676E-4,-6.2881113E-4,1.05965294E-1,1.1725187E-3,-7.967919E-4,-1.4877916E-4,1.0749698E-4,-7.0393085E-6,1.3932347E-3,5.5266097E-3],"categories":[],"categories_nodes":[],"categories_segments":[],"categories_sizes":[],"default_left":[0,0,0,0,0,0,0,0,0,0,0,0,0,0,0,0,0,0,0,0,0,0,0,0,0,0,0,0,0,0,0,0,0,0,0,0,0,0,0,0,0,0,0],"id":35,"left_children":[1,3,5,7,9,11,-1,-1,13,15,17,19,21,-1,-1,23,25,27,29,31,33,35,-1,-1,-1,37,-1,-1,-1,39,-1,-1,-1,-1,-1,41,-1,-1,-1,-1,-1,-1,-1],"loss_changes":[5.413991E-1,1.05755195E-1,9.024778E-2,9.319514E-3,1.782278E-2,1.7727152E-2,0E0,0E0,1.303032E-3,3.8930662E-3,3.0223113E-3,3.6801444E-3,2.6460886E-3,0E0,0E0,7.0916116E-4,1.2850063E-3,1.4688296E-4,8.8468543E-4,7.6119695E-4,3.7826455E-4,2.1204352E-3,0E0,0E0,0E0,6.204675E-5,0E0,0E0,0E0,3.9018582E-6,0E0,0E0,0E0,0E0,0E0,1.2001842E-3,0E0,0E0,0E0,0E0,0E0,0E0,0E0],"parents":[2147483647,0,0,1,1,2,2,3,3,4,4,5,5,8,8,9,9,10,10,11,11,12,12,15,15,16,16,17,17,18,18,19,19,20,20,21,21,25,25,29,29,35,35],"right_children":[2,4,6,8,10,12,-1,-1,14,16,18,20,22,-1,-1,24,26,28,30,32,34,36,-1,-1,-1,38,-1,-1,-1,40,-1,-1,-1,-1,-1,42,-1,-1,-1,-1,-1,-1,-1],"split_conditions":[1.9525E0,1.3522E0,1.3104E0,1.1048E0,1.9352E0,2.179E0,1.14426715E-2,-1.0086074E-2,1.1009E0,1.5616E0,1.0121415E3,1.013493E3,1.705E0,-1.4030695E-3,-5.633544E-3,1.0104797E3,1.0113783E3,9.525E-1,9.31E-1,8.744E-1,9.537E-1,1.0157602E3,1.7036637E-3,-1.3816078E-3,-3.7556277E-3,9.578E-1,-2.1822334E-3,-1.2835265E-4,-9.639502E-4,7.579E-1,1.4601271E-3,3.747642E-4,2.3293614E-3,3.5628676E-4,-6.2881113E-4,1.0081515E3,1.1725187E-3,-7.967919E-4,-1.4877916E-4,1.0749698E-4,-7.0393085E-6,1.3932347E-3,5.5266097E-3],"split_indices":[2,2,0,2,3,2,0,0,8,3,21,21,16,0,0,20,21,1,0,1,0,4,0,0,0,1,0,0,0,0,0,0,0,0,0,12,0,0,0,0,0,0,0],"split_type":[0,0,0,0,0,0,0,0,0,0,0,0,0,0,0,0,0,0,0,0,0,0,0,0,0,0,0,0,0,0,0,0,0,0,0,0,0,0,0,0,0,0,0],"sum_hessian":[6.6E1,3.9E1,2.7E1,1.3E1,2.6E1,2.3E1,4E0,4E0,9E0,1.8E1,8E0,9E0,1.4E1,1E0,8E0,1E1,8E0,4E0,4E0,7E0,2E0,1.2E1,2E0,2E0,8E0,4E0,4E0,1E0,3E0,2E0,2E0,1E0,6E0,1E0,1E0,1.1E1,1E0,3E0,1E0,1E0,1E0,1E0,1E1],"tree_param":{"num_deleted":"0","num_feature":"24","num_nodes":"43","size_leaf_vector":"1"}},{"base_weights":[8.998587E-3,-7.7859975E-2,8.5673355E-2,-1.3772927E-1,-4.2792253E-2,6.129261E-2,1.0984965E-2,-3.455396E-3,-7.741189E-3,-6.706986E-2,-1.4624444E-2,1.53386835E-2,7.939473E-2,-1.6217291E-3,-3.800188E-3,-2.5846034E-2,1.1474848E-2,-1.0895157E-2,3.464377E-2,9.2293344E-2,2.9616198E-2,-1.502198E-3,-4.4174196E-4,8.6169643E-4,-1.4505982E-4,1.3059775E-3,-9.7322866E-4,2.0797611E-3,6.9136225E-4,5.8979087E-2,5.7676393E-3,1.7215753E-3,1.3849139E-4,1.0480881E-4,-6.8604945E-6,7.5761677E-4,3.1281696E-3],"categories":[],"categories_nodes":[],"categories_segments":[],"categories_sizes":[],"default_left":[0,0,0,0,0,0,0,0,0,0,0,0,0,0,0,0,0,0,0,0,0,0,0,0,0,0,0,0,0,0,0,0,0,0,0,0,0],"id":36,"left_children":[1,3,5,7,9,11,-1,-1,-1,13,15,17,19,-1,-1,21,23,25,27,29,31,-1,-1,-1,-1,33,-1,-1,-1,35,-1,-1,-1,-1,-1,-1,-1],"loss_changes":[4.395614E-1,5.9190124E-2,1.0090184E-1,2.203986E-3,1.3379924E-2,2.4569958E-2,0E0,0E0,0E0,9.385608E-4,3.5182105E-3,5.4419143E-3,1.1392251E-2,0E0,0E0,3.0585984E-4,3.8117013E-4,5.4820324E-4,2.930835E-4,6.256148E-3,6.8027247E-4,0E0,0E0,0E0,0E0,3.7088303E-6,0E0,0E0,0E0,4.6581775E-4,0E0,0E0,0E0,0E0,0E0,0E0,0E0],"parents":[2147483647,0,0,1,1,2,2,3,3,4,4,5,5,9,9,10,10,11,11,12,12,15,15,16,16,17,17,18,18,19,19,20,20,25,25,29,29],"right_children":[2,4,6,8,10,12,-1,-1,-1,14,16,18,20,-1,-1,22,24,26,28,30,32,-1,-1,-1,-1,34,-1,-1,-1,36,-1,-1,-1,-1,-1,-1,-1],"split_conditions":[1.9436E0,1.3522E0,2.7198E0,8.978E-1,1.6079E0,2.0643E0,1.0984965E-2,-3.455396E-3,-7.741189E-3,1.0113297E3,3.1889E0,2.0643E0,1.5785E0,-1.6217291E-3,-3.800188E-3,9.407E-1,8.97E-1,4.806E-1,6.577E-1,7.588E-1,1.1315E0,-1.502198E-3,-4.4174196E-4,8.6169643E-4,-1.4505982E-4,1.0337E0,-9.7322866E-4,2.0797611E-3,6.9136225E-4,9.486E-1,5.7676393E-3,1.7215753E-3,1.3849139E-4,1.0480881E-4,-6.8604945E-6,7.5761677E-4,3.1281696E-3],"split_indices":[3,2,2,6,3,2,0,0,0,20,19,3,7,0,0,1,1,7,7,14,1,0,0,0,0,1,0,0,0,1,0,0,0,0,0,0,0],"split_type":[0,0,0,0,0,0,0,0,0,0,0,0,0,0,0,0,0,0,0,0,0,0,0,0,0,0,0,0,0,0,0,0,0,0,0,0,0],"sum_hessian":[6.4E1,3E1,3.4E1,1E1,2E1,3E1,4E0,3E0,7E0,1E1,1E1,9E0,2.1E1,3E0,7E0,7E0,3E0,4E0,5E0,1.6E1,5E0,5E0,2E0,2E0,1E0,2E0,2E0,3E0,2E0,8E0,8E0,4E0,1E0,1E0,1E0,1E0,7E0],"tree_param":{"num_deleted":"0","num_feature":"24","num_nodes":"37","size_leaf_vector":"1"}},{"base_weights":[-3.5049536E-3,-7.1755394E-2,8.761247E-2,-9.458699E-3,-5.3454056E-2,6.86628E-2,9.680981E-3,-6.9470465E-2,-4.864335E-3,4.1889247E-2,8.728903E-2,-5.1262237E-2,-9.129496E-2,-2.2396604E-2,1.7147254E-2,5.671864E-2,6.8184854E-3,1.7956774E-3,4.6215183E-3,-3.6315303E-3,-3.6306202E-2,-1.2816072E-3,-4.7649015E-3,-1.6408404E-3,-8.982301E-3,1.2733141E-3,1.3652722E-3,4.248044E-3,1.4218688E-3,-5.755365E-4,1.42784715E-2,-1.9196803E-3,-3.3361913E-4,-1.2776852E-4,-5.1364105E-4,1.02186204E-4,-6.6876414E-6,8.6187915E-4,1.3502837E-4],"categories":[],"categories_nodes":[],"categories_segments":[],"categories_sizes":[],"default_left":[0,0,0,0,0,0,0,0,0,0,0,0,0,0,0,0,0,0,0,0,0,0,0,0,0,0,0,0,0,0,0,0,0,0,0,0,0,0,0],"id":37,"left_children":[1,3,5,-1,7,9,-1,11,13,15,17,19,21,23,25,27,29,-1,-1,-1,31,-1,-1,-1,33,35,-1,-1,-1,-1,37,-1,-1,-1,-1,-1,-1,-1,-1],"loss_changes":[4.3538418E-1,7.5844586E-2,4.6969563E-2,0E0,2.7678452E-2,9.808168E-3,0E0,6.0494244E-3,4.243172E-3,6.374281E-3,6.425753E-4,2.7960278E-3,4.4868886E-4,5.439082E-4,7.714841E-4,4.7724694E-3,8.4803405E-4,0E0,0E0,0E0,4.86115E-4,0E0,0E0,0E0,6.9254893E-6,3.5254088E-6,0E0,0E0,0E0,0E0,9.049004E-5,0E0,0E0,0E0,0E0,0E0,0E0,0E0,0E0],"parents":[2147483647,0,0,1,1,2,2,4,4,5,5,7,7,8,8,9,9,10,10,11,11,12,12,13,13,14,14,15,15,16,16,20,20,24,24,25,25,30,30],"right_children":[2,4,6,-1,8,10,-1,12,14,16,18,20,22,24,26,28,30,-1,-1,-1,32,-1,-1,-1,34,36,-1,-1,-1,-1,38,-1,-1,-1,-1,-1,-1,-1,-1],"split_conditions":[1.952E0,1.1048E0,1.3444E0,-9.458699E-3,9.133E-1,2.259E0,9.680981E-3,1.0586E0,1.0125536E3,1.013493E3,1.525E-1,6.644E-1,2.759E-1,1.0109684E3,9.31E-1,1.2465E0,9.407E-1,1.7956774E-3,4.6215183E-3,-3.6315303E-3,8.444E-1,-1.2816072E-3,-4.7649015E-3,-1.6408404E-3,9.525E-1,7.579E-1,1.3652722E-3,4.248044E-3,1.4218688E-3,-5.755365E-4,1.1234E0,-1.9196803E-3,-3.3361913E-4,-1.2776852E-4,-5.1364105E-4,1.02186204E-4,-6.6876414E-6,8.6187915E-4,1.3502837E-4],"split_indices":[2,2,0,0,1,2,0,15,21,21,6,1,7,13,0,16,1,0,0,0,1,0,0,0,1,0,0,0,0,0,1,0,0,0,0,0,0,0,0],"split_type":[0,0,0,0,0,0,0,0,0,0,0,0,0,0,0,0,0,0,0,0,0,0,0,0,0,0,0,0,0,0,0,0,0,0,0,0,0,0,0],"sum_hessian":[6.8E1,3.9E1,2.9E1,4E0,3.5E1,2.6E1,3E0,2.6E1,9E0,1.2E1,1.4E1,1.6E1,1E1,5E0,4E0,8E0,4E0,2E0,1.2E1,5E0,1.1E1,1E0,9E0,2E0,3E0,2E0,2E0,3E0,5E0,1E0,3E0,1E1,1E0,1E0,2E0,1E0,1E0,2E0,1E0],"tree_param":{"num_deleted":"0","num_feature":"24","num_nodes":"39","size_leaf_vector":"1"}},{"base_weights":[8.722544E-3,-6.503829E-2,9.115977E-2,-1.1994692E-1,-3.719438E-2,6.312766E-2,1.862608E-1,-8.712264E-3,-4.1243443E-3,-5.0455414E-2,6.0077733E-3,3.9310694E-2,8.24355E-2,2.537477E-3,1.0019388E-2,-2.7416196E-2,-5.8371067E-2,-3.4210682E-3,1.5645206E-3,4.4061203E-2,-5.611479E-4,2.1080077E-2,9.7252436E-2,-1.598618E-3,-5.341927E-4,-4.2032005E-4,-6.1567858E-2,5.448103E-3,-4.6088398E-4,1.2277444E-3,2.6591644E-3,1.4911533E-3,4.1123628E-4,5.479758E-3,1.390338E-3,-3.3548877E-3,-1.0384481E-3,-6.5207482E-6,4.1512848E-4],"categories":[],"categories_nodes":[],"categories_segments":[],"categories_sizes":[],"default_left":[0,0,0,0,0,0,0,0,0,0,0,0,0,0,0,0,0,0,0,0,0,0,0,0,0,0,0,0,0,0,0,0,0,0,0,0,0,0,0],"id":38,"left_children":[1,3,5,7,9,11,13,-1,-1,15,17,19,21,-1,-1,23,25,27,-1,29,-1,31,33,-1,-1,-1,35,37,-1,-1,-1,-1,-1,-1,-1,-1,-1,-1,-1],"loss_changes":[4.2549294E-1,5.2106887E-2,7.621592E-2,1.00352615E-2,1.5198663E-2,9.1754645E-3,3.2309443E-3,0E0,0E0,2.0470954E-3,1.7757486E-3,3.8553458E-3,1.0677293E-2,0E0,0E0,1.920592E-4,1.7186068E-3,3.5868568E-4,0E0,1.0072868E-3,0E0,2.0429026E-4,6.381169E-3,0E0,0E0,0E0,1.5394241E-3,4.8853857E-5,0E0,0E0,0E0,0E0,0E0,0E0,0E0,0E0,0E0,0E0,0E0],"parents":[2147483647,0,0,1,1,2,2,3,3,4,4,5,5,6,6,9,9,10,10,11,11,12,12,15,15,16,16,17,17,19,19,21,21,22,22,26,26,27,27],"right_children":[2,4,6,8,10,12,14,-1,-1,16,18,20,22,-1,-1,24,26,28,-1,30,-1,32,34,-1,-1,-1,36,38,-1,-1,-1,-1,-1,-1,-1,-1,-1,-1,-1],"split_conditions":[1.9525E0,1.3522E0,1.2776E0,6.05E-1,2.0027E0,7.588E-1,1.0120125E3,-8.712264E-3,-4.1243443E-3,1.0125536E3,1.0164719E3,1.5785E0,1.0207E0,2.537477E-3,1.0019388E-2,1.8192E0,1.0636E0,1.142E0,1.5645206E-3,2.2089E0,-5.611479E-4,9.525E-1,1.6843E0,-1.598618E-3,-5.341927E-4,-4.2032005E-4,9.133E-1,9.31E-1,-4.6088398E-4,1.2277444E-3,2.6591644E-3,1.4911533E-3,4.1123628E-4,5.479758E-3,1.390338E-3,-3.3548877E-3,-1.0384481E-3,-6.5207482E-6,4.1512848E-4],"split_indices":[2,2,0,0,6,14,4,0,0,20,4,6,0,0,0,14,9,7,0,2,0,0,16,0,0,0,0,0,0,0,0,0,0,0,0,0,0,0,0],"split_type":[0,0,0,0,0,0,0,0,0,0,0,0,0,0,0,0,0,0,0,0,0,0,0,0,0,0,0,0,0,0,0,0,0,0,0,0,0,0,0],"sum_hessian":[6.8E1,3.6E1,3.2E1,1.1E1,2.5E1,2.6E1,6E0,3E0,8E0,1.9E1,6E0,1.3E1,1.3E1,1E0,5E0,6E0,1.3E1,5E0,1E0,1.2E1,1E0,3E0,1E1,4E0,2E0,1E0,1.2E1,2E0,3E0,5E0,7E0,1E0,2E0,8E0,2E0,1E1,2E0,1E0,1E0],"tree_param":{"num_deleted":"0","num_feature":"24","num_nodes":"39","size_leaf_vector":"1"}},{"base_weights":[4.3911133E-3,-6.0938552E-2,7.774977E-2,-1.2616079E-1,-3.1000743E-2,5.3006906E-2,7.267624E-3,-7.735569E-3,-3.8291693E-3,-4.157768E-2,1.11853285E-2,3.4344595E-2,7.36367E-2,-2.6633868E-3,-2.3391843E-2,-3.1825702E-4,2.1551847E-2,1.5796581E-2,2.6642834E-3,1.0567706E-3,4.147764E-3,-2.737102E-2,-4.983425E-3,2.9802322E-4,1.2381077E-3,-2.5443435E-3,2.5391102E-2,-5.6764286E-4,-1.5409131E-3,-4.0704013E-5,-3.3305289E-4,8.950233E-5,-3.8868785E-4,1.5528232E-3,4.686793E-4],"categories":[],"categories_nodes":[],"categories_segments":[],"categories_sizes":[],"default_left":[0,0,0,0,0,0,0,0,0,0,0,0,0,0,0,0,0,0,0,0,0,0,0,0,0,0,0,0,0,0,0,0,0,0,0],"id":39,"left_children":[1,3,5,7,9,11,-1,-1,-1,13,15,17,19,-1,21,-1,23,25,-1,-1,-1,27,29,-1,-1,31,33,-1,-1,-1,-1,-1,-1,-1,-1],"loss_changes":[3.2583523E-1,6.638293E-2,4.582122E-2,3.7217885E-3,1.2066245E-2,7.0959777E-3,0E0,0E0,0E0,3.218431E-3,1.228804E-3,4.428057E-3,3.6283135E-3,0E0,5.9610186E-4,0E0,5.2618678E-5,1.648355E-3,0E0,0E0,0E0,9.1872644E-5,1.556125E-5,0E0,0E0,1.04580664E-4,2.533598E-4,0E0,0E0,0E0,0E0,0E0,0E0,0E0,0E0],"parents":[2147483647,0,0,1,1,2,2,3,3,4,4,5,5,9,9,10,10,11,11,12,12,14,14,16,16,17,17,21,21,22,22,25,25,26,26],"right_children":[2,4,6,8,10,12,-1,-1,-1,14,16,18,20,-1,22,-1,24,26,-1,-1,-1,28,30,-1,-1,32,34,-1,-1,-1,-1,-1,-1,-1,-1],"split_conditions":[2.0248E0,1.3522E0,2.5731E0,1.1933E0,1.5948E0,2.2617E0,7.267624E-3,-7.735569E-3,-3.8291693E-3,1.6079E0,1.9525E0,2.2485E0,1.0108649E3,-2.6633868E-3,1.0133529E3,-3.1825702E-4,8.744E-1,1.0120646E3,2.6642834E-3,1.0567706E-3,4.147764E-3,2.115E-1,9.525E-1,2.9802322E-4,1.2381077E-3,2.1052E0,5.881E-1,-5.6764286E-4,-1.5409131E-3,-4.0704013E-5,-3.3305289E-4,8.950233E-5,-3.8868785E-4,1.5528232E-3,4.686793E-4],"split_indices":[3,2,2,3,16,3,0,0,0,3,2,2,13,0,13,0,1,5,0,0,0,15,1,0,0,3,6,0,0,0,0,0,0,0,0],"split_type":[0,0,0,0,0,0,0,0,0,0,0,0,0,0,0,0,0,0,0,0,0,0,0,0,0,0,0,0,0,0,0,0,0,0,0],"sum_hessian":[6.6E1,3.5E1,3.1E1,1E1,2.5E1,2.4E1,7E0,5E0,5E0,2E1,5E0,1.4E1,1E1,1.1E1,9E0,2E0,3E0,8E0,6E0,2E0,8E0,7E0,2E0,1E0,2E0,3E0,5E0,2E0,5E0,1E0,1E0,2E0,1E0,3E0,2E0],"tree_param":{"num_deleted":"0","num_feature":"24","num_nodes":"35","size_leaf_vector":"1"}},{"base_weights":[5.7251863E-3,-5.4182578E-2,8.1417516E-2,-7.6933797E-3,-3.4416135E-2,6.0093313E-2,1.0250074E-2,-5.2433193E-2,-6.2191826E-3,3.2310665E-2,7.717447E-2,-5.4552905E-2,-3.0396582E-4,-2.1964997E-2,1.26644885E-2,-3.789723E-4,3.662608E-2,8.233964E-2,-7.5757503E-6,-3.9815526E-2,-6.9839865E-2,-5.8281897E-3,-1.8322378E-3,-2.3411114E-3,1.913495E-2,4.605532E-4,1.9223237E-3,9.2573725E-2,1.5526236E-3,-2.2004151E-3,-6.2838796E-4,-3.7294726E-3,-9.148181E-4,-5.5079855E-4,6.511609E-5,-1.807809E-5,-1.5750527E-4,4.850775E-4,1.4217139E-3,4.8212586E-3,1.2551964E-3],"categories":[],"categories_nodes":[],"categories_segments":[],"categories_sizes":[],"default_left":[0,0,0,0,0,0,0,0,0,0,0,0,0,0,0,0,0,0,0,0,0,0,0,0,0,0,0,0,0,0,0,0,0,0,0,0,0,0,0,0,0],"id":40,"left_children":[1,3,5,-1,7,9,-1,11,13,15,17,19,-1,21,23,-1,25,27,-1,29,31,33,-1,35,37,-1,-1,39,-1,-1,-1,-1,-1,-1,-1,-1,-1,-1,-1,-1,-1],"loss_changes":[3.0822682E-1,6.9580354E-2,6.674062E-2,0E0,1.6438775E-2,1.0319553E-2,0E0,1.6334951E-3,4.4409186E-3,2.3433138E-3,6.4029023E-3,1.4997907E-3,0E0,1.6815027E-3,7.244493E-4,0E0,1.9483455E-4,4.9985126E-3,0E0,8.178409E-4,5.9376657E-4,1.9930405E-4,0E0,3.6653746E-6,1.6276469E-4,0E0,0E0,6.9762766E-4,0E0,0E0,0E0,0E0,0E0,0E0,0E0,0E0,0E0,0E0,0E0,0E0,0E0],"parents":[2147483647,0,0,1,1,2,2,4,4,5,5,7,7,8,8,9,9,10,10,11,11,13,13,14,14,16,16,17,17,19,19,20,20,21,21,23,23,24,24,27,27],"right_children":[2,4,6,-1,8,10,-1,12,14,16,18,20,-1,22,24,-1,26,28,-1,30,32,34,-1,36,38,-1,-1,40,-1,-1,-1,-1,-1,-1,-1,-1,-1,-1,-1,-1,-1],"split_conditions":[1.0207E0,2.2446E0,1.3444E0,-7.6933797E-3,1.7407E0,6.207E-1,1.0250074E-2,1.0159531E3,9.257E-1,1.0394E0,4.5363E0,9.868E-1,-3.0396582E-4,1.5176E0,1.013076E3,-3.789723E-4,1.0479E0,1.6565E0,-7.5757503E-6,1.6079E0,9.133E-1,1.0117061E3,-1.8322378E-3,9.31E-1,1.1234E0,4.605532E-4,1.9223237E-3,3.3088E0,1.5526236E-3,-2.2004151E-3,-6.2838796E-4,-3.7294726E-3,-9.148181E-4,-5.5079855E-4,6.511609E-5,-1.807809E-5,-1.5750527E-4,4.850775E-4,1.4217139E-3,4.8212586E-3,1.2551964E-3],"split_indices":[0,11,0,0,3,15,0,4,0,0,7,14,0,15,5,0,0,15,0,3,0,4,0,0,1,0,0,18,0,0,0,0,0,0,0,0,0,0,0,0,0],"split_type":[0,0,0,0,0,0,0,0,0,0,0,0,0,0,0,0,0,0,0,0,0,0,0,0,0,0,0,0,0,0,0,0,0,0,0,0,0,0,0,0,0],"sum_hessian":[6.6E1,3.7E1,2.9E1,5E0,3.2E1,2.6E1,3E0,1.9E1,1.3E1,1.1E1,1.5E1,1.8E1,1E0,7E0,6E0,1E0,1E1,1.4E1,1E0,1.1E1,7E0,4E0,3E0,2E0,4E0,1E0,9E0,1.1E1,3E0,9E0,2E0,6E0,1E0,2E0,2E0,1E0,1E0,3E0,1E0,1E1,1E0],"tree_param":{"num_deleted":"0","num_feature":"24","num_nodes":"41","size_leaf_vector":"1"}},{"base_weights":[7.669564E-4,-6.974197E-2,6.9179535E-2,-7.4727456E-3,-5.3593468E-2,3.4453608E-2,1.1632703E-1,-6.235366E-2,-1.7153773E-2,1.802001E-2,3.2373257E-3,3.1101226E-3,1.3948485E-1,-2.2316312E-2,-6.960803E-2,-2.3543786E-2,-3.9291383E-5,-4.3570995E-4,2.7291441E-2,2.5033436E-3,7.894022E-3,-1.2465864E-3,-2.9636623E-4,-8.561313E-4,-7.157263E-2,-3.1095743E-4,-1.316008E-3,-5.633434E-4,7.7965856E-3,3.0356646E-2,-7.3850156E-6,-2.0985524E-3,-3.9864657E-3,-1.5356542E-4,6.221493E-4,1.5953019E-3,4.4903756E-4],"categories":[],"categories_nodes":[],"categories_segments":[],"categories_sizes":[],"default_left":[0,0,0,0,0,0,0,0,0,0,0,0,0,0,0,0,0,0,0,0,0,0,0,0,0,0,0,0,0,0,0,0,0,0,0,0,0],"id":41,"left_children":[1,3,5,-1,7,9,11,13,15,17,-1,-1,19,21,23,25,-1,27,29,-1,-1,-1,-1,-1,31,-1,-1,-1,33,35,-1,-1,-1,-1,-1,-1,-1],"loss_changes":[3.2318875E-1,3.446926E-2,5.1658303E-2,0E0,8.1877485E-3,9.287519E-3,8.871406E-3,5.126849E-3,7.1363826E-4,2.5785551E-3,0E0,0E0,6.899506E-3,6.6541834E-5,7.3362887E-4,7.680943E-5,0E0,6.2283484E-4,8.4554916E-4,0E0,0E0,0E0,0E0,0E0,9.997934E-4,0E0,0E0,0E0,2.4020259E-4,1.1537224E-5,0E0,0E0,0E0,0E0,0E0,0E0,0E0],"parents":[2147483647,0,0,1,1,2,2,4,4,5,5,6,6,7,7,8,8,9,9,12,12,13,13,14,14,15,15,17,17,18,18,24,24,28,28,29,29],"right_children":[2,4,6,-1,8,10,12,14,16,18,-1,-1,20,22,24,26,-1,28,30,-1,-1,-1,-1,-1,32,-1,-1,-1,34,36,-1,-1,-1,-1,-1,-1,-1],"split_conditions":[9.486E-1,2.1479E0,1.1844E0,-7.4727456E-3,9.31E-1,2.2764E0,1.2498E0,1.0113297E3,7.853E-1,1.5282E0,3.2373257E-3,3.1101226E-3,1.0116216E3,7.745E-1,7.87E-2,9.578E-1,-3.9291383E-5,1.0542E0,1.1399E0,2.5033436E-3,7.894022E-3,-1.2465864E-3,-2.9636623E-4,-8.561313E-4,4.82E-1,-3.1095743E-4,-1.316008E-3,-5.633434E-4,9.954E-1,1.1266E0,-7.3850156E-6,-2.0985524E-3,-3.9864657E-3,-1.5356542E-4,6.221493E-4,1.5953019E-3,4.4903756E-4],"split_indices":[0,10,1,0,1,2,16,20,0,8,0,0,5,1,14,1,0,22,1,0,0,0,0,0,7,0,0,0,1,1,0,0,0,0,0,0,0],"split_type":[0,0,0,0,0,0,0,0,0,0,0,0,0,0,0,0,0,0,0,0,0,0,0,0,0,0,0,0,0,0,0,0,0,0,0,0,0],"sum_hessian":[6.5E1,3.2E1,3.3E1,4E0,2.8E1,2E1,1.3E1,2.2E1,6E0,1.4E1,6E0,5E0,8E0,4E0,1.8E1,4E0,2E0,5E0,9E0,2E0,6E0,3E0,1E0,1E0,1.7E1,1E0,3E0,2E0,3E0,8E0,1E0,5E0,1.2E1,1E0,2E0,7E0,1E0],"tree_param":{"num_deleted":"0","num_feature":"24","num_nodes":"37","size_leaf_vector":"1"}},{"base_weights":[-5.086619E-3,-6.524971E-2,7.530039E-2,-7.631606E-3,-4.5340106E-2,4.894333E-2,8.628571E-3,-5.688872E-2,-1.1934566E-2,1.8457955E-2,6.8036385E-2,-7.217567E-2,-4.188571E-2,-1.9693047E-2,6.366452E-4,2.5514193E-4,4.02503E-2,3.83151E-2,7.906552E-2,-9.05025E-4,-3.7886568E-3,-6.233156E-4,-2.410085E-3,-1.1666417E-3,-2.9245616E-4,-4.1517736E-3,3.7574768E-4,5.627811E-4,2.2342533E-3,8.3852216E-4,2.2447407E-3,4.5531327E-3,1.9152075E-3,-4.5480134E-4,-3.208518E-5],"categories":[],"categories_nodes":[],"categories_segments":[],"categories_sizes":[],"default_left":[0,0,0,0,0,0,0,0,0,0,0,0,0,0,0,0,0,0,0,0,0,0,0,0,0,0,0,0,0,0,0,0,0,0,0],"id":42,"left_children":[1,3,5,-1,7,9,-1,11,13,15,17,19,21,23,-1,25,27,29,31,-1,-1,-1,-1,-1,-1,33,-1,-1,-1,-1,-1,-1,-1,-1,-1],"loss_changes":[3.386202E-1,6.2669605E-2,6.8467125E-2,0E0,1.2437843E-2,1.3295662E-2,0E0,2.7106255E-3,2.1645701E-3,4.3532318E-3,1.8875897E-3,7.683374E-4,2.1862928E-3,2.666351E-4,0E0,2.55154E-4,1.3996568E-4,9.763986E-5,1.4021173E-3,0E0,0E0,0E0,0E0,0E0,0E0,8.09364E-5,0E0,0E0,0E0,0E0,0E0,0E0,0E0,0E0,0E0],"parents":[2147483647,0,0,1,1,2,2,4,4,5,5,7,7,8,8,9,9,10,10,11,11,12,12,13,13,15,15,16,16,17,17,18,18,25,25],"right_children":[2,4,6,-1,8,10,-1,12,14,16,18,20,22,24,-1,26,28,30,32,-1,-1,-1,-1,-1,-1,34,-1,-1,-1,-1,-1,-1,-1,-1,-1],"split_conditions":[1.9436E0,2.2446E0,1.2776E0,-7.631606E-3,1.8078E0,2.1214E0,8.628571E-3,1.3522E0,1.0147662E3,3.0927E0,5.211E-1,1.1009E0,2.3191E0,1.0150942E3,6.366452E-4,1.0124164E3,1.0259E0,2.179E0,1.0141154E3,-9.05025E-4,-3.7886568E-3,-6.233156E-4,-2.410085E-3,-1.1666417E-3,-2.9245616E-4,7.853E-1,3.7574768E-4,5.627811E-4,2.2342533E-3,8.3852216E-4,2.2447407E-3,4.5531327E-3,1.9152075E-3,-4.5480134E-4,-3.208518E-5],"split_indices":[3,11,0,0,2,3,0,2,13,18,15,8,10,4,0,12,0,2,20,0,0,0,0,0,0,0,0,0,0,0,0,0,0,0,0],"split_type":[0,0,0,0,0,0,0,0,0,0,0,0,0,0,0,0,0,0,0,0,0,0,0,0,0,0,0,0,0,0,0,0,0,0,0],"sum_hessian":[6.8E1,3.9E1,2.9E1,6E0,3.3E1,2.4E1,5E0,2.4E1,9E0,1E1,1.4E1,1E1,1.4E1,7E0,2E0,6E0,4E0,5E0,9E0,1E0,9E0,3E0,1.1E1,5E0,2E0,4E0,2E0,1E0,3E0,2E0,3E0,6E0,3E0,1E0,3E0],"tree_param":{"num_deleted":"0","num_feature":"24","num_nodes":"35","size_leaf_vector":"1"}},{"base_weights":[3.4082145E-3,-4.690472E-2,7.695901E-2,-9.692319E-2,-2.2865247E-2,5.660658E-2,9.246096E-3,-7.28938E-3,-3.3842553E-3,-3.3668112E-2,1.5896354E-2,2.6346471E-2,6.929684E-2,-4.849217E-2,-1.8534826E-2,-7.8662235E-4,1.1363435E-3,6.7602633E-3,4.0663384E-2,4.4858694E-2,8.1917666E-2,-5.4805607E-2,-1.187113E-3,-3.9303303E-3,-2.252314E-2,-2.8164388E-4,2.226472E-4,-3.7637353E-4,6.1070325E-4,3.8559438E-4,2.3486644E-3,1.46769285E-2,3.0016184E-3,1.0950029E-3,4.3076477E-3,-2.914083E-3,-7.6183083E-4,1.5923977E-4,-3.6818188E-4,-1.3159616E-3,-5.124599E-4,-6.3955786E-6,9.827256E-4],"categories":[],"categories_nodes":[],"categories_segments":[],"categories_sizes":[],"default_left":[0,0,0,0,0,0,0,0,0,0,0,0,0,0,0,0,0,0,0,0,0,0,0,0,0,0,0,0,0,0,0,0,0,0,0,0,0,0,0,0,0,0,0],"id":43,"left_children":[1,3,5,7,9,11,-1,-1,-1,13,15,17,19,21,23,25,-1,27,29,31,33,35,-1,37,39,-1,-1,-1,-1,-1,-1,41,-1,-1,-1,-1,-1,-1,-1,-1,-1,-1,-1],"loss_changes":[2.5524756E-1,4.7082946E-2,5.1056817E-2,8.705474E-3,1.2678557E-2,7.774487E-3,0E0,0E0,0E0,4.26095E-3,8.155509E-4,2.248831E-3,1.5685782E-3,4.1761994E-4,6.6869194E-4,1.0125971E-4,0E0,4.8155326E-4,6.773509E-4,2.7826559E-3,6.551668E-4,2.1233596E-4,0E0,1.2116531E-4,1.9617891E-4,0E0,0E0,0E0,0E0,0E0,0E0,2.972833E-4,0E0,0E0,0E0,0E0,0E0,0E0,0E0,0E0,0E0,0E0,0E0],"parents":[2147483647,0,0,1,1,2,2,3,3,4,4,5,5,9,9,10,10,11,11,12,12,13,13,14,14,15,15,17,17,18,18,19,19,20,20,21,21,23,23,24,24,31,31],"right_children":[2,4,6,8,10,12,-1,-1,-1,14,16,18,20,22,24,26,-1,28,30,32,34,36,-1,38,40,-1,-1,-1,-1,-1,-1,42,-1,-1,-1,-1,-1,-1,-1,-1,-1,-1,-1],"split_conditions":[1.0479E0,1.3372E0,1.3444E0,1.1048E0,1.5948E0,2.0643E0,9.246096E-3,-7.28938E-3,-3.3842553E-3,1.6618E0,1.0207E0,6.738E-1,5.087E-1,1.0133529E3,1.2267E0,8.97E-1,1.1363435E-3,1.9352E0,2.1003E0,2.2617E0,9.3E-2,8.914E-1,-1.187113E-3,7.579E-1,1.0133529E3,-2.8164388E-4,2.226472E-4,-3.7637353E-4,6.1070325E-4,3.8559438E-4,2.3486644E-3,2.2485E0,3.0016184E-3,1.0950029E-3,4.3076477E-3,-2.914083E-3,-7.6183083E-4,1.5923977E-4,-3.6818188E-4,-1.3159616E-3,-5.124599E-4,-6.3955786E-6,9.827256E-4],"split_indices":[1,2,0,2,16,2,0,0,0,3,0,15,22,12,8,0,0,2,3,2,6,0,0,0,13,0,0,0,0,0,0,2,0,0,0,0,0,0,0,0,0,0,0],"split_type":[0,0,0,0,0,0,0,0,0,0,0,0,0,0,0,0,0,0,0,0,0,0,0,0,0,0,0,0,0,0,0,0,0,0,0,0,0,0,0,0,0,0,0],"sum_hessian":[6.7E1,4E1,2.7E1,1.2E1,2.8E1,2.4E1,3E0,3E0,9E0,2.2E1,6E0,8E0,1.6E1,1E1,1.2E1,2E0,4E0,4E0,4E0,7E0,9E0,7E0,3E0,3E0,9E0,1E0,1E0,1E0,3E0,1E0,3E0,3E0,4E0,1E0,8E0,6E0,1E0,1E0,2E0,6E0,3E0,1E0,2E0],"tree_param":{"num_deleted":"0","num_feature":"24","num_nodes":"43","size_leaf_vector":"1"}},{"base_weights":[-3.4604613E-3,-5.8424022E-2,5.332885E-2,-6.7642825E-3,-4.3157395E-2,3.6094386E-2,1.3917609E-1,-6.442907E-2,-3.036369E-2,1.607126E-2,5.796174E-2,7.81318E-3,1.7706513E-3,-8.527219E-4,-3.3898992E-3,-1.6459096E-2,-4.2622376E-2,2.846554E-2,3.2684272E-3,2.9972286E-3,8.5419416E-4,1.730442E-3,-2.0693488E-2,-2.554655E-4,-4.622279E-2,2.1708012E-4,1.5645793E-3,-8.402681E-3,1.428585E-2,1.5525818E-4,-2.5475025E-5,-1.0953576E-3,-2.7460456E-4,-9.555618E-4,-2.5619387E-3,-5.974134E-4,-1.0281006E-4,1.9572377E-4,7.950038E-4],"categories":[],"categories_nodes":[],"categories_segments":[],