{"learner":{"attributes":{"scikit_learn":"{\"_estimator_type\": \"regressor\"}"},"feature_names":["station1_velocity_lag3","station1_velocity_lag5","station1_water_level_lag3","station1_water_level_lag5","station1_pressure_lag3","station1_pressure_lag5","station1_rainfall_lag3","station1_rainfall_lag5","station2_velocity_lag2","station2_velocity_lag3","station2_water_level_lag2","station2_water_level_lag3","station2_pressure_lag2","station2_pressure_lag3","station2_rainfall_lag2","station2_rainfall_lag3","station3_velocity_lag0","station3_velocity_lag1","station3_water_level_lag0","station3_water_level_lag1","station3_pressure_lag0","station3_pressure_lag1","station3_rainfall_lag0","station3_rainfall_lag1"],"feature_types":["float","float","float","float","float","float","float","float","float","float","float","float","float","float","float","float","float","float","float","float","float","float","float","float"],"gradient_booster":{"model":{"cats":{"enc":[],"feature_segments":[],"sorted_idx":[]},"gbtree_model_param":{"num_parallel_tree":"1","num_trees":"1000"},"iteration_indptr":[0,1,2,3,4,5,6,7,8,9,10,11,12,13,14,15,16,17,18,19,20,21,22,23,24,25,26,27,28,29,30,31,32,33,34,35,36,37,38,39,40,41,42,43,44,45,46,47,48,49,50,51,52,53,54,55,56,57,58,59,60,61,62,63,64,65,66,67,68,69,70,71,72,73,74,75,76,77,78,79,80,81,82,83,84,85,86,87,88,89,90,91,92,93,94,95,96,97,98,99,100,101,102,103,104,105,106,107,108,109,110,111,112,113,114,115,116,117,118,119,120,121,122,123,124,125,126,127,128,129,130,131,132,133,134,135,136,137,138,139,140,141,142,143,144,145,146,147,148,149,150,151,152,153,154,155,156,157,158,159,160,161,162,163,164,165,166,167,168,169,170,171,172,173,174,175,176,177,178,179,180,181,182,183,184,185,186,187,188,189,190,191,192,193,194,195,196,197,198,199,200,201,202,203,204,205,206,207,208,209,210,211,212,213,214,215,216,217,218,219,220,221,222,223,224,225,226,227,228,229,230,231,232,233,234,235,236,237,238,239,240,241,242,243,244,245,246,247,248,249,250,251,252,253,254,255,256,257,258,259,260,261,262,263,264,265,266,267,268,269,270,271,272,273,274,275,276,277,278,279,280,281,282,283,284,285,286,287,288,289,290,291,292,293,294,295,296,297,298,299,300,301,302,303,304,305,306,307,308,309,310,311,312,313,314,315,316,317,318,319,320,321,322,323,324,325,326,327,328,329,330,331,332,333,334,335,336,337,338,339,340,341,342,343,344,345,346,347,348,349,350,351,352,353,354,355,356,357,358,359,360,361,362,363,364,365,366,367,368,369,370,371,372,373,374,375,376,377,378,379,380,381,382,383,384,385,386,387,388,389,390,391,392,393,394,395,396,397,398,399,400,401,402,403,404,405,406,407,408,409,410,411,412,413,414,415,416,417,418,419,420,421,422,423,424,425,426,427,428,429,430,431,432,433,434,435,436,437,438,439,440,441,442,443,444,445,446,447,448,449,450,451,452,453,454,455,456,457,458,459,460,461,462,463,464,465,466,467,468,469,470,471,472,473,474,475,476,477,478,479,480,481,482,483,484,485,486,487,488,489,490,491,492,493,494,495,496,497,498,499,500,501,502,503,504,505,506,507,508,509,510,511,512,513,514,515,516,517,518,519,520,521,522,523,524,525,526,527,528,529,530,531,532,533,534,535,536,537,538,539,540,541,542,543,544,545,546,547,548,549,550,551,552,553,554,555,556,557,558,559,560,561,562,563,564,565,566,567,568,569,570,571,572,573,574,575,576,577,578,579,580,581,582,583,584,585,586,587,588,589,590,591,592,593,594,595,596,597,598,599,600,601,602,603,604,605,606,607,608,609,610,611,612,613,614,615,616,617,618,619,620,621,622,623,624,625,626,627,628,629,630,631,632,633,634,635,636,637,638,639,640,641,642,643,644,645,646,647,648,649,650,651,652,653,654,655,656,657,658,659,660,661,662,663,664,665,666,667,668,669,670,671,672,673,674,675,676,677,678,679,680,681,682,683,684,685,686,687,688,689,690,691,692,693,694,695,696,697,698,699,700,701,702,703,704,705,706,707,708,709,710,711,712,713,714,715,716,717,718,719,720,721,722,723,724,725,726,727,728,729,730,731,732,733,734,735,736,737,738,739,740,741,742,743,744,745,746,747,748,749,750,751,752,753,754,755,756,757,758,759,760,761,762,763,764,765,766,767,768,769,770,771,772,773,774,775,776,777,778,779,780,781,782,783,784,785,786,787,788,789,790,791,792,793,794,795,796,797,798,799,800,801,802,803,804,805,806,807,808,809,810,811,812,813,814,815,816,817,818,819,820,821,822,823,824,825,826,827,828,829,830,831,832,833,834,835,836,837,838,839,840,841,842,843,844,845,846,847,848,849,850,851,852,853,854,855,856,857,858,859,860,861,862,863,864,865,866,867,868,869,870,871,872,873,874,875,876,877,878,879,880,881,882,883,884,885,886,887,888,889,890,891,892,893,894,895,896,897,898,899,900,901,902,903,904,905,906,907,908,909,910,911,912,913,914,915,916,917,918,919,920,921,922,923,924,925,926,927,928,929,930,931,932,933,934,935,936,937,938,939,940,941,942,943,944,945,946,947,948,949,950,951,952,953,954,955,956,957,958,959,960,961,962,963,964,965,966,967,968,969,970,971,972,973,974,975,976,977,978,979,980,981,982,983,984,985,986,987,988,989,990,991,992,993,994,995,996,997,998,999,1000],"tree_info":[0,0,0,0,0,0,0,0,0,0,0,0,0,0,0,0,0,0,0,0,0,0,0,0,0,0,0,0,0,0,0,0,0,0,0,0,0,0,0,0,0,0,0,0,0,0,0,0,0,0,0,0,0,0,0,0,0,0,0,0,0,0,0,0,0,0,0,0,0,0,0,0,0,0,0,0,0,0,0,0,0,0,0,0,0,0,0,0,0,0,0,0,0,0,0,0,0,0,0,0,0,0,0,0,0,0,0,0,0,0,0,0,0,0,0,0,0,0,0,0,0,0,0,0,0,0,0,0,0,0,0,0,0,0,0,0,0,0,0,0,0,0,0,0,0,0,0,0,0,0,0,0,0,0,0,0,0,0,0,0,0,0,0,0,0,0,0,0,0,0,0,0,0,0,0,0,0,0,0,0,0,0,0,0,0,0,0,0,0,0,0,0,0,0,0,0,0,0,0,0,0,0,0,0,0,0,0,0,0,0,0,0,0,0,0,0,0,0,0,0,0,0,0,0,0,0,0,0,0,0,0,0,0,0,0,0,0,0,0,0,0,0,0,0,0,0,0,0,0,0,0,0,0,0,0,0,0,0,0,0,0,0,0,0,0,0,0,0,0,0,0,0,0,0,0,0,0,0,0,0,0,0,0,0,0,0,0,0,0,0,0,0,0,0,0,0,0,0,0,0,0,0,0,0,0,0,0,0,0,0,0,0,0,0,0,0,0,0,0,0,0,0,0,0,0,0,0,0,0,0,0,0,0,0,0,0,0,0,0,0,0,0,0,0,0,0,0,0,0,0,0,0,0,0,0,0,0,0,0,0,0,0,0,0,0,0,0,0,0,0,0,0,0,0,0,0,0,0,0,0,0,0,0,0,0,0,0,0,0,0,0,0,0,0,0,0,0,0,0,0,0,0,0,0,0,0,0,0,0,0,0,0,0,0,0,0,0,0,0,0,0,0,0,0,0,0,0,0,0,0,0,0,0,0,0,0,0,0,0,0,0,0,0,0,0,0,0,0,0,0,0,0,0,0,0,0,0,0,0,0,0,0,0,0,0,0,0,0,0,0,0,0,0,0,0,0,0,0,0,0,0,0,0,0,0,0,0,0,0,0,0,0,0,0,0,0,0,0,0,0,0,0,0,0,0,0,0,0,0,0,0,0,0,0,0,0,0,0,0,0,0,0,0,0,0,0,0,0,0,0,0,0,0,0,0,0,0,0,0,0,0,0,0,0,0,0,0,0,0,0,0,0,0,0,0,0,0,0,0,0,0,0,0,0,0,0,0,0,0,0,0,0,0,0,0,0,0,0,0,0,0,0,0,0,0,0,0,0,0,0,0,0,0,0,0,0,0,0,0,0,0,0,0,0,0,0,0,0,0,0,0,0,0,0,0,0,0,0,0,0,0,0,0,0,0,0,0,0,0,0,0,0,0,0,0,0,0,0,0,0,0,0,0,0,0,0,0,0,0,0,0,0,0,0,0,0,0,0,0,0,0,0,0,0,0,0,0,0,0,0,0,0,0,0,0,0,0,0,0,0,0,0,0,0,0,0,0,0,0,0,0,0,0,0,0,0,0,0,0,0,0,0,0,0,0,0,0,0,0,0,0,0,0,0,0,0,0,0,0,0,0,0,0,0,0,0,0,0,0,0,0,0,0,0,0,0,0,0,0,0,0,0,0,0,0,0,0,0,0,0,0,0,0,0,0,0,0,0,0,0,0,0,0,0,0,0,0,0,0,0,0,0,0,0,0,0,0,0,0,0,0,0,0,0,0,0,0,0,0,0,0,0,0,0,0,0,0,0,0,0,0,0,0,0,0,0,0,0,0,0,0,0,0,0,0,0,0,0,0,0,0,0,0,0,0,0,0,0,0,0,0,0,0,0,0,0,0,0,0,0,0,0,0,0,0,0,0,0,0,0,0,0,0,0,0,0,0,0,0,0,0,0,0,0,0,0,0,0,0,0,0,0,0,0,0,0,0,0,0,0,0,0,0,0,0,0,0,0,0,0,0,0,0,0,0,0,0,0,0,0,0,0,0,0,0,0,0,0,0,0,0,0,0,0,0,0,0,0,0,0,0,0,0,0,0,0,0,0,0,0,0,0,0,0,0,0,0,0,0,0,0,0,0,0,0,0,0,0,0,0,0,0,0,0,0,0,0,0,0,0,0,0,0,0,0,0,0,0,0,0,0,0,0,0,0,0,0,0,0,0,0,0,0,0,0,0,0,0,0,0,0,0,0,0,0,0,0,0,0,0],"trees":[{"base_weights":[1.2562238E-2,4.3833593E-1,-2.857934E-1,5.302785E-1,8.675415E-2,4.0036894E-2,-3.816808E-1,-2.7492524E-3,5.607665E-1,1.308862E-2,-1.0995263E-1,-1.036067E-2,1.2775114E-1,-4.74143E-1,-1.7046377E-1,7.2657466E-3,5.7427335E-1,-6.4801374E-3,-1.0509253E-2,1.8632488E-1,-3.1980038E-2,-3.0802608E-2,-5.463218E-1,3.6186535E-2,-2.2040679E-1,3.045964E-2,1.4114869E-2,-1.5317559E-3,1.0457457E-3,7.6574687E-4,1.0873194E-2,8.249283E-6,-2.4067522E-3,-5.081755E-3,1.3343295E-3,-5.778719E-1,-2.4925472E-4,2.598244E-3,1.1574626E-4,-1.2445862E-2,-4.0206714E-3,-3.056094E-2,-1.0925672E-2],"categories":[],"categories_nodes":[],"categories_segments":[],"categories_sizes":[],"default_left":[0,0,0,0,0,0,0,0,0,0,0,0,0,0,0,0,0,0,0,0,0,0,0,0,0,0,0,0,0,0,0,0,0,0,0,0,0,0,0,0,0,0,0],"id":0,"left_children":[1,3,5,7,9,11,13,-1,15,-1,17,-1,19,21,23,-1,25,27,-1,29,31,33,35,37,39,-1,-1,-1,-1,-1,-1,-1,-1,-1,-1,41,-1,-1,-1,-1,-1,-1,-1],"loss_changes":[8.636416E0,8.591051E-1,1.2650018E0,4.2339134E-1,2.6977348E-1,2.4334548E-1,5.2459335E-1,0E0,3.4389496E-2,0E0,4.0123165E-2,0E0,8.0807105E-2,6.551671E-1,1.2150389E-1,0E0,3.1939507E-2,2.6259115E-3,0E0,2.861999E-2,1.5658506E-3,1.9000707E-2,3.045454E-1,1.4830185E-3,1.5905231E-2,0E0,0E0,0E0,0E0,0E0,0E0,0E0,0E0,0E0,0E0,7.0159435E-2,0E0,0E0,0E0,0E0,0E0,0E0,0E0],"parents":[2147483647,0,0,1,1,2,2,3,3,4,4,5,5,6,6,8,8,10,10,12,12,13,13,14,14,16,16,17,17,19,19,20,20,21,21,22,22,23,23,24,24,35,35],"right_children":[2,4,6,8,10,12,14,-1,16,-1,18,-1,20,22,24,-1,26,28,-1,30,32,34,36,38,40,-1,-1,-1,-1,-1,-1,-1,-1,-1,-1,42,-1,-1,-1,-1,-1,-1,-1],"split_conditions":[1.341E0,1.0150599E3,2.7284E0,9.687E-1,1.6264E0,1.0308E0,2.259E0,-2.7492524E-3,9.729E-1,1.308862E-2,1.2833E0,-1.036067E-2,1.5058E0,2.7537E0,3.0073E0,7.2657466E-3,2.0865E0,7.161E-1,-1.0509253E-2,7.058E-1,9.525E-1,1.2795E0,1.2106E0,1.0479E0,1.2634E0,3.045964E-2,1.4114869E-2,-1.5317559E-3,1.0457457E-3,7.6574687E-4,1.0873194E-2,8.249283E-6,-2.4067522E-3,-5.081755E-3,1.3343295E-3,3.4715E0,-2.4925472E-4,2.598244E-3,1.1574626E-4,-1.2445862E-2,-4.0206714E-3,-3.056094E-2,-1.0925672E-2],"split_indices":[8,13,19,16,6,16,3,0,9,0,8,0,8,11,10,0,14,0,0,0,0,3,0,0,0,0,0,0,0,0,0,0,0,0,0,18,0,0,0,0,0,0,0],"split_type":[0,0,0,0,0,0,0,0,0,0,0,0,0,0,0,0,0,0,0,0,0,0,0,0,0,0,0,0,0,0,0,0,0,0,0,0,0,0,0,0,0,0,0],"sum_hessian":[6.6E1,2.7E1,3.9E1,2.1E1,6E0,9E0,3E1,1E0,2E1,3E0,3E0,2E0,7E0,2E1,1E1,1E0,1.9E1,2E0,1E0,5E0,2E0,3E0,1.7E1,2E0,8E0,1.6E1,3E0,1E0,1E0,1E0,4E0,1E0,1E0,1E0,2E0,1.6E1,1E0,1E0,1E0,6E0,2E0,1.4E1,2E0],"tree_param":{"num_deleted":"0","num_feature":"24","num_nodes":"43","size_leaf_vector":"1"}},{"base_weights":[-7.2400826E-3,4.3616503E-1,-2.7743247E-1,5.458013E-1,1.349628E-1,2.7414333E-2,-3.6402732E-1,-2.214559E-2,6.181787E-1,1.6066382E-2,-4.1121624E-2,1.433995E-1,-1.4550879E-2,2.0816326E-2,-4.1974843E-1,1.019603E-3,-2.6805222E-3,6.7103743E-3,3.207482E-2,7.561374E-3,-1.0988176E-2,1.228327E-2,-2.0282745E-2,4.7854465E-3,-6.101505E-2,-5.260562E-1,-1.368703E-1,-5.2502337E-3,4.295945E-2,-4.3331026E-3,-2.4302602E-4,-5.461199E-1,-3.6211074E-3,-1.8374892E-1,1.8136581E-2,8.040667E-6,3.2139183E-3,-4.954714E-3,-2.8272474E-2,-1.1491971E-2,-4.586059E-3,1.2473882E-3,1.12855436E-4],"categories":[],"categories_nodes":[],"categories_segments":[],"categories_sizes":[],"default_left":[0,0,0,0,0,0,0,0,0,0,0,0,0,0,0,0,0,0,0,0,0,0,0,0,0,0,0,0,0,0,0,0,0,0,0,0,0,0,0,0,0,0,0],"id":1,"left_children":[1,3,5,7,9,11,13,15,17,-1,19,21,-1,23,25,-1,-1,-1,-1,-1,-1,-1,27,-1,29,31,33,-1,35,-1,-1,37,-1,39,41,-1,-1,-1,-1,-1,-1,-1,-1],"loss_changes":[7.908311E0,7.519045E-1,1.0923042E0,7.536082E-1,2.7574107E-1,4.1106555E-1,6.9494295E-1,5.1085497E-3,9.4466686E-2,0E0,2.0504232E-1,1.3889568E-1,0E0,3.6482506E-2,7.700186E-1,0E0,0E0,0E0,0E0,0E0,0E0,0E0,2.5942944E-2,0E0,3.8993638E-3,1.4248133E-1,6.8731144E-2,0E0,2.7269255E-3,0E0,0E0,1.08142376E-1,0E0,8.610085E-3,2.681641E-4,0E0,0E0,0E0,0E0,0E0,0E0,0E0,0E0],"parents":[2147483647,0,0,1,1,2,2,3,3,4,4,5,5,6,6,7,7,8,8,10,10,11,11,13,13,14,14,22,22,24,24,25,25,26,26,28,28,31,31,33,33,34,34],"right_children":[2,4,6,8,10,12,14,16,18,-1,20,22,-1,24,26,-1,-1,-1,-1,-1,-1,-1,28,-1,30,32,34,-1,36,-1,-1,38,-1,40,42,-1,-1,-1,-1,-1,-1,-1,-1],"split_conditions":[1.341E0,1.2137E0,1.2498E0,9.687E-1,5.561E-1,1.0141836E3,2.963E-1,7.744E-1,1.0095206E3,1.6066382E-2,9.388E-1,1.6565E0,-1.4550879E-2,1.0479E0,1.1844E0,1.019603E-3,-2.6805222E-3,6.7103743E-3,3.207482E-2,7.561374E-3,-1.0988176E-2,1.228327E-2,9.257E-1,4.7854465E-3,1.1399E0,1.016148E3,1.0138731E3,-5.2502337E-3,9.525E-1,-4.3331026E-3,-2.4302602E-4,6.579E-1,-3.6211074E-3,1.2634E0,1.1916E0,8.040667E-6,3.2139183E-3,-4.954714E-3,-2.8272474E-2,-1.1491971E-2,-4.586059E-3,1.2473882E-3,1.12855436E-4],"split_indices":[8,16,16,16,23,21,23,0,4,0,6,15,0,0,0,0,0,0,0,0,0,0,0,0,0,4,13,0,0,0,0,1,0,0,0,0,0,0,0,0,0,0,0],"split_type":[0,0,0,0,0,0,0,0,0,0,0,0,0,0,0,0,0,0,0,0,0,0,0,0,0,0,0,0,0,0,0,0,0,0,0,0,0,0,0,0,0,0,0],"sum_hessian":[6.4E1,2.4E1,4E1,1.7E1,7E0,9E0,3.1E1,2E0,1.5E1,3E0,4E0,7E0,2E0,4E0,2.7E1,1E0,1E0,1E0,1.4E1,2E0,2E0,4E0,3E0,2E0,2E0,1.9E1,8E0,1E0,2E0,1E0,1E0,1.8E1,1E0,6E0,2E0,1E0,1E0,1E0,1.7E1,3E0,3E0,1E0,1E0],"tree_param":{"num_deleted":"0","num_feature":"24","num_nodes":"43","size_leaf_vector":"1"}},{"base_weights":[8.293311E-3,4.2770252E-1,-2.6785204E-1,4.6664614E-2,5.4557425E-1,-3.8920996E-1,-4.5321905E-3,1.3197246E-2,-1.8228185E-1,5.736748E-1,9.941101E-4,-1.025377E-1,-5.109233E-1,1.9291325E-1,-1.1372052E-1,-2.2953332E-3,-1.0621902E-2,3.0394768E-2,9.996998E-3,-1.5111931E-2,4.768586E-2,-2.7049804E-2,7.838011E-6,1.08502535E-2,2.4136484E-3,-1.4671531E-1,3.755945E-3,4.5252442E-3,2.102108E-2,-7.867648E-3,-1.8062949E-3,1.4322937E-3,-2.3695231E-4],"categories":[],"categories_nodes":[],"categories_segments":[],"categories_sizes":[],"default_left":[0,0,0,0,0,0,0,0,0,0,0,0,0,0,0,0,0,0,0,0,0,0,0,0,0,0,0,0,0,0,0,0,0],"id":2,"left_children":[1,3,5,7,9,11,13,-1,15,17,-1,19,21,23,25,-1,-1,-1,-1,-1,27,-1,-1,-1,-1,29,-1,-1,31,-1,-1,-1,-1],"loss_changes":[7.2952704E0,1.0973811E0,1.2125623E0,3.9633125E-1,2.6926613E-1,8.547988E-1,3.022018E-1,0E0,6.697893E-3,1.0866737E-1,0E0,2.8441054E-1,2.767377E-1,6.947756E-3,6.709754E-2,0E0,0E0,0E0,0E0,0E0,4.948048E-3,0E0,0E0,0E0,0E0,3.7267804E-3,0E0,0E0,1.1178323E-3,0E0,0E0,0E0,0E0],"parents":[2147483647,0,0,1,1,2,2,3,3,4,4,5,5,6,6,8,8,9,9,11,11,12,12,13,13,14,14,20,20,25,25,28,28],"right_children":[2,4,6,8,10,12,14,-1,16,18,-1,20,22,24,26,-1,-1,-1,-1,-1,28,-1,-1,-1,-1,30,-1,-1,32,-1,-1,-1,-1],"split_conditions":[1.341E0,1.2285E0,2.2485E0,1.1048E0,1.0171535E3,1.4715E0,1.3E0,1.3197246E-2,6.05E-1,1.0160669E3,9.941101E-4,1.3766E0,1.0193862E3,1.0157602E3,1.2776E0,-2.2953332E-3,-1.0621902E-2,3.0394768E-2,9.996998E-3,-1.5111931E-2,1.2836E0,-2.7049804E-2,7.838011E-6,1.08502535E-2,2.4136484E-3,1.0131536E3,3.755945E-3,4.5252442E-3,1.0645E0,-7.867648E-3,-1.8062949E-3,1.4322937E-3,-2.3695231E-4],"split_indices":[8,3,3,2,5,8,16,0,1,21,0,16,12,4,1,0,0,0,0,0,9,0,0,0,0,5,0,0,1,0,0,0,0],"split_type":[0,0,0,0,0,0,0,0,0,0,0,0,0,0,0,0,0,0,0,0,0,0,0,0,0,0,0,0,0,0,0,0,0],"sum_hessian":[6.1E1,2.4E1,3.7E1,6E0,1.8E1,2.5E1,1.2E1,3E0,3E0,1.7E1,1E0,8E0,1.7E1,4E0,8E0,1E0,2E0,1.5E1,2E0,3E0,5E0,1.6E1,1E0,3E0,1E0,7E0,1E0,1E0,4E0,6E0,1E0,3E0,1E0],"tree_param":{"num_deleted":"0","num_feature":"24","num_nodes":"33","size_leaf_vector":"1"}},{"base_weights":[9.832185E-3,4.1250286E-1,-2.2526388E-1,6.068905E-2,4.8634547E-1,-2.7773637E-1,1.8833284E-1,1.7036802E-1,-5.2889627E-3,-3.205498E-2,5.3724337E-1,-8.747378E-2,-3.6657092E-1,1.12935165E-2,1.6134978E-5,9.634833E-3,2.5845529E-3,9.69255E-4,-3.3733787E-3,2.8725257E-2,1.1762726E-2,-2.2789736E-1,1.0556708E-1,-4.5549205E-1,-1.7965521E-1,8.639065E-2,-3.3003548E-1,7.009947E-3,1.2658278E-2,7.641315E-6,-4.8081416E-1,-4.9034795E-3,-1.1564916E-2,8.346677E-4,5.6446316E-3,-5.930519E-3,-1.9544171E-2,1.1803985E-3,-2.310276E-4,-2.672479E-2,-7.965224E-3],"categories":[],"categories_nodes":[],"categories_segments":[],"categories_sizes":[],"default_left":[0,0,0,0,0,0,0,0,0,0,0,0,0,0,0,0,0,0,0,0,0,0,0,0,0,0,0,0,0,0,0,0,0,0,0,0,0,0,0,0,0],"id":3,"left_children":[1,3,5,7,9,11,13,15,-1,17,19,21,23,-1,-1,-1,-1,-1,-1,-1,-1,25,27,29,31,33,35,-1,37,-1,39,-1,-1,-1,-1,-1,-1,-1,-1,-1,-1],"loss_changes":[7.1928935E0,6.978922E-1,1.094024E0,1.2756982E-1,6.2408733E-1,6.947162E-1,4.227169E-2,6.3887984E-4,0E0,6.7727454E-3,1.0115099E-1,4.306708E-1,4.0017056E-1,0E0,0E0,0E0,0E0,0E0,0E0,0E0,0E0,3.17419E-1,2.0748563E-2,2.1929288E-1,2.3663342E-2,3.6567915E-3,4.369068E-2,0E0,6.7667547E-4,0E0,2.2551775E-1,0E0,0E0,0E0,0E0,0E0,0E0,0E0,0E0,0E0,0E0],"parents":[2147483647,0,0,1,1,2,2,3,3,4,4,5,5,6,6,7,7,9,9,10,10,11,11,12,12,21,21,22,22,23,23,24,24,25,25,26,26,28,28,30,30],"right_children":[2,4,6,8,10,12,14,16,-1,18,20,22,24,-1,-1,-1,-1,-1,-1,-1,-1,26,28,30,32,34,36,-1,38,-1,40,-1,-1,-1,-1,-1,-1,-1,-1,-1,-1],"split_conditions":[1.341E0,1.1933E0,2.7144E0,6.23E-1,9.687E-1,2.9463E0,2.8265E0,6.05E-1,-5.2889627E-3,7.744E-1,1.0160669E3,9.537E-1,2.259E0,1.12935165E-2,1.6134978E-5,9.634833E-3,2.5845529E-3,9.69255E-4,-3.3733787E-3,2.8725257E-2,1.1762726E-2,1.0100649E3,1.0479E0,1.241E-1,3.2354E0,7.058E-1,1.0114964E3,7.009947E-3,1.1916E0,7.641315E-6,3.4715E0,-4.9034795E-3,-1.1564916E-2,8.346677E-4,5.6446316E-3,-5.930519E-3,-1.9544171E-2,1.1803985E-3,-2.310276E-4,-2.672479E-2,-7.965224E-3],"split_indices":[8,3,3,0,16,10,2,0,0,0,20,0,3,0,0,0,0,0,0,0,0,21,0,7,10,0,13,0,0,0,18,0,0,0,0,0,0,0,0,0,0],"split_type":[0,0,0,0,0,0,0,0,0,0,0,0,0,0,0,0,0,0,0,0,0,0,0,0,0,0,0,0,0,0,0,0,0,0,0,0,0,0,0,0,0],"sum_hessian":[7.4E1,2.7E1,4.7E1,5E0,2.2E1,4.2E1,5E0,3E0,2E0,2E0,2E1,1.4E1,2.8E1,4E0,1E0,2E0,1E0,1E0,1E0,1.7E1,3E0,8E0,6E0,1.8E1,1E1,2E0,6E0,4E0,2E0,1E0,1.7E1,5E0,5E0,1E0,1E0,2E0,4E0,1E0,1E0,1.4E1,3E0],"tree_param":{"num_deleted":"0","num_feature":"24","num_nodes":"41","size_leaf_vector":"1"}},{"base_weights":[1.3538065E-2,3.3167684E-1,-2.5721836E-1,4.1019863E-1,6.798323E-2,-2.3995122E-2,-3.4485492E-1,4.3550777E-1,-5.563265E-3,2.833911E-1,-1.6102128E-1,1.4444566E-1,-1.6494505E-1,-4.4992208E-1,-1.3202485E-1,-3.289044E-3,4.5913568E-1,1.9711884E-2,3.9040407E-3,-1.5475988E-2,-1.2644641E-2,8.138001E-4,8.341219E-3,-1.8558996E-2,-8.2151415E-3,-5.017314E-1,-6.3619614E-3,-1.8337028E-1,6.601969E-2,5.5035176E-3,4.6952677E-1,-2.1057248E-3,9.450257E-4,1.8160045E-2,-2.8428973E-3,-2.8524652E-2,-1.4029309E-2,-2.6552023E-3,2.178055E-3,-3.0311784E-3,-1.0489012E-2,1.5729665E-5,4.9357475E-3,1.0949463E-2,2.4807898E-2,1.3608377E-3,-2.2525192E-4],"categories":[],"categories_nodes":[],"categories_segments":[],"categories_sizes":[],"default_left":[0,0,0,0,0,0,0,0,0,0,0,0,0,0,0,0,0,0,0,0,0,0,0,0,0,0,0,0,0,0,0,0,0,0,0,0,0,0,0,0,0,0,0,0,0,0,0],"id":4,"left_children":[1,3,5,7,9,11,13,15,-1,17,19,21,23,25,27,-1,29,-1,-1,31,-1,-1,-1,-1,33,35,37,39,41,-1,43,-1,-1,45,-1,-1,-1,-1,-1,-1,-1,-1,-1,-1,-1,-1,-1],"loss_changes":[6.373396E0,6.761069E-1,8.092804E-1,3.9160013E-1,4.8959637E-1,3.087262E-1,5.8908105E-1,3.2631207E-1,0E0,8.3007306E-2,6.294358E-2,1.4494404E-2,2.2321291E-1,4.3343806E-1,1.2396155E-1,0E0,3.5370827E-2,0E0,0E0,3.5432018E-3,0E0,0E0,0E0,0E0,7.4473578E-3,9.84354E-2,9.313794E-3,1.6457975E-2,6.4136786E-3,0E0,4.4805527E-2,0E0,0E0,9.436967E-4,0E0,0E0,0E0,0E0,0E0,0E0,0E0,0E0,0E0,0E0,0E0,0E0,0E0],"parents":[2147483647,0,0,1,1,2,2,3,3,4,4,5,5,6,6,7,7,9,9,10,10,11,11,12,12,13,13,14,14,16,16,19,19,24,24,25,25,26,26,27,27,28,28,30,30,33,33],"right_children":[2,4,6,8,10,12,14,16,-1,18,20,22,24,26,28,-1,30,-1,-1,32,-1,-1,-1,-1,34,36,38,40,42,-1,44,-1,-1,46,-1,-1,-1,-1,-1,-1,-1,-1,-1,-1,-1,-1,-1],"split_conditions":[1.2551E0,1.0150599E3,1.4715E0,7.1091E0,1.0122751E3,6.572E-1,1.1667E0,9.687E-1,-5.563265E-3,1.9329E0,1.3372E0,6.098E-1,7.431E-1,1.016148E3,1.2634E0,-3.289044E-3,1.079E-1,1.9711884E-2,3.9040407E-3,6.05E-1,-1.2644641E-2,8.138001E-4,8.341219E-3,-1.8558996E-2,1.0706E0,1.6697E0,9.954E-1,1.5248E0,1.4019E0,5.5035176E-3,5.577E-1,-2.1057248E-3,9.450257E-4,1.0645E0,-2.8428973E-3,-2.8524652E-2,-1.4029309E-2,-2.6552023E-3,2.178055E-3,-3.0311784E-3,-1.0489012E-2,1.5729665E-5,4.9357475E-3,1.0949463E-2,2.4807898E-2,1.3608377E-3,-2.2525192E-4],"split_indices":[17,13,8,7,4,14,1,16,0,6,2,1,1,4,1,0,7,0,0,1,0,0,0,0,1,23,1,8,1,0,1,0,0,1,0,0,0,0,0,0,0,0,0,0,0,0,0],"split_type":[0,0,0,0,0,0,0,0,0,0,0,0,0,0,0,0,0,0,0,0,0,0,0,0,0,0,0,0,0,0,0,0,0,0,0,0,0,0,0,0,0,0,0,0,0,0,0],"sum_hessian":[7.2E1,3.3E1,3.9E1,2.5E1,8E0,1.1E1,2.8E1,2.4E1,1E0,4E0,4E0,5E0,6E0,1.8E1,1E1,1E0,2.3E1,2E0,2E0,2E0,2E0,1E0,4E0,2E0,4E0,1.6E1,2E0,8E0,2E0,1E0,2.2E1,1E0,1E0,3E0,1E0,1.1E1,5E0,1E0,1E0,2E0,6E0,1E0,1E0,3E0,1.9E1,2E0,1E0],"tree_param":{"num_deleted":"0","num_feature":"24","num_nodes":"47","size_leaf_vector":"1"}},{"base_weights":[1.041847E-2,2.958026E-1,-2.680915E-1,3.6727953E-1,5.1791526E-2,-1.11808695E-1,-3.6762136E-1,1.0311836E-1,4.43193E-1,-1.1773926E-2,2.0854704E-1,-3.4815046E-1,1.5679577E-2,-4.3846327E-1,-8.201841E-2,1.8800049E-1,-2.876389E-2,-3.0472279E-2,4.8975503E-1,1.3547986E-2,3.501026E-2,-2.2813968E-2,4.8123538E-3,8.2181014E-2,-4.3561596E-2,-4.570694E-1,-2.5888204E-3,-1.2447262E-1,3.2563151E-3,2.4223388E-3,1.0538861E-2,-4.984844E-3,4.6008765E-3,9.213984E-4,-3.2068193E-3,5.153423E-1,8.222524E-3,-6.127477E-4,3.238517E-3,1.0998686E-3,5.338675E-3,-4.267931E-3,9.125829E-3,-5.144912E-1,-1.4666821E-2,-1.5627682E-3,-6.998155E-3,2.6879577E-2,1.0874144E-2,1.1168659E-3,-1.3618867E-4,-6.528324E-3,-2.6876187E-2],"categories":[],"categories_nodes":[],"categories_segments":[],"categories_sizes":[],"default_left":[0,0,0,0,0,0,0,0,0,0,0,0,0,0,0,0,0,0,0,0,0,0,0,0,0,0,0,0,0,0,0,0,0,0,0,0,0,0,0,0,0,0,0,0,0,0,0,0,0,0,0,0,0],"id":5,"left_children":[1,3,5,7,9,11,13,15,17,-1,19,21,23,25,27,29,31,33,35,-1,37,-1,-1,39,41,43,-1,45,-1,-1,-1,-1,-1,-1,-1,47,-1,-1,-1,-1,-1,-1,49,51,-1,-1,-1,-1,-1,-1,-1,-1,-1],"loss_changes":[6.2789235E0,6.611831E-1,5.810888E-1,5.559006E-1,4.9942002E-1,5.176825E-1,4.4962168E-1,9.496319E-2,5.2218485E-1,0E0,6.63299E-2,3.3222896E-1,5.0855413E-2,1.1303496E-1,4.558791E-2,5.6814104E-3,4.344341E-2,6.1204527E-3,9.004831E-2,0E0,5.0136065E-3,0E0,0E0,6.531652E-3,1.6194211E-2,1.8314123E-2,0E0,2.8453022E-3,0E0,0E0,0E0,0E0,0E0,0E0,0E0,8.998871E-3,0E0,0E0,0E0,0E0,0E0,0E0,6.870454E-4,3.5930634E-2,0E0,0E0,0E0,0E0,0E0,0E0,0E0,0E0,0E0],"parents":[2147483647,0,0,1,1,2,2,3,3,4,4,5,5,6,6,7,7,8,8,10,10,11,11,12,12,13,13,14,14,15,15,16,16,17,17,18,18,20,20,23,23,24,24,25,25,27,27,35,35,42,42,43,43],"right_children":[2,4,6,8,10,12,14,16,18,-1,20,22,24,26,28,30,32,34,36,-1,38,-1,-1,40,42,44,-1,46,-1,-1,-1,-1,-1,-1,-1,48,-1,-1,-1,-1,-1,-1,50,52,-1,-1,-1,-1,-1,-1,-1,-1,-1],"split_conditions":[2.6792E0,2.6089E0,3.016E0,6.373E-1,2.6963E0,1.4192E0,2.4679E0,5.577E-1,9.687E-1,-1.1773926E-2,1.417E0,1.1266E0,4.942E-1,1.016148E3,1.2634E0,1.0447E0,6.23E-1,9.257E-1,1.341E0,1.3547986E-2,1.0557E0,-2.2813968E-2,4.8123538E-3,1.0129062E3,1.0121054E3,1.598E0,-2.5888204E-3,2.2617E0,3.2563151E-3,2.4223388E-3,1.0538861E-2,-4.984844E-3,4.6008765E-3,9.213984E-4,-3.2068193E-3,3.007E0,8.222524E-3,-6.127477E-4,3.238517E-3,1.0998686E-3,5.338675E-3,-4.267931E-3,1.0645E0,7.058E-1,-1.4666821E-2,-1.5627682E-3,-6.998155E-3,2.6879577E-2,1.0874144E-2,1.1168659E-3,-1.3618867E-4,-6.528324E-3,-2.6876187E-2],"split_indices":[19,10,10,1,10,17,3,1,16,0,8,1,15,4,1,3,1,1,9,0,1,0,0,5,12,17,0,2,0,0,0,0,0,0,0,22,0,0,0,0,0,0,1,1,0,0,0,0,0,0,0,0,0],"split_type":[0,0,0,0,0,0,0,0,0,0,0,0,0,0,0,0,0,0,0,0,0,0,0,0,0,0,0,0,0,0,0,0,0,0,0,0,0,0,0,0,0,0,0,0,0,0,0,0,0,0,0,0,0],"sum_hessian":[7.7E1,3.8E1,3.9E1,2.9E1,9E0,1.6E1,2.3E1,7E0,2.2E1,3E0,6E0,5E0,1.1E1,1.8E1,5E0,4E0,3E0,2E0,2E1,4E0,2E0,4E0,1E0,5E0,6E0,1.7E1,1E0,4E0,1E0,1E0,3E0,2E0,1E0,1E0,1E0,1.8E1,2E0,1E0,1E0,2E0,3E0,3E0,3E0,1.1E1,6E0,1E0,3E0,1.6E1,2E0,1E0,2E0,1E0,1E1],"tree_param":{"num_deleted":"0","num_feature":"24","num_nodes":"53","size_leaf_vector":"1"}},{"base_weights":[-8.8535E-3,2.874836E-1,-2.5689664E-1,3.0764252E-1,-7.932103E-3,-3.2021526E-1,1.2660205E-2,5.283149E-2,3.5649145E-1,-9.221641E-2,-3.6212635E-1,-5.3866345E-2,7.0746625E-3,1.0047857E-2,-7.147062E-2,9.953463E-2,4.508894E-1,-9.490079E-3,3.431797E-3,-5.796671E-3,-3.9285952E-1,-2.6330154E-3,-3.941238E-3,8.983612E-4,-5.363615E-3,1.8089966E-1,-4.818682E-3,5.053883E-1,1.0405727E-2,-1.5236974E-3,1.088947E-3,-4.2966968E-1,-5.5296957E-3,-2.1621585E-4,1.87397E-5,2.3617805E-3,9.909268E-3,5.0272346E-3,2.6439799E-2,-6.326226E-3,-2.2816166E-2],"categories":[],"categories_nodes":[],"categories_segments":[],"categories_sizes":[],"default_left":[0,0,0,0,0,0,0,0,0,0,0,0,0,0,0,0,0,0,0,0,0,0,0,0,0,0,0,0,0,0,0,0,0,0,0,0,0,0,0,0,0],"id":6,"left_children":[1,3,5,7,-1,9,11,13,15,17,19,21,-1,-1,23,25,27,-1,-1,29,31,33,-1,-1,-1,35,-1,37,-1,-1,-1,39,-1,-1,-1,-1,-1,-1,-1,-1,-1],"loss_changes":[4.998647E0,3.2760096E-1,6.355686E-1,3.5458326E-1,0E0,2.532766E-1,7.618827E-2,1.2483652E-1,5.6152606E-1,1.0720803E-1,2.7150106E-1,7.4646696E-3,0E0,0E0,1.473549E-2,1.4495462E-1,1.3297892E-1,0E0,0E0,2.7051633E-3,1.914568E-1,1.6882064E-5,0E0,0E0,0E0,4.501432E-3,0E0,7.9502106E-2,0E0,0E0,0E0,1.03862286E-1,0E0,0E0,0E0,0E0,0E0,0E0,0E0,0E0,0E0],"parents":[2147483647,0,0,1,1,2,2,3,3,5,5,6,6,7,7,8,8,9,9,10,10,11,11,14,14,15,15,16,16,19,19,20,20,21,21,25,25,27,27,31,31],"right_children":[2,4,6,8,-1,10,12,14,16,18,20,22,-1,-1,24,26,28,-1,-1,30,32,34,-1,-1,-1,36,-1,38,-1,-1,-1,40,-1,-1,-1,-1,-1,-1,-1,-1,-1],"split_conditions":[2.8328E0,1.017125E3,1.2634E0,1.982E0,-7.932103E-3,3.447E-1,1.4019E0,6.906E-1,6.373E-1,7.771E-1,8.74E-2,1.4659E0,7.0746625E-3,1.0047857E-2,7.744E-1,6.579E-1,2.3775E0,-9.490079E-3,3.431797E-3,1.1314E0,1.0150942E3,1.2776E0,-3.941238E-3,8.983612E-4,-5.363615E-3,1.010434E3,-4.818682E-3,4.055E-1,1.0405727E-2,-1.5236974E-3,1.088947E-3,1.0098868E3,-5.5296957E-3,-2.1621585E-4,1.87397E-5,2.3617805E-3,9.909268E-3,5.0272346E-3,2.6439799E-2,-6.326226E-3,-2.2816166E-2],"split_indices":[10,13,0,18,0,23,1,0,1,6,22,9,0,0,0,0,18,0,0,0,4,0,0,0,0,5,0,6,0,0,0,4,0,0,0,0,0,0,0,0,0],"split_type":[0,0,0,0,0,0,0,0,0,0,0,0,0,0,0,0,0,0,0,0,0,0,0,0,0,0,0,0,0,0,0,0,0,0,0,0,0,0,0,0,0],"sum_hessian":[6.6E1,3E1,3.6E1,2.9E1,1E0,2.9E1,7E0,5E0,2.4E1,5E0,2.4E1,5E0,2E0,2E0,3E0,7E0,1.7E1,3E0,2E0,2E0,2.2E1,2E0,3E0,1E0,2E0,5E0,2E0,1.3E1,4E0,1E0,1E0,1.9E1,3E0,1E0,1E0,1E0,4E0,1E0,1.2E1,2E0,1.7E1],"tree_param":{"num_deleted":"0","num_feature":"24","num_nodes":"41","size_leaf_vector":"1"}},{"base_weights":[3.9269585E-2,2.9915923E-1,-1.9204038E-1,3.5510626E-1,9.392327E-2,-6.9321826E-2,-3.3343604E-1,-2.8222084E-2,3.912371E-1,-6.8436384E-2,2.0502634E-1,1.1376063E-1,-1.3793336E-1,-3.470489E-1,-3.2310726E-3,8.759022E-4,-2.9925585E-3,4.597789E-2,4.4333184E-1,-2.7024746E-5,-4.544409E-3,3.0717612E-3,1.1278266E-2,1.8605152E-3,7.136661E-3,-1.7766833E-2,-5.397114E-2,-3.6120635E-1,-3.721118E-3,6.517923E-3,-5.1790955E-3,4.411721E-3,2.2907877E-2,7.9213336E-2,-1.3046505E-1,-2.341546E-2,-1.3576716E-2,5.2485666E-3,1.3525446E-3,-1.0818443E-2,-3.2884479E-3],"categories":[],"categories_nodes":[],"categories_segments":[],"categories_sizes":[],"default_left":[0,0,0,0,0,0,0,0,0,0,0,0,0,0,0,0,0,0,0,0,0,0,0,0,0,0,0,0,0,0,0,0,0,0,0,0,0,0,0,0,0],"id":7,"left_children":[1,3,5,7,9,11,13,15,17,19,21,23,25,27,-1,-1,-1,29,31,-1,-1,-1,-1,-1,-1,-1,33,35,-1,-1,-1,-1,-1,37,39,-1,-1,-1,-1,-1,-1],"loss_changes":[3.96493E0,3.2259965E-1,5.842012E-1,3.43441E-1,1.5834051E-1,2.6692274E-1,3.612268E-2,5.3886306E-3,3.7531257E-1,6.048415E-3,8.8840723E-4,7.996015E-3,2.54627E-1,3.1013489E-2,0E0,0E0,0E0,6.398254E-2,5.9601307E-2,0E0,0E0,0E0,0E0,0E0,0E0,0E0,1.3258818E-1,7.295847E-3,0E0,0E0,0E0,0E0,0E0,3.8784333E-3,3.0230775E-2,0E0,0E0,0E0,0E0,0E0,0E0],"parents":[2147483647,0,0,1,1,2,2,3,3,4,4,5,5,6,6,7,7,8,8,9,9,10,10,11,11,12,12,13,13,17,17,18,18,26,26,27,27,33,33,34,34],"right_children":[2,4,6,8,10,12,14,16,18,20,22,24,26,28,-1,-1,-1,30,32,-1,-1,-1,-1,-1,-1,-1,34,36,-1,-1,-1,-1,-1,38,40,-1,-1,-1,-1,-1,-1],"split_conditions":[1.2551E0,1.341E0,1.5529E0,9.687E-1,1.142E0,1.824E-1,1.2257E0,7.744E-1,6.23E-1,1.014227E3,9.693E-1,1.0117129E3,1.4192E0,1.0144737E3,-3.2310726E-3,8.759022E-4,-2.9925585E-3,6.23E-1,1.0095206E3,-2.7024746E-5,-4.544409E-3,3.0717612E-3,1.1278266E-2,1.8605152E-3,7.136661E-3,-1.7766833E-2,1.4612E0,3.2738E0,-3.721118E-3,6.517923E-3,-5.1790955E-3,4.411721E-3,2.2907877E-2,7.409E-1,8.744E-1,-2.341546E-2,-1.3576716E-2,5.2485666E-3,1.3525446E-3,-1.0818443E-2,-3.2884479E-3],"split_indices":[16,8,8,16,6,15,1,0,1,4,0,13,16,13,0,0,0,0,4,0,0,0,0,0,0,0,8,10,0,0,0,0,0,1,0,0,0,0,0,0,0],"split_type":[0,0,0,0,0,0,0,0,0,0,0,0,0,0,0,0,0,0,0,0,0,0,0,0,0,0,0,0,0,0,0,0,0,0,0,0,0,0,0,0,0],"sum_hessian":[6.4E1,3E1,3.4E1,2.3E1,7E0,1.9E1,1.5E1,2E0,2.1E1,3E0,4E0,5E0,1.4E1,1.4E1,1E0,1E0,1E0,3E0,1.8E1,1E0,2E0,1E0,3E0,2E0,3E0,3E0,1.1E1,1.3E1,1E0,2E0,1E0,1E0,1.7E1,4E0,7E0,4E0,9E0,2E0,2E0,2E0,5E0],"tree_param":{"num_deleted":"0","num_feature":"24","num_nodes":"41","size_leaf_vector":"1"}},{"base_weights":[-4.933705E-2,2.9119647E-1,-2.2229114E-1,1.4016628E-3,3.521321E-1,-2.5261667E-1,1.692756E-2,4.6022255E-3,-4.4854204E-3,-2.7516523E-2,3.984153E-1,-1.1787277E-1,-3.206375E-1,-4.79635E-2,4.8903227E-3,8.540034E-4,-2.9177428E-3,1.0132675E-2,4.4306093E-1,-2.6685977E-1,4.584834E-2,-4.5800328E-1,-2.3414141E-1,-1.2859702E-4,-3.1118353E-3,2.4190845E-2,7.296773E-3,-3.220967E-1,2.9949665E-3,-2.9461563E-3,6.923328E-2,-5.5067064E-3,-2.7083052E-2,-6.750965E-2,-2.930375E-1,-1.7231952E-2,-4.671067E-3,4.9712616E-3,1.8635726E-3,-2.6351214E-5,-4.0400387E-3,-1.5246852E-2,-3.756076E-3],"categories":[],"categories_nodes":[],"categories_segments":[],"categories_sizes":[],"default_left":[0,0,0,0,0,0,0,0,0,0,0,0,0,0,0,0,0,0,0,0,0,0,0,0,0,0,0,0,0,0,0,0,0,0,0,0,0,0,0,0,0,0,0],"id":8,"left_children":[1,3,5,7,9,11,13,-1,-1,15,17,19,21,23,-1,-1,-1,-1,25,27,29,31,33,-1,-1,-1,-1,35,-1,-1,37,-1,-1,39,41,-1,-1,-1,-1,-1,-1,-1,-1],"loss_changes":[4.0108066E0,4.056598E-1,3.3072543E-1,4.9549546E-2,3.4481835E-1,3.2882118E-1,3.6181044E-2,0E0,0E0,5.122558E-3,5.8790922E-2,3.781199E-1,2.01684E-1,2.4314625E-3,0E0,0E0,0E0,0E0,8.681893E-2,1.636867E-1,2.3680037E-2,2.0226216E-1,1.568684E-1,0E0,0E0,0E0,0E0,3.8875341E-3,0E0,0E0,3.0492097E-3,0E0,0E0,5.2990634E-3,1.0802984E-2,0E0,0E0,0E0,0E0,0E0,0E0,0E0,0E0],"parents":[2147483647,0,0,1,1,2,2,3,3,4,4,5,5,6,6,9,9,10,10,11,11,12,12,13,13,18,18,19,19,20,20,21,21,22,22,27,27,30,30,33,33,34,34],"right_children":[2,4,6,8,10,12,14,-1,-1,16,18,20,22,24,-1,-1,-1,-1,26,28,30,32,34,-1,-1,-1,-1,36,-1,-1,38,-1,-1,40,42,-1,-1,-1,-1,-1,-1,-1,-1],"split_conditions":[2.5567E0,1.1933E0,1.2257E0,6.23E-1,1.8978E0,2.9274E0,1.2776E0,4.6022255E-3,-4.4854204E-3,7.744E-1,5.138E-1,1.4192E0,3.1098E0,1.2776E0,4.8903227E-3,8.540034E-4,-2.9177428E-3,1.0132675E-2,1.0160669E3,9.537E-1,1.0098868E3,9.555E-1,3.2354E0,-1.2859702E-4,-3.1118353E-3,2.4190845E-2,7.296773E-3,1.0139881E3,2.9949665E-3,-2.9461563E-3,1.013076E3,-5.5067064E-3,-2.7083052E-2,9.525E-1,1.1925E0,-1.7231952E-2,-4.671067E-3,4.9712616E-3,1.8635726E-3,-2.6351214E-5,-4.0400387E-3,-1.5246852E-2,-3.756076E-3],"split_indices":[10,3,0,0,18,10,1,0,0,0,23,17,10,0,0,0,0,0,21,0,4,0,10,0,0,0,0,4,0,0,4,0,0,0,1,0,0,0,0,0,0,0,0],"split_type":[0,0,0,0,0,0,0,0,0,0,0,0,0,0,0,0,0,0,0,0,0,0,0,0,0,0,0,0,0,0,0,0,0,0,0,0,0,0,0,0,0,0,0],"sum_hessian":[6.6E1,2.2E1,4.4E1,4E0,1.8E1,3.9E1,5E0,2E0,2E0,2E0,1.6E1,1.4E1,2.5E1,3E0,2E0,1E0,1E0,4E0,1.2E1,7E0,7E0,8E0,1.7E1,1E0,2E0,1E1,2E0,6E0,1E0,1E0,6E0,2E0,6E0,5E0,1.2E1,5E0,1E0,2E0,4E0,1E0,4E0,1.1E1,1E0],"tree_param":{"num_deleted":"0","num_feature":"24","num_nodes":"43","size_leaf_vector":"1"}},{"base_weights":[9.661417E-3,2.6820368E-1,-2.4215433E-1,5.4968476E-2,3.372462E-1,-3.2226732E-1,-6.9463626E-2,1.9101179E-1,-1.19277194E-1,1.0251337E-1,4.1427705E-1,-5.124734E-2,-3.8745996E-1,7.1032E-2,-1.3979858E-1,1.0650814E-2,2.0247342E-3,-1.0307391E-2,-9.424397E-3,1.0827645E-2,-6.566435E-2,2.4635969E-2,1.175118E-2,-1.23498235E-2,3.730178E-2,-2.5689602E-5,-4.077985E-1,4.451105E-3,-2.3210048E-5,-2.9403449E-3,-8.524663E-3,7.933259E-4,-1.5663803E-3,8.326531E-4,-4.9327253E-3,2.3940534E-3,-1.2538434E-4,-4.4576192E-1,-1.539953E-1,-2.380257E-2,-7.7911876E-3,-2.1659792E-3,-8.8223675E-3],"categories":[],"categories_nodes":[],"categories_segments":[],"categories_sizes":[],"default_left":[0,0,0,0,0,0,0,0,0,0,0,0,0,0,0,0,0,0,0,0,0,0,0,0,0,0,0,0,0,0,0,0,0,0,0,0,0,0,0,0,0,0,0],"id":9,"left_children":[1,3,5,7,9,11,13,15,17,19,21,23,25,27,29,-1,-1,31,-1,-1,33,-1,-1,-1,35,-1,37,-1,-1,-1,-1,-1,-1,-1,-1,-1,-1,39,41,-1,-1,-1,-1],"loss_changes":[4.752508E0,5.114646E-1,4.8950076E-1,2.5983292E-1,4.4573593E-1,4.218564E-1,1.3839296E-1,1.1246294E-2,3.5766587E-2,1.6765103E-1,1.6542077E-1,1.1321388E-1,1.5718865E-1,6.4724423E-3,1.23479515E-2,0E0,0E0,2.1476035E-3,0E0,0E0,1.2505559E-2,0E0,0E0,0E0,2.2258488E-3,0E0,1.1442423E-1,0E0,0E0,0E0,0E0,0E0,0E0,0E0,0E0,0E0,0E0,6.6333055E-2,2.2959635E-3,0E0,0E0,0E0,0E0],"parents":[2147483647,0,0,1,1,2,2,3,3,4,4,5,5,6,6,7,7,8,8,9,9,10,10,11,11,12,12,13,13,14,14,17,17,20,20,24,24,26,26,37,37,38,38],"right_children":[2,4,6,8,10,12,14,16,18,20,22,24,26,28,30,-1,-1,32,-1,-1,34,-1,-1,-1,36,-1,38,-1,-1,-1,-1,-1,-1,-1,-1,-1,-1,40,42,-1,-1,-1,-1],"split_conditions":[1.4387E0,1.2285E0,2.259E0,6.23E-1,1.982E0,1.4715E0,1.58E0,6.098E-1,6.098E-1,7.333E-1,2.3775E0,7.431E-1,1.079E-1,2.8265E0,1.5856E0,1.0650814E-2,2.0247342E-3,7.058E-1,-9.424397E-3,1.0827645E-2,7.744E-1,2.4635969E-2,1.175118E-2,-1.23498235E-2,1.1916E0,-2.5689602E-5,3.2704E0,4.451105E-3,-2.3210048E-5,-2.9403449E-3,-8.524663E-3,7.933259E-4,-1.5663803E-3,8.326531E-4,-4.9327253E-3,2.3940534E-3,-1.2538434E-4,1.0159797E3,9.555E-1,-2.380257E-2,-7.7911876E-3,-2.1659792E-3,-8.8223675E-3],"split_indices":[8,3,3,0,18,8,9,0,1,0,19,1,6,2,8,0,0,0,0,0,0,0,0,0,0,0,18,0,0,0,0,0,0,0,0,0,0,21,0,0,0,0,0],"split_type":[0,0,0,0,0,0,0,0,0,0,0,0,0,0,0,0,0,0,0,0,0,0,0,0,0,0,0,0,0,0,0,0,0,0,0,0,0,0,0,0,0,0,0],"sum_hessian":[7.1E1,3.5E1,3.6E1,9E0,2.6E1,2.4E1,1.2E1,5E0,4E0,7E0,1.9E1,5E0,1.9E1,4E0,8E0,4E0,1E0,2E0,2E0,4E0,3E0,1.2E1,7E0,1E0,4E0,1E0,1.8E1,3E0,1E0,3E0,5E0,1E0,1E0,1E0,2E0,3E0,1E0,1.5E1,3E0,1.3E1,2E0,1E0,2E0],"tree_param":{"num_deleted":"0","num_feature":"24","num_nodes":"43","size_leaf_vector":"1"}},{"base_weights":[8.165378E-3,2.5545222E-1,-2.0398918E-1,3.5505947E-1,9.233141E-2,-4.9086717E-5,-2.855636E-1,4.2021215E-2,4.0227494E-1,-7.413015E-3,1.6483437E-1,-1.8917134E-1,7.560472E-2,-3.863782E-1,-1.0214347E-1,5.935995E-3,-4.701871E-3,4.2281947E-1,8.118391E-4,2.0487666E-1,-2.3584763E-2,-1.3744734E-2,1.6999663E-3,7.511623E-3,8.141597E-4,-4.5648545E-1,-2.0098218E-1,-1.4212275E-1,1.3345778E-2,1.20053245E-2,2.2893636E-2,1.0746428E-2,2.8602423E-3,-2.5045872E-5,-1.7438114E-3,-2.27744E-3,1.919651E-2,-5.6239604E-3,-2.3788968E-2,-3.6122364E-3,-1.1901411E-2,-4.1033435E-3,-8.687704E-3,-1.6686836E-2,2.5860907E-3,1.2609065E-3,-1.2224913E-4,-1.228881E-3,-2.2631884E-5],"categories":[],"categories_nodes":[],"categories_segments":[],"categories_sizes":[],"default_left":[0,0,0,0,0,0,0,0,0,0,0,0,0,0,0,0,0,0,0,0,0,0,0,0,0,0,0,0,0,0,0,0,0,0,0,0,0,0,0,0,0,0,0,0,0,0,0,0,0],"id":10,"left_children":[1,3,5,7,9,11,13,15,17,-1,19,21,23,25,27,-1,-1,29,-1,31,33,-1,-1,-1,35,37,39,41,43,-1,-1,-1,-1,-1,-1,-1,45,-1,-1,-1,-1,-1,-1,47,-1,-1,-1,-1,-1],"loss_changes":[4.091763E0,5.521455E-1,6.987102E-1,3.0826116E-1,2.8609252E-1,2.0030391E-1,5.152769E-1,5.2906185E-2,1.4382339E-1,0E0,9.536874E-2,8.586997E-2,5.5692192E-2,1.5520883E-1,5.7302862E-2,0E0,0E0,5.346298E-3,0E0,2.5488734E-3,7.6448114E-4,0E0,0E0,0E0,5.9879385E-3,3.2768726E-2,1.6188204E-2,2.83736E-3,5.473204E-3,0E0,0E0,0E0,0E0,0E0,0E0,0E0,7.1324187E-4,0E0,0E0,0E0,0E0,0E0,0E0,3.7317682E-4,0E0,0E0,0E0,0E0,0E0],"parents":[2147483647,0,0,1,1,2,2,3,3,4,4,5,5,6,6,7,7,8,8,10,10,11,11,12,12,13,13,14,14,17,17,19,19,20,20,24,24,25,25,26,26,27,27,28,28,36,36,43,43],"right_children":[2,4,6,8,10,12,14,16,18,-1,20,22,24,26,28,-1,-1,30,-1,32,34,-1,-1,-1,36,38,40,42,44,-1,-1,-1,-1,-1,-1,-1,46,-1,-1,-1,-1,-1,-1,48,-1,-1,-1,-1,-1],"split_conditions":[1.2551E0,1.341E0,2.9463E0,6.23E-1,1.0308E0,1.4192E0,1.1559E0,6.23E-1,1.0171535E3,-7.413015E-3,3.016E0,7.864E-1,4.942E-1,1.598E0,1.013693E3,5.935995E-3,-4.701871E-3,2.0411E0,8.118391E-4,1.5529E0,9.525E-1,-1.3744734E-2,1.6999663E-3,7.511623E-3,1.0098868E3,8.444E-1,1.1315E0,1.7057E0,1.4244E0,1.20053245E-2,2.2893636E-2,1.0746428E-2,2.8602423E-3,-2.5045872E-5,-1.7438114E-3,-2.27744E-3,1.1916E0,-5.6239604E-3,-2.3788968E-2,-3.6122364E-3,-1.1901411E-2,-4.1033435E-3,-8.687704E-3,1.1314E0,2.5860907E-3,1.2609065E-3,-1.2224913E-4,-1.228881E-3,-2.2631884E-5],"split_indices":[16,9,10,1,16,16,1,0,5,0,10,0,14,17,5,0,0,18,0,9,0,0,0,0,4,0,0,9,0,0,0,0,0,0,0,0,0,0,0,0,0,0,0,0,0,0,0,0,0],"split_type":[0,0,0,0,0,0,0,0,0,0,0,0,0,0,0,0,0,0,0,0,0,0,0,0,0,0,0,0,0,0,0,0,0,0,0,0,0,0,0,0,0,0,0,0,0,0,0,0,0],"sum_hessian":[7.6E1,3.5E1,4.1E1,2.1E1,1.4E1,1.2E1,2.9E1,3E0,1.8E1,3E0,1.1E1,3E0,9E0,1.8E1,1.1E1,2E0,1E0,1.7E1,1E0,9E0,2E0,2E0,1E0,4E0,5E0,1.2E1,6E0,8E0,3E0,4E0,1.3E1,8E0,1E0,1E0,1E0,1E0,4E0,1E0,1.1E1,2E0,4E0,4E0,4E0,2E0,1E0,3E0,1E0,1E0,1E0],"tree_param":{"num_deleted":"0","num_feature":"24","num_nodes":"49","size_leaf_vector":"1"}},{"base_weights":[-3.0667318E-3,2.1279746E-1,-1.8384303E-1,2.7018487E-1,-7.134756E-2,-2.2541372E-1,-4.972577E-3,3.3438674E-1,8.393228E-2,-1.0738755E-2,5.4059982E-2,-2.1277651E-2,-2.8661698E-1,-5.019744E-2,4.356734E-3,-2.5361597E-3,3.585997E-1,-8.854395E-2,1.0256341E-2,3.076303E-3,7.9154375E-4,-1.1309979E-2,4.031113E-2,-3.7068227E-1,-1.1466181E-1,-1.8834273E-3,-3.6941797E-3,4.2473795E-3,1.8484998E-2,-5.88665E-3,-2.4420024E-5,-2.2205056E-3,6.1833024E-2,-4.056674E-1,-4.775967E-3,6.1240993E-3,-7.502347E-3,-1.1919141E-4,-2.206564E-5,4.5651435E-3,1.2136191E-3,-5.483359E-3,-2.1059757E-2,1.6574682E-3,-1.1981607E-3],"categories":[],"categories_nodes":[],"categories_segments":[],"categories_sizes":[],"default_left":[0,0,0,0,0,0,0,0,0,0,0,0,0,0,0,0,0,0,0,0,0,0,0,0,0,0,0,0,0,0,0,0,0,0,0,0,0,0,0,0,0,0,0,0,0],"id":11,"left_children":[1,3,5,7,9,11,13,15,17,-1,19,21,23,25,-1,-1,27,29,-1,-1,-1,-1,31,33,35,37,-1,-1,-1,-1,-1,-1,39,41,-1,43,-1,-1,-1,-1,-1,-1,-1,-1,-1],"loss_changes":[2.653671E0,5.247737E-1,2.7400243E-1,2.8283596E-1,1.195321E-1,3.687153E-1,3.7698243E-2,1.953578E-1,1.8538815E-1,0E0,1.6767532E-4,1.10085495E-1,2.8997254E-1,6.7270827E-3,0E0,0E0,2.32718E-2,1.02235265E-2,0E0,0E0,0E0,0E0,1.5509541E-2,1.0564995E-1,3.938514E-2,1.1128914E-6,0E0,0E0,0E0,0E0,0E0,0E0,4.4253003E-3,1.355958E-2,0E0,3.2337178E-3,0E0,0E0,0E0,0E0,0E0,0E0,0E0,0E0,0E0],"parents":[2147483647,0,0,1,1,2,2,3,3,4,4,5,5,6,6,7,7,8,8,10,10,11,11,12,12,13,13,16,16,17,17,22,22,23,23,24,24,25,25,32,32,33,33,35,35],"right_children":[2,4,6,8,10,12,14,16,18,-1,20,22,24,26,-1,-1,28,30,-1,-1,-1,-1,32,34,36,38,-1,-1,-1,-1,-1,-1,40,42,-1,44,-1,-1,-1,-1,-1,-1,-1,-1,-1],"split_conditions":[1.2551E0,1.0152973E3,1.2634E0,1.6565E0,2.2748E0,2.7537E0,1.4019E0,1.8978E0,2.0415E0,-1.0738755E-2,1.0122751E3,1.3278E0,2.259E0,1.4659E0,4.356734E-3,-2.5361597E-3,1.079E-1,9.257E-1,1.0256341E-2,3.076303E-3,7.9154375E-4,-1.1309979E-2,1.0098868E3,3.4715E0,3.2332E0,1.2776E0,-3.6941797E-3,4.2473795E-3,1.8484998E-2,-5.88665E-3,-2.4420024E-5,-2.2205056E-3,1.013076E3,8.444E-1,-4.775967E-3,1.0479E0,-7.502347E-3,-1.1919141E-4,-2.206564E-5,4.5651435E-3,1.2136191E-3,-5.483359E-3,-2.1059757E-2,1.6574682E-3,-1.1981607E-3],"split_indices":[17,13,0,14,6,11,1,18,14,0,4,17,3,9,0,0,7,0,0,0,0,0,4,18,11,0,0,0,0,0,0,0,4,0,0,0,0,0,0,0,0,0,0,0,0],"split_type":[0,0,0,0,0,0,0,0,0,0,0,0,0,0,0,0,0,0,0,0,0,0,0,0,0,0,0,0,0,0,0,0,0,0,0,0,0,0,0,0,0,0,0,0,0],"sum_hessian":[6.6E1,3E1,3.6E1,2.5E1,5E0,2.9E1,7E0,1.8E1,7E0,2E0,3E0,7E0,2.2E1,5E0,2E0,1E0,1.7E1,3E0,4E0,2E0,1E0,1E0,6E0,1.4E1,8E0,2E0,3E0,1E0,1.6E1,2E0,1E0,1E0,5E0,1.2E1,2E0,2E0,6E0,1E0,1E0,2E0,3E0,1E0,1.1E1,1E0,1E0],"tree_param":{"num_deleted":"0","num_feature":"24","num_nodes":"45","size_leaf_vector":"1"}},{"base_weights":[-4.6221283E-3,2.4209519E-1,-1.8796007E-1,3.07461E-1,8.7154076E-2,4.5967024E-2,-2.237131E-1,3.6310017E-2,3.5317528E-1,8.109594E-3,-6.595057E-2,-8.35141E-3,1.21971704E-1,-3.0373356E-1,-7.108513E-2,5.378775E-3,-4.4371607E-3,1.8665968E-2,7.71755E-4,-4.38083E-3,-2.3812056E-5,7.193425E-3,8.5961225E-4,-3.6411834E-1,-8.202118E-2,-9.865899E-2,2.685702E-3,-3.8878816E-1,7.6497794E-4,-4.874786E-3,-1.1621118E-4,-5.7647782E-3,-1.5862942E-2,-2.3483563E-2,-1.245981E-2,-1.1682094E-3,-2.1511316E-5],"categories":[],"categories_nodes":[],"categories_segments":[],"categories_sizes":[],"default_left":[0,0,0,0,0,0,0,0,0,0,0,0,0,0,0,0,0,0,0,0,0,0,0,0,0,0,0,0,0,0,0,0,0,0,0,0,0],"id":12,"left_children":[1,3,5,7,9,11,13,15,17,-1,19,-1,21,23,25,-1,-1,-1,-1,-1,-1,-1,-1,27,29,31,-1,33,-1,-1,-1,-1,35,-1,-1,-1,-1],"loss_changes":[3.0760915E0,2.669114E-1,3.364638E-1,2.3508549E-1,1.25583E-1,1.1750451E-1,3.9366317E-1,4.5194507E-2,1.0989666E-1,0E0,5.6325495E-3,0E0,8.998252E-3,2.646718E-1,5.0034888E-2,0E0,0E0,0E0,0E0,0E0,0E0,0E0,0E0,1.6507125E-1,7.1730427E-3,1.33229345E-2,0E0,6.360984E-2,0E0,0E0,0E0,0E0,3.3724186E-4,0E0,0E0,0E0,0E0],"parents":[2147483647,0,0,1,1,2,2,3,3,4,4,5,5,6,6,7,7,8,8,10,10,12,12,13,13,14,14,23,23,24,24,25,25,27,27,32,32],"right_children":[2,4,6,8,10,12,14,16,18,-1,20,-1,22,24,26,-1,-1,-1,-1,-1,-1,-1,-1,28,30,32,-1,34,-1,-1,-1,-1,36,-1,-1,-1,-1],"split_conditions":[1.2551E0,1.341E0,1.2837E0,6.23E-1,1.0133958E3,1.156E0,2.2485E0,5.451E-1,1.0171535E3,8.109594E-3,9.537E-1,-8.35141E-3,7.409E-1,1.6753E0,1.0149925E3,5.378775E-3,-4.4371607E-3,1.8665968E-2,7.71755E-4,-4.38083E-3,-2.3812056E-5,7.193425E-3,8.5961225E-4,1.016148E3,9.954E-1,1.0155633E3,2.685702E-3,1.6066E0,7.6497794E-4,-4.874786E-3,-1.1621118E-4,-5.7647782E-3,1.2019E0,-2.3483563E-2,-1.245981E-2,-1.1682094E-3,-2.1511316E-5],"split_indices":[16,9,9,1,4,9,3,1,5,0,1,0,1,22,4,0,0,0,0,0,0,0,0,4,1,21,0,8,0,0,0,0,1,0,0,0,0],"split_type":[0,0,0,0,0,0,0,0,0,0,0,0,0,0,0,0,0,0,0,0,0,0,0,0,0,0,0,0,0,0,0,0,0,0,0,0,0],"sum_hessian":[6.6E1,2.8E1,3.8E1,1.9E1,9E0,5E0,3.3E1,3E0,1.6E1,6E0,3E0,1E0,4E0,2.1E1,1.2E1,2E0,1E0,1.5E1,1E0,2E0,1E0,3E0,1E0,1.6E1,5E0,1E1,2E0,1.5E1,1E0,4E0,1E0,8E0,2E0,8E0,7E0,1E0,1E0],"tree_param":{"num_deleted":"0","num_feature":"24","num_nodes":"37","size_leaf_vector":"1"}},{"base_weights":[1.1923321E-2,1.9877689E-1,-1.6993225E-1,2.842051E-1,1.8474707E-2,-2.2529341E-1,-7.079809E-2,-2.1476984E-2,3.143404E-1,8.5483745E-2,-1.05523495E-2,-2.5593126E-1,5.4056723E-2,-1.5965223E-3,-1.9504161E-1,7.5246097E-4,-2.3632348E-3,3.4795165E-1,1.3719416E-1,-3.1802844E-2,1.6897528E-1,-1.0880101E-1,-2.977213E-1,4.075229E-3,-2.0974874E-5,3.4251572E-3,-4.14254E-2,-1.1299974E-2,-1.7802537E-3,5.151987E-3,1.7840933E-2,1.6143442E-3,7.7674626E-3,-3.6673506E-3,2.034227E-2,9.134881E-3,2.5090873E-3,-6.8264008E-3,7.458508E-4,-3.7692088E-1,-1.8130654E-1,9.664218E-3,-3.1897046E-3,-2.321601E-5,1.5488863E-3,-4.7591864E-3,-2.0178568E-2,-3.5347384E-3,-1.0319734E-2,8.381248E-4,-1.1330843E-4],"categories":[],"categories_nodes":[],"categories_segments":[],"categories_sizes":[],"default_left":[0,0,0,0,0,0,0,0,0,0,0,0,0,0,0,0,0,0,0,0,0,0,0,0,0,0,0,0,0,0,0,0,0,0,0,0,0,0,0,0,0,0,0,0,0,0,0,0,0,0,0],"id":13,"left_children":[1,3,5,7,9,11,13,15,17,19,-1,21,23,25,27,-1,-1,29,31,33,35,37,39,-1,-1,-1,41,-1,-1,-1,-1,-1,-1,-1,43,-1,-1,-1,-1,45,47,49,-1,-1,-1,-1,-1,-1,-1,-1,-1],"loss_changes":[2.344443E0,5.1844776E-1,1.7613614E-1,2.1862316E-1,2.026014E-1,2.021259E-1,1.2005846E-1,3.5370784E-3,7.729912E-2,1.0329828E-1,0E0,9.057903E-2,4.519959E-3,3.0757677E-2,1.6632363E-2,0E0,0E0,1.5115738E-4,4.5072734E-3,1.2323671E-2,6.1267614E-4,2.2618584E-2,6.9961905E-2,0E0,0E0,0E0,8.616175E-3,0E0,0E0,0E0,0E0,0E0,0E0,0E0,6.782464E-4,0E0,0E0,0E0,0E0,2.165401E-2,7.6093078E-3,2.920422E-4,0E0,0E0,0E0,0E0,0E0,0E0,0E0,0E0,0E0],"parents":[2147483647,0,0,1,1,2,2,3,3,4,4,5,5,6,6,7,7,8,8,9,9,11,11,12,12,13,13,14,14,17,17,18,18,19,19,20,20,21,21,22,22,26,26,34,34,39,39,40,40,41,41],"right_children":[2,4,6,8,10,12,14,16,18,20,-1,22,24,26,28,-1,-1,30,32,34,36,38,40,-1,-1,-1,42,-1,-1,-1,-1,-1,-1,-1,44,-1,-1,-1,-1,46,48,50,-1,-1,-1,-1,-1,-1,-1,-1,-1],"split_conditions":[1.3E0,1.341E0,1.2955E0,9.687E-1,1.0141836E3,1.0147681E3,1.0130416E3,7.744E-1,1.0150599E3,1.0129287E3,-1.05523495E-2,1.0114016E3,6.579E-1,3.274E-1,1.0139881E3,7.5246097E-4,-2.3632348E-3,1.0097697E3,1.0120822E3,1.0123027E3,1.0151574E3,1.0159531E3,3.1993E0,4.075229E-3,-2.0974874E-5,3.4251572E-3,1.4715E0,-1.1299974E-2,-1.7802537E-3,5.151987E-3,1.7840933E-2,1.6143442E-3,7.7674626E-3,-3.6673506E-3,9.525E-1,9.134881E-3,2.5090873E-3,-6.8264008E-3,7.458508E-4,1.0113073E3,1.1399E0,1.1916E0,-3.1897046E-3,-2.321601E-5,1.5488863E-3,-4.7591864E-3,-2.0178568E-2,-3.5347384E-3,-1.0319734E-2,8.381248E-4,-1.1330843E-4],"split_indices":[16,8,6,16,21,13,12,0,12,13,0,13,0,15,4,0,0,12,4,5,5,4,11,0,0,0,8,0,0,0,0,0,0,0,0,0,0,0,0,12,0,0,0,0,0,0,0,0,0,0,0],"split_type":[0,0,0,0,0,0,0,0,0,0,0,0,0,0,0,0,0,0,0,0,0,0,0,0,0,0,0,0,0,0,0,0,0,0,0,0,0,0,0,0,0,0,0,0,0,0,0,0,0,0,0],"sum_hessian":[6.7E1,3.3E1,3.4E1,2.2E1,1.1E1,2.1E1,1.3E1,2E0,2E1,9E0,2E0,1.9E1,2E0,9E0,4E0,1E0,1E0,1.6E1,4E0,4E0,5E0,5E0,1.4E1,1E0,1E0,3E0,6E0,3E0,1E0,1E0,1.5E1,1E0,3E0,2E0,2E0,4E0,1E0,4E0,1E0,7E0,7E0,2E0,4E0,1E0,1E0,1E0,6E0,2E0,5E0,1E0,1E0],"tree_param":{"num_deleted":"0","num_feature":"24","num_nodes":"51","size_leaf_vector":"1"}},{"base_weights":[-8.037346E-3,2.2298239E-1,-1.6536814E-1,5.0451256E-2,2.9452187E-1,-2.4322943E-1,-1.3909034E-2,1.5542997E-1,-1.4587432E-1,-2.0940065E-2,3.2883048E-1,5.2503508E-2,-2.6708016E-1,8.625868E-3,-9.042761E-2,1.5739858E-3,8.542087E-3,-2.2068918E-3,-8.253694E-3,7.3364977E-4,-2.3041547E-3,2.6035905E-3,3.413131E-1,3.1205893E-3,8.1717374E-4,-3.0927366E-1,-1.02345265E-1,-3.3773184E-2,-7.0726583E-3,3.618667E-1,5.8961352E-3,-2.2637845E-5,-3.2469207E-1,-1.1190176E-2,-8.395702E-3,1.986289E-2,-2.9600095E-3,8.923707E-3,1.9522967E-2,-1.963383E-3,-1.6882386E-2,4.1115284E-4,-1.7357469E-3,1.5101671E-3,-2.0450354E-5],"categories":[],"categories_nodes":[],"categories_segments":[],"categories_sizes":[],"default_left":[0,0,0,0,0,0,0,0,0,0,0,0,0,0,0,0,0,0,0,0,0,0,0,0,0,0,0,0,0,0,0,0,0,0,0,0,0,0,0,0,0,0,0,0,0],"id":14,"left_children":[1,3,5,7,9,11,13,15,17,19,21,23,25,-1,27,-1,-1,-1,-1,-1,-1,-1,29,-1,-1,31,33,35,-1,37,-1,-1,39,41,-1,43,-1,-1,-1,-1,-1,-1,-1,-1,-1],"loss_changes":[2.69017E0,3.5542464E-1,5.155002E-1,2.2877334E-1,2.341702E-1,2.185725E-1,2.4384163E-1,7.993981E-3,5.271733E-4,3.3624372E-3,4.786563E-2,5.4825097E-5,1.5601742E-1,0E0,2.9912554E-2,0E0,0E0,0E0,0E0,0E0,0E0,0E0,3.997445E-2,0E0,0E0,9.984517E-2,3.9959498E-2,1.0722523E-2,0E0,1.4211655E-2,0E0,0E0,6.069827E-2,2.1122296E-3,0E0,6.412151E-4,0E0,0E0,0E0,0E0,0E0,0E0,0E0,0E0,0E0],"parents":[2147483647,0,0,1,1,2,2,3,3,4,4,5,5,6,6,7,7,8,8,9,9,10,10,11,11,12,12,14,14,22,22,25,25,26,26,27,27,29,29,32,32,33,33,35,35],"right_children":[2,4,6,8,10,12,14,16,18,20,22,24,26,-1,28,-1,-1,-1,-1,-1,-1,-1,30,-1,-1,32,34,36,-1,38,-1,-1,40,42,-1,44,-1,-1,-1,-1,-1,-1,-1,-1,-1],"split_conditions":[1.341E0,1.2285E0,2.259E0,6.579E-1,9.687E-1,1.2837E0,1.5058E0,1.0447E0,6.05E-1,7.744E-1,1.0095206E3,9.954E-1,1.6246E0,8.625868E-3,1.5856E0,1.5739858E-3,8.542087E-3,-2.2068918E-3,-8.253694E-3,7.3364977E-4,-2.3041547E-3,2.6035905E-3,1.2334E0,3.1205893E-3,8.1717374E-4,1.241E-1,1.5029E0,1.011676E3,-7.0726583E-3,1.982E0,5.8961352E-3,-2.2637845E-5,6.579E-1,1.4013E0,-8.395702E-3,1.0479E0,-2.9600095E-3,8.923707E-3,1.9522967E-2,-1.963383E-3,-1.6882386E-2,4.1115284E-4,-1.7357469E-3,1.5101671E-3,-2.0450354E-5],"split_indices":[8,3,3,0,16,9,8,3,1,0,4,0,16,0,8,0,0,0,0,0,0,0,17,0,0,7,8,20,0,19,0,0,1,6,0,0,0,0,0,0,0,0,0,0,0],"split_type":[0,0,0,0,0,0,0,0,0,0,0,0,0,0,0,0,0,0,0,0,0,0,0,0,0,0,0,0,0,0,0,0,0,0,0,0,0,0,0,0,0,0,0,0,0],"sum_hessian":[7.2E1,2.9E1,4.3E1,9E0,2E1,2.8E1,1.5E1,6E0,3E0,2E0,1.8E1,2E0,2.6E1,4E0,1.1E1,1E0,5E0,1E0,2E0,1E0,1E0,1E0,1.7E1,1E0,1E0,2E1,6E0,6E0,5E0,1.5E1,2E0,1E0,1.9E1,3E0,3E0,2E0,4E0,3E0,1.2E1,1E0,1.8E1,2E0,1E0,1E0,1E0],"tree_param":{"num_deleted":"0","num_feature":"24","num_nodes":"45","size_leaf_vector":"1"}},{"base_weights":[2.2514516E-2,2.043802E-1,-1.3661236E-1,3.650562E-2,2.5462985E-1,6.045699E-3,-1.614316E-1,1.4888895E-1,-1.4119577E-1,7.355085E-2,3.1747207E-1,-1.9536652E-1,7.065398E-3,8.319483E-3,1.5346349E-3,-2.1517219E-3,-7.978571E-3,7.886653E-3,-5.0064623E-2,3.462997E-1,6.139678E-3,-2.053976E-3,-2.250279E-1,-3.5771657E-2,3.8052679E-3,7.153094E-4,-3.8145145E-3,2.0757798E-2,1.1277449E-2,3.0099908E-3,-3.1811555E-3,-2.8771383E-1,-1.1339129E-1,-1.8758774E-3,-2.8871775E-3,-1.8177008E-2,-6.9144256E-3,1.0091146E-3,-7.2658393E-3,-1.2075305E-4,-1.9937754E-5],"categories":[],"categories_nodes":[],"categories_segments":[],"categories_sizes":[],"default_left":[0,0,0,0,0,0,0,0,0,0,0,0,0,0,0,0,0,0,0,0,0,0,0,0,0,0,0,0,0,0,0,0,0,0,0,0,0,0,0,0,0],"id":15,"left_children":[1,3,5,7,9,-1,11,13,15,17,19,21,23,-1,-1,-1,-1,-1,25,27,-1,29,31,33,-1,-1,-1,-1,-1,-1,-1,35,37,39,-1,-1,-1,-1,-1,-1,-1],"loss_changes":[2.1115804E0,2.7751625E-1,2.687921E-1,2.0075855E-1,2.7251422E-1,0E0,2.0722592E-1,7.304162E-3,3.4803897E-4,9.114663E-2,6.410694E-2,1.7155528E-1,2.3424692E-2,0E0,0E0,0E0,0E0,0E0,7.844092E-3,3.939295E-2,0E0,2.299466E-2,1.4932501E-1,3.6154524E-3,0E0,0E0,0E0,0E0,0E0,0E0,0E0,1.3101244E-1,4.9841255E-2,1.4263023E-6,0E0,0E0,0E0,0E0,0E0,0E0,0E0],"parents":[2147483647,0,0,1,1,2,2,3,3,4,4,6,6,7,7,8,8,9,9,10,10,11,11,12,12,18,18,19,19,21,21,22,22,23,23,31,31,32,32,33,33],"right_children":[2,4,6,8,10,-1,12,14,16,18,20,22,24,-1,-1,-1,-1,-1,26,28,-1,30,32,34,-1,-1,-1,-1,-1,-1,-1,36,38,40,-1,-1,-1,-1,-1,-1,-1],"split_conditions":[2.5424E0,1.2285E0,1.3651E0,6.23E-1,1.982E0,6.045699E-3,1.2634E0,6.098E-1,6.05E-1,7.333E-1,1.4387E0,3.447E-1,1.4019E0,8.319483E-3,1.5346349E-3,-2.1517219E-3,-7.978571E-3,7.886653E-3,7.744E-1,2.2423E0,6.139678E-3,1.0479E0,9.594E-1,1.4659E0,3.8052679E-3,7.153094E-4,-3.8145145E-3,2.0757798E-2,1.1277449E-2,3.0099908E-3,-3.1811555E-3,1.598E0,1.4612E0,1.2776E0,-2.8871775E-3,-1.8177008E-2,-6.9144256E-3,1.0091146E-3,-7.2658393E-3,-1.2075305E-4,-1.9937754E-5],"split_indices":[19,3,8,0,18,0,0,0,1,0,9,23,1,0,0,0,0,0,0,19,0,0,14,9,0,0,0,0,0,0,0,17,8,0,0,0,0,0,0,0,0],"split_type":[0,0,0,0,0,0,0,0,0,0,0,0,0,0,0,0,0,0,0,0,0,0,0,0,0,0,0,0,0,0,0,0,0,0,0,0,0,0,0,0,0],"sum_hessian":[7.1E1,3.3E1,3.8E1,8E0,2.5E1,3E0,3.5E1,5E0,3E0,7E0,1.8E1,2.9E1,6E0,4E0,1E0,1E0,2E0,4E0,3E0,1.5E1,3E0,4E0,2.5E1,4E0,2E0,1E0,2E0,8E0,7E0,2E0,2E0,1.5E1,1E1,2E0,2E0,9E0,6E0,2E0,8E0,1E0,1E0],"tree_param":{"num_deleted":"0","num_feature":"24","num_nodes":"41","size_leaf_vector":"1"}},{"base_weights":[-2.9451497E-2,1.7523858E-1,-1.848873E-1,2.6477683E-1,4.4670206E-2,-4.080946E-2,-2.2194774E-1,2.916119E-1,-4.11461E-3,-6.2105954E-3,1.0775603E-1,-1.1009004E-2,4.1893583E-2,-3.199552E-1,-1.0260994E-1,-8.022149E-3,3.3498976E-1,1.5323332E-1,-7.5384886E-3,-1.7326534E-3,6.0426872E-2,-2.0856077E-2,-1.7064866E-1,-2.9580673E-2,-9.092308E-3,1.4962674E-3,-2.0979287E-3,1.7894052E-2,6.588074E-3,2.4923326E-3,8.782571E-3,4.3265265E-3,1.2871206E-3,-1.8634422E-1,-1.5194953E-3,-5.789073E-2,2.0279586E-2,-1.0035523E-2,-2.5036694E-3,-6.0431956E-4,-3.231716E-3,-9.144942E-5,2.165133E-3],"categories":[],"categories_nodes":[],"categories_segments":[],"categories_sizes":[],"default_left":[0,0,0,0,0,0,0,0,0,0,0,0,0,0,0,0,0,0,0,0,0,0,0,0,0,0,0,0,0,0,0,0,0,0,0,0,0,0,0,0,0,0,0],"id":16,"left_children":[1,3,5,7,9,11,13,15,-1,-1,17,-1,19,21,23,25,27,29,-1,-1,31,-1,33,35,-1,-1,-1,-1,-1,-1,-1,-1,-1,37,-1,39,41,-1,-1,-1,-1,-1,-1],"loss_changes":[2.1322663E0,3.272074E-1,1.938467E-1,1.8232894E-1,1.5188746E-1,1.4273459E-1,3.180492E-1,2.1064723E-1,0E0,0E0,1.4067346E-1,0E0,1.2024603E-2,1.6093993E-1,8.1419304E-2,5.1190318E-3,1.7975092E-2,1.2103975E-2,0E0,0E0,3.204845E-3,0E0,1.1948526E-2,1.3877924E-2,0E0,0E0,0E0,0E0,0E0,0E0,0E0,0E0,0E0,3.6536306E-3,0E0,1.0721181E-3,2.1152291E-3,0E0,0E0,0E0,0E0,0E0,0E0],"parents":[2147483647,0,0,1,1,2,2,3,3,4,4,5,5,6,6,7,7,10,10,12,12,13,13,14,14,15,15,16,16,17,17,20,20,22,22,23,23,33,33,35,35,36,36],"right_children":[2,4,6,8,10,12,14,16,-1,-1,18,-1,20,22,24,26,28,30,-1,-1,32,-1,34,36,-1,-1,-1,-1,-1,-1,-1,-1,-1,38,-1,40,42,-1,-1,-1,-1,-1,-1],"split_conditions":[2.6792E0,2.6089E0,2.7537E0,7.1091E0,1.0308E0,1.4192E0,2.259E0,2.1479E0,-4.11461E-3,-6.2105954E-3,1.0142383E3,-1.1009004E-2,1.0098868E3,1.5883E0,3.2733E0,6.23E-1,2.7476E0,6.037E-1,-7.5384886E-3,-1.7326534E-3,1.013076E3,-2.0856077E-2,1.0160015E3,1.7349E0,-9.092308E-3,1.4962674E-3,-2.0979287E-3,1.7894052E-2,6.588074E-3,2.4923326E-3,8.782571E-3,4.3265265E-3,1.2871206E-3,1.0164719E3,-1.5194953E-3,1.1314E0,1.4244E0,-1.0035523E-2,-2.5036694E-3,-6.0431956E-4,-3.231716E-3,-9.144942E-5,2.165133E-3],"split_indices":[18,11,11,7,16,16,2,11,0,0,12,0,4,16,10,0,7,15,0,0,4,0,4,22,0,0,0,0,0,0,0,0,0,5,0,0,0,0,0,0,0,0,0],"split_type":[0,0,0,0,0,0,0,0,0,0,0,0,0,0,0,0,0,0,0,0,0,0,0,0,0,0,0,0,0,0,0,0,0,0,0,0,0,0,0,0,0,0,0],"sum_hessian":[6.5E1,2.8E1,3.7E1,1.6E1,1.2E1,8E0,2.9E1,1.5E1,1E0,3E0,9E0,2E0,6E0,1.5E1,1.4E1,2E0,1.3E1,8E0,1E0,1E0,5E0,8E0,7E0,8E0,6E0,1E0,1E0,1.1E1,2E0,2E0,6E0,2E0,3E0,6E0,1E0,5E0,3E0,5E0,1E0,1E0,4E0,2E0,1E0],"tree_param":{"num_deleted":"0","num_feature":"24","num_nodes":"43","size_leaf_vector":"1"}},{"base_weights":[4.4578873E-3,2.1421342E-1,-1.4772631E-1,1.2080526E-2,2.4607146E-1,-1.757634E-1,7.4274126E-3,2.760905E-3,-4.011744E-3,6.4584814E-2,2.8821388E-1,4.797991E-2,-1.8991958E-1,5.716786E-3,-2.3277998E-2,1.8072397E-2,8.941752E-3,2.8591573E-3,7.39336E-4,-2.0836562E-1,5.1285625E-3,2.5007725E-4,-1.9959272E-3,2.6140213E-2,-2.2487067E-1,1.329577E-3,-1.4815092E-3,3.6498548E-3,-1.6893387E-3,-1.4220054E-2,-5.5937488E-3],"categories":[],"categories_nodes":[],"categories_segments":[],"categories_sizes":[],"default_left":[0,0,0,0,0,0,0,0,0,0,0,0,0,0,0,0,0,0,0,0,0,0,0,0,0,0,0,0,0,0,0],"id":17,"left_children":[1,3,5,7,9,11,-1,-1,-1,13,15,17,19,-1,21,-1,-1,-1,-1,23,25,-1,-1,27,29,-1,-1,-1,-1,-1,-1],"loss_changes":[2.2023056E0,1.8377447E-1,3.583762E-1,2.4341732E-2,1.7259288E-1,1.263045E-1,0E0,0E0,0E0,2.8889028E-2,9.556556E-2,7.0902985E-5,1.269939E-1,0E0,1.6114153E-3,0E0,0E0,0E0,0E0,1.2973523E-1,3.772017E-3,0E0,0E0,1.0890311E-2,1.6998303E-1,0E0,0E0,0E0,0E0,0E0,0E0],"parents":[2147483647,0,0,1,1,2,2,3,3,4,4,5,5,9,9,10,10,11,11,12,12,14,14,19,19,20,20,23,23,24,24],"right_children":[2,4,6,8,10,12,-1,-1,-1,14,16,18,20,-1,22,-1,-1,-1,-1,24,26,-1,-1,28,30,-1,-1,-1,-1,-1,-1],"split_conditions":[1.3651E0,6.23E-1,1.3124E0,6.098E-1,1.982E0,1.2837E0,7.4274126E-3,2.760905E-3,-4.011744E-3,7.333E-1,2.3453E0,9.954E-1,1.016148E3,5.716786E-3,7.744E-1,1.8072397E-2,8.941752E-3,2.8591573E-3,7.39336E-4,1.7085E0,1.098E0,2.5007725E-4,-1.9959272E-3,8.658E-1,2.2764E0,1.329577E-3,-1.4815092E-3,3.6498548E-3,-1.6893387E-3,-1.4220054E-2,-5.5937488E-3],"split_indices":[8,1,1,1,18,9,0,0,0,0,19,0,4,0,0,0,0,0,0,2,6,0,0,0,2,0,0,0,0,0,0],"split_type":[0,0,0,0,0,0,0,0,0,0,0,0,0,0,0,0,0,0,0,0,0,0,0,0,0,0,0,0,0,0,0],"sum_hessian":[6.7E1,2.8E1,3.9E1,4E0,2.4E1,3.6E1,3E0,3E0,1E0,5E0,1.9E1,2E0,3.4E1,3E0,2E0,1E1,9E0,1E0,1E0,3.1E1,3E0,1E0,1E0,2E0,2.9E1,2E0,1E0,1E0,1E0,1.8E1,1.1E1],"tree_param":{"num_deleted":"0","num_feature":"24","num_nodes":"31","size_leaf_vector":"1"}},{"base_weights":[4.5804833E-3,1.9879557E-1,-1.266292E-1,2.5235766E-1,9.7098695E-3,-1.8064526E-1,-2.4559442E-2,1.0098278E-3,2.629559E-1,8.973088E-2,-6.3447556E-3,-2.6426098E-1,-6.1071824E-2,3.0049218E-2,-9.126209E-2,1.42392805E-2,5.2220374E-3,6.3884654E-3,2.178216E-2,2.7876794E-3,-2.9110157E-1,4.982996E-2,-1.03575744E-1,6.962081E-2,-3.682047E-2,-5.194081E-3,-1.9904415E-3,1.3898372E-3,2.4382472E-4,-1.6471029E-3,-3.08426E-1,3.558606E-3,9.495934E-4,3.8336754E-2,-1.4959885E-1,-2.028346E-4,8.516765E-2,-2.2988915E-3,-2.3370981E-4,-1.7317485E-2,-6.8255127E-3,2.8508604E-3,2.4396182E-5,-8.24511E-3,-1.444471E-3,4.672173E-3,1.3016105E-3],"categories":[],"categories_nodes":[],"categories_segments":[],"categories_sizes":[],"default_left":[0,0,0,0,0,0,0,0,0,0,0,0,0,0,0,0,0,0,0,0,0,0,0,0,0,0,0,0,0,0,0,0,0,0,0,0,0,0,0,0,0,0,0,0,0,0,0],"id":18,"left_children":[1,3,5,7,9,11,13,-1,15,17,-1,19,21,23,25,-1,-1,-1,27,-1,29,31,33,35,37,-1,-1,-1,-1,-1,39,-1,-1,41,43,-1,45,-1,-1,-1,-1,-1,-1,-1,-1,-1,-1],"loss_changes":[1.7070448E0,2.710011E-1,2.1609962E-1,4.635954E-2,8.790529E-2,2.4381483E-1,5.7380483E-2,0E0,3.94634E-2,1.0140222E-2,0E0,1.4507055E-1,6.1726306E-2,2.637873E-2,4.09808E-4,0E0,0E0,0E0,1.6949105E-4,0E0,5.245447E-2,1.2809141E-3,6.4516425E-2,7.2182138E-3,9.6259033E-4,0E0,0E0,0E0,0E0,0E0,3.7475467E-2,0E0,0E0,2.0932802E-3,8.1668645E-3,0E0,1.4428049E-5,0E0,0E0,0E0,0E0,0E0,0E0,0E0,0E0,0E0,0E0],"parents":[2147483647,0,0,1,1,2,2,3,3,4,4,5,5,6,6,8,8,9,9,11,11,12,12,13,13,14,14,18,18,20,20,21,21,22,22,23,23,24,24,30,30,33,33,34,34,36,36],"right_children":[2,4,6,8,10,12,14,-1,16,18,-1,20,22,24,26,-1,-1,-1,28,-1,30,32,34,36,38,-1,-1,-1,-1,-1,40,-1,-1,42,44,-1,46,-1,-1,-1,-1,-1,-1,-1,-1,-1,-1],"split_conditions":[1.345E0,1.0150599E3,2.259E0,2.2E-1,1.0139964E3,1.0586E0,1.4954E0,1.0098278E-3,2.0865E0,1.6264E0,-6.3447556E-3,1.2836E0,1.241E-1,1.58E0,2.7395E0,1.42392805E-2,5.2220374E-3,6.3884654E-3,5.451E-1,2.7876794E-3,6.579E-1,9.525E-1,1.0122751E3,3.664E-1,2.3398E0,-5.194081E-3,-1.9904415E-3,1.3898372E-3,2.4382472E-4,-1.6471029E-3,1.72E0,3.558606E-3,9.495934E-4,1.0593E0,1.0144737E3,-2.028346E-4,1.0151574E3,-2.2988915E-3,-2.3370981E-4,-1.7317485E-2,-6.8255127E-3,2.8508604E-3,2.4396182E-5,-8.24511E-3,-1.444471E-3,4.672173E-3,1.3016105E-3],"split_indices":[8,13,3,7,20,15,16,0,14,6,0,9,7,9,23,0,0,0,1,0,1,1,4,6,3,0,0,0,0,0,8,0,0,1,12,0,4,0,0,0,0,0,0,0,0,0,0],"split_type":[0,0,0,0,0,0,0,0,0,0,0,0,0,0,0,0,0,0,0,0,0,0,0,0,0,0,0,0,0,0,0,0,0,0,0,0,0,0,0,0,0,0,0,0,0,0,0],"sum_hessian":[6.5E1,2.6E1,3.9E1,2E1,6E0,2.5E1,1.4E1,1E0,1.9E1,4E0,2E0,1.4E1,1.1E1,8E0,6E0,1.6E1,3E0,2E0,2E0,1E0,1.3E1,3E0,8E0,5E0,3E0,4E0,2E0,1E0,1E0,1E0,1.2E1,1E0,2E0,2E0,6E0,1E0,4E0,2E0,1E0,9E0,3E0,1E0,1E0,5E0,1E0,3E0,1E0],"tree_param":{"num_deleted":"0","num_feature":"24","num_nodes":"47","size_leaf_vector":"1"}},{"base_weights":[3.1576242E-2,2.0289434E-1,-1.1127522E-1,6.86357E-2,2.424932E-1,-1.7263533E-1,-1.7952712E-2,1.02826156E-1,-4.2674365E-3,-2.302009E-3,2.5842527E-1,-1.4185372E-2,-1.09292656E-1,6.1201006E-2,-9.486234E-2,6.261961E-3,1.5597821E-3,2.0055533E-3,2.673354E-1,-1.5898508E-1,-2.9789176E-2,5.5055837E-3,-1.523757E-2,-8.586711E-3,-1.4392376E-2,3.025441E-1,7.936367E-3,-1.7225395E-1,-1.3208509E-3,1.1485974E-2,-2.4298215E-3,9.612004E-3,-2.2446574E-3,-3.2510876E-3,2.051723E-3,7.7259736E-3,1.7315099E-2,-9.168207E-3,-2.3620666E-3,1.0592103E-3,-1.9776226E-4,6.971121E-4,2.3788214E-5],"categories":[],"categories_nodes":[],"categories_segments":[],"categories_sizes":[],"default_left":[0,0,0,0,0,0,0,0,0,0,0,0,0,0,0,0,0,0,0,0,0,0,0,0,0,0,0,0,0,0,0,0,0,0,0,0,0,0,0,0,0,0,0],"id":19,"left_children":[1,3,5,7,9,11,13,15,-1,-1,17,-1,19,21,23,-1,-1,-1,25,27,29,-1,31,-1,33,35,-1,37,-1,39,-1,41,-1,-1,-1,-1,-1,-1,-1,-1,-1,-1,-1],"loss_changes":[1.5643787E0,1.375345E-1,1.9732046E-1,5.089446E-2,1.1303055E-1,1.16740584E-1,9.7120926E-2,7.331297E-3,0E0,0E0,3.0126333E-2,0E0,5.452475E-2,3.1587124E-2,4.7015354E-2,0E0,0E0,0E0,2.8456926E-2,1.1280835E-2,5.9920843E-3,0E0,3.379227E-3,0E0,1.6699262E-2,3.7171006E-2,0E0,2.4489462E-3,0E0,5.330463E-4,0E0,1.12053036E-4,0E0,0E0,0E0,0E0,0E0,0E0,0E0,0E0,0E0,0E0,0E0],"parents":[2147483647,0,0,1,1,2,2,3,3,4,4,5,5,6,6,7,7,10,10,12,12,13,13,14,14,18,18,19,19,20,20,22,22,24,24,25,25,27,27,29,29,31,31],"right_children":[2,4,6,8,10,12,14,16,-1,-1,18,-1,20,22,24,-1,-1,-1,26,28,30,-1,32,-1,34,36,-1,38,-1,40,-1,42,-1,-1,-1,-1,-1,-1,-1,-1,-1,-1,-1],"split_conditions":[1.3651E0,6.373E-1,1.0140457E3,7.7092E0,9.687E-1,5.087E-1,1.4715E0,1.7568E0,-4.2674365E-3,-2.302009E-3,1.0095206E3,-1.4185372E-2,1.0142703E3,1.4568E0,1.0126547E3,6.261961E-3,1.5597821E-3,2.0055533E-3,1.1545E0,1.2634E0,3.664E-1,5.5055837E-3,1.2776E0,-8.586711E-3,8.97E-1,2.0411E0,7.936367E-3,1.0147662E3,-1.3208509E-3,8.97E-1,-2.4298215E-3,1.1916E0,-2.2446574E-3,-3.2510876E-3,2.051723E-3,7.7259736E-3,1.7315099E-2,-9.168207E-3,-2.3620666E-3,1.0592103E-3,-1.9776226E-4,6.971121E-4,2.3788214E-5],"split_indices":[8,1,5,7,16,22,8,6,0,0,4,0,4,17,4,0,0,0,17,0,6,0,0,0,1,18,0,13,0,0,0,0,0,0,0,0,0,0,0,0,0,0,0],"split_type":[0,0,0,0,0,0,0,0,0,0,0,0,0,0,0,0,0,0,0,0,0,0,0,0,0,0,0,0,0,0,0,0,0,0,0,0,0,0,0,0,0,0,0],"sum_hessian":[6.2E1,2.8E1,3.4E1,7E0,2.1E1,2E1,1.4E1,6E0,1E0,1E0,2E1,6E0,1.4E1,7E0,7E0,4E0,2E0,1E0,1.9E1,8E0,6E0,4E0,3E0,3E0,4E0,1.3E1,6E0,7E0,1E0,2E0,4E0,2E0,1E0,2E0,2E0,4E0,9E0,6E0,1E0,1E0,1E0,1E0,1E0],"tree_param":{"num_deleted":"0","num_feature":"24","num_nodes":"43","size_leaf_vector":"1"}},{"base_weights":[-3.9022167E-3,1.7913102E-1,-1.24449074E-1,2.2115815E-1,6.1164275E-2,5.0424836E-3,-1.4950019E-1,2.653036E-2,2.653923E-1,-7.0694247E-3,1.3923486E-1,-1.802777E-1,-3.8554072E-3,6.392988E-3,-4.182124E-3,2.8124115E-1,2.9527544E-4,7.7772224E-3,1.0344327E-3,-1.3339609E-2,-1.9652687E-1,-3.7156105E-2,3.2015562E-3,2.947761E-1,1.955414E-3,1.792725E-2,-2.6785047E-3,-5.956142E-2,-2.1530765E-1,-2.261718E-3,-2.7018934E-3,5.63761E-3,1.5705328E-2,1.2177766E-3,1.2676716E-4,-7.7663274E-3,1.6057491E-4,-1.4329125E-2,-7.196696E-3,2.3192168E-5,-1.9282103E-4],"categories":[],"categories_nodes":[],"categories_segments":[],"categories_sizes":[],"default_left":[0,0,0,0,0,0,0,0,0,0,0,0,0,0,0,0,0,0,0,0,0,0,0,0,0,0,0,0,0,0,0,0,0,0,0,0,0,0,0,0,0],"id":20,"left_children":[1,3,5,7,9,-1,11,13,15,-1,17,19,21,-1,-1,23,-1,-1,-1,25,27,29,-1,31,-1,33,-1,35,37,39,-1,-1,-1,-1,-1,-1,-1,-1,-1,-1,-1],"loss_changes":[1.6109065E0,1.3024938E-1,2.6341242E-1,1.7375219E-1,1.6200691E-1,0E0,1.7860836E-1,6.651324E-2,6.825268E-2,0E0,1.0316074E-2,8.689439E-2,2.0464499E-2,0E0,0E0,4.090798E-2,0E0,0E0,0E0,5.9918878E-3,6.43456E-2,3.412255E-3,0E0,1.7362833E-2,0E0,2.350809E-4,0E0,3.0556113E-2,9.101701E-2,1.4828154E-5,0E0,0E0,0E0,0E0,0E0,0E0,0E0,0E0,0E0,0E0,0E0],"parents":[2147483647,0,0,1,1,2,2,3,3,4,4,6,6,7,7,8,8,10,10,11,11,12,12,15,15,19,19,20,20,21,21,23,23,25,25,27,27,28,28,29,29],"right_children":[2,4,6,8,10,-1,12,14,16,-1,18,20,22,-1,-1,24,-1,-1,-1,26,28,30,-1,32,-1,34,-1,36,38,40,-1,-1,-1,-1,-1,-1,-1,-1,-1,-1,-1],"split_conditions":[1.2551E0,2.6089E0,2.7537E0,6.23E-1,1.3903E0,5.0424836E-3,1.2634E0,6.098E-1,1.0171535E3,-7.0694247E-3,2.9333E0,1.0108649E3,1.4019E0,6.392988E-3,-4.182124E-3,1.341E0,2.9527544E-4,7.7772224E-3,1.0344327E-3,2.2617E0,2.7537E0,1.4659E0,3.2015562E-3,4.055E-1,1.955414E-3,1.0479E0,-2.6785047E-3,7.864E-1,3.1993E0,1.2776E0,-2.7018934E-3,5.63761E-3,1.5705328E-2,1.2177766E-3,1.2676716E-4,-7.7663274E-3,1.6057491E-4,-1.4329125E-2,-7.196696E-3,2.3192168E-5,-1.9282103E-4],"split_indices":[17,10,10,1,9,0,0,0,5,0,10,13,1,0,0,9,0,0,0,2,11,9,0,7,0,0,0,0,10,0,0,0,0,0,0,0,0,0,0,0,0],"split_type":[0,0,0,0,0,0,0,0,0,0,0,0,0,0,0,0,0,0,0,0,0,0,0,0,0,0,0,0,0,0,0,0,0,0,0,0,0,0,0,0,0],"sum_hessian":[7.1E1,2.8E1,4.3E1,2E1,8E0,4E0,3.9E1,4E0,1.6E1,2E0,6E0,3.2E1,7E0,2E0,2E0,1.5E1,1E0,5E0,1E0,3E0,2.9E1,5E0,2E0,1.4E1,1E0,2E0,1E0,4E0,2.5E1,2E0,3E0,2E0,1.2E1,1E0,1E0,1E0,3E0,1.1E1,1.4E1,1E0,1E0],"tree_param":{"num_deleted":"0","num_feature":"24","num_nodes":"41","size_leaf_vector":"1"}},{"base_weights":[-1.127631E-2,1.5216702E-1,-1.4431491E-1,2.2645177E-1,7.7670656E-2,-2.0100634E-1,-3.2772023E-2,5.9854746E-2,2.631131E-1,-9.911516E-3,1.0210199E-2,2.3040613E-3,-2.2449574E-1,3.694558E-3,-9.915078E-2,3.7983854E-3,2.878964E-4,2.736049E-1,3.6925853E-3,4.9091756E-2,-6.272009E-3,-2.6207715E-1,-7.433554E-2,-1.8593103E-2,3.09484E-3,-5.4638996E-3,-1.4660478E-3,1.5931146E-2,7.7929357E-3,-2.0078837E-3,6.757849E-2,-2.7865053E-3,-2.843874E-1,9.310484E-3,-5.924308E-3,1.1229277E-2,-1.9366194E-3,8.1952213E-4,3.6689043E-3,-1.3914466E-3,-1.4981802E-2,6.756723E-4,2.2614002E-5,1.1873305E-3,-4.2935215E-5],"categories":[],"categories_nodes":[],"categories_segments":[],"categories_sizes":[],"default_left":[0,0,0,0,0,0,0,0,0,0,0,0,0,0,0,0,0,0,0,0,0,0,0,0,0,0,0,0,0,0,0,0,0,0,0,0,0,0,0,0,0,0,0,0,0],"id":21,"left_children":[1,3,5,7,9,11,13,15,17,19,-1,-1,21,23,25,-1,-1,27,-1,29,-1,31,33,35,-1,-1,-1,-1,-1,-1,37,-1,39,41,-1,43,-1,-1,-1,-1,-1,-1,-1,-1,-1],"loss_changes":[1.5005704E0,1.5396357E-1,2.337066E-1,7.586658E-2,1.9041905E-1,1.5544355E-1,3.4254804E-2,3.0492237E-3,3.6221147E-3,8.114034E-2,0E0,0E0,1.103127E-1,1.4122772E-2,3.3177435E-4,0E0,0E0,8.647442E-3,0E0,1.5913233E-2,0E0,6.701684E-2,2.3261309E-2,5.2397475E-3,0E0,0E0,0E0,0E0,0E0,0E0,8.753948E-4,0E0,5.4255962E-2,1.0558023E-4,0E0,6.256285E-4,0E0,0E0,0E0,0E0,0E0,0E0,0E0,0E0,0E0],"parents":[2147483647,0,0,1,1,2,2,3,3,4,4,5,5,6,6,7,7,8,8,9,9,12,12,13,13,14,14,17,17,19,19,21,21,22,22,23,23,30,30,32,32,33,33,35,35],"right_children":[2,4,6,8,10,12,14,16,18,20,-1,-1,22,24,26,-1,-1,28,-1,30,-1,32,34,36,-1,-1,-1,-1,-1,-1,38,-1,40,42,-1,44,-1,-1,-1,-1,-1,-1,-1,-1,-1],"split_conditions":[2.8467E0,1.2359E0,2.2485E0,2.2446E0,9.693E-1,1.2465E0,1.5856E0,6.23E-1,4.2639E0,1.4967E0,1.0210199E-2,2.3040613E-3,1.1667E0,1.4019E0,1.2106E0,3.7983854E-3,2.878964E-4,1.1545E0,3.6925853E-3,6.05E-1,-6.272009E-3,7.058E-1,1.4715E0,1.011676E3,3.09484E-3,-5.4638996E-3,-1.4660478E-3,1.5931146E-2,7.7929357E-3,-2.0078837E-3,6.098E-1,-2.7865053E-3,1.0109805E3,1.1916E0,-5.924308E-3,1.0479E0,-1.9366194E-3,8.1952213E-4,3.6689043E-3,-1.3914466E-3,-1.4981802E-2,6.756723E-4,2.2614002E-5,1.1873305E-3,-4.2935215E-5],"split_indices":[10,8,3,10,1,17,8,0,14,15,0,0,0,1,1,0,0,17,0,1,0,1,8,20,0,0,0,0,0,0,1,0,12,0,0,0,0,0,0,0,0,0,0,0,0],"split_type":[0,0,0,0,0,0,0,0,0,0,0,0,0,0,0,0,0,0,0,0,0,0,0,0,0,0,0,0,0,0,0,0,0,0,0,0,0,0,0,0,0,0,0,0,0],"sum_hessian":[6.7E1,3E1,3.7E1,1.4E1,1.6E1,2.4E1,1.3E1,3E0,1.1E1,1E1,6E0,2E0,2.2E1,9E0,4E0,2E0,1E0,1E1,1E0,7E0,3E0,1.7E1,5E0,7E0,2E0,3E0,1E0,6E0,4E0,1E0,6E0,2E0,1.5E1,2E0,3E0,3E0,4E0,1E0,5E0,1E0,1.4E1,1E0,1E0,1E0,2E0],"tree_param":{"num_deleted":"0","num_feature":"24","num_nodes":"45","size_leaf_vector":"1"}},{"base_weights":[-5.411819E-3,1.4928651E-1,-1.3220501E-1,2.1529625E-1,4.903853E-2,-4.474716E-3,-1.7609565E-1,1.515764E-2,2.518749E-1,1.1135835E-1,-5.261429E-2,-1.1953893E-1,5.3616732E-2,-2.2945592E-1,-9.277101E-2,2.3156325E-3,-1.9576848E-3,7.7440566E-3,2.9458302E-1,-6.8225263E-4,1.2868941E-1,-5.616516E-3,2.2272586E-3,2.8188825E-3,-9.848517E-3,4.8270733E-3,8.5536E-3,-2.5032595E-1,-4.8620503E-2,-4.2546E-2,-6.4871507E-3,1.5565664E-2,3.6002696E-3,1.8148005E-3,6.8351664E-3,-1.3256132E-3,1.1974067E-3,-2.6253065E-1,-1.9865036E-3,-6.148398E-4,-3.0316978E-3,2.2047758E-5,-2.4891994E-3,-4.70621E-3,-1.4137735E-2],"categories":[],"categories_nodes":[],"categories_segments":[],"categories_sizes":[],"default_left":[0,0,0,0,0,0,0,0,0,0,0,0,0,0,0,0,0,0,0,0,0,0,0,0,0,0,0,0,0,0,0,0,0,0,0,0,0,0,0,0,0,0,0,0,0],"id":22,"left_children":[1,3,5,7,9,11,13,15,17,19,21,23,25,27,29,-1,-1,-1,31,-1,33,-1,-1,-1,-1,-1,35,37,39,41,-1,-1,-1,-1,-1,-1,-1,43,-1,-1,-1,-1,-1,-1,-1],"loss_changes":[1.392765E0,2.011972E-1,2.1785235E-1,1.3527733E-1,9.454885E-2,7.9936E-2,1.0765368E-1,8.581592E-3,2.0653367E-2,2.1253943E-2,3.9815634E-2,6.5590605E-2,1.4648806E-2,5.1987708E-2,1.8619895E-2,0E0,0E0,0E0,1.4821529E-2,0E0,9.6166134E-4,0E0,0E0,0E0,0E0,0E0,3.3340324E-3,2.8123558E-2,5.635163E-4,2.1999255E-3,0E0,0E0,0E0,0E0,0E0,0E0,0E0,2.1067917E-2,0E0,0E0,0E0,0E0,0E0,0E0,0E0],"parents":[2147483647,0,0,1,1,2,2,3,3,4,4,5,5,6,6,7,7,8,8,9,9,10,10,11,11,12,12,13,13,14,14,18,18,20,20,26,26,27,27,28,28,29,29,37,37],"right_children":[2,4,6,8,10,12,14,16,18,20,22,24,26,28,30,-1,-1,-1,32,-1,34,-1,-1,-1,-1,-1,36,38,40,42,-1,-1,-1,-1,-1,-1,-1,44,-1,-1,-1,-1,-1,-1,-1],"split_conditions":[2.604E0,1.341E0,2.7537E0,1.0195E0,1.6565E0,2.7874E0,2.2764E0,6.23E-1,1.2106E0,1.0116972E3,9.31E-1,6.579E-1,4.942E-1,3.2704E0,1.682E0,2.3156325E-3,-1.9576848E-3,7.7440566E-3,2.7476E0,-6.8225263E-4,6.906E-1,-5.616516E-3,2.2272586E-3,2.8188825E-3,-9.848517E-3,4.8270733E-3,1.0098868E3,2.2485E0,9.555E-1,2.1929E0,-6.4871507E-3,1.5565664E-2,3.6002696E-3,1.8148005E-3,6.8351664E-3,-1.3256132E-3,1.1974067E-3,8.744E-1,-1.9865036E-3,-6.148398E-4,-3.0316978E-3,2.2047758E-5,-2.4891994E-3,-4.70621E-3,-1.4137735E-2],"split_indices":[18,9,11,9,15,18,2,0,2,5,0,0,14,18,8,0,0,0,6,0,0,0,0,0,0,0,4,3,0,3,0,0,0,0,0,0,0,0,0,0,0,0,0,0,0],"split_type":[0,0,0,0,0,0,0,0,0,0,0,0,0,0,0,0,0,0,0,0,0,0,0,0,0,0,0,0,0,0,0,0,0,0,0,0,0,0,0,0,0,0,0,0,0],"sum_hessian":[6.9E1,3.1E1,3.8E1,1.8E1,1.3E1,1E1,2.8E1,3E0,1.5E1,8E0,5E0,3E0,7E0,1.6E1,1.2E1,2E0,1E0,6E0,9E0,1E0,7E0,3E0,2E0,1E0,2E0,3E0,4E0,1.4E1,2E0,6E0,6E0,8E0,1E0,1E0,6E0,1E0,3E0,1.3E1,1E0,1E0,1E0,1E0,5E0,2E0,1.1E1],"tree_param":{"num_deleted":"0","num_feature":"24","num_nodes":"45","size_leaf_vector":"1"}},{"base_weights":[1.1399663E-2,1.7758359E-1,-8.63909E-2,-2.8061071E-2,1.9515762E-1,8.840448E-3,-1.4252101E-1,-1.0844469E-4,-1.9961358E-3,7.3086776E-2,2.2985964E-1,6.0402356E-2,-1.04350425E-1,-1.9611832E-1,-5.0248295E-2,9.799286E-2,-1.9087434E-3,4.38042E-3,2.510562E-1,-4.146099E-4,9.846479E-2,4.164036E-2,-9.387796E-3,-1.568579E-2,-1.2675656E-1,-6.469569E-2,2.7168274E-3,1.2678028E-3,5.3724507E-3,1.528833E-2,6.851668E-3,1.9590259E-3,-2.6534954E-3,6.154716E-3,1.6384125E-2,2.4941803E-3,6.288469E-4,3.944238E-3,-1.508789E-1,-5.0719962E-3,-3.8236618E-2,1.20731E-3,2.1499396E-5,8.9528563E-4,-5.994678E-4,-8.042167E-3,-1.2808681E-3,1.7433167E-4,-2.2347586E-3],"categories":[],"categories_nodes":[],"categories_segments":[],"categories_sizes":[],"default_left":[0,0,0,0,0,0,0,0,0,0,0,0,0,0,0,0,0,0,0,0,0,0,0,0,0,0,0,0,0,0,0,0,0,0,0,0,0,0,0,0,0,0,0,0,0,0,0,0,0],"id":23,"left_children":[1,3,5,7,9,11,13,-1,-1,15,17,19,21,23,25,27,-1,-1,29,31,33,35,-1,-1,37,39,-1,-1,-1,-1,-1,-1,-1,-1,41,-1,-1,43,45,-1,47,-1,-1,-1,-1,-1,-1,-1,-1],"loss_changes":[1.1854295E0,1.03054345E-1,2.4714589E-1,8.347831E-4,8.9102924E-2,1.11357085E-1,1.3356692E-1,0E0,0E0,2.3138504E-2,3.529501E-2,3.0133758E-2,8.087682E-2,1.0705632E-1,2.1647085E-2,1.3967045E-3,0E0,0E0,5.7911515E-2,1.4588667E-2,1.4156073E-2,9.134738E-5,0E0,0E0,4.158163E-2,6.815687E-3,0E0,0E0,0E0,0E0,0E0,0E0,0E0,0E0,3.61129E-4,0E0,0E0,8.820473E-4,9.609371E-3,0E0,2.3116106E-3,0E0,0E0,0E0,0E0,0E0,0E0,0E0,0E0],"parents":[2147483647,0,0,1,1,2,2,3,3,4,4,5,5,6,6,9,9,10,10,11,11,12,12,13,13,14,14,15,15,18,18,19,19,20,20,21,21,24,24,25,25,34,34,37,37,38,38,40,40],"right_children":[2,4,6,8,10,12,14,-1,-1,16,18,20,22,24,26,28,-1,-1,30,32,34,36,-1,-1,38,40,-1,-1,-1,-1,-1,-1,-1,-1,42,-1,-1,44,46,-1,48,-1,-1,-1,-1,-1,-1,-1,-1],"split_conditions":[2.6089E0,9.687E-1,2.9463E0,7.744E-1,6.373E-1,1.2068E0,2.259E0,-1.0844469E-4,-1.9961358E-3,6.579E-1,1.982E0,2.7106E0,1.509E-1,1.0122588E3,1.3124E0,1.0447E0,-1.9087434E-3,4.38042E-3,2.3453E0,4.942E-1,1.2335E0,8.914E-1,-9.387796E-3,-1.568579E-2,1.013076E3,3.883E-1,2.7168274E-3,1.2678028E-3,5.3724507E-3,1.528833E-2,6.851668E-3,1.9590259E-3,-2.6534954E-3,6.154716E-3,1.0479E0,2.4941803E-3,6.288469E-4,9.525E-1,1.0164719E3,-5.0719962E-3,1.0120646E3,1.20731E-3,2.1499396E-5,8.9528563E-4,-5.994678E-4,-8.042167E-3,-1.2808681E-3,1.7433167E-4,-2.2347586E-3],"split_indices":[10,16,10,0,1,23,3,0,0,0,18,11,7,5,1,3,0,0,19,15,16,0,0,0,5,7,0,0,0,0,0,0,0,0,0,0,0,0,5,0,4,0,0,0,0,0,0,0,0],"split_type":[0,0,0,0,0,0,0,0,0,0,0,0,0,0,0,0,0,0,0,0,0,0,0,0,0,0,0,0,0,0,0,0,0,0,0,0,0,0,0,0,0,0,0,0,0,0,0,0,0],"sum_hessian":[7.1E1,2.6E1,4.5E1,2E0,2.4E1,1.7E1,2.8E1,1E0,1E0,6E0,1.8E1,1.2E1,5E0,1.7E1,1.1E1,5E0,1E0,3E0,1.5E1,5E0,7E0,2E0,3E0,5E0,1.2E1,1E1,1E0,1E0,4E0,9E0,6E0,3E0,2E0,5E0,2E0,1E0,1E0,2E0,1E1,3E0,7E0,1E0,1E0,1E0,1E0,9E0,1E0,1E0,6E0],"tree_param":{"num_deleted":"0","num_feature":"24","num_nodes":"49","size_leaf_vector":"1"}},{"base_weights":[-1.2047526E-3,1.2719928E-1,-1.2579675E-1,1.703574E-1,2.5395967E-2,-2.773015E-2,-1.6550241E-1,2.1776614E-1,5.4245263E-2,1.0144225E-1,-1.3304558E-1,-1.2917504E-1,2.6458561E-2,-2.107142E-1,-4.8739552E-2,2.3256584E-1,-1.0573268E-4,1.1727456E-1,-4.4947546E-3,1.9234955E-2,7.345982E-3,-1.861024E-3,-7.629023E-3,-9.39642E-3,1.1771262E-3,5.2137088E-2,-1.2254238E-2,-2.6693517E-1,-9.226494E-2,-7.6746665E-2,2.3521185E-2,2.5947607E-1,6.342509E-3,2.1277748E-3,7.1997615E-3,1.688548E-3,-6.0932635E-4,3.3639509E-3,9.808064E-4,-1.0537684E-3,-2.288739E-3,-7.3943287E-3,-1.707473E-2,-1.2222211E-3,-5.7252133E-3,-4.668239E-3,-1.450348E-3,1.6997456E-4,1.5941144E-3,5.1478744E-3,1.4140911E-2,2.0962954E-5,-1.9261838E-4],"categories":[],"categories_nodes":[],"categories_segments":[],"categories_sizes":[],"default_left":[0,0,0,0,0,0,0,0,0,0,0,0,0,0,0,0,0,0,0,0,0,0,0,0,0,0,0,0,0,0,0,0,0,0,0,0,0,0,0,0,0,0,0,0,0,0,0,0,0,0,0,0,0],"id":24,"left_children":[1,3,5,7,9,11,13,15,17,19,21,23,25,27,29,31,-1,33,-1,35,-1,-1,-1,-1,-1,37,39,41,43,45,47,49,-1,-1,-1,-1,-1,-1,-1,-1,51,-1,-1,-1,-1,-1,-1,-1,-1,-1,-1,-1,-1],"loss_changes":[1.0718768E0,1.4066368E-1,1.2779975E-1,1.1479598E-1,1.4603424E-1,6.388663E-2,1.1642724E-1,5.255854E-2,8.322294E-2,2.7082585E-2,1.8086135E-3,4.0314987E-2,8.5916035E-3,8.857995E-2,1.7995689E-2,9.757876E-3,0E0,5.85147E-3,0E0,2.238522E-3,0E0,0E0,0E0,0E0,0E0,1.1423957E-3,3.0339183E-4,4.713565E-2,7.7589825E-3,2.051834E-3,3.9633503E-4,1.1070073E-2,0E0,0E0,0E0,0E0,0E0,0E0,0E0,0E0,1.4318048E-5,0E0,0E0,0E0,0E0,0E0,0E0,0E0,0E0,0E0,0E0,0E0,0E0],"parents":[2147483647,0,0,1,1,2,2,3,3,4,4,5,5,6,6,7,7,8,8,9,9,10,10,11,11,12,12,13,13,14,14,15,15,17,17,19,19,25,25,26,26,27,27,28,28,29,29,30,30,31,31,40,40],"right_children":[2,4,6,8,10,12,14,16,18,20,22,24,26,28,30,32,-1,34,-1,36,-1,-1,-1,-1,-1,38,40,42,44,46,48,50,-1,-1,-1,-1,-1,-1,-1,-1,52,-1,-1,-1,-1,-1,-1,-1,-1,-1,-1,-1,-1],"split_conditions":[1.2838E0,1.2707E0,3.0084E0,1.0150599E3,1.0139327E3,1.4192E0,2.2485E0,1.0171505E3,1.3312E0,1.0706E0,7.161E-1,7.864E-1,1.1916E0,1.598E0,1.0133952E3,2.3453E0,-1.0573268E-4,1.1933E0,-4.4947546E-3,9.525E-1,7.345982E-3,-1.861024E-3,-7.629023E-3,-9.39642E-3,1.1771262E-3,8.914E-1,1.0117489E3,1.0259E0,1.1315E0,1.0129513E3,1.1314E0,5.451E-1,6.342509E-3,2.1277748E-3,7.1997615E-3,1.688548E-3,-6.0932635E-4,3.3639509E-3,9.808064E-4,-1.0537684E-3,1.2776E0,-7.3943287E-3,-1.707473E-2,-1.2222211E-3,-5.7252133E-3,-4.668239E-3,-1.450348E-3,1.6997456E-4,1.5941144E-3,5.1478744E-3,1.4140911E-2,2.0962954E-5,-1.9261838E-4],"split_indices":[16,8,10,12,21,16,3,5,2,0,0,0,0,17,5,19,0,2,0,0,0,0,0,0,0,0,5,0,0,4,0,0,0,0,0,0,0,0,0,0,0,0,0,0,0,0,0,0,0,0,0,0,0],"split_type":[0,0,0,0,0,0,0,0,0,0,0,0,0,0,0,0,0,0,0,0,0,0,0,0,0,0,0,0,0,0,0,0,0,0,0,0,0,0,0,0,0,0,0,0,0,0,0,0,0,0,0,0,0],"sum_hessian":[6.5E1,3.2E1,3.3E1,2.2E1,1E1,1E1,2.3E1,1.5E1,7E0,7E0,3E0,3E0,7E0,1.6E1,7E0,1.4E1,1E0,5E0,2E0,3E0,4E0,1E0,2E0,2E0,1E0,4E0,3E0,1E1,6E0,5E0,2E0,1E1,4E0,2E0,3E0,2E0,1E0,2E0,2E0,1E0,2E0,5E0,5E0,2E0,4E0,3E0,2E0,1E0,1E0,2E0,8E0,1E0,1E0],"tree_param":{"num_deleted":"0","num_feature":"24","num_nodes":"53","size_leaf_vector":"1"}},{"base_weights":[-1.0983021E-2,1.568654E-1,-9.8317355E-2,2.3152318E-2,2.0015019E-1,-1.2109801E-1,1.1270366E-1,8.439746E-2,-4.332018E-3,2.327116E-1,2.8007388E-2,-5.72527E-2,-1.82217E-1,6.2668473E-3,1.5542627E-3,4.6833875E-3,1.1829078E-3,1.3714515E-2,6.2314253E-3,3.0897378E-3,-1.8338681E-3,-1.1668239E-1,1.2784481E-2,-2.3406717E-1,-6.870209E-2,-1.05701E-2,-1.8825259E-2,4.002595E-3,-2.2447288E-2,-1.621848E-2,-1.2579417E-1,4.2631626E-3,-9.373436E-2,1.908663E-3,-3.5558732E-3,3.8738252E-4,-2.1056891E-3,-1.4468998E-3,-6.7748385E-3,1.1476994E-3,-8.279622E-4,-1.978922E-3,-5.545886E-3],"categories":[],"categories_nodes":[],"categories_segments":[],"categories_sizes":[],"default_left":[0,0,0,0,0,0,0,0,0,0,0,0,0,0,0,0,0,0,0,0,0,0,0,0,0,0,0,0,0,0,0,0,0,0,0,0,0,0,0,0,0,0,0],"id":25,"left_children":[1,3,5,7,9,11,13,15,-1,17,19,21,23,-1,-1,-1,-1,-1,-1,-1,-1,25,27,29,31,-1,33,-1,35,-1,37,39,41,-1,-1,-1,-1,-1,-1,-1,-1,-1,-1],"loss_changes":[1.0268888E0,1.3427192E-1,2.3477933E-1,5.43821E-2,9.437615E-2,1.5345836E-1,1.2594089E-3,5.9934705E-4,0E0,3.322488E-2,1.1008579E-2,9.306205E-2,1.0752016E-1,0E0,0E0,0E0,0E0,0E0,0E0,0E0,0E0,1.0724817E-1,2.7866399E-2,9.6078634E-2,1.5011497E-2,0E0,2.357883E-2,0E0,5.076911E-3,0E0,3.597036E-3,1.5476644E-3,1.1935271E-3,0E0,0E0,0E0,0E0,0E0,0E0,0E0,0E0,0E0,0E0],"parents":[2147483647,0,0,1,1,2,2,3,3,4,4,5,5,6,6,7,7,9,9,10,10,11,11,12,12,21,21,22,22,23,23,24,24,26,26,28,28,30,30,31,31,32,32],"right_children":[2,4,6,8,10,12,14,16,-1,18,20,22,24,-1,-1,-1,-1,-1,-1,-1,-1,26,28,30,32,-1,34,-1,36,-1,38,40,42,-1,-1,-1,-1,-1,-1,-1,-1,-1,-1],"split_conditions":[2.6089E0,1.1933E0,1.3124E0,6.23E-1,1.341E0,1.5248E0,1.3444E0,6.05E-1,-4.332018E-3,2.3453E0,7.853E-1,9.537E-1,2.259E0,6.2668473E-3,1.5542627E-3,4.6833875E-3,1.1829078E-3,1.3714515E-2,6.2314253E-3,3.0897378E-3,-1.8338681E-3,1.4192E0,1.4568E0,1.6066E0,1.5844E0,-1.05701E-2,1.4589E0,4.002595E-3,1.0131536E3,-1.621848E-2,1.0116972E3,1.0479E0,1.1399E0,1.908663E-3,-3.5558732E-3,3.8738252E-4,-2.1056891E-3,-1.4468998E-3,-6.7748385E-3,1.1476994E-3,-8.279622E-4,-1.978922E-3,-5.545886E-3],"split_indices":[10,3,1,0,9,8,0,0,0,19,0,0,3,0,0,0,0,0,0,0,0,17,17,8,8,0,8,0,4,0,4,0,0,0,0,0,0,0,0,0,0,0,0],"split_type":[0,0,0,0,0,0,0,0,0,0,0,0,0,0,0,0,0,0,0,0,0,0,0,0,0,0,0,0,0,0,0,0,0,0,0,0,0,0,0,0,0,0,0],"sum_hessian":[6.8E1,2.3E1,4.5E1,6E0,1.7E1,4.1E1,4E0,4E0,2E0,1.4E1,3E0,2.1E1,2E1,3E0,1E0,3E0,1E0,9E0,5E0,2E0,1E0,1.1E1,1E1,1.3E1,7E0,5E0,6E0,3E0,7E0,6E0,7E0,2E0,5E0,3E0,3E0,3E0,4E0,1E0,6E0,1E0,1E0,2E0,3E0],"tree_param":{"num_deleted":"0","num_feature":"24","num_nodes":"43","size_leaf_vector":"1"}},{"base_weights":[-3.0061025E-3,1.3305826E-1,-1.23868704E-1,1.9665538E-1,7.9194166E-2,5.8571767E-2,-1.4850414E-1,4.501193E-3,2.303056E-1,1.147455E-1,-8.280969E-2,3.3712776E-3,5.789161E-4,-1.6580258E-1,1.4035642E-2,5.9745344E-3,1.30363805E-2,-2.4021387E-2,1.4861642E-1,-5.2233418E-3,-4.45956E-4,-2.1670866E-1,-8.647904E-2,1.2699008E-3,-5.01287E-4,1.7852724E-3,-2.7916075E-3,1.0000647E-3,7.883379E-3,-2.6301342E-1,-8.798102E-2,-3.7331104E-2,-1.1253011E-1,-1.4644146E-2,-3.7888666E-3,-4.8592924E-3,-1.0489225E-3,1.07526785E-5,-2.2441675E-3,-1.4107287E-3,-6.027227E-3],"categories":[],"categories_nodes":[],"categories_segments":[],"categories_sizes":[],"default_left":[0,0,0,0,0,0,0,0,0,0,0,0,0,0,0,0,0,0,0,0,0,0,0,0,0,0,0,0,0,0,0,0,0,0,0,0,0,0,0,0,0],"id":26,"left_children":[1,3,5,7,9,11,13,-1,15,17,19,-1,-1,21,23,-1,-1,25,27,-1,-1,29,31,-1,-1,-1,-1,-1,-1,33,35,37,39,-1,-1,-1,-1,-1,-1,-1,-1],"loss_changes":[1.118303E0,9.404528E-2,1.705001E-1,2.9501438E-2,1.1893163E-1,1.2996737E-3,9.230113E-2,0E0,2.5575757E-3,7.877259E-2,5.469283E-3,0E0,0E0,9.8362684E-2,1.3482117E-3,0E0,0E0,9.593337E-3,1.1979908E-2,0E0,0E0,7.81917E-2,1.2443759E-2,0E0,0E0,0E0,0E0,0E0,0E0,4.491794E-2,1.6616732E-3,1.7109979E-3,2.0048022E-3,0E0,0E0,0E0,0E0,0E0,0E0,0E0,0E0],"parents":[2147483647,0,0,1,1,2,2,3,3,4,4,5,5,6,6,8,8,9,9,10,10,13,13,14,14,17,17,18,18,21,21,22,22,29,29,30,30,31,31,32,32],"right_children":[2,4,6,8,10,12,14,-1,16,18,20,-1,-1,22,24,-1,-1,26,28,-1,-1,30,32,-1,-1,-1,-1,-1,-1,34,36,38,40,-1,-1,-1,-1,-1,-1,-1,-1],"split_conditions":[1.2551E0,1.0134489E3,1.2934E0,5.138E-1,1.0147055E3,7.566E-1,1.0160015E3,4.501193E-3,1.2106E0,1.0308E0,7.161E-1,3.3712776E-3,5.789161E-4,2.2485E0,1.098E0,5.9745344E-3,1.30363805E-2,5.229E-1,1.079E-1,-5.2233418E-3,-4.45956E-4,1.6066E0,1.682E0,1.2699008E-3,-5.01287E-4,1.7852724E-3,-2.7916075E-3,1.0000647E-3,7.883379E-3,1.0150942E3,1.013693E3,1.0706E0,1.0098749E3,-1.4644146E-2,-3.7888666E-3,-4.8592924E-3,-1.0489225E-3,1.07526785E-5,-2.2441675E-3,-1.4107287E-3,-6.027227E-3],"split_indices":[17,4,9,23,13,1,4,0,2,17,1,0,0,2,6,0,0,1,6,0,0,8,8,0,0,0,0,0,0,4,4,1,13,0,0,0,0,0,0,0,0],"split_type":[0,0,0,0,0,0,0,0,0,0,0,0,0,0,0,0,0,0,0,0,0,0,0,0,0,0,0,0,0,0,0,0,0,0,0,0,0,0,0,0,0],"sum_hessian":[6.6E1,3.1E1,3.5E1,1.3E1,1.8E1,4E0,3.1E1,4E0,9E0,1.5E1,3E0,3E0,1E0,2.8E1,3E0,3E0,6E0,3E0,1.2E1,2E0,1E0,1.6E1,1.2E1,2E0,1E0,1E0,2E0,1E0,1.1E1,1.1E1,5E0,5E0,7E0,9E0,2E0,4E0,1E0,1E0,4E0,1E0,6E0],"tree_param":{"num_deleted":"0","num_feature":"24","num_nodes":"41","size_leaf_vector":"1"}},{"base_weights":[-4.876461E-3,1.1260064E-1,-1.0985923E-1,1.502243E-1,2.0276243E-2,-1.5633206E-1,-4.32556E-2,1.2058377E-2,1.6938809E-1,-7.0459875E-3,9.833971E-2,2.3744881E-2,-1.86015E-1,-6.260005E-4,-1.04065605E-1,1.8543005E-3,-1.575613E-3,1.8782954E-1,-3.8705666E-3,6.3809254E-3,7.002195E-3,2.1134296E-3,-7.9565647E-4,-2.274104E-1,-2.4625754E-2,3.770237E-2,-2.7913978E-2,-1.3754606E-3,-5.612007E-3,5.647959E-3,2.1369593E-1,1.4279366E-3,-1.718229E-3,9.7506045E-4,-4.4989586E-4,-2.4667972E-1,-3.4053267E-3,7.541001E-4,-3.8323194E-2,5.1772594E-4,2.6241383E-3,-2.1342437E-3,-1.8899512E-3,3.930716E-3,1.1555473E-2,-3.466213E-3,-1.2784116E-2,-4.8875215E-4,-2.229045E-3,1.0484458E-5,-1.7055274E-4],"categories":[],"categories_nodes":[],"categories_segments":[],"categories_sizes":[],"default_left":[0,0,0,0,0,0,0,0,0,0,0,0,0,0,0,0,0,0,0,0,0,0,0,0,0,0,0,0,0,0,0,0,0,0,0,0,0,0,0,0,0,0,0,0,0,0,0,0,0,0,0],"id":27,"left_children":[1,3,5,7,9,11,13,15,17,-1,19,21,23,25,27,-1,-1,29,31,-1,33,-1,-1,35,37,39,41,-1,-1,-1,43,-1,-1,-1,-1,45,-1,-1,47,-1,-1,49,-1,-1,-1,-1,-1,-1,-1,-1,-1],"loss_changes":[8.8801825E-1,1.1505577E-1,1.10857606E-1,6.1504245E-2,1.522767E-1,1.2201148E-1,4.4004068E-2,5.530543E-3,6.782496E-2,0E0,2.0500407E-2,3.6110806E-3,1.2133455E-1,1.2557364E-2,1.2930408E-3,0E0,0E0,1.2657046E-2,3.9481074E-3,0E0,7.7542715E-4,0E0,0E0,2.9244661E-2,3.297463E-3,1.4776262E-3,1.7031645E-3,0E0,0E0,0E0,1.24107E-2,0E0,0E0,0E0,0E0,3.031671E-3,0E0,0E0,2.7880352E-4,0E0,0E0,9.693539E-6,0E0,0E0,0E0,0E0,0E0,0E0,0E0,0E0,0E0],"parents":[2147483647,0,0,1,1,2,2,3,3,4,4,5,5,6,6,7,7,8,8,10,10,11,11,12,12,13,13,14,14,17,17,18,18,20,20,23,23,24,24,25,25,26,26,30,30,35,35,38,38,41,41],"right_children":[2,4,6,8,10,12,14,16,18,-1,20,22,24,26,28,-1,-1,30,32,-1,34,-1,-1,36,38,40,42,-1,-1,-1,44,-1,-1,-1,-1,46,-1,-1,48,-1,-1,50,-1,-1,-1,-1,-1,-1,-1,-1,-1],"split_conditions":[2.6792E0,2.6089E0,2.259E0,1.0195E0,2.6963E0,1.6605E0,3.2733E0,6.23E-1,1.341E0,-7.0459875E-3,2.9274E0,8.914E-1,3.2704E0,3.993E-1,1.1201E0,1.8543005E-3,-1.575613E-3,1.3372E0,6.906E-1,6.3809254E-3,9.525E-1,2.1134296E-3,-7.9565647E-4,1.7323E0,8.97E-1,1.1916E0,1.4659E0,-1.3754606E-3,-5.612007E-3,5.647959E-3,4.055E-1,1.4279366E-3,-1.718229E-3,9.7506045E-4,-4.4989586E-4,1.0098868E3,-3.4053267E-3,7.541001E-4,9.555E-1,5.1772594E-4,2.6241383E-3,1.2776E0,-1.8899512E-3,3.930716E-3,1.1555473E-2,-3.466213E-3,-1.2784116E-2,-4.8875215E-4,-2.229045E-3,1.0484458E-5,-1.7055274E-4],"split_indices":[19,10,2,9,10,2,10,0,9,0,10,0,18,7,0,0,0,3,0,0,0,0,0,9,0,0,9,0,0,0,7,0,0,0,0,5,0,0,0,0,0,0,0,0,0,0,0,0,0,0,0],"split_type":[0,0,0,0,0,0,0,0,0,0,0,0,0,0,0,0,0,0,0,0,0,0,0,0,0,0,0,0,0,0,0,0,0,0,0,0,0,0,0,0,0,0,0,0,0,0,0,0,0,0,0],"sum_hessian":[7E1,3.3E1,3.7E1,2.3E1,1E1,2.1E1,1.6E1,3E0,2E1,3E0,7E0,3E0,1.8E1,1E1,6E0,2E0,1E0,1.8E1,2E0,5E0,2E0,2E0,1E0,1.4E1,4E0,4E0,6E0,1E0,5E0,6E0,1.2E1,1E0,1E0,1E0,1E0,1.2E1,2E0,1E0,3E0,2E0,2E0,2E0,4E0,2E0,1E1,1E0,1.1E1,1E0,2E0,1E0,1E0],"tree_param":{"num_deleted":"0","num_feature":"24","num_nodes":"51","size_leaf_vector":"1"}},{"base_weights":[-1.1395825E-2,9.218804E-2,-1.00276485E-1,1.4990357E-1,3.583974E-2,-1.3811953E-1,-1.3080438E-2,4.065623E-2,1.8593384E-1,-2.521168E-2,6.3328864E-3,5.0180435E-2,-1.6607773E-1,2.1757262E-2,-5.154435E-2,2.9028624E-3,-7.236958E-4,6.2154154E-3,1.1751141E-2,-8.179963E-2,4.7133565E-3,2.9776932E-3,5.515039E-4,-2.3084578E-1,-6.527148E-2,-1.404345E-2,2.605933E-3,-1.050222E-3,-3.0781596E-3,2.202654E-3,-1.3109271E-1,-2.5691193E-1,-2.9160639E-3,-1.6040524E-2,-5.564717E-3,-1.4372527E-3,4.3876967E-4,-2.1409949E-3,-8.226207E-3,-7.757664E-4,-1.3975004E-2,4.9697957E-4,-1.5757739E-3,1.9919872E-4,-1.66291E-4],"categories":[],"categories_nodes":[],"categories_segments":[],"categories_sizes":[],"default_left":[0,0,0,0,0,0,0,0,0,0,0,0,0,0,0,0,0,0,0,0,0,0,0,0,0,0,0,0,0,0,0,0,0,0,0,0,0,0,0,0,0,0,0,0,0],"id":28,"left_children":[1,3,5,7,9,11,13,15,17,19,-1,21,23,25,27,-1,-1,-1,-1,29,-1,-1,-1,31,33,35,-1,-1,-1,-1,37,39,-1,41,-1,-1,43,-1,-1,-1,-1,-1,-1,-1,-1],"loss_changes":[6.1688E-1,9.544486E-2,1.16984874E-1,5.148381E-2,9.745089E-2,1.39947E-1,1.7201394E-2,5.6369174E-3,4.0611923E-3,8.208268E-2,0E0,8.1100874E-4,1.2857091E-1,8.340643E-3,5.4274686E-4,0E0,0E0,0E0,0E0,5.540437E-2,0E0,0E0,0E0,4.347825E-2,2.0872276E-2,8.642599E-4,0E0,0E0,0E0,0E0,1.0661617E-2,5.564314E-2,0E0,2.7254974E-3,0E0,0E0,5.3288706E-5,0E0,0E0,0E0,0E0,0E0,0E0,0E0,0E0],"parents":[2147483647,0,0,1,1,2,2,3,3,4,4,5,5,6,6,7,7,8,8,9,9,11,11,12,12,13,13,14,14,19,19,23,23,24,24,25,25,30,30,31,31,33,33,36,36],"right_children":[2,4,6,8,10,12,14,16,18,20,-1,22,24,26,28,-1,-1,-1,-1,30,-1,-1,-1,32,34,36,-1,-1,-1,-1,38,40,-1,42,-1,-1,44,-1,-1,-1,-1,-1,-1,-1,-1],"split_conditions":[2.6792E0,2.3358E0,2.259E0,6.541E-1,2.0463E0,1.2934E0,2.9011E0,7.853E-1,1.2106E0,2.4622E0,6.3328864E-3,7.566E-1,1.5883E0,1.0138483E3,1.4162E0,2.9028624E-3,-7.236958E-4,6.2154154E-3,1.1751141E-2,1.0115056E3,4.7133565E-3,2.9776932E-3,5.515039E-4,2.259E0,1.5029E0,2.1929E0,2.605933E-3,-1.050222E-3,-3.0781596E-3,2.202654E-3,2.3998E0,6.579E-1,-2.9160639E-3,1.4715E0,-5.564717E-3,-1.4372527E-3,1.2019E0,-2.1409949E-3,-8.226207E-3,-7.757664E-4,-1.3975004E-2,4.9697957E-4,-1.5757739E-3,1.9919872E-4,-1.66291E-4],"split_indices":[19,10,3,7,3,9,18,1,2,19,0,1,16,5,7,0,0,0,0,13,0,0,0,2,9,2,0,0,0,0,10,1,0,8,0,0,1,0,0,0,0,0,0,0,0],"split_type":[0,0,0,0,0,0,0,0,0,0,0,0,0,0,0,0,0,0,0,0,0,0,0,0,0,0,0,0,0,0,0,0,0,0,0,0,0,0,0,0,0,0,0,0,0],"sum_hessian":[6.5E1,3E1,3.5E1,1.4E1,1.6E1,2.4E1,1.1E1,4E0,1E1,1E1,6E0,3E0,2.1E1,6E0,5E0,3E0,1E0,6E0,4E0,7E0,3E0,2E0,1E0,1.2E1,9E0,3E0,3E0,2E0,3E0,2E0,5E0,1E1,2E0,5E0,4E0,1E0,2E0,2E0,3E0,1E0,9E0,2E0,3E0,1E0,1E0],"tree_param":{"num_deleted":"0","num_feature":"24","num_nodes":"45","size_leaf_vector":"1"}},{"base_weights":[-2.0837298E-2,9.078998E-2,-1.0539053E-1,-9.315808E-3,1.2454674E-1,-1.3351336E-1,1.2561374E-2,6.559837E-2,-1.1935812E-1,1.2260239E-2,1.5345053E-1,-1.4853388E-1,1.6273975E-2,-2.8176466E-2,3.5263896E-3,3.9984495E-3,1.2285709E-3,-1.4826953E-3,-6.968745E-3,4.2499383E-3,-2.267936E-3,1.8691123E-1,5.23224E-3,-2.3746204E-2,-1.6614145E-1,1.3763587E-3,-4.3714046E-4,-2.1911461E-3,-2.0310672E-3,1.0697502E-2,2.6251993E-3,8.8671845E-4,-2.8655687E-3,-2.283162E-1,-1.0118058E-1,-2.1994115E-6,-1.6213655E-4,-4.178719E-3,-1.3169065E-2,-1.3102562E-3,-5.887035E-3],"categories":[],"categories_nodes":[],"categories_segments":[],"categories_sizes":[],"default_left":[0,0,0,0,0,0,0,0,0,0,0,0,0,0,0,0,0,0,0,0,0,0,0,0,0,0,0,0,0,0,0,0,0,0,0,0,0,0,0,0,0],"id":29,"left_children":[1,3,5,7,9,11,13,15,17,19,21,23,25,27,-1,-1,-1,-1,-1,-1,-1,29,-1,31,33,-1,-1,35,-1,-1,-1,-1,-1,37,39,-1,-1,-1,-1,-1,-1],"loss_changes":[6.98575E-1,1.0929617E-1,1.4099711E-1,8.202326E-2,7.601079E-2,7.891321E-2,2.3240065E-2,1.5725438E-3,3.0493475E-3,2.9002141E-2,1.1469096E-2,6.4168274E-2,1.36674E-3,1.8512965E-3,0E0,0E0,0E0,0E0,0E0,0E0,0E0,2.5108904E-2,0E0,7.977894E-3,8.594978E-2,0E0,0E0,6.631115E-6,0E0,0E0,0E0,0E0,0E0,4.396814E-2,1.5538633E-2,0E0,0E0,0E0,0E0,0E0,0E0],"parents":[2147483647,0,0,1,1,2,2,3,3,4,4,5,5,6,6,7,7,8,8,9,9,10,10,11,11,12,12,13,13,21,21,23,23,24,24,27,27,33,33,34,34],"right_children":[2,4,6,8,10,12,14,16,18,20,22,24,26,28,-1,-1,-1,-1,-1,-1,-1,30,-1,32,34,-1,-1,36,-1,-1,-1,-1,-1,38,40,-1,-1,-1,-1,-1,-1],"split_conditions":[2.7537E0,1.2285E0,2.5731E0,1.6264E0,1.0308E0,1.016148E3,1.4019E0,1.1048E0,6.05E-1,7.333E-1,2.3453E0,3.447E-1,9.388E-1,1.4659E0,3.5263896E-3,3.9984495E-3,1.2285709E-3,-1.4826953E-3,-6.968745E-3,4.2499383E-3,-2.267936E-3,2.0865E0,5.23224E-3,1.241E-1,3.1993E0,1.3763587E-3,-4.3714046E-4,1.0706E0,-2.0310672E-3,1.0697502E-2,2.6251993E-3,8.8671845E-4,-2.8655687E-3,7.058E-1,3.2354E0,-2.1994115E-6,-1.6213655E-4,-4.178719E-3,-1.3169065E-2,-1.3102562E-3,-5.887035E-3],"split_indices":[10,3,2,7,17,4,1,2,1,1,19,22,7,9,0,0,0,0,0,0,0,14,0,7,10,0,0,1,0,0,0,0,0,1,10,0,0,0,0,0,0],"split_type":[0,0,0,0,0,0,0,0,0,0,0,0,0,0,0,0,0,0,0,0,0,0,0,0,0,0,0,0,0,0,0,0,0,0,0,0,0,0,0,0,0],"sum_hessian":[7.2E1,3.1E1,4.1E1,8E0,2.3E1,3.3E1,8E0,5E0,3E0,5E0,1.8E1,3E1,3E0,5E0,3E0,3E0,2E0,1E0,2E0,2E0,3E0,9E0,9E0,4E0,2.6E1,2E0,1E0,2E0,3E0,7E0,2E0,2E0,2E0,1.2E1,1.4E1,1E0,1E0,3E0,9E0,3E0,1.1E1],"tree_param":{"num_deleted":"0","num_feature":"24","num_nodes":"41","size_leaf_vector":"1"}},{"base_weights":[-5.3239935E-3,1.1847332E-1,-7.7175364E-2,-2.229174E-3,1.4876041E-1,4.3283845E-3,-9.618921E-2,5.773717E-2,-4.072062E-3,4.5562983E-3,1.9652468E-1,-1.1893767E-1,6.828308E-3,3.2550336E-3,8.911669E-4,3.3661525E-3,-4.365784E-2,2.1111773E-1,3.388997E-3,-8.598375E-3,-1.3439335E-1,-2.7133545E-2,3.6237955E-3,-6.4890983E-4,-2.4779162E-3,3.1214058E-3,1.0915309E-2,-2.9869953E-3,2.270464E-3,-1.8061681E-1,-7.526868E-2,-2.1363895E-3,-1.9549013E-3,-9.74955E-3,5.155504E-4,-5.367041E-5,-5.2419724E-3,-2.1457672E-6,-1.5808344E-4],"categories":[],"categories_nodes":[],"categories_segments":[],"categories_sizes":[],"default_left":[0,0,0,0,0,0,0,0,0,0,0,0,0,0,0,0,0,0,0,0,0,0,0,0,0,0,0,0,0,0,0,0,0,0,0,0,0,0,0],"id":30,"left_children":[1,3,5,7,9,-1,11,13,-1,15,17,19,21,-1,-1,-1,23,25,-1,27,29,31,-1,-1,-1,-1,-1,-1,-1,33,35,37,-1,-1,-1,-1,-1,-1,-1],"loss_changes":[6.051086E-1,9.172478E-2,1.4220244E-1,3.320254E-2,1.3686073E-1,0E0,9.2208266E-2,1.5310943E-5,0E0,2.1096649E-2,1.3872087E-2,5.3416252E-2,1.9802641E-2,0E0,0E0,0E0,8.092122E-5,2.6661158E-4,0E0,1.6522918E-2,6.292766E-2,1.7109392E-3,0E0,0E0,0E0,0E0,0E0,0E0,0E0,4.317704E-2,3.060361E-2,6.303504E-6,0E0,0E0,0E0,0E0,0E0,0E0,0E0],"parents":[2147483647,0,0,1,1,2,2,3,3,4,4,6,6,7,7,9,9,10,10,11,11,12,12,16,16,17,17,19,19,20,20,21,21,29,29,30,30,31,31],"right_children":[2,4,6,8,10,-1,12,14,-1,16,18,20,22,-1,-1,-1,24,26,-1,28,30,32,-1,-1,-1,-1,-1,-1,-1,34,36,38,-1,-1,-1,-1,-1,-1,-1],"split_conditions":[2.3859E0,6.23E-1,2.534E0,6.23E-1,1.982E0,4.3283845E-3,1.2634E0,6.05E-1,-4.072062E-3,6.906E-1,1.2059E0,2.963E-1,1.4019E0,3.2550336E-3,8.911669E-4,3.3661525E-3,7.744E-1,4.055E-1,3.388997E-3,7.771E-1,3.1098E0,1.4659E0,3.6237955E-3,-6.4890983E-4,-2.4779162E-3,3.1214058E-3,1.0915309E-2,-2.9869953E-3,2.270464E-3,1.1519E0,3.2733E0,1.2776E0,-1.9549013E-3,-9.74955E-3,5.155504E-4,-5.367041E-5,-5.2419724E-3,-2.1457672E-6,-1.5808344E-4],"split_indices":[19,1,10,0,18,0,0,0,0,0,17,23,1,0,0,0,0,6,0,6,10,9,0,0,0,0,0,0,0,0,10,0,0,0,0,0,0,0,0],"split_type":[0,0,0,0,0,0,0,0,0,0,0,0,0,0,0,0,0,0,0,0,0,0,0,0,0,0,0,0,0,0,0,0,0,0,0,0,0,0,0],"sum_hessian":[6.6E1,2.4E1,4.2E1,5E0,1.9E1,4E0,3.8E1,3E0,2E0,5E0,1.4E1,3.1E1,7E0,2E0,1E0,2E0,3E0,1.2E1,2E0,4E0,2.7E1,5E0,2E0,1E0,2E0,1E0,1.1E1,2E0,2E0,1.4E1,1.3E1,2E0,3E0,1.3E1,1E0,4E0,9E0,1E0,1E0],"tree_param":{"num_deleted":"0","num_feature":"24","num_nodes":"39","size_leaf_vector":"1"}},{"base_weights":[-4.4145747E-3,1.1291488E-1,-6.787606E-2,-2.8761912E-2,1.3998166E-1,-1.0672968E-1,9.25287E-3,1.5395045E-3,-3.936331E-3,-1.4238596E-3,1.582514E-1,-7.15874E-2,-1.8858357E-1,5.587683E-3,-3.0882267E-2,1.8039502E-1,3.825857E-3,-9.2619404E-2,2.6858091E-2,-1.05007095E-2,-3.7858826E-3,7.2918334E-3,-5.565256E-2,4.610009E-3,2.0408402E-1,2.7497837E-3,-1.3368832E-1,3.3593535E-2,-2.0921232E-6,-1.1239807E-3,2.779746E-2,-6.520212E-2,-9.001295E-4,4.1307886E-3,1.1094872E-2,2.6885122E-3,-2.4479062E-3,-8.307781E-3,-5.490586E-4,1.9044599E-3,5.0266384E-4,2.6719572E-4,1.6750336E-3,-9.885312E-4,-3.5167148E-3],"categories":[],"categories_nodes":[],"categories_segments":[],"categories_sizes":[],"default_left":[0,0,0,0,0,0,0,0,0,0,0,0,0,0,0,0,0,0,0,0,0,0,0,0,0,0,0,0,0,0,0,0,0,0,0,0,0,0,0,0,0,0,0,0,0],"id":31,"left_children":[1,3,5,7,9,11,13,-1,-1,-1,15,17,19,-1,21,23,-1,25,27,-1,-1,29,31,-1,33,35,37,39,-1,-1,41,43,-1,-1,-1,-1,-1,-1,-1,-1,-1,-1,-1,-1,-1],"loss_changes":[5.5121505E-1,1.0372922E-1,1.4483097E-1,1.7301489E-2,7.2215915E-2,7.854882E-2,7.338722E-2,0E0,0E0,0E0,2.2394538E-2,5.2179717E-2,5.8672726E-3,0E0,1.2698395E-2,1.2522131E-2,0E0,7.870181E-2,9.0732053E-4,0E0,0E0,4.2877696E-3,1.7025191E-3,0E0,5.469173E-3,2.109962E-2,5.3950995E-2,4.039472E-5,0E0,0E0,3.332044E-4,8.421019E-6,0E0,0E0,0E0,0E0,0E0,0E0,0E0,0E0,0E0,0E0,0E0,0E0,0E0],"parents":[2147483647,0,0,1,1,2,2,3,3,4,4,5,5,6,6,10,10,11,11,12,12,14,14,15,15,17,17,18,18,21,21,22,22,24,24,25,25,26,26,27,27,30,30,31,31],"right_children":[2,4,6,8,10,12,14,-1,-1,-1,16,18,20,-1,22,24,-1,26,28,-1,-1,30,32,-1,34,36,38,40,-1,-1,42,44,-1,-1,-1,-1,-1,-1,-1,-1,-1,-1,-1,-1,-1],"split_conditions":[2.6089E0,6.23E-1,2.259E0,6.23E-1,9.687E-1,1.0706E0,2.5016E0,1.5395045E-3,-3.936331E-3,-1.4238596E-3,1.0134614E3,1.0259E0,1.1519E0,5.587683E-3,1.4427E0,1.3372E0,3.825857E-3,1.011544E3,1.1916E0,-1.05007095E-2,-3.7858826E-3,2.3398E0,2.7395E0,4.610009E-3,1.0098736E3,1.4503E0,3.2704E0,9.693E-1,-2.0921232E-6,-1.1239807E-3,1.0120646E3,1.1399E0,-9.001295E-4,4.1307886E-3,1.1094872E-2,2.6885122E-3,-2.4479062E-3,-8.307781E-3,-5.490586E-4,1.9044599E-3,5.0266384E-4,2.6719572E-4,1.6750336E-3,-9.885312E-4,-3.5167148E-3],"split_indices":[10,1,3,0,16,1,18,0,0,0,20,1,0,0,16,3,0,12,0,0,0,3,23,0,12,8,18,0,0,0,4,0,0,0,0,0,0,0,0,0,0,0,0,0,0],"split_type":[0,0,0,0,0,0,0,0,0,0,0,0,0,0,0,0,0,0,0,0,0,0,0,0,0,0,0,0,0,0,0,0,0,0,0,0,0,0,0,0,0,0,0,0,0],"sum_hessian":[7.2E1,2.5E1,4.7E1,4E0,2.1E1,3.1E1,1.6E1,2E0,2E0,2E0,1.9E1,2.3E1,8E0,4E0,1.2E1,1.4E1,5E0,1.9E1,4E0,6E0,2E0,5E0,7E0,4E0,1E1,6E0,1.3E1,3E0,1E0,2E0,3E0,5E0,2E0,2E0,8E0,3E0,3E0,1E1,3E0,2E0,1E0,1E0,2E0,1E0,4E0],"tree_param":{"num_deleted":"0","num_feature":"24","num_nodes":"45","size_leaf_vector":"1"}},{"base_weights":[-5.2731703E-3,7.540841E-2,-8.356711E-2,1.0966048E-1,-9.292516E-3,-2.9598668E-2,-1.3589118E-1,1.2166676E-1,-4.4622603E-3,-6.7609693E-3,3.3715606E-2,1.6804803E-2,-8.3025284E-2,-2.2280651E-1,-6.0326293E-2,1.586379E-1,4.2421766E-2,7.047088E-2,-6.328523E-2,5.0981045E-2,-2.0172238E-2,7.1092844E-3,-1.2927745E-1,-1.1910249E-2,-2.8754324E-3,8.984745E-3,-8.744103E-2,6.4314686E-2,1.956653E-1,7.924338E-2,-2.8841973E-3,4.1599274E-3,1.2883901E-3,-4.2116195E-3,-5.347729E-4,2.862823E-3,4.900992E-4,-2.7000904E-3,-1.4116645E-3,9.45884E-4,-1.5663703E-4,-7.127122E-3,-1.573813E-3,-5.821705E-4,1.9741932E-2,-8.0296694E-4,-4.767211E-3,4.097717E-3,-5.970895E-4,1.0531889E-2,4.2763036E-3,4.406843E-3,1.0917366E-3,1.5682698E-3,-1.8086195E-3,-2.004683E-4,-2.038479E-6,2.6051403E-4,1.220131E-3],"categories":[],"categories_nodes":[],"categories_segments":[],"categories_sizes":[],"default_left":[0,0,0,0,0,0,0,0,0,0,0,0,0,0,0,0,0,0,0,0,0,0,0,0,0,0,0,0,0,0,0,0,0,0,0,0,0,0,0,0,0,0,0,0,0,0,0,0,0,0,0,0,0,0,0,0,0,0,0],"id":32,"left_children":[1,3,5,7,9,11,13,15,-1,-1,17,19,21,23,25,27,29,31,33,35,37,39,41,-1,-1,43,45,47,49,51,53,-1,-1,-1,-1,-1,-1,55,-1,-1,-1,-1,-1,-1,57,-1,-1,-1,-1,-1,-1,-1,-1,-1,-1,-1,-1,-1,-1],"loss_changes":[4.4848317E-1,1.02560386E-1,9.763634E-2,7.056111E-2,6.413366E-2,4.849965E-2,1.0477838E-1,6.358498E-2,0E0,0E0,3.6547396E-2,1.4929501E-2,3.843934E-2,6.6637993E-3,2.1458488E-2,4.3296546E-2,1.5242698E-2,1.8389188E-3,2.403915E-3,9.892685E-4,7.6883077E-4,5.430317E-4,3.2972842E-3,0E0,0E0,1.1174672E-3,2.9819794E-3,9.049505E-3,1.2463331E-4,6.283708E-4,6.8350965E-3,0E0,0E0,0E0,0E0,0E0,0E0,1.0281894E-5,0E0,0E0,0E0,0E0,0E0,0E0,7.603783E-5,0E0,0E0,0E0,0E0,0E0,0E0,0E0,0E0,0E0,0E0,0E0,0E0,0E0,0E0],"parents":[2147483647,0,0,1,1,2,2,3,3,4,4,5,5,6,6,7,7,10,10,11,11,12,12,13,13,14,14,15,15,16,16,17,17,18,18,19,19,20,20,21,21,22,22,25,25,26,26,27,27,28,28,29,29,30,30,37,37,44,44],"right_children":[2,4,6,8,10,12,14,16,-1,-1,18,20,22,24,26,28,30,32,34,36,38,40,42,-1,-1,44,46,48,50,52,54,-1,-1,-1,-1,-1,-1,56,-1,-1,-1,-1,-1,-1,58,-1,-1,-1,-1,-1,-1,-1,-1,-1,-1,-1,-1,-1,-1],"split_conditions":[2.6792E0,1.4659E0,1.521E0,7.1091E0,1.4991E0,1.0130416E3,2.259E0,1.013493E3,-4.4622603E-3,-6.7609693E-3,2.0415E0,1.4612E0,6.062E-1,1.1479E0,1.5844E0,2.2446E0,1.1868E0,1.5058E0,9.537E-1,9.954E-1,1.0117489E3,8.97E-1,9.407E-1,-1.1910249E-2,-2.8754324E-3,1.1834E0,1.1201E0,6.48E-1,2.4819E0,9.525E-1,1.0135213E3,4.1599274E-3,1.2883901E-3,-4.2116195E-3,-5.347729E-4,2.862823E-3,4.900992E-4,9.133E-1,-1.4116645E-3,9.45884E-4,-1.5663703E-4,-7.127122E-3,-1.573813E-3,-5.821705E-4,1.1314E0,-8.0296694E-4,-4.767211E-3,4.097717E-3,-5.970895E-4,1.0531889E-2,4.2763036E-3,4.406843E-3,1.0917366E-3,1.5682698E-3,-1.8086195E-3,-2.004683E-4,-2.038479E-6,2.6051403E-4,1.220131E-3],"split_indices":[18,9,9,7,9,12,2,20,0,0,14,8,23,0,8,10,6,8,0,0,4,0,0,0,0,1,0,0,18,1,4,0,0,0,0,0,0,0,0,0,0,0,0,0,0,0,0,0,0,0,0,0,0,0,0,0,0,0,0],"split_type":[0,0,0,0,0,0,0,0,0,0,0,0,0,0,0,0,0,0,0,0,0,0,0,0,0,0,0,0,0,0,0,0,0,0,0,0,0,0,0,0,0,0,0,0,0,0,0,0,0,0,0,0,0,0,0,0,0,0,0],"sum_hessian":[6.9E1,3.4E1,3.5E1,2.4E1,1E1,1.8E1,1.7E1,2.3E1,1E0,2E0,8E0,1E1,8E0,7E0,1E1,1.5E1,8E0,6E0,2E0,5E0,5E0,3E0,5E0,6E0,1E0,3E0,7E0,5E0,1E1,4E0,4E0,4E0,2E0,1E0,1E0,4E0,1E0,2E0,3E0,1E0,2E0,4E0,1E0,1E0,2E0,1E0,6E0,4E0,1E0,8E0,2E0,3E0,1E0,2E0,2E0,1E0,1E0,1E0,1E0],"tree_param":{"num_deleted":"0","num_feature":"24","num_nodes":"59","size_leaf_vector":"1"}},{"base_weights":[-1.65325E-3,8.355709E-2,-7.404071E-2,1.1721145E-1,2.533295E-3,4.9960554E-2,-8.544515E-2,-1.3363044E-3,1.3151151E-1,-5.667022E-3,6.01535E-2,3.4610075E-3,-1.9545555E-4,-1.1194565E-1,-3.3912487E-2,1.3231436E-3,1.4446418E-1,1.1105621E-1,-6.1703086E-2,-1.617668E-1,-4.8643947E-2,3.7009886E-3,-6.258522E-2,1.2994409E-3,-1.2002051E-3,1.6577014E-1,4.5891986E-3,6.791717E-3,2.0499984E-3,-4.106328E-3,-5.2140356E-4,-2.468113E-2,-1.8444772E-1,3.641912E-3,-5.0768396E-3,-1.9724041E-2,2.6200771E-2,-1.02158E-3,-3.661558E-3,2.9457489E-3,8.992123E-3,-2.3289293E-3,4.7784447E-4,-1.0020135E-2,-3.7550111E-3,1.8833915E-3,-8.751011E-4,-1.2734036E-3,-6.229878E-5,2.5399923E-4,1.5773854E-3],"categories":[],"categories_nodes":[],"categories_segments":[],"categories_sizes":[],"default_left":[0,0,0,0,0,0,0,0,0,0,0,0,0,0,0,0,0,0,0,0,0,0,0,0,0,0,0,0,0,0,0,0,0,0,0,0,0,0,0,0,0,0,0,0,0,0,0,0,0,0,0],"id":33,"left_children":[1,3,5,7,9,11,13,-1,15,-1,17,-1,-1,19,21,23,25,27,29,31,33,35,37,-1,-1,39,-1,-1,-1,-1,-1,41,43,45,-1,47,49,-1,-1,-1,-1,-1,-1,-1,-1,-1,-1,-1,-1,-1,-1],"loss_changes":[4.564623E-1,9.2414424E-2,6.083551E-2,5.291432E-2,8.026117E-2,4.4206204E-3,4.6732366E-2,0E0,3.6907226E-2,0E0,5.6475155E-2,0E0,0E0,6.7821324E-2,1.5330365E-2,2.497979E-3,7.232994E-3,4.8459694E-3,2.2852207E-3,3.586763E-2,3.3556364E-2,4.2061917E-3,2.0938888E-3,0E0,0E0,8.952647E-3,0E0,0E0,0E0,0E0,0E0,2.6943227E-3,4.140705E-3,5.6953556E-3,0E0,3.9282173E-4,2.914637E-4,0E0,0E0,0E0,0E0,0E0,0E0,0E0,0E0,0E0,0E0,0E0,0E0,0E0,0E0],"parents":[2147483647,0,0,1,1,2,2,3,3,4,4,5,5,6,6,8,8,10,10,13,13,14,14,15,15,16,16,17,17,18,18,19,19,20,20,21,21,22,22,25,25,31,31,32,32,33,33,35,35,36,36],"right_children":[2,4,6,8,10,12,14,-1,16,-1,18,-1,-1,20,22,24,26,28,30,32,34,36,38,-1,-1,40,-1,-1,-1,-1,-1,42,44,46,-1,48,50,-1,-1,-1,-1,-1,-1,-1,-1,-1,-1,-1,-1,-1,-1],"split_conditions":[1.2551E0,1.6565E0,6.579E-1,9.687E-1,1.8173E0,6.579E-1,1.1315E0,-1.3363044E-3,1.0195E0,-5.667022E-3,1.4387E0,3.4610075E-3,-1.9545555E-4,1.5713E0,2.9011E0,6.05E-1,2.3453E0,1.013493E3,9.537E-1,1.048E-1,1.5029E0,1.0137916E3,1.0108649E3,1.2994409E-3,-1.2002051E-3,5.229E-1,4.5891986E-3,6.791717E-3,2.0499984E-3,-4.106328E-3,-5.2140356E-4,8.744E-1,3.0927E0,1.4503E0,-5.0768396E-3,1.1201E0,1.0120646E3,-1.02158E-3,-3.661558E-3,2.9457489E-3,8.992123E-3,-2.3289293E-3,4.7784447E-4,-1.0020135E-2,-3.7550111E-3,1.8833915E-3,-8.751011E-4,-1.2734036E-3,-6.229878E-5,2.5399923E-4,1.5773854E-3],"split_indices":[16,14,1,16,14,0,1,0,9,0,9,0,0,16,18,0,19,21,0,22,9,5,12,0,0,0,0,0,0,0,0,0,19,9,0,0,4,0,0,0,0,0,0,0,0,0,0,0,0,0,0],"split_type":[0,0,0,0,0,0,0,0,0,0,0,0,0,0,0,0,0,0,0,0,0,0,0,0,0,0,0,0,0,0,0,0,0,0,0,0,0,0,0,0,0,0,0,0,0,0,0,0,0,0,0],"sum_hessian":[7.2E1,3.3E1,3.9E1,2.3E1,1E1,3E0,3.6E1,2E0,2.1E1,3E0,7E0,2E0,1E0,2.3E1,1.3E1,2E0,1.9E1,5E0,2E0,1.2E1,1.1E1,6E0,7E0,1E0,1E0,1.2E1,7E0,3E0,2E0,1E0,1E0,2E0,1E1,6E0,5E0,3E0,3E0,2E0,5E0,2E0,1E1,1E0,1E0,8E0,2E0,2E0,4E0,2E0,1E0,1E0,2E0],"tree_param":{"num_deleted":"0","num_feature":"24","num_nodes":"51","size_leaf_vector":"1"}},{"base_weights":[-8.495181E-3,8.699682E-2,-1.0662345E-1,9.4734944E-2,-4.20903E-3,-7.7118673E-3,-1.2401081E-1,1.1008577E-1,7.3086023E-3,-2.7550042E-3,2.9757261E-2,-1.856192E-2,-1.4612745E-1,3.1846218E-2,1.2997627E-1,2.4176503E-3,-4.947835E-3,1.9705573E-3,1.989007E-5,-3.497839E-2,4.757007E-4,-1.8441E-1,-7.791911E-2,3.2502604E-3,-1.7017088E-3,2.3588717E-2,1.455328E-1,-2.0145099E-3,-4.7607423E-4,-1.0485001E-2,-2.1779934E-2,-4.390868E-3,-1.2775381E-3,2.3527145E-3,-1.1702002E-3,7.757229E-3,2.1277547E-3,-1.9056797E-4,-1.4429272E-3],"categories":[],"categories_nodes":[],"categories_segments":[],"categories_sizes":[],"default_left":[0,0,0,0,0,0,0,0,0,0,0,0,0,0,0,0,0,0,0,0,0,0,0,0,0,0,0,0,0,0,0,0,0,0,0,0,0,0,0],"id":34,"left_children":[1,3,5,7,-1,9,11,13,15,-1,17,19,21,23,25,-1,-1,-1,-1,27,-1,29,31,-1,-1,33,35,-1,-1,-1,37,-1,-1,-1,-1,-1,-1,-1,-1],"loss_changes":[6.277266E-1,5.301094E-2,5.579737E-2,4.3483615E-2,0E0,1.2293198E-2,6.258848E-2,3.943506E-2,3.0954428E-2,0E0,1.1180539E-3,3.0982315E-3,4.568827E-2,1.7504089E-2,3.297749E-2,0E0,0E0,0E0,0E0,1.5726592E-4,0E0,5.3013593E-2,2.9397458E-3,0E0,0E0,5.5121034E-3,1.2203991E-2,0E0,0E0,0E0,2.7158728E-4,0E0,0E0,0E0,0E0,0E0,0E0,0E0,0E0],"parents":[2147483647,0,0,1,1,2,2,3,3,5,5,6,6,7,7,8,8,10,10,11,11,12,12,13,13,14,14,19,19,21,21,22,22,25,25,26,26,30,30],"right_children":[2,4,6,8,-1,10,12,14,16,-1,18,20,22,24,26,-1,-1,-1,-1,28,-1,30,32,-1,-1,34,36,-1,-1,-1,38,-1,-1,-1,-1,-1,-1,-1,-1],"split_conditions":[2.8467E0,7.7092E0,3.447E-1,1.3E0,-4.20903E-3,1.506E-1,3.447E-1,1.982E0,1.0135871E3,-2.7550042E-3,1.0479E0,1.013693E3,1.598E0,7.333E-1,1.104E-1,2.4176503E-3,-4.947835E-3,1.9705573E-3,1.989007E-5,1.1201E0,4.757007E-4,1.0159797E3,1.5785E0,3.2502604E-3,-1.7017088E-3,6.05E-1,4.5363E0,-2.0145099E-3,-4.7607423E-4,-1.0485001E-2,9.133E-1,-4.390868E-3,-1.2775381E-3,2.3527145E-3,-1.1702002E-3,7.757229E-3,2.1277547E-3,-1.9056797E-4,-1.4429272E-3],"split_indices":[10,7,23,17,0,6,22,18,12,0,0,5,17,0,15,0,0,0,0,0,0,20,6,0,0,0,7,0,0,0,0,0,0,0,0,0,0,0,0],"split_type":[0,0,0,0,0,0,0,0,0,0,0,0,0,0,0,0,0,0,0,0,0,0,0,0,0,0,0,0,0,0,0,0,0,0,0,0,0,0,0],"sum_hessian":[6.5E1,3.3E1,3.2E1,3.2E1,1E0,5E0,2.7E1,2.7E1,5E0,2E0,3E0,5E0,2.2E1,6E0,2.1E1,4E0,1E0,2E0,1E0,3E0,2E0,1.3E1,9E0,4E0,2E0,3E0,1.8E1,2E0,1E0,1.1E1,2E0,7E0,2E0,2E0,1E0,1.6E1,2E0,1E0,1E0],"tree_param":{"num_deleted":"0","num_feature":"24","num_nodes":"39","size_leaf_vector":"1"}},{"base_weights":[5.803021E-3,1.03049636E-1,-5.453543E-2,1.24042384E-1,-9.92837E-3,-6.989481E-2,7.310295E-2,1.3686463E-1,-2.7867954E-3,2.8060675E-3,-3.6334319E-3,-1.2110072E-1,-4.7281962E-2,4.4682445E-3,2.0138026E-4,1.4513376E-1,