{"learner":{"attributes":{"scikit_learn":"{\"_estimator_type\": \"regressor\"}"},"feature_names":["station1_velocity_lag3","station1_velocity_lag5","station1_water_level_lag3","station1_water_level_lag5","station1_pressure_lag3","station1_pressure_lag5","station1_rainfall_lag3","station1_rainfall_lag5","station2_velocity_lag2","station2_velocity_lag3","station2_water_level_lag2","station2_water_level_lag3","station2_pressure_lag2","station2_pressure_lag3","station2_rainfall_lag2","station2_rainfall_lag3","station3_velocity_lag0","station3_velocity_lag1","station3_water_level_lag0","station3_water_level_lag1","station3_pressure_lag0","station3_pressure_lag1","station3_rainfall_lag0","station3_rainfall_lag1"],"feature_types":["float","float","float","float","float","float","float","float","float","float","float","float","float","float","float","float","float","float","float","float","float","float","float","float"],"gradient_booster":{"model":{"cats":{"enc":[],"feature_segments":[],"sorted_idx":[]},"gbtree_model_param":{"num_parallel_tree":"1","num_trees":"1000"},"iteration_indptr":[0,1,2,3,4,5,6,7,8,9,10,11,12,13,14,15,16,17,18,19,20,21,22,23,24,25,26,27,28,29,30,31,32,33,34,35,36,37,38,39,40,41,42,43,44,45,46,47,48,49,50,51,52,53,54,55,56,57,58,59,60,61,62,63,64,65,66,67,68,69,70,71,72,73,74,75,76,77,78,79,80,81,82,83,84,85,86,87,88,89,90,91,92,93,94,95,96,97,98,99,100,101,102,103,104,105,106,107,108,109,110,111,112,113,114,115,116,117,118,119,120,121,122,123,124,125,126,127,128,129,130,131,132,133,134,135,136,137,138,139,140,141,142,143,144,145,146,147,148,149,150,151,152,153,154,155,156,157,158,159,160,161,162,163,164,165,166,167,168,169,170,171,172,173,174,175,176,177,178,179,180,181,182,183,184,185,186,187,188,189,190,191,192,193,194,195,196,197,198,199,200,201,202,203,204,205,206,207,208,209,210,211,212,213,214,215,216,217,218,219,220,221,222,223,224,225,226,227,228,229,230,231,232,233,234,235,236,237,238,239,240,241,242,243,244,245,246,247,248,249,250,251,252,253,254,255,256,257,258,259,260,261,262,263,264,265,266,267,268,269,270,271,272,273,274,275,276,277,278,279,280,281,282,283,284,285,286,287,288,289,290,291,292,293,294,295,296,297,298,299,300,301,302,303,304,305,306,307,308,309,310,311,312,313,314,315,316,317,318,319,320,321,322,323,324,325,326,327,328,329,330,331,332,333,334,335,336,337,338,339,340,341,342,343,344,345,346,347,348,349,350,351,352,353,354,355,356,357,358,359,360,361,362,363,364,365,366,367,368,369,370,371,372,373,374,375,376,377,378,379,380,381,382,383,384,385,386,387,388,389,390,391,392,393,394,395,396,397,398,399,400,401,402,403,404,405,406,407,408,409,410,411,412,413,414,415,416,417,418,419,420,421,422,423,424,425,426,427,428,429,430,431,432,433,434,435,436,437,438,439,440,441,442,443,444,445,446,447,448,449,450,451,452,453,454,455,456,457,458,459,460,461,462,463,464,465,466,467,468,469,470,471,472,473,474,475,476,477,478,479,480,481,482,483,484,485,486,487,488,489,490,491,492,493,494,495,496,497,498,499,500,501,502,503,504,505,506,507,508,509,510,511,512,513,514,515,516,517,518,519,520,521,522,523,524,525,526,527,528,529,530,531,532,533,534,535,536,537,538,539,540,541,542,543,544,545,546,547,548,549,550,551,552,553,554,555,556,557,558,559,560,561,562,563,564,565,566,567,568,569,570,571,572,573,574,575,576,577,578,579,580,581,582,583,584,585,586,587,588,589,590,591,592,593,594,595,596,597,598,599,600,601,602,603,604,605,606,607,608,609,610,611,612,613,614,615,616,617,618,619,620,621,622,623,624,625,626,627,628,629,630,631,632,633,634,635,636,637,638,639,640,641,642,643,644,645,646,647,648,649,650,651,652,653,654,655,656,657,658,659,660,661,662,663,664,665,666,667,668,669,670,671,672,673,674,675,676,677,678,679,680,681,682,683,684,685,686,687,688,689,690,691,692,693,694,695,696,697,698,699,700,701,702,703,704,705,706,707,708,709,710,711,712,713,714,715,716,717,718,719,720,721,722,723,724,725,726,727,728,729,730,731,732,733,734,735,736,737,738,739,740,741,742,743,744,745,746,747,748,749,750,751,752,753,754,755,756,757,758,759,760,761,762,763,764,765,766,767,768,769,770,771,772,773,774,775,776,777,778,779,780,781,782,783,784,785,786,787,788,789,790,791,792,793,794,795,796,797,798,799,800,801,802,803,804,805,806,807,808,809,810,811,812,813,814,815,816,817,818,819,820,821,822,823,824,825,826,827,828,829,830,831,832,833,834,835,836,837,838,839,840,841,842,843,844,845,846,847,848,849,850,851,852,853,854,855,856,857,858,859,860,861,862,863,864,865,866,867,868,869,870,871,872,873,874,875,876,877,878,879,880,881,882,883,884,885,886,887,888,889,890,891,892,893,894,895,896,897,898,899,900,901,902,903,904,905,906,907,908,909,910,911,912,913,914,915,916,917,918,919,920,921,922,923,924,925,926,927,928,929,930,931,932,933,934,935,936,937,938,939,940,941,942,943,944,945,946,947,948,949,950,951,952,953,954,955,956,957,958,959,960,961,962,963,964,965,966,967,968,969,970,971,972,973,974,975,976,977,978,979,980,981,982,983,984,985,986,987,988,989,990,991,992,993,994,995,996,997,998,999,1000],"tree_info":[0,0,0,0,0,0,0,0,0,0,0,0,0,0,0,0,0,0,0,0,0,0,0,0,0,0,0,0,0,0,0,0,0,0,0,0,0,0,0,0,0,0,0,0,0,0,0,0,0,0,0,0,0,0,0,0,0,0,0,0,0,0,0,0,0,0,0,0,0,0,0,0,0,0,0,0,0,0,0,0,0,0,0,0,0,0,0,0,0,0,0,0,0,0,0,0,0,0,0,0,0,0,0,0,0,0,0,0,0,0,0,0,0,0,0,0,0,0,0,0,0,0,0,0,0,0,0,0,0,0,0,0,0,0,0,0,0,0,0,0,0,0,0,0,0,0,0,0,0,0,0,0,0,0,0,0,0,0,0,0,0,0,0,0,0,0,0,0,0,0,0,0,0,0,0,0,0,0,0,0,0,0,0,0,0,0,0,0,0,0,0,0,0,0,0,0,0,0,0,0,0,0,0,0,0,0,0,0,0,0,0,0,0,0,0,0,0,0,0,0,0,0,0,0,0,0,0,0,0,0,0,0,0,0,0,0,0,0,0,0,0,0,0,0,0,0,0,0,0,0,0,0,0,0,0,0,0,0,0,0,0,0,0,0,0,0,0,0,0,0,0,0,0,0,0,0,0,0,0,0,0,0,0,0,0,0,0,0,0,0,0,0,0,0,0,0,0,0,0,0,0,0,0,0,0,0,0,0,0,0,0,0,0,0,0,0,0,0,0,0,0,0,0,0,0,0,0,0,0,0,0,0,0,0,0,0,0,0,0,0,0,0,0,0,0,0,0,0,0,0,0,0,0,0,0,0,0,0,0,0,0,0,0,0,0,0,0,0,0,0,0,0,0,0,0,0,0,0,0,0,0,0,0,0,0,0,0,0,0,0,0,0,0,0,0,0,0,0,0,0,0,0,0,0,0,0,0,0,0,0,0,0,0,0,0,0,0,0,0,0,0,0,0,0,0,0,0,0,0,0,0,0,0,0,0,0,0,0,0,0,0,0,0,0,0,0,0,0,0,0,0,0,0,0,0,0,0,0,0,0,0,0,0,0,0,0,0,0,0,0,0,0,0,0,0,0,0,0,0,0,0,0,0,0,0,0,0,0,0,0,0,0,0,0,0,0,0,0,0,0,0,0,0,0,0,0,0,0,0,0,0,0,0,0,0,0,0,0,0,0,0,0,0,0,0,0,0,0,0,0,0,0,0,0,0,0,0,0,0,0,0,0,0,0,0,0,0,0,0,0,0,0,0,0,0,0,0,0,0,0,0,0,0,0,0,0,0,0,0,0,0,0,0,0,0,0,0,0,0,0,0,0,0,0,0,0,0,0,0,0,0,0,0,0,0,0,0,0,0,0,0,0,0,0,0,0,0,0,0,0,0,0,0,0,0,0,0,0,0,0,0,0,0,0,0,0,0,0,0,0,0,0,0,0,0,0,0,0,0,0,0,0,0,0,0,0,0,0,0,0,0,0,0,0,0,0,0,0,0,0,0,0,0,0,0,0,0,0,0,0,0,0,0,0,0,0,0,0,0,0,0,0,0,0,0,0,0,0,0,0,0,0,0,0,0,0,0,0,0,0,0,0,0,0,0,0,0,0,0,0,0,0,0,0,0,0,0,0,0,0,0,0,0,0,0,0,0,0,0,0,0,0,0,0,0,0,0,0,0,0,0,0,0,0,0,0,0,0,0,0,0,0,0,0,0,0,0,0,0,0,0,0,0,0,0,0,0,0,0,0,0,0,0,0,0,0,0,0,0,0,0,0,0,0,0,0,0,0,0,0,0,0,0,0,0,0,0,0,0,0,0,0,0,0,0,0,0,0,0,0,0,0,0,0,0,0,0,0,0,0,0,0,0,0,0,0,0,0,0,0,0,0,0,0,0,0,0,0,0,0,0,0,0,0,0,0,0,0,0,0,0,0,0,0,0,0,0,0,0,0,0,0,0,0,0,0,0,0,0,0,0,0,0,0,0,0,0,0,0,0,0,0,0,0,0,0,0,0,0,0,0,0,0,0,0,0,0,0,0,0,0,0,0,0,0,0,0,0,0,0,0,0,0,0,0,0,0,0,0,0,0,0,0,0,0,0,0,0,0,0,0,0,0,0,0,0,0,0,0,0,0,0,0,0,0,0,0,0,0,0,0,0,0,0,0,0,0,0,0,0,0,0,0,0,0,0,0,0,0,0,0,0,0,0,0,0,0,0,0,0,0,0,0,0,0,0,0,0,0,0,0,0,0,0,0,0,0,0,0,0],"trees":[{"base_weights":[-3.167159E-2,-3.3305988E-1,3.2907158E-1,6.009919E-3,-5.1697314E-1,5.658747E-1,3.87566E-2,-1.708289E-2,2.3712063E-1,-5.870049E-1,-6.6725733E-3,3.629761E-1,7.0589834E-1,-1.2789942E-1,3.976485E-1,1.1986892E-3,1.4729746E-2,-1.2405956E-1,-6.31551E-1,4.042091E-1,7.2886865E-3,1.4262021E-2,3.9266888E-2,-1.9886568E-1,4.600796E-2,5.2827685E-3,2.2211649E-2,-8.702233E-3,-6.022334E-4,-1.8112624E-1,-6.7653376E-1,5.1452667E-3,2.1863775E-2,-1.2541574E-2,-4.2096004E-3,3.5277635E-3,7.153551E-4,-1.1852235E-2,-1.7322332E-3,-3.4775168E-2,-9.799734E-3],"categories":[],"categories_nodes":[],"categories_segments":[],"categories_sizes":[],"default_left":[0,0,0,0,0,0,0,0,0,0,0,0,0,0,0,0,0,0,0,0,0,0,0,0,0,0,0,0,0,0,0,0,0,0,0,0,0,0,0,0,0],"id":0,"left_children":[1,3,5,7,9,11,13,-1,15,17,-1,19,21,23,25,-1,-1,27,29,31,-1,-1,-1,33,35,-1,-1,-1,-1,37,39,-1,-1,-1,-1,-1,-1,-1,-1,-1,-1],"loss_changes":[7.394093E0,2.3104057E0,2.1092408E0,1.2059104E0,5.6627226E-1,2.267561E-1,9.4803154E-1,0E0,1.03191555E-1,3.3409882E-1,0E0,2.1680117E-2,7.674122E-2,1.4490652E-1,2.1076083E-2,0E0,0E0,1.4700919E-2,2.4216557E-1,2.47432E-2,0E0,0E0,0E0,2.6554883E-2,2.103242E-3,0E0,0E0,0E0,0E0,1.636073E-2,9.535313E-3,0E0,0E0,0E0,0E0,0E0,0E0,0E0,0E0,0E0,0E0],"parents":[2147483647,0,0,1,1,2,2,3,3,4,4,5,5,6,6,8,8,9,9,11,11,12,12,13,13,14,14,17,17,18,18,19,19,23,23,24,24,29,29,30,30],"right_children":[2,4,6,8,10,12,14,-1,16,18,-1,20,22,24,26,-1,-1,28,30,32,-1,-1,-1,34,36,-1,-1,-1,-1,38,40,-1,-1,-1,-1,-1,-1,-1,-1,-1,-1],"split_conditions":[1.3486E0,1.2267E0,1.521E0,1.1059E0,2.356E0,2.9798E0,1.6729E0,-1.708289E-2,1.1935E0,1.1086E0,-6.6725733E-3,1.4817E0,8.744E-1,3.1358E0,1.1834E0,1.1986892E-3,1.4729746E-2,6.644E-1,1.0108557E3,1.05E-1,7.2886865E-3,1.4262021E-2,3.9266888E-2,1.2239E0,1.0259E0,5.2827685E-3,2.2211649E-2,-8.702233E-3,-6.022334E-4,7.853E-1,2.5655E0,5.1452667E-3,2.1863775E-2,-1.2541574E-2,-4.2096004E-3,3.5277635E-3,7.153551E-4,-1.1852235E-2,-1.7322332E-3,-3.4775168E-2,-9.799734E-3],"split_indices":[16,9,9,8,3,18,16,0,16,8,0,8,0,18,0,0,0,0,12,6,0,0,0,7,0,0,0,0,0,0,7,0,0,0,0,0,0,0,0,0,0],"split_type":[0,0,0,0,0,0,0,0,0,0,0,0,0,0,0,0,0,0,0,0,0,0,0,0,0,0,0,0,0,0,0,0,0,0,0,0,0,0,0,0,0],"sum_hessian":[6.6E1,3.6E1,3E1,1.3E1,2.3E1,1.6E1,1.4E1,5E0,8E0,1.9E1,4E0,8E0,8E0,1E1,4E0,2E0,6E0,2E0,1.7E1,6E0,2E0,2E0,6E0,7E0,3E0,1E0,3E0,1E0,1E0,2E0,1.5E1,1E0,5E0,4E0,3E0,1E0,2E0,1E0,1E0,1.4E1,1E0],"tree_param":{"num_deleted":"0","num_feature":"24","num_nodes":"41","size_leaf_vector":"1"}},{"base_weights":[-1.3962488E-2,-3.2426745E-1,3.3683223E-1,-9.785607E-2,-5.3266394E-1,5.795836E-1,1.0282616E-1,-2.4514336E-2,4.9287457E-2,-3.211681E-2,-2.062635E-1,6.78187E-3,6.374494E-1,-2.3648653E-2,2.5989074E-2,1.3662365E-2,-6.762121E-2,-4.26389E-3,-1.2271846E-2,1.6174277E-2,3.4964498E-2,7.05889E-3,-1.0369702E-1,-1.9357423E-1,4.8609853E-2,-1.2175544E-2,-8.989521E-3,-1.0547013E-3,-1.1571039E-2,-7.904023E-4,5.9148553E-3,4.2002858E-3,-3.149438E-3],"categories":[],"categories_nodes":[],"categories_segments":[],"categories_sizes":[],"default_left":[0,0,0,0,0,0,0,0,0,0,0,0,0,0,0,0,0,0,0,0,0,0,0,0,0,0,0,0,0,0,0,0,0],"id":1,"left_children":[1,3,5,7,9,11,13,-1,15,-1,17,-1,19,21,-1,-1,23,-1,-1,-1,-1,-1,25,27,29,-1,31,-1,-1,-1,-1,-1,-1],"loss_changes":[7.1846905E0,1.599293E0,1.7013676E0,1.0635502E0,5.118561E-1,2.9887724E-1,9.0877604E-1,0E0,3.8503712E-1,0E0,7.5061917E-3,0E0,2.6194096E-2,1.9935693E-1,0E0,0E0,1.5580615E-1,0E0,0E0,0E0,0E0,0E0,1.3022515E-1,2.7757302E-2,2.8804682E-2,0E0,4.044312E-2,0E0,0E0,0E0,0E0,0E0,0E0],"parents":[2147483647,0,0,1,1,2,2,3,3,4,4,5,5,6,6,8,8,10,10,12,12,13,13,16,16,22,22,23,23,24,24,26,26],"right_children":[2,4,6,8,10,12,14,-1,16,-1,18,-1,20,22,-1,-1,24,-1,-1,-1,-1,-1,26,28,30,-1,32,-1,-1,-1,-1,-1,-1],"split_conditions":[1.3486E0,2.6089E0,1.521E0,1.9675E0,1.1519E0,1.4192E0,1.6786E0,-2.4514336E-2,1.0113783E3,-3.211681E-2,1.0120125E3,6.78187E-3,3.958E-1,1.506E-1,2.5989074E-2,1.3662365E-2,1.4707E0,-4.26389E-3,-1.2271846E-2,1.6174277E-2,3.4964498E-2,7.05889E-3,1.2239E0,6.644E-1,8.978E-1,-1.2175544E-2,3.664E-1,-1.0547013E-3,-1.1571039E-2,-7.904023E-4,5.9148553E-3,4.2002858E-3,-3.149438E-3],"split_indices":[16,11,8,19,1,16,16,0,21,0,4,0,6,7,0,0,23,0,0,0,0,0,7,1,7,0,6,0,0,0,0,0,0],"split_type":[0,0,0,0,0,0,0,0,0,0,0,0,0,0,0,0,0,0,0,0,0,0,0,0,0,0,0,0,0,0,0,0,0],"sum_hessian":[6.4E1,3.4E1,3E1,1.7E1,1.7E1,1.4E1,1.6E1,4E0,1.3E1,1.2E1,5E0,2E0,1.2E1,1.3E1,3E0,4E0,9E0,2E0,3E0,3E0,9E0,4E0,9E0,4E0,5E0,3E0,6E0,1E0,3E0,3E0,2E0,2E0,4E0],"tree_param":{"num_deleted":"0","num_feature":"24","num_nodes":"33","size_leaf_vector":"1"}},{"base_weights":[3.629122E-2,-2.1182434E-1,3.6576787E-1,-4.69688E-1,-9.458109E-2,6.299307E-1,1.4478526E-1,-5.0998014E-1,-1.6691685E-3,1.0820055E-1,-3.4017637E-1,3.391555E-2,1.2934305E-2,2.4261951E-2,2.5014484E-2,-1.149099E-2,-2.9860873E-2,-4.8070237E-2,2.5094628E-1,-2.3000637E-2,-8.040297E-2,8.659177E-3,-9.0461984E-2,-9.413868E-3,3.0045033E-2,7.3318086E-3,1.5929867E-2,-5.8655324E-3,1.680693E-3,6.7399343E-4,-6.367796E-3,-1.0638357E-3,3.0512542E-3],"categories":[],"categories_nodes":[],"categories_segments":[],"categories_sizes":[],"default_left":[0,0,0,0,0,0,0,0,0,0,0,0,0,0,0,0,0,0,0,0,0,0,0,0,0,0,0,0,0,0,0,0,0],"id":2,"left_children":[1,3,5,7,9,11,13,15,-1,17,19,-1,-1,21,-1,-1,-1,23,25,-1,27,-1,29,-1,31,-1,-1,-1,-1,-1,-1,-1,-1],"loss_changes":[5.1458716E0,1.0439564E0,1.4849308E0,1.7635107E-1,1.3316648E0,4.006195E-2,6.7340714E-1,1.0715222E-1,0E0,3.4666783E-1,3.365773E-1,0E0,0E0,2.3776984E-1,0E0,0E0,0E0,9.327534E-2,9.735644E-3,0E0,2.4983741E-2,0E0,3.2395326E-2,0E0,1.0838114E-2,0E0,0E0,0E0,0E0,0E0,0E0,0E0,0E0],"parents":[2147483647,0,0,1,1,2,2,3,3,4,4,5,5,6,6,7,7,9,9,10,10,13,13,17,17,18,18,20,20,22,22,24,24],"right_children":[2,4,6,8,10,12,14,16,-1,18,20,-1,-1,22,-1,-1,-1,24,26,-1,28,-1,30,-1,32,-1,-1,-1,-1,-1,-1,-1,-1],"split_conditions":[1.4427E0,1.0332E0,1.521E0,1.1519E0,1.0337E0,3.0084E0,1.6729E0,1.1009E0,-1.6691685E-3,1.1935E0,1.2106E0,3.391555E-2,1.2934305E-2,9.486E-1,2.5014484E-2,-1.149099E-2,-2.9860873E-2,1.0109544E3,7.431E-1,-2.3000637E-2,2.7198E0,8.659177E-3,1.0100713E3,-9.413868E-3,1.0150991E3,7.3318086E-3,1.5929867E-2,-5.8655324E-3,1.680693E-3,6.7399343E-4,-6.367796E-3,-1.0638357E-3,3.0512542E-3],"split_indices":[16,16,8,1,1,10,16,9,0,16,1,0,0,1,0,0,0,5,1,0,2,0,4,0,5,0,0,0,0,0,0,0,0],"split_type":[0,0,0,0,0,0,0,0,0,0,0,0,0,0,0,0,0,0,0,0,0,0,0,0,0,0,0,0,0,0,0,0,0],"sum_hessian":[6.1E1,3.5E1,2.6E1,1E1,2.5E1,1.1E1,1.5E1,9E0,1E0,1.4E1,1.1E1,9E0,2E0,1.2E1,3E0,3E0,6E0,7E0,7E0,7E0,4E0,5E0,7E0,2E0,5E0,4E0,3E0,3E0,1E0,2E0,5E0,2E0,3E0],"tree_param":{"num_deleted":"0","num_feature":"24","num_nodes":"33","size_leaf_vector":"1"}},{"base_weights":[-3.671167E-2,-2.539607E-1,3.1664747E-1,2.36365E-2,-4.1205364E-1,5.3848773E-1,7.369741E-2,-2.3466855E-1,2.0934595E-1,-4.9580467E-1,-1.1976275E-1,1.5867697E-2,6.506487E-1,-1.2157251E-1,2.5975513E-1,-2.980735E-1,-1.4817914E-3,2.4861544E-1,1.0877749E-3,4.934903E-2,-5.5007404E-1,-7.3117786E-3,1.6386748E-3,8.414007E-3,6.8990976E-1,-1.4747222E-2,-7.7361534E-3,1.0415101E-1,1.9466078E-2,-1.6073965E-2,-4.5261118E-3,1.5111866E-2,7.2635235E-3,-5.4082274E-4,4.242E-3,-1.5740578E-1,-5.83123E-1,3.6495287E-2,1.0248455E-2,6.85522E-4,-1.7915637E-3,6.3635544E-3,2.9176773E-4,-1.0177994E-2,-1.6274393E-3,-1.44952405E-2,-3.0999118E-2],"categories":[],"categories_nodes":[],"categories_segments":[],"categories_sizes":[],"default_left":[0,0,0,0,0,0,0,0,0,0,0,0,0,0,0,0,0,0,0,0,0,0,0,0,0,0,0,0,0,0,0,0,0,0,0,0,0,0,0,0,0,0,0,0,0,0,0],"id":3,"left_children":[1,3,5,7,9,11,13,15,17,19,21,-1,23,25,27,29,-1,31,-1,33,35,-1,-1,-1,37,39,-1,41,-1,-1,-1,-1,-1,-1,-1,43,45,-1,-1,-1,-1,-1,-1,-1,-1,-1,-1],"loss_changes":[5.8379354E0,2.0723891E0,1.5233018E0,9.1258126E-1,6.7501116E-1,1.655531E-1,5.765513E-1,9.516701E-2,7.562363E-2,7.076044E-1,3.709718E-2,0E0,5.4346323E-2,2.604881E-2,1.20740294E-1,4.643202E-5,0E0,5.9678555E-3,0E0,7.3236623E-3,1.8073559E-1,0E0,0E0,0E0,5.5570602E-3,2.2912708E-3,0E0,1.0622658E-2,0E0,0E0,0E0,0E0,0E0,0E0,0E0,1.0662362E-2,2.5613308E-2,0E0,0E0,0E0,0E0,0E0,0E0,0E0,0E0,0E0,0E0],"parents":[2147483647,0,0,1,1,2,2,3,3,4,4,5,5,6,6,7,7,8,8,9,9,10,10,12,12,13,13,14,14,15,15,17,17,19,19,20,20,24,24,25,25,27,27,35,35,36,36],"right_children":[2,4,6,8,10,12,14,16,18,20,22,-1,24,26,28,30,-1,32,-1,34,36,-1,-1,-1,38,40,-1,42,-1,-1,-1,-1,-1,-1,-1,44,46,-1,-1,-1,-1,-1,-1,-1,-1,-1,-1],"split_conditions":[1.4444E0,1.6684E0,1.521E0,2.2423E0,2.356E0,2.969E0,3.1793E0,1.0152973E3,1.0152975E3,1.1086E0,1.3444E0,1.5867697E-2,9.486E-1,2.2089E0,1.6786E0,1.0153455E3,-1.4817914E-3,2.3224E0,1.0877749E-3,7.579E-1,1.0108557E3,-7.3117786E-3,1.6386748E-3,8.414007E-3,1.3124E0,1.1137E0,-7.7361534E-3,1.1834E0,1.9466078E-2,-1.6073965E-2,-4.5261118E-3,1.5111866E-2,7.2635235E-3,-5.4082274E-4,4.242E-3,7.853E-1,1.0098749E3,3.6495287E-2,1.0248455E-2,6.85522E-4,-1.7915637E-3,6.3635544E-3,2.9176773E-4,-1.0177994E-2,-1.6274393E-3,-1.44952405E-2,-3.0999118E-2],"split_indices":[16,3,9,18,3,19,18,13,5,8,0,0,0,2,16,4,0,11,0,0,12,0,0,0,0,0,0,0,0,0,0,0,0,0,0,0,13,0,0,0,0,0,0,0,0,0,0],"split_type":[0,0,0,0,0,0,0,0,0,0,0,0,0,0,0,0,0,0,0,0,0,0,0,0,0,0,0,0,0,0,0,0,0,0,0,0,0,0,0,0,0,0,0,0,0,0,0],"sum_hessian":[7.4E1,4.6E1,2.8E1,1.7E1,2.9E1,1.4E1,1.4E1,7E0,1E1,2.2E1,7E0,6E0,8E0,7E0,7E0,5E0,2E0,8E0,2E0,2E0,2E1,6E0,1E0,1E0,7E0,2E0,5E0,4E0,3E0,4E0,1E0,4E0,4E0,1E0,1E0,2E0,1.8E1,6E0,1E0,1E0,1E0,3E0,1E0,1E0,1E0,3E0,1.5E1],"tree_param":{"num_deleted":"0","num_feature":"24","num_nodes":"47","size_leaf_vector":"1"}},{"base_weights":[3.5329273E-3,-2.0688052E-1,3.2991475E-1,-1.4103901E-2,-3.6053768E-1,5.550433E-1,4.9059648E-2,-2.9490662E-1,1.8138291E-1,4.811533E-2,-3.981647E-1,2.9598E-1,6.45892E-1,-1.3707547E-1,2.0579542E-1,-1.8489642E-2,-1.0885069E-1,6.125778E-3,2.3334746E-1,4.1359514E-3,-5.2730145E-4,-5.0558645E-1,-1.7488787E-1,1.7239846E-2,6.611538E-3,8.969552E-3,6.7460304E-1,-8.51506E-3,-3.4790442E-3,1.857313E-2,8.86626E-2,-1.1839032E-3,-6.467444E-3,1.0515153E-3,-9.6469524E-4,1.3775783E-2,6.8038083E-3,-3.0302053E-2,-1.7096678E-2,-5.2192025E-3,-1.40550425E-2,9.178147E-3,3.543836E-2,6.352365E-4,6.173268E-3],"categories":[],"categories_nodes":[],"categories_segments":[],"categories_sizes":[],"default_left":[0,0,0,0,0,0,0,0,0,0,0,0,0,0,0,0,0,0,0,0,0,0,0,0,0,0,0,0,0,0,0,0,0,0,0,0,0,0,0,0,0,0,0,0,0],"id":4,"left_children":[1,3,5,7,9,11,13,15,17,19,21,23,25,27,29,-1,31,33,35,-1,-1,37,39,-1,-1,-1,41,-1,-1,-1,43,-1,-1,-1,-1,-1,-1,-1,-1,-1,-1,-1,-1,-1,-1],"loss_changes":[5.081537E0,1.3278829E0,1.8063958E0,1.2062488E0,4.0356755E-1,1.853981E-1,4.3664598E-1,8.5145E-2,1.16963595E-1,6.9620567E-3,4.6322966E-1,2.3697019E-3,2.6312828E-2,3.848195E-3,1.2230563E-1,0E0,3.9208084E-3,1.9212302E-3,3.5264492E-3,0E0,0E0,3.9369583E-2,3.8053334E-2,0E0,0E0,0E0,3.7656784E-2,0E0,0E0,0E0,1.4292669E-2,0E0,0E0,0E0,0E0,0E0,0E0,0E0,0E0,0E0,0E0,0E0,0E0,0E0,0E0],"parents":[2147483647,0,0,1,1,2,2,3,3,4,4,5,5,6,6,7,7,8,8,9,9,10,10,11,11,12,12,13,13,14,14,16,16,17,17,18,18,21,21,22,22,26,26,30,30],"right_children":[2,4,6,8,10,12,14,16,18,20,22,24,26,28,30,-1,32,34,36,-1,-1,38,40,-1,-1,-1,42,-1,-1,-1,44,-1,-1,-1,-1,-1,-1,-1,-1,-1,-1,-1,-1,-1,-1],"split_conditions":[1.4444E0,8.278E-1,1.521E0,1.1059E0,1.1086E0,2.9798E0,3.1358E0,1.0150599E3,2.2613E0,9.578E-1,1.1667E0,1.4659E0,7.058E-1,1.2239E0,1.525E-1,-1.8489642E-2,1.0120822E3,6.422E-1,8.384E-1,4.1359514E-3,-5.2730145E-4,1.1692E0,1.5058E0,1.7239846E-2,6.611538E-3,8.969552E-3,1.0098868E3,-8.51506E-3,-3.4790442E-3,1.857313E-2,1.0100713E3,-1.1839032E-3,-6.467444E-3,1.0515153E-3,-9.6469524E-4,1.3775783E-2,6.8038083E-3,-3.0302053E-2,-1.7096678E-2,-5.2192025E-3,-1.40550425E-2,9.178147E-3,3.543836E-2,6.352365E-4,6.173268E-3],"split_indices":[16,1,9,8,8,18,18,12,11,1,1,8,1,7,6,0,4,1,6,0,0,16,8,0,0,0,5,0,0,0,4,0,0,0,0,0,0,0,0,0,0,0,0,0,0],"split_type":[0,0,0,0,0,0,0,0,0,0,0,0,0,0,0,0,0,0,0,0,0,0,0,0,0,0,0,0,0,0,0,0,0,0,0,0,0,0,0,0,0,0,0,0,0],"sum_hessian":[7.2E1,4.4E1,2.8E1,2E1,2.4E1,1.5E1,1.3E1,8E0,1.2E1,2E0,2.2E1,5E0,1E1,6E0,7E0,5E0,3E0,3E0,9E0,1E0,1E0,1.4E1,8E0,3E0,2E0,1E0,9E0,3E0,3E0,2E0,5E0,1E0,2E0,2E0,1E0,5E0,4E0,7E0,7E0,6E0,2E0,1E0,8E0,2E0,3E0],"tree_param":{"num_deleted":"0","num_feature":"24","num_nodes":"45","size_leaf_vector":"1"}},{"base_weights":[1.3156959E-2,-2.7011576E-1,2.5000954E-1,-1.351217E-1,-4.7259772E-1,4.4311988E-1,2.6602512E-2,-2.2077067E-2,-1.0005797E-3,-2.8086437E-2,-5.466908E-3,2.8085178E-1,5.6846136E-1,-1.9612855E-1,2.4691516E-1,1.084216E-1,-1.1031159E-1,1.7768621E-2,7.35512E-3,3.320932E-2,1.5080451E-2,-2.3719223E-1,-7.561326E-3,8.878762E-2,2.0945534E-2,-3.8290024E-4,9.77709E-3,-1.00615695E-2,-3.131312E-2,-2.5211812E-3,-1.2711768E-2,-2.5161833E-3,1.9490839E-3,6.1406096E-4,5.8466974E-3,-2.0402074E-3,4.0325522E-3,5.0528796E-4,-3.8050294E-3],"categories":[],"categories_nodes":[],"categories_segments":[],"categories_sizes":[],"default_left":[0,0,0,0,0,0,0,0,0,0,0,0,0,0,0,0,0,0,0,0,0,0,0,0,0,0,0,0,0,0,0,0,0,0,0,0,0,0,0],"id":5,"left_children":[1,3,5,7,9,11,13,-1,15,-1,-1,17,19,21,23,25,27,-1,-1,-1,-1,29,31,33,-1,35,-1,-1,37,-1,-1,-1,-1,-1,-1,-1,-1,-1,-1],"loss_changes":[5.3008537E0,9.20161E-1,1.843327E0,9.447973E-1,3.9186907E-1,3.081417E-1,1.078907E0,0E0,2.15298E-1,0E0,0E0,6.732899E-2,1.062088E-1,8.338243E-2,2.619754E-1,8.538647E-2,5.834154E-2,0E0,0E0,0E0,0E0,1.582867E-2,7.932563E-3,1.3637528E-2,0E0,1.9668363E-2,0E0,0E0,1.1899335E-2,0E0,0E0,0E0,0E0,0E0,0E0,0E0,0E0,0E0,0E0],"parents":[2147483647,0,0,1,1,2,2,3,3,4,4,5,5,6,6,8,8,11,11,12,12,13,13,14,14,15,15,16,16,21,21,22,22,23,23,25,25,28,28],"right_children":[2,4,6,8,10,12,14,-1,16,-1,-1,18,20,22,24,26,28,-1,-1,-1,-1,30,32,34,-1,36,-1,-1,38,-1,-1,-1,-1,-1,-1,-1,-1,-1,-1],"split_conditions":[2.5892E0,1.341E0,1.5096E0,2.0411E0,1.1519E0,2.9798E0,3.1358E0,-2.2077067E-2,1.0129489E3,-2.8086437E-2,-5.466908E-3,1.5616E0,1.4715E0,2.356E0,1.6786E0,1.1545E0,1.0109544E3,1.7768621E-2,7.35512E-3,3.320932E-2,1.5080451E-2,2.1052E0,1.1834E0,1.0100713E3,2.0945534E-2,1.0150991E3,9.77709E-3,-1.00615695E-2,1.0152975E3,-2.5211812E-3,-1.2711768E-2,-2.5161833E-3,1.9490839E-3,6.1406096E-4,5.8466974E-3,-2.0402074E-3,4.0325522E-3,5.0528796E-4,-3.8050294E-3],"split_indices":[18,9,9,19,1,18,18,0,4,0,0,2,9,2,16,16,5,0,0,0,0,3,1,4,0,5,0,0,4,0,0,0,0,0,0,0,0,0,0],"split_type":[0,0,0,0,0,0,0,0,0,0,0,0,0,0,0,0,0,0,0,0,0,0,0,0,0,0,0,0,0,0,0,0,0,0,0,0,0,0,0],"sum_hessian":[7.7E1,3.5E1,4.2E1,2.2E1,1.3E1,2.2E1,2E1,6E0,1.6E1,1E1,3E0,1.1E1,1.1E1,1E1,1E1,8E0,8E0,6E0,5E0,7E0,4E0,8E0,2E0,6E0,4E0,4E0,4E0,3E0,5E0,1E0,7E0,1E0,1E0,2E0,4E0,3E0,1E0,3E0,2E0],"tree_param":{"num_deleted":"0","num_feature":"24","num_nodes":"39","size_leaf_vector":"1"}},{"base_weights":[-1.9908253E-2,-2.2913574E-1,2.9854488E-1,-4.283441E-2,-4.0452585E-1,4.583869E-1,9.114681E-2,-1.7812835E-1,1.9928429E-1,-4.7880664E-1,-7.1065925E-2,1.1791846E-2,3.1181926E-2,-9.965241E-3,1.6057013E-2,-1.7834323E-2,-7.103646E-2,2.5571617E-1,9.996196E-4,-2.6201293E-2,-1.32737635E-2,-5.391799E-3,1.9003571E-3,-1.0819592E-1,7.355454E-2,3.931737E-3,-9.6403785E-2,3.3729821E-3,1.3993779E-2,-1.5967697E-3,-5.9638605E-3,5.0713955E-3,5.9359276E-4,-1.7816614E-3,-6.8946793E-3],"categories":[],"categories_nodes":[],"categories_segments":[],"categories_sizes":[],"default_left":[0,0,0,0,0,0,0,0,0,0,0,0,0,0,0,0,0,0,0,0,0,0,0,0,0,0,0,0,0,0,0,0,0,0,0],"id":6,"left_children":[1,3,5,7,9,11,13,15,17,19,21,-1,-1,23,-1,-1,25,27,-1,-1,-1,-1,-1,29,31,-1,33,-1,-1,-1,-1,-1,-1,-1,-1],"loss_changes":[4.532561E0,1.3223643E0,8.532944E-1,7.233992E-1,4.861362E-1,4.0457416E-1,3.0551663E-1,2.42372E-1,7.582989E-2,2.4877548E-2,2.4151647E-2,0E0,0E0,9.000035E-2,0E0,0E0,4.554827E-2,8.408666E-3,0E0,0E0,0E0,0E0,0E0,4.161559E-4,9.111691E-3,0E0,1.7778628E-2,0E0,0E0,0E0,0E0,0E0,0E0,0E0,0E0],"parents":[2147483647,0,0,1,1,2,2,3,3,4,4,5,5,6,6,7,7,8,8,9,9,10,10,13,13,16,16,17,17,23,23,24,24,26,26],"right_children":[2,4,6,8,10,12,14,16,18,20,22,-1,-1,24,-1,-1,26,28,-1,-1,-1,-1,-1,30,32,-1,34,-1,-1,-1,-1,-1,-1,-1,-1],"split_conditions":[2.8814E0,1.341E0,1.521E0,2.2423E0,1.1519E0,1.325E0,1.6786E0,2.0411E0,1.0152975E3,2.608E0,1.3104E0,1.1791846E-2,3.1181926E-2,3.1315E0,1.6057013E-2,-1.7834323E-2,1.0104914E3,1.0120822E3,9.996196E-4,-2.6201293E-2,-1.32737635E-2,-5.391799E-3,1.9003571E-3,1.0207E0,9.486E-1,3.931737E-3,1.0134489E3,3.3729821E-3,1.3993779E-2,-1.5967697E-3,-5.9638605E-3,5.0713955E-3,5.9359276E-4,-1.7816614E-3,-6.8946793E-3],"split_indices":[18,9,9,18,0,6,17,19,5,18,0,0,0,18,0,0,12,5,0,0,0,0,0,1,1,0,4,0,0,0,0,0,0,0,0],"split_type":[0,0,0,0,0,0,0,0,0,0,0,0,0,0,0,0,0,0,0,0,0,0,0,0,0,0,0,0,0,0,0,0,0,0,0],"sum_hessian":[6.6E1,4E1,2.6E1,2E1,2E1,1.4E1,1.2E1,1.3E1,7E0,1.6E1,4E0,7E0,7E0,9E0,3E0,4E0,9E0,5E0,2E0,1.2E1,4E0,3E0,1E0,4E0,5E0,1E0,8E0,1E0,4E0,1E0,3E0,3E0,2E0,4E0,4E0],"tree_param":{"num_deleted":"0","num_feature":"24","num_nodes":"35","size_leaf_vector":"1"}},{"base_weights":[2.3525262E-2,-1.7321327E-1,3.4523544E-1,2.7262235E-2,-3.3129245E-1,4.9509743E-1,1.4162685E-1,-3.070293E-1,1.6858274E-1,-4.3018764E-1,-9.209053E-2,5.2531433E-1,2.556938E-3,-7.326523E-2,3.687298E-1,-1.6828248E-2,-3.983778E-3,-1.3561189E-2,2.1949118E-1,3.833443E-3,-2.3454467E-2,-1.272145E-1,8.85427E-3,1.2837655E-2,5.802074E-1,-1.3238135E-1,4.9683373E-2,8.3164815E-3,2.1417374E-2,5.4767134E-4,-1.2691935E-3,2.471378E-1,5.4662586E-3,-1.8899828E-3,-6.876878E-3,-1.1887789E-3,1.8528491E-3,3.1738993E-2,1.2063929E-2,-1.5568495E-3,-7.4954093E-3,3.4878522E-3,2.384007E-4,1.3182543E-2,3.2886565E-3],"categories":[],"categories_nodes":[],"categories_segments":[],"categories_sizes":[],"default_left":[0,0,0,0,0,0,0,0,0,0,0,0,0,0,0,0,0,0,0,0,0,0,0,0,0,0,0,0,0,0,0,0,0,0,0,0,0,0,0,0,0,0,0,0,0],"id":7,"left_children":[1,3,5,7,9,11,13,15,17,19,21,23,-1,25,27,-1,-1,29,31,-1,-1,33,35,-1,37,39,41,-1,-1,-1,-1,43,-1,-1,-1,-1,-1,-1,-1,-1,-1,-1,-1,-1,-1],"loss_changes":[4.1738305E0,1.308363E0,6.9271064E-1,9.493626E-1,5.044699E-1,1.6094708E-1,6.1264646E-1,1.3474226E-2,1.3279387E-1,3.5144567E-1,2.9491052E-2,4.2678118E-2,0E0,5.7454858E-2,1.1529326E-3,0E0,0E0,1.4373543E-3,6.4845085E-3,0E0,0E0,3.3932924E-4,3.641802E-3,0E0,3.1802654E-2,4.2047724E-3,2.3722467E-3,0E0,0E0,0E0,0E0,6.6179633E-3,0E0,0E0,0E0,0E0,0E0,0E0,0E0,0E0,0E0,0E0,0E0,0E0,0E0],"parents":[2147483647,0,0,1,1,2,2,3,3,4,4,5,5,6,6,7,7,8,8,9,9,10,10,11,11,13,13,14,14,17,17,18,18,21,21,22,22,24,24,25,25,26,26,31,31],"right_children":[2,4,6,8,10,12,14,16,18,20,22,24,-1,26,28,-1,-1,30,32,-1,-1,34,36,-1,38,40,42,-1,-1,-1,-1,44,-1,-1,-1,-1,-1,-1,-1,-1,-1,-1,-1,-1,-1],"split_conditions":[1.4444E0,8.278E-1,3.0776E0,1.0332E0,1.1667E0,4.7418E0,1.0124373E3,7.333E-1,1.1935E0,1.0636E0,1.0142383E3,8.744E-1,2.556938E-3,2.356E0,1.0118526E3,-1.6828248E-2,-3.983778E-3,5.577E-1,1.4991E0,3.833443E-3,-2.3454467E-2,1.0337E0,9.578E-1,1.2837655E-2,1.014209E3,1.0207E0,1.1834E0,8.3164815E-3,2.1417374E-2,5.4767134E-4,-1.2691935E-3,7.7092E0,5.4662586E-3,-1.8899828E-3,-6.876878E-3,-1.1887789E-3,1.8528491E-3,3.1738993E-2,1.2063929E-2,-1.5568495E-3,-7.4954093E-3,3.4878522E-3,2.384007E-4,1.3182543E-2,3.2886565E-3],"split_indices":[16,1,11,16,1,6,12,1,16,8,13,0,0,2,4,0,0,0,2,0,0,0,0,0,20,1,0,0,0,0,0,7,0,0,0,0,0,0,0,0,0,0,0,0,0],"split_type":[0,0,0,0,0,0,0,0,0,0,0,0,0,0,0,0,0,0,0,0,0,0,0,0,0,0,0,0,0,0,0,0,0,0,0,0,0,0,0,0,0,0,0,0,0],"sum_hessian":[6.4E1,4E1,2.4E1,1.8E1,2.2E1,1.3E1,1.1E1,5E0,1.3E1,1.5E1,7E0,1.2E1,1E0,6E0,5E0,4E0,1E0,3E0,1E1,1E0,1.4E1,5E0,2E0,3E0,9E0,4E0,2E0,2E0,3E0,1E0,2E0,7E0,3E0,1E0,4E0,1E0,1E0,7E0,2E0,1E0,3E0,1E0,1E0,6E0,1E0],"tree_param":{"num_deleted":"0","num_feature":"24","num_nodes":"45","size_leaf_vector":"1"}},{"base_weights":[1.6756658E-2,-1.8316914E-1,3.3906922E-1,5.7180203E-2,-3.6581364E-1,4.8976418E-1,1.5070008E-1,-2.1573885E-1,1.9973813E-1,-4.1437683E-1,-1.9403517E-2,7.387928E-3,5.344519E-1,9.458489E-3,3.747949E-1,-8.3163165E-2,-1.8239267E-2,2.3071784E-1,9.783268E-4,-1.2674981E-1,-4.55273E-1,-2.4979196E-3,1.8065274E-3,6.4379754E-3,2.7981384E-2,-1.0314536E-1,8.295131E-2,2.0614222E-2,5.6209206E-3,-1.2268861E-3,-5.703378E-3,1.5541348E-2,7.0268675E-3,1.04150175E-4,-8.519421E-3,-2.4992405E-2,-1.1970415E-2,-1.5179276E-3,-5.8644055E-3,4.1439832E-4,4.811319E-3],"categories":[],"categories_nodes":[],"categories_segments":[],"categories_sizes":[],"default_left":[0,0,0,0,0,0,0,0,0,0,0,0,0,0,0,0,0,0,0,0,0,0,0,0,0,0,0,0,0,0,0,0,0,0,0,0,0,0,0,0,0],"id":8,"left_children":[1,3,5,7,9,11,13,15,17,19,21,-1,23,25,27,29,-1,31,-1,33,35,-1,-1,-1,-1,37,39,-1,-1,-1,-1,-1,-1,-1,-1,-1,-1,-1,-1,-1,-1],"loss_changes":[4.3794928E0,1.8646536E0,6.6423583E-1,7.8232E-1,3.9570642E-1,1.349988E-1,4.0792465E-1,1.07982874E-1,6.8047225E-2,1.8931413E-1,8.592369E-3,0E0,5.0505638E-2,8.3036214E-2,2.8334856E-3,6.259959E-3,0E0,3.5784245E-2,0E0,2.2843257E-2,5.353141E-2,0E0,0E0,0E0,0E0,5.569272E-4,5.1494464E-3,0E0,0E0,0E0,0E0,0E0,0E0,0E0,0E0,0E0,0E0,0E0,0E0,0E0,0E0],"parents":[2147483647,0,0,1,1,2,2,3,3,4,4,5,5,6,6,7,7,8,8,9,9,10,10,12,12,13,13,14,14,15,15,17,17,19,19,20,20,25,25,26,26],"right_children":[2,4,6,8,10,12,14,16,18,20,22,-1,24,26,28,30,-1,32,-1,34,36,-1,-1,-1,-1,38,40,-1,-1,-1,-1,-1,-1,-1,-1,-1,-1,-1,-1,-1,-1],"split_conditions":[2.9631E0,8.278E-1,1.5096E0,2.2423E0,1.2106E0,1.4446E0,1.705E0,1.1009E0,1.0152975E3,1.0116568E3,1.3444E0,7.387928E-3,1.506E-1,3.1315E0,1.1925E0,1.0121438E3,-1.8239267E-2,1.0129573E3,9.783268E-4,7.579E-1,2.608E0,-2.4979196E-3,1.8065274E-3,6.4379754E-3,2.7981384E-2,1.0207E0,1.0100713E3,2.0614222E-2,5.6209206E-3,-1.2268861E-3,-5.703378E-3,1.5541348E-2,7.0268675E-3,1.04150175E-4,-8.519421E-3,-2.4992405E-2,-1.1970415E-2,-1.5179276E-3,-5.8644055E-3,4.1439832E-4,4.811319E-3],"split_indices":[18,1,9,18,1,17,17,9,5,5,0,0,6,18,0,4,0,12,0,0,18,0,0,0,0,1,4,0,0,0,0,0,0,0,0,0,0,0,0,0,0],"split_type":[0,0,0,0,0,0,0,0,0,0,0,0,0,0,0,0,0,0,0,0,0,0,0,0,0,0,0,0,0,0,0,0,0,0,0,0,0,0,0,0,0],"sum_hessian":[6.6E1,4.1E1,2.5E1,1.8E1,2.3E1,1.3E1,1.2E1,6E0,1.2E1,2E1,3E0,2E0,1.1E1,8E0,4E0,4E0,2E0,1E1,2E0,3E0,1.7E1,2E0,1E0,1E0,1E1,3E0,5E0,3E0,1E0,2E0,2E0,4E0,6E0,1E0,2E0,1.3E1,4E0,1E0,2E0,1E0,4E0],"tree_param":{"num_deleted":"0","num_feature":"24","num_nodes":"41","size_leaf_vector":"1"}},{"base_weights":[-3.4760658E-2,-1.6618134E-1,2.7147642E-1,1.7702172E-2,-2.6701787E-1,5.0684595E-1,1.2784754E-1,-1.4647593E-2,1.4957517E-1,-3.2680148E-1,-3.9343894E-2,1.0241906E-2,2.866878E-2,4.023535E-2,3.587222E-1,5.4110423E-2,2.3730986E-1,-4.369588E-2,-3.7628904E-1,-8.865392E-2,3.6195398E-3,1.23973966E-1,-3.7288513E-2,2.0261217E-2,5.480397E-3,-2.8832913E-3,5.591248E-3,1.4055717E-2,4.259956E-3,-6.617298E-3,5.951949E-2,-3.987985E-1,-1.0079638E-1,-1.0966122E-3,-4.8805904E-3,1.8045306E-3,6.7166253E-3,2.9988527E-2,-4.7621713E-3,-1.1859894E-3,9.457152E-4,1.01545455E-4,4.3624165E-3,-2.233534E-2,-1.0628069E-2,-1.2179256E-3,-6.3418034E-3,2.3727329E-3,4.1741334E-4],"categories":[],"categories_nodes":[],"categories_segments":[],"categories_sizes":[],"default_left":[0,0,0,0,0,0,0,0,0,0,0,0,0,0,0,0,0,0,0,0,0,0,0,0,0,0,0,0,0,0,0,0,0,0,0,0,0,0,0,0,0,0,0,0,0,0,0,0,0],"id":9,"left_children":[1,3,5,7,9,11,13,-1,15,17,19,-1,-1,21,23,25,27,29,31,33,-1,35,37,-1,-1,39,-1,-1,-1,-1,41,43,45,-1,-1,-1,-1,47,-1,-1,-1,-1,-1,-1,-1,-1,-1,-1,-1],"loss_changes":[2.942818E0,9.503778E-1,6.7893016E-1,8.2218903E-1,4.36311E-1,4.3290615E-2,2.8897822E-1,0E0,1.04417026E-1,3.4782314E-1,5.0494857E-2,0E0,0E0,8.2523696E-2,1.9215345E-3,2.6637351E-2,2.269125E-2,5.362742E-2,9.62286E-2,1.4452636E-3,0E0,6.139204E-4,3.0149456E-2,0E0,0E0,2.7195706E-3,0E0,0E0,0E0,0E0,4.60508E-3,8.349371E-2,2.881715E-3,0E0,0E0,0E0,0E0,1.1157219E-3,0E0,0E0,0E0,0E0,0E0,0E0,0E0,0E0,0E0,0E0,0E0],"parents":[2147483647,0,0,1,1,2,2,3,3,4,4,5,5,6,6,8,8,9,9,10,10,13,13,14,14,15,15,16,16,17,17,18,18,19,19,21,21,22,22,25,25,30,30,31,31,32,32,37,37],"right_children":[2,4,6,8,10,12,14,-1,16,18,20,-1,-1,22,24,26,28,30,32,34,-1,36,38,-1,-1,40,-1,-1,-1,-1,42,44,46,-1,-1,-1,-1,48,-1,-1,-1,-1,-1,-1,-1,-1,-1,-1,-1],"split_conditions":[2.9694E0,7.745E-1,1.5029E0,1.1538E0,1.2106E0,8.744E-1,3.3741E0,-1.4647593E-2,1.3522E0,1.1086E0,1.3444E0,1.0241906E-2,2.866878E-2,1.0126483E3,1.1844E0,2.2613E0,1.5191E0,6.644E-1,2.356E0,9.578E-1,3.6195398E-3,1.0118526E3,1.0120322E3,2.0261217E-2,5.480397E-3,1.0121438E3,5.591248E-3,1.4055717E-2,4.259956E-3,-6.617298E-3,7.579E-1,2.608E0,1.0337E0,-1.0966122E-3,-4.8805904E-3,1.8045306E-3,6.7166253E-3,9.407E-1,-4.7621713E-3,-1.1859894E-3,9.457152E-4,1.01545455E-4,4.3624165E-3,-2.233534E-2,-1.0628069E-2,-1.2179256E-3,-6.3418034E-3,2.3727329E-3,4.1741334E-4],"split_indices":[18,1,8,2,1,0,18,0,2,8,0,0,0,21,0,11,2,0,3,0,0,5,4,0,0,4,0,0,0,0,0,18,0,0,0,0,0,1,0,0,0,0,0,0,0,0,0,0,0],"split_type":[0,0,0,0,0,0,0,0,0,0,0,0,0,0,0,0,0,0,0,0,0,0,0,0,0,0,0,0,0,0,0,0,0,0,0,0,0,0,0,0,0,0,0,0,0,0,0,0,0],"sum_hessian":[7.1E1,5E1,2.1E1,1.8E1,3.2E1,7E0,1.4E1,5E0,1.3E1,2.5E1,7E0,2E0,5E0,1.1E1,3E0,7E0,6E0,4E0,2.1E1,5E0,2E0,5E0,6E0,2E0,1E0,4E0,3E0,4E0,2E0,2E0,2E0,1.9E1,2E0,1E0,4E0,1E0,4E0,3E0,3E0,2E0,2E0,1E0,1E0,1.4E1,5E0,1E0,1E0,1E0,2E0],"tree_param":{"num_deleted":"0","num_feature":"24","num_nodes":"49","size_leaf_vector":"1"}},{"base_weights":[-5.454496E-3,-1.8843779E-1,2.5775445E-1,-3.0964857E-2,-3.1947646E-1,4.2092976E-1,4.4760443E-2,-1.6358612E-2,7.540038E-2,-4.0341648E-1,-1.2542567E-1,2.6132086E-1,4.987426E-1,-3.6313403E-2,1.3839594E-2,1.865174E-1,-7.292095E-2,9.90063E-5,-4.2887753E-1,-9.527985E-3,-3.5206508E-2,1.52366655E-2,4.36945E-3,9.0987E-3,2.7445814E-2,-1.11392654E-1,5.7331283E-2,2.1058813E-1,-7.529766E-4,2.4557978E-2,-1.363199E-1,-2.5918711E-2,-1.3729206E-2,-3.035845E-3,1.6708762E-3,-2.1446228E-3,-6.510712E-3,3.997223E-3,4.034976E-4,6.0528936E-3,1.2900039E-2,-3.205518E-4,2.9366256E-3,-7.985395E-3,-1.0691971E-3],"categories":[],"categories_nodes":[],"categories_segments":[],"categories_sizes":[],"default_left":[0,0,0,0,0,0,0,0,0,0,0,0,0,0,0,0,0,0,0,0,0,0,0,0,0,0,0,0,0,0,0,0,0,0,0,0,0,0,0,0,0,0,0,0,0],"id":10,"left_children":[1,3,5,7,9,11,13,-1,15,17,19,21,23,25,-1,27,29,-1,31,-1,33,-1,-1,-1,-1,35,37,39,-1,41,43,-1,-1,-1,-1,-1,-1,-1,-1,-1,-1,-1,-1,-1,-1],"loss_changes":[3.757109E0,9.393196E-1,1.0933306E0,7.178046E-1,3.5661697E-1,9.3221426E-2,2.9222646E-1,0E0,2.9377845E-1,1.7632008E-1,4.6178102E-2,3.3776164E-2,7.493925E-2,9.075555E-2,0E0,5.1692367E-2,5.2788243E-2,0E0,7.860279E-2,0E0,1.07821375E-2,0E0,0E0,0E0,0E0,3.4397691E-3,6.038584E-3,6.970763E-3,0E0,4.6099424E-3,1.0025419E-2,0E0,0E0,0E0,0E0,0E0,0E0,0E0,0E0,0E0,0E0,0E0,0E0,0E0,0E0],"parents":[2147483647,0,0,1,1,2,2,3,3,4,4,5,5,6,6,8,8,9,9,10,10,11,11,12,12,13,13,15,15,16,16,18,18,20,20,25,25,26,26,27,27,29,29,30,30],"right_children":[2,4,6,8,10,12,14,-1,16,18,20,22,24,26,-1,28,30,-1,32,-1,34,-1,-1,-1,-1,36,38,40,-1,42,44,-1,-1,-1,-1,-1,-1,-1,-1,-1,-1,-1,-1,-1,-1],"split_conditions":[1.4444E0,1.2974E0,1.5096E0,2.0411E0,1.1667E0,2.969E0,1.6729E0,-1.6358612E-2,1.0128481E3,1.0116568E3,1.0969E0,9.133E-1,1.506E-1,3.1358E0,1.3839594E-2,1.0158244E3,7.161E-1,9.90063E-5,2.3859E0,-9.527985E-3,1.3444E0,1.52366655E-2,4.36945E-3,9.0987E-3,2.7445814E-2,2.2485E0,9.486E-1,1.1935E0,-7.529766E-4,6.23E-1,7.803E-1,-2.5918711E-2,-1.3729206E-2,-3.035845E-3,1.6708762E-3,-2.1446228E-3,-6.510712E-3,3.997223E-3,4.034976E-4,6.0528936E-3,1.2900039E-2,-3.205518E-4,2.9366256E-3,-7.985395E-3,-1.0691971E-3],"split_indices":[16,9,9,19,1,19,16,0,20,5,22,0,6,18,0,13,1,0,18,0,0,0,0,0,0,2,1,17,0,0,0,0,0,0,0,0,0,0,0,0,0,0,0,0,0],"split_type":[0,0,0,0,0,0,0,0,0,0,0,0,0,0,0,0,0,0,0,0,0,0,0,0,0,0,0,0,0,0,0,0,0,0,0,0,0,0,0,0,0,0,0,0,0],"sum_hessian":[7.6E1,4.5E1,3.1E1,2.1E1,2.4E1,1.7E1,1.4E1,5E0,1.6E1,1.6E1,8E0,7E0,1E1,1.1E1,3E0,9E0,7E0,1E0,1.5E1,4E0,4E0,5E0,2E0,2E0,8E0,6E0,5E0,8E0,1E0,3E0,4E0,8E0,7E0,3E0,1E0,2E0,4E0,3E0,2E0,4E0,4E0,2E0,1E0,3E0,1E0],"tree_param":{"num_deleted":"0","num_feature":"24","num_nodes":"45","size_leaf_vector":"1"}},{"base_weights":[1.5918354E-2,-2.7002513E-1,1.8179438E-1,-1.4014813E-1,-3.7913096E-1,3.5395095E-1,1.6703824E-2,-1.6464755E-2,-1.9494481E-2,-4.578392E-1,-4.3788822E-3,1.7205328E-1,4.526531E-1,-1.8913515E-1,1.1857932E-1,7.688205E-2,-1.11972116E-1,-2.4096366E-2,-6.026155E-3,4.1851597E-3,1.0113889E-2,3.5835356E-3,2.3921456E-2,-1.2376226E-2,-9.311398E-3,2.4872272E-1,1.56210065E-2,7.872303E-3,6.0132225E-3,-7.996903E-3,-1.3341069E-3,-2.32746E-3,1.6291052E-3,1.5869897E-2,5.1356476E-2,5.5196146E-3,-6.595856E-2,4.9389305E-4,9.652972E-5,3.8351418E-4,3.4682215E-3,-4.038136E-3,2.0155609E-4],"categories":[],"categories_nodes":[],"categories_segments":[],"categories_sizes":[],"default_left":[0,0,0,0,0,0,0,0,0,0,0,0,0,0,0,0,0,0,0,0,0,0,0,0,0,0,0,0,0,0,0,0,0,0,0,0,0,0,0,0,0,0,0],"id":11,"left_children":[1,3,5,7,9,11,13,-1,15,17,-1,19,21,23,25,27,29,-1,-1,-1,-1,-1,-1,-1,31,33,35,37,-1,-1,-1,-1,-1,-1,39,-1,41,-1,-1,-1,-1,-1,-1],"loss_changes":[3.2269773E0,3.0112398E-1,1.2162089E0,2.902571E-1,2.5822306E-1,2.9914737E-1,5.047363E-1,0E0,8.8822715E-2,2.3169518E-2,0E0,7.1017444E-3,9.337306E-2,8.169353E-2,2.1050422E-1,1.4022283E-2,1.6187586E-2,0E0,0E0,0E0,0E0,0E0,0E0,0E0,6.1967373E-3,7.857874E-2,8.4595315E-2,1.6679172E-5,0E0,0E0,0E0,0E0,0E0,0E0,1.8280512E-3,0E0,6.542394E-3,0E0,0E0,0E0,0E0,0E0,0E0],"parents":[2147483647,0,0,1,1,2,2,3,3,4,4,5,5,6,6,8,8,9,9,11,11,12,12,13,13,14,14,15,15,16,16,24,24,25,25,26,26,27,27,34,34,36,36],"right_children":[2,4,6,8,10,12,14,-1,16,18,-1,20,22,24,26,28,30,-1,-1,-1,-1,-1,-1,-1,32,34,36,38,-1,-1,-1,-1,-1,-1,40,-1,42,-1,-1,-1,-1,-1,-1],"split_conditions":[2.4592E0,1.341E0,2.987E0,1.0021E0,9.693E-1,7.161E-1,2.8814E0,-1.6464755E-2,1.0133295E3,1.0156348E3,-4.3788822E-3,1.2294E0,1.0105485E3,1.1519E0,3.958E-1,7.579E-1,1.8966E0,-2.4096366E-2,-6.026155E-3,4.1851597E-3,1.0113889E-2,3.5835356E-3,2.3921456E-2,-1.2376226E-2,1.3444E0,1.0157457E3,1.525E-1,5.577E-1,6.0132225E-3,-7.996903E-3,-1.3341069E-3,-2.32746E-3,1.6291052E-3,1.5869897E-2,1.1137E0,5.5196146E-3,1.2019E0,4.9389305E-4,9.652972E-5,3.8351418E-4,3.4682215E-3,-4.038136E-3,2.0155609E-4],"split_indices":[18,9,11,17,0,1,18,0,20,5,0,17,4,0,6,0,6,0,0,0,0,0,0,0,0,21,7,0,0,0,0,0,0,0,0,0,0,0,0,0,0,0,0],"split_type":[0,0,0,0,0,0,0,0,0,0,0,0,0,0,0,0,0,0,0,0,0,0,0,0,0,0,0,0,0,0,0,0,0,0,0,0,0,0,0,0,0,0,0],"sum_hessian":[6.6E1,2.4E1,4.2E1,1.2E1,1.2E1,2E1,2.2E1,4E0,8E0,9E0,3E0,8E0,1.2E1,7E0,1.5E1,4E0,4E0,8E0,1E0,3E0,5E0,1E0,1.1E1,5E0,2E0,6E0,9E0,2E0,2E0,2E0,2E0,1E0,1E0,4E0,2E0,4E0,5E0,1E0,1E0,1E0,1E0,4E0,1E0],"tree_param":{"num_deleted":"0","num_feature":"24","num_nodes":"43","size_leaf_vector":"1"}},{"base_weights":[1.2752862E-2,-1.6957673E-1,2.4327858E-1,1.3279242E-2,-2.6519302E-1,3.9685693E-1,6.3243106E-2,-1.4590263E-1,1.5090348E-1,-3.289352E-1,-8.862391E-2,1.893855E-1,4.5023194E-1,-4.1959822E-2,1.8152056E-2,-9.714033E-3,-8.31918E-4,1.2479317E-2,7.641146E-2,3.951702E-3,-3.5758245E-1,-6.816854E-3,-6.82649E-3,1.2014822E-2,3.767304E-3,8.266414E-3,2.4533993E-2,-1.09286256E-1,4.358099E-2,4.3920698E-3,4.8154593E-4,-1.3273755E-1,-3.9628226E-1,-1.5140176E-3,1.5883774E-3,-1.9385339E-3,-6.4869183E-3,3.8029553E-4,2.9833526E-3,9.4115734E-5,-8.911914E-3,-7.79629E-3,-2.1167394E-2],"categories":[],"categories_nodes":[],"categories_segments":[],"categories_sizes":[],"default_left":[0,0,0,0,0,0,0,0,0,0,0,0,0,0,0,0,0,0,0,0,0,0,0,0,0,0,0,0,0,0,0,0,0,0,0,0,0,0,0,0,0,0,0],"id":12,"left_children":[1,3,5,7,9,11,13,15,17,19,21,23,25,27,-1,-1,-1,-1,29,-1,31,-1,33,-1,-1,-1,-1,35,37,-1,-1,39,41,-1,-1,-1,-1,-1,-1,-1,-1,-1,-1],"loss_changes":[2.8573756E0,6.679138E-1,8.0438817E-1,3.2871917E-1,2.522211E-1,9.191346E-2,4.8832756E-1,4.0542364E-2,3.9737433E-2,2.3863053E-1,3.0291803E-2,1.0923877E-2,5.716157E-2,7.38727E-2,0E0,0E0,0E0,0E0,3.7337877E-3,0E0,9.5323086E-2,0E0,4.5826496E-3,0E0,0E0,0E0,0E0,5.065292E-3,3.0183615E-3,0E0,0E0,2.4836704E-2,2.5064468E-2,0E0,0E0,0E0,0E0,0E0,0E0,0E0,0E0,0E0,0E0],"parents":[2147483647,0,0,1,1,2,2,3,3,4,4,5,5,6,6,7,7,8,8,9,9,10,10,11,11,12,12,13,13,18,18,20,20,22,22,27,27,28,28,31,31,32,32],"right_children":[2,4,6,8,10,12,14,16,18,20,22,24,26,28,-1,-1,-1,-1,30,-1,32,-1,34,-1,-1,-1,-1,36,38,-1,-1,40,42,-1,-1,-1,-1,-1,-1,-1,-1,-1,-1],"split_conditions":[1.4444E0,1.4991E0,1.521E0,1.1059E0,2.2764E0,2.9661E0,1.6786E0,1.1512E0,2.061E-1,1.0636E0,1.2068E0,7.244E-1,1.506E-1,3.1358E0,1.8152056E-2,-9.714033E-3,-8.31918E-4,1.2479317E-2,1.0139881E3,3.951702E-3,1.0108557E3,-6.816854E-3,1.223E0,1.2014822E-2,3.767304E-3,8.266414E-3,2.4533993E-2,2.1052E0,1.0100713E3,4.3920698E-3,4.8154593E-4,1.0337E0,1.0110933E3,-1.5140176E-3,1.5883774E-3,-1.9385339E-3,-6.4869183E-3,3.8029553E-4,2.9833526E-3,9.4115734E-5,-8.911914E-3,-7.79629E-3,-2.1167394E-2],"split_indices":[16,3,9,9,3,19,16,6,6,8,22,1,6,18,0,0,0,0,4,0,13,0,1,0,0,0,0,3,4,0,0,1,12,0,0,0,0,0,0,0,0,0,0],"split_type":[0,0,0,0,0,0,0,0,0,0,0,0,0,0,0,0,0,0,0,0,0,0,0,0,0,0,0,0,0,0,0,0,0,0,0,0,0,0,0,0,0,0,0],"sum_hessian":[6.6E1,3.7E1,2.9E1,1.3E1,2.4E1,1.5E1,1.4E1,6E0,7E0,1.7E1,7E0,4E0,1.1E1,1.1E1,3E0,4E0,2E0,2E0,5E0,1E0,1.6E1,4E0,3E0,2E0,2E0,2E0,9E0,6E0,5E0,4E0,1E0,3E0,1.3E1,2E0,1E0,2E0,4E0,2E0,3E0,1E0,2E0,2E0,1.1E1],"tree_param":{"num_deleted":"0","num_feature":"24","num_nodes":"43","size_leaf_vector":"1"}},{"base_weights":[4.149009E-3,-2.0264721E-1,2.1690544E-1,-2.7899815E-2,-2.9260674E-1,3.1554854E-1,7.092096E-2,-1.2500787E-2,1.421746E-1,-3.202413E-1,-4.0641055E-3,1.6120507E-1,4.5377147E-1,-1.0913655E-1,2.4211335E-1,-8.0418587E-4,1.97608E-1,-1.6039433E-1,-3.7729043E-1,1.8660067E-1,3.505631E-3,1.14651E-2,2.5860762E-2,-1.0579665E-2,-7.011279E-3,1.0783968E-1,1.7471356E-2,1.0835276E-2,2.5530101E-3,-1.50973005E-2,-1.0774684E-2,-8.8691436E-2,-2.0899964E-2,1.1133715E-2,4.742925E-3,3.6441983E-4,-1.1578947E-3,6.6464753E-3,1.8700957E-4,9.1764334E-5,-1.2240618E-3,-5.680594E-3,-9.712637E-4],"categories":[],"categories_nodes":[],"categories_segments":[],"categories_sizes":[],"default_left":[0,0,0,0,0,0,0,0,0,0,0,0,0,0,0,0,0,0,0,0,0,0,0,0,0,0,0,0,0,0,0,0,0,0,0,0,0,0,0,0,0,0,0],"id":13,"left_children":[1,3,5,7,9,11,13,-1,15,17,-1,19,21,23,25,-1,27,29,31,33,-1,-1,-1,35,-1,37,-1,-1,-1,39,-1,41,-1,-1,-1,-1,-1,-1,-1,-1,-1,-1,-1],"loss_changes":[3.0357666E0,5.42043E-1,4.672333E-1,5.2663696E-1,1.08287096E-1,3.5352576E-1,4.8879057E-1,0E0,7.336064E-2,1.2186742E-1,0E0,1.23637915E-2,2.3813725E-2,2.3028754E-2,7.759321E-2,0E0,5.727157E-3,5.2787036E-2,1.274066E-1,5.3532124E-3,0E0,0E0,0E0,8.430296E-4,0E0,1.2562007E-2,0E0,0E0,0E0,5.2161317E-4,0E0,2.9714871E-3,0E0,0E0,0E0,0E0,0E0,0E0,0E0,0E0,0E0,0E0,0E0],"parents":[2147483647,0,0,1,1,2,2,3,3,4,4,5,5,6,6,8,8,9,9,11,11,12,12,13,13,14,14,16,16,17,17,18,18,19,19,23,23,25,25,29,29,31,31],"right_children":[2,4,6,8,10,12,14,-1,16,18,-1,20,22,24,26,-1,28,30,32,34,-1,-1,-1,36,-1,38,-1,-1,-1,40,-1,42,-1,-1,-1,-1,-1,-1,-1,-1,-1,-1,-1],"split_conditions":[2.6792E0,2.3633E0,3.0776E0,1.1538E0,1.0706E0,2.969E0,3.1793E0,-1.2500787E-2,7.941E-1,1.0120345E3,-4.0641055E-3,9.407E-1,1.5415E0,2.2089E0,1.705E0,-8.0418587E-4,2.7476E0,1.0134489E3,1.0108557E3,1.0121054E3,3.505631E-3,1.14651E-2,2.5860762E-2,1.1137E0,-7.011279E-3,1.2257E0,1.7471356E-2,1.0835276E-2,2.5530101E-3,7.579E-1,-1.0774684E-2,7.853E-1,-2.0899964E-2,1.1133715E-2,4.742925E-3,3.6441983E-4,-1.1578947E-3,6.6464753E-3,1.8700957E-4,9.1764334E-5,-1.2240618E-3,-5.680594E-3,-9.712637E-4],"split_indices":[18,11,11,2,0,19,18,0,7,13,0,0,16,2,16,0,6,4,12,12,0,0,0,0,0,0,0,0,0,0,0,0,0,0,0,0,0,0,0,0,0,0,0],"split_type":[0,0,0,0,0,0,0,0,0,0,0,0,0,0,0,0,0,0,0,0,0,0,0,0,0,0,0,0,0,0,0,0,0,0,0,0,0,0,0,0,0,0,0],"sum_hessian":[6.7E1,3.4E1,3.3E1,1.2E1,2.2E1,1.9E1,1.4E1,5E0,7E0,1.9E1,3E0,1E1,9E0,7E0,7E0,2E0,5E0,6E0,1.3E1,7E0,3E0,3E0,6E0,2E0,5E0,4E0,3E0,4E0,1E0,2E0,4E0,2E0,1.1E1,4E0,3E0,1E0,1E0,3E0,1E0,1E0,1E0,1E0,1E0],"tree_param":{"num_deleted":"0","num_feature":"24","num_nodes":"43","size_leaf_vector":"1"}},{"base_weights":[4.7006565E-3,-1.6392401E-1,2.0294435E-1,-4.664848E-2,-2.678091E-1,3.5582736E-1,6.35195E-2,-2.582492E-1,6.2483914E-2,-3.2396412E-1,-3.671372E-3,4.399951E-3,3.878029E-1,-2.0533474E-2,3.0297452E-1,-6.631723E-3,-1.5965082E-2,-1.1956841E-2,1.3863279E-1,8.9469555E-5,-3.458003E-1,9.834671E-3,2.1102123E-2,-9.978852E-2,8.429922E-2,1.6816182E-2,4.239452E-3,-5.5470824E-2,4.542485E-2,8.493498E-3,3.6368712E-3,-9.699234E-3,-1.9168554E-2,-7.783003E-3,-2.3959279E-2,5.41002E-3,-1.4776945E-3,-4.8208027E-3,-1.0565252E-3,6.4030493E-4,3.5820275E-3,3.5842854E-4,-2.3550352E-3],"categories":[],"categories_nodes":[],"categories_segments":[],"categories_sizes":[],"default_left":[0,0,0,0,0,0,0,0,0,0,0,0,0,0,0,0,0,0,0,0,0,0,0,0,0,0,0,0,0,0,0,0,0,0,0,0,0,0,0,0,0,0,0],"id":14,"left_children":[1,3,5,7,9,11,13,15,17,19,-1,-1,21,23,25,-1,-1,27,29,-1,31,-1,-1,33,35,-1,-1,37,39,-1,-1,-1,-1,-1,41,-1,-1,-1,-1,-1,-1,-1,-1],"loss_changes":[2.4735682E0,4.7483432E-1,7.021316E-1,4.779863E-1,2.054379E-1,1.0289693E-1,3.8863233E-1,1.1333197E-2,8.101773E-2,1.1443031E-1,0E0,0E0,8.596182E-3,1.3303989E-1,7.8648925E-3,0E0,0E0,2.2495002E-2,2.052784E-3,0E0,1.1189103E-2,0E0,0E0,3.440077E-2,2.2246297E-2,0E0,0E0,4.993042E-3,2.5030589E-3,0E0,0E0,0E0,0E0,0E0,3.9393585E-3,0E0,0E0,0E0,0E0,0E0,0E0,0E0,0E0],"parents":[2147483647,0,0,1,1,2,2,3,3,4,4,5,5,6,6,7,7,8,8,9,9,12,12,13,13,14,14,17,17,18,18,20,20,23,23,24,24,27,27,28,28,34,34],"right_children":[2,4,6,8,10,12,14,16,18,20,-1,-1,22,24,26,-1,-1,28,30,-1,32,-1,-1,34,36,-1,-1,38,40,-1,-1,-1,-1,-1,42,-1,-1,-1,-1,-1,-1,-1,-1],"split_conditions":[1.3486E0,1.2833E0,1.521E0,2.0807E0,2.356E0,1.4192E0,1.6786E0,6.48E-1,1.1935E0,1.1086E0,-3.671372E-3,4.399951E-3,7.058E-1,1.0132265E3,1.1925E0,-6.631723E-3,-1.5965082E-2,7.941E-1,1.0129062E3,8.9469555E-5,6.738E-1,9.834671E-3,2.1102123E-2,1.2239E0,3.3692E0,1.6816182E-2,4.239452E-3,7.941E-1,7.161E-1,8.493498E-3,3.6368712E-3,-9.699234E-3,-1.9168554E-2,-7.783003E-3,1.0100713E3,5.41002E-3,-1.4776945E-3,-4.8208027E-3,-1.0565252E-3,6.4030493E-4,3.5820275E-3,3.5842854E-4,-2.3550352E-3],"split_indices":[16,9,8,19,3,16,16,1,16,8,0,0,1,13,0,0,0,7,4,0,14,0,0,7,7,0,0,6,0,0,0,0,0,0,4,0,0,0,0,0,0,0,0],"split_type":[0,0,0,0,0,0,0,0,0,0,0,0,0,0,0,0,0,0,0,0,0,0,0,0,0,0,0,0,0,0,0,0,0,0,0,0,0,0,0,0,0,0,0],"sum_hessian":[7.2E1,3.9E1,3.3E1,1.9E1,2E1,1.5E1,1.8E1,6E0,1.3E1,1.5E1,5E0,2E0,1.3E1,1.4E1,4E0,3E0,3E0,7E0,6E0,1E0,1.4E1,3E0,1E1,8E0,6E0,3E0,1E0,4E0,3E0,3E0,3E0,4E0,1E1,4E0,4E0,5E0,1E0,1E0,3E0,2E0,1E0,2E0,2E0],"tree_param":{"num_deleted":"0","num_feature":"24","num_nodes":"43","size_leaf_vector":"1"}},{"base_weights":[-1.8569607E-2,-1.6900079E-1,1.976674E-1,3.8559674E-3,-2.5258183E-1,3.289432E-1,4.446207E-2,-8.77292E-3,8.501196E-2,3.1280596E-2,-2.7476722E-1,1.604936E-1,2.2106346E-2,-4.2438358E-2,2.9404783E-1,-3.0160928E-2,1.5513374E-1,1.8261671E-4,2.163428E-3,-3.495467E-1,-1.3422011E-1,4.5586955E-3,1.035099E-2,-1.0252106E-1,6.218164E-2,1.6847547E-2,4.133463E-3,-5.6809664E-2,6.541451E-3,8.924343E-3,3.2250327E-3,8.72314E-5,-3.7161145E-1,-1.0173909E-2,-6.5575756E-2,3.4647982E-4,-7.0079775E-3,8.867443E-4,3.4429803E-3,-3.402701E-3,-8.5802376E-4,-2.5521815E-4,7.45827E-4,-4.700282E-3,-1.9192573E-2,-1.3481617E-3,-3.781406E-3],"categories":[],"categories_nodes":[],"categories_segments":[],"categories_sizes":[],"default_left":[0,0,0,0,0,0,0,0,0,0,0,0,0,0,0,0,0,0,0,0,0,0,0,0,0,0,0,0,0,0,0,0,0,0,0,0,0,0,0,0,0,0,0,0,0,0,0],"id":15,"left_children":[1,3,5,7,9,11,13,-1,15,17,19,21,-1,23,25,27,29,-1,-1,31,33,-1,-1,35,37,-1,-1,39,41,-1,-1,-1,43,-1,45,-1,-1,-1,-1,-1,-1,-1,-1,-1,-1,-1,-1],"loss_changes":[2.3754787E0,6.222185E-1,5.8873904E-1,2.332026E-1,1.9122529E-1,2.3409343E-1,3.3781555E-1,0E0,9.351638E-2,8.3558867E-4,2.3685479E-1,6.926641E-3,0E0,8.180516E-2,8.4196925E-3,5.2619777E-3,3.3034384E-3,0E0,0E0,1.3241816E-1,3.895271E-2,0E0,0E0,3.39277E-2,2.6285276E-4,0E0,0E0,1.6964972E-4,3.6874355E-4,0E0,0E0,0E0,1.8282175E-2,0E0,6.7785196E-4,0E0,0E0,0E0,0E0,0E0,0E0,0E0,0E0,0E0,0E0,0E0,0E0],"parents":[2147483647,0,0,1,1,2,2,3,3,4,4,5,5,6,6,8,8,9,9,10,10,11,11,13,13,14,14,15,15,16,16,19,19,20,20,23,23,24,24,27,27,28,28,32,32,34,34],"right_children":[2,4,6,8,10,12,14,-1,16,18,20,22,-1,24,26,28,30,-1,-1,32,34,-1,-1,36,38,-1,-1,40,42,-1,-1,-1,44,-1,46,-1,-1,-1,-1,-1,-1,-1,-1,-1,-1,-1,-1],"split_conditions":[1.3486E0,1.156E0,1.521E0,1.0332E0,6.422E-1,2.9798E0,1.6786E0,-8.77292E-3,2.2588E0,5.577E-1,1.1266E0,8.485E-1,2.2106346E-2,1.0132265E3,1.1844E0,6.23E-1,1.1283E0,1.8261671E-4,2.163428E-3,1.0098038E3,8.144E-1,4.5586955E-3,1.035099E-2,1.0100713E3,1.0118526E3,1.6847547E-2,4.133463E-3,6.05E-1,6.506E-1,8.924343E-3,3.2250327E-3,8.72314E-5,1.1009E0,-1.0173909E-2,1.0337E0,3.4647982E-4,-7.0079775E-3,8.867443E-4,3.4429803E-3,-3.402701E-3,-8.5802376E-4,-2.5521815E-4,7.45827E-4,-4.700282E-3,-1.9192573E-2,-1.3481617E-3,-3.781406E-3],"split_indices":[16,9,9,16,1,18,16,0,11,0,1,23,0,13,0,0,9,0,0,20,14,0,0,4,5,0,0,0,0,0,0,0,8,0,0,0,0,0,0,0,0,0,0,0,0,0,0],"split_type":[0,0,0,0,0,0,0,0,0,0,0,0,0,0,0,0,0,0,0,0,0,0,0,0,0,0,0,0,0,0,0,0,0,0,0,0,0,0,0,0,0,0,0,0,0,0,0],"sum_hessian":[7.1E1,4.2E1,2.9E1,1.4E1,2.8E1,1.5E1,1.4E1,4E0,1E1,2E0,2.6E1,7E0,8E0,1.1E1,3E0,4E0,6E0,1E0,1E0,1.6E1,1E1,4E0,3E0,7E0,4E0,2E0,1E0,2E0,2E0,4E0,2E0,1E0,1.5E1,4E0,6E0,2E0,5E0,1E0,3E0,1E0,1E0,1E0,1E0,1E0,1.4E1,2E0,4E0],"tree_param":{"num_deleted":"0","num_feature":"24","num_nodes":"47","size_leaf_vector":"1"}},{"base_weights":[3.445761E-2,-2.1033464E-1,1.533681E-1,-2.722427E-1,-3.8782716E-2,-3.9909195E-2,2.1707278E-1,-3.8330477E-2,-3.0292085E-1,2.2886802E-2,-6.4318837E-3,3.7403726E-3,-1.0661845E-1,2.5322577E-1,-4.32596E-2,8.504987E-5,-2.9598356E-3,-3.4309462E-1,-2.0626048E-3,-7.57134E-4,5.3287346E-2,-1.4901985E-1,1.372385E-2,9.9111766E-2,2.958208E-1,2.109343E-3,-7.5167924E-2,-2.0573275E-2,-8.2541155E-3,7.2718266E-4,3.2693685E-3,-8.073379E-3,-2.1695315E-3,8.645773E-4,1.6471148E-4,1.7264323E-1,-1.758051E-2,3.3447886E-1,2.857545E-2,-4.414612E-3,-8.9487433E-4,9.554503E-3,2.4713993E-3,-3.3354403E-3,1.0515929E-3,9.750416E-3,1.9016137E-2,-3.3389896E-3,4.1310233E-3],"categories":[],"categories_nodes":[],"categories_segments":[],"categories_sizes":[],"default_left":[0,0,0,0,0,0,0,0,0,0,0,0,0,0,0,0,0,0,0,0,0,0,0,0,0,0,0,0,0,0,0,0,0,0,0,0,0,0,0,0,0,0,0,0,0,0,0,0,0],"id":16,"left_children":[1,3,5,7,9,11,13,15,17,19,-1,-1,21,23,25,-1,-1,27,-1,-1,29,31,33,35,37,-1,39,-1,-1,-1,-1,-1,-1,-1,-1,41,43,45,47,-1,-1,-1,-1,-1,-1,-1,-1,-1,-1],"loss_changes":[1.953411E0,2.2309148E-1,5.627334E-1,1.0320473E-1,4.1733287E-2,9.98078E-2,3.3095527E-1,2.6066117E-3,1.3301778E-1,6.587498E-3,0E0,0E0,4.2866595E-2,1.6761553E-1,1.6803365E-2,0E0,0E0,7.812464E-2,0E0,0E0,4.5542698E-4,8.828789E-4,5.466683E-5,7.167961E-2,2.2805929E-1,0E0,1.4263336E-3,0E0,0E0,0E0,0E0,0E0,0E0,0E0,0E0,1.9194484E-3,8.990849E-3,5.3711414E-2,2.6131278E-2,0E0,0E0,0E0,0E0,0E0,0E0,0E0,0E0,0E0,0E0],"parents":[2147483647,0,0,1,1,2,2,3,3,4,4,5,5,6,6,7,7,8,8,9,9,12,12,13,13,14,14,17,17,20,20,21,21,22,22,23,23,24,24,26,26,35,35,36,36,37,37,38,38],"right_children":[2,4,6,8,10,12,14,16,18,20,-1,-1,22,24,26,-1,-1,28,-1,-1,30,32,34,36,38,-1,40,-1,-1,-1,-1,-1,-1,-1,-1,42,44,46,48,-1,-1,-1,-1,-1,-1,-1,-1,-1,-1],"split_conditions":[1.1981E0,1.4707E0,2.263E-1,1.0108557E3,2.6089E0,3.0259E0,3.1814E0,7.579E-1,2.5655E0,7.941E-1,-6.4318837E-3,3.7403726E-3,3.2733E0,2.115E-1,6.738E-1,8.504987E-5,-2.9598356E-3,2.2217E0,-2.0626048E-3,-7.57134E-4,7.161E-1,1.1314E0,1.0259E0,8.914E-1,3.3394E0,2.109343E-3,1.1278E0,-2.0573275E-2,-8.2541155E-3,7.2718266E-4,3.2693685E-3,-8.073379E-3,-2.1695315E-3,8.645773E-4,1.6471148E-4,1.6605E0,1.0098472E3,2.969E0,2.2764E0,-4.414612E-3,-8.9487433E-4,9.554503E-3,2.4713993E-3,-3.3354403E-3,1.0515929E-3,9.750416E-3,1.9016137E-2,-3.3389896E-3,4.1310233E-3],"split_indices":[16,22,14,13,11,11,7,0,6,7,0,0,10,15,0,0,0,18,0,0,0,0,0,0,11,0,0,0,0,0,0,0,0,0,0,2,5,19,2,0,0,0,0,0,0,0,0,0,0],"split_type":[0,0,0,0,0,0,0,0,0,0,0,0,0,0,0,0,0,0,0,0,0,0,0,0,0,0,0,0,0,0,0,0,0,0,0,0,0,0,0,0,0,0,0,0,0,0,0,0,0],"sum_hessian":[6.5E1,2.1E1,4.4E1,1.5E1,6E0,1.1E1,3.3E1,2E0,1.3E1,4E0,2E0,4E0,7E0,2.9E1,4E0,1E0,1E0,1.1E1,2E0,2E0,2E0,5E0,2E0,7E0,2.2E1,1E0,3E0,7E0,4E0,1E0,1E0,4E0,1E0,1E0,1E0,4E0,3E0,1.9E1,3E0,2E0,1E0,3E0,1E0,1E0,2E0,6E0,1.3E1,1E0,2E0],"tree_param":{"num_deleted":"0","num_feature":"24","num_nodes":"49","size_leaf_vector":"1"}},{"base_weights":[1.6022131E-3,-1.4944005E-1,1.6632704E-1,2.5953548E-2,-2.4970399E-1,2.9266554E-1,-4.790171E-3,-7.7111654E-2,1.7622577E-1,-2.9470277E-1,-1.0474924E-1,3.1405348E-1,3.6955995E-3,-1.20060734E-1,1.4409915E-1,-7.577495E-3,1.27489325E-2,1.0594809E-2,3.4961642E-3,-1.1649039E-1,-3.4057656E-1,-7.518008E-3,-2.8216422E-3,1.104548E-2,3.9122665E-1,-7.5364686E-3,-2.2021295E-3,4.537472E-2,1.033994E-2,-6.766121E-4,3.478046E-2,8.292496E-5,-7.3221116E-3,-4.373199E-3,-3.543806E-1,4.865825E-3,2.0965574E-2,2.9179195E-3,1.605928E-4,3.8440526E-4,2.2241294E-3,-7.669815E-3,-1.8961892E-2],"categories":[],"categories_nodes":[],"categories_segments":[],"categories_sizes":[],"default_left":[0,0,0,0,0,0,0,0,0,0,0,0,0,0,0,0,0,0,0,0,0,0,0,0,0,0,0,0,0,0,0,0,0,0,0,0,0,0,0,0,0,0,0],"id":17,"left_children":[1,3,5,7,9,11,13,15,17,19,21,23,-1,25,27,-1,29,-1,-1,31,33,-1,-1,-1,35,-1,-1,37,-1,-1,39,-1,-1,-1,41,-1,-1,-1,-1,-1,-1,-1,-1],"loss_changes":[1.716724E0,6.395643E-1,7.148187E-1,2.3041877E-1,1.1915398E-1,6.568265E-2,2.74739E-1,6.21337E-2,7.934645E-3,9.930587E-2,6.941028E-3,3.5773873E-2,0E0,1.4343858E-2,3.3946455E-2,0E0,3.3657302E-3,0E0,0E0,1.7936759E-2,1.4426231E-2,0E0,0E0,0E0,2.5229454E-2,0E0,0E0,2.0022755E-3,0E0,0E0,4.4657337E-4,0E0,0E0,0E0,1.7772913E-3,0E0,0E0,0E0,0E0,0E0,0E0,0E0,0E0],"parents":[2147483647,0,0,1,1,2,2,3,3,4,4,5,5,6,6,7,7,8,8,9,9,10,10,11,11,13,13,14,14,16,16,19,19,20,20,24,24,27,27,30,30,34,34],"right_children":[2,4,6,8,10,12,14,16,18,20,22,24,-1,26,28,-1,30,-1,-1,32,34,-1,-1,-1,36,-1,-1,38,-1,-1,40,-1,-1,-1,42,-1,-1,-1,-1,-1,-1,-1,-1],"split_conditions":[2.6792E0,2.3633E0,1.521E0,6.506E-1,1.1519E0,1.521E0,3.1358E0,1.7568E0,2.3191E0,1.0110898E3,3.447E-1,3.0594E0,3.6955995E-3,3.0724E0,1.6786E0,-7.577495E-3,1.0121438E3,1.0594809E-2,3.4961642E-3,1.0134489E3,1.0097697E3,-7.518008E-3,-2.8216422E-3,1.104548E-2,8.744E-1,-7.5364686E-3,-2.2021295E-3,1.1479E0,1.033994E-2,-6.766121E-4,5.577E-1,8.292496E-5,-7.3221116E-3,-4.373199E-3,1.813E-1,4.865825E-3,2.0965574E-2,2.9179195E-3,1.605928E-4,3.8440526E-4,2.2241294E-3,-7.669815E-3,-1.8961892E-2],"split_indices":[18,11,9,0,1,8,18,6,11,13,23,18,0,18,17,0,4,0,0,4,12,0,0,0,0,0,0,0,0,0,0,0,0,0,15,0,0,0,0,0,0,0,0],"split_type":[0,0,0,0,0,0,0,0,0,0,0,0,0,0,0,0,0,0,0,0,0,0,0,0,0,0,0,0,0,0,0,0,0,0,0,0,0,0,0,0,0,0,0],"sum_hessian":[6.7E1,3.5E1,3.2E1,1.3E1,2.2E1,1.8E1,1.4E1,8E0,5E0,1.6E1,6E0,1.6E1,2E0,8E0,6E0,4E0,4E0,3E0,2E0,4E0,1.2E1,2E0,4E0,9E0,7E0,5E0,3E0,3E0,3E0,2E0,2E0,1E0,3E0,1E0,1.1E1,1E0,6E0,2E0,1E0,1E0,1E0,2E0,9E0],"tree_param":{"num_deleted":"0","num_feature":"24","num_nodes":"43","size_leaf_vector":"1"}},{"base_weights":[-3.526278E-2,-1.9674325E-1,1.0476937E-1,-2.7842786E-2,-2.542807E-1,2.4240968E-1,-6.33233E-2,-7.527736E-3,5.860563E-2,-2.945165E-1,-5.0528478E-2,1.652187E-1,3.1839657E-1,-1.2682644E-1,7.423687E-2,-4.319469E-3,4.5574023E-3,3.74794E-4,-3.117114E-1,-1.0893504E-3,-3.1213562E-3,1.8418847E-1,4.0616007E-3,1.989013E-3,1.7412554E-2,7.791678E-3,-1.5452923E-1,2.633532E-4,5.3702504E-3,-7.680923E-4,4.441321E-4,8.0850725E-5,-3.302376E-1,3.984328E-3,1.0133118E-2,-8.174479E-4,1.4018238E-3,-9.693303E-3,-3.8209595E-3,-4.193369E-3,-1.7019702E-2],"categories":[],"categories_nodes":[],"categories_segments":[],"categories_sizes":[],"default_left":[0,0,0,0,0,0,0,0,0,0,0,0,0,0,0,0,0,0,0,0,0,0,0,0,0,0,0,0,0,0,0,0,0,0,0,0,0,0,0,0,0],"id":18,"left_children":[1,3,5,7,9,11,13,-1,15,17,19,21,23,25,27,29,-1,-1,31,-1,-1,33,-1,-1,-1,35,37,-1,-1,-1,-1,-1,39,-1,-1,-1,-1,-1,-1,-1,-1],"loss_changes":[1.5130349E0,2.941811E-1,8.482579E-1,1.0429762E-1,1.7367578E-1,6.4705014E-2,1.5791874E-1,0E0,1.2680119E-2,1.0100496E-1,3.4982245E-4,4.1564703E-3,6.1007977E-2,4.595563E-2,1.315989E-2,5.738018E-4,0E0,0E0,1.05020046E-1,0E0,0E0,1.2255609E-3,0E0,0E0,0E0,1.924534E-3,1.5910909E-2,0E0,0E0,0E0,0E0,0E0,1.3990283E-2,0E0,0E0,0E0,0E0,0E0,0E0,0E0,0E0],"parents":[2147483647,0,0,1,1,2,2,3,3,4,4,5,5,6,6,8,8,9,9,10,10,11,11,12,12,13,13,14,14,15,15,18,18,21,21,25,25,26,26,32,32],"right_children":[2,4,6,8,10,12,14,-1,16,18,20,22,24,26,28,30,-1,-1,32,-1,-1,34,-1,-1,-1,36,38,-1,-1,-1,-1,-1,40,-1,-1,-1,-1,-1,-1,-1,-1],"split_conditions":[2.5892E0,1.1459E0,1.521E0,1.0332E0,1.1519E0,1.325E0,3.1358E0,-7.527736E-3,6.05E-1,6.422E-1,1.223E0,1.4817E0,1.156E0,1.0101521E3,1.0100713E3,5.451E-1,4.5574023E-3,3.74794E-4,1.0098038E3,-1.0893504E-3,-3.1213562E-3,1.935E-1,4.0616007E-3,1.989013E-3,1.7412554E-2,1.0207E0,1.4444E0,2.633532E-4,5.3702504E-3,-7.680923E-4,4.441321E-4,8.0850725E-5,1.1009E0,3.984328E-3,1.0133118E-2,-8.174479E-4,1.4018238E-3,-9.693303E-3,-3.8209595E-3,-4.193369E-3,-1.7019702E-2],"split_indices":[18,9,9,16,1,6,18,0,1,1,1,8,9,20,4,1,0,0,20,0,0,15,0,0,0,1,16,0,0,0,0,0,8,0,0,0,0,0,0,0,0],"split_type":[0,0,0,0,0,0,0,0,0,0,0,0,0,0,0,0,0,0,0,0,0,0,0,0,0,0,0,0,0,0,0,0,0,0,0,0,0,0,0,0,0],"sum_hessian":[6.5E1,3E1,3.5E1,8E0,2.2E1,1.9E1,1.6E1,3E0,5E0,1.8E1,4E0,1.1E1,8E0,1.1E1,5E0,2E0,3E0,1E0,1.7E1,2E0,2E0,8E0,3E0,1E0,7E0,2E0,9E0,2E0,3E0,1E0,1E0,1E0,1.6E1,2E0,6E0,1E0,1E0,5E0,4E0,1E0,1.5E1],"tree_param":{"num_deleted":"0","num_feature":"24","num_nodes":"41","size_leaf_vector":"1"}},{"base_weights":[1.4058987E-2,-1.4368622E-1,1.9236825E-1,-5.5616293E-2,-2.8167486E-1,2.7598953E-1,4.3937236E-2,-2.554661E-1,1.8190483E-2,-3.2931554E-1,-4.6077208E-3,1.5365916E-1,3.3454397E-1,-2.8090887E-2,9.75081E-3,-5.459839E-3,-1.5065079E-2,7.842682E-3,-3.6540773E-2,-1.7235612E-2,-4.768628E-3,9.5042875E-3,3.4855574E-3,5.598311E-3,3.6786288E-1,-8.7448455E-2,3.6884855E-2,-6.502241E-2,4.3798506E-2,2.0093776E-2,7.7270786E-3,-7.970125E-4,-5.067022E-3,1.4999509E-4,2.230306E-3,-7.225549E-4,-4.816405E-3,3.6542417E-4,2.6762844E-3],"categories":[],"categories_nodes":[],"categories_segments":[],"categories_sizes":[],"default_left":[0,0,0,0,0,0,0,0,0,0,0,0,0,0,0,0,0,0,0,0,0,0,0,0,0,0,0,0,0,0,0,0,0,0,0,0,0,0,0],"id":19,"left_children":[1,3,5,7,9,11,13,15,17,19,-1,21,23,25,-1,-1,-1,-1,27,-1,-1,-1,-1,-1,29,31,33,35,37,-1,-1,-1,-1,-1,-1,-1,-1,-1,-1],"loss_changes":[1.799669E0,3.9752436E-1,3.6023355E-1,3.2915297E-1,8.702767E-2,8.469105E-2,1.360614E-1,7.324785E-3,1.3474812E-1,3.1434298E-3,0E0,1.1212423E-2,4.7804356E-2,3.793674E-2,0E0,0E0,0E0,0E0,3.2594405E-2,0E0,0E0,0E0,0E0,0E0,1.0449767E-2,3.3515617E-3,1.1743596E-3,1.4439654E-2,1.028589E-3,0E0,0E0,0E0,0E0,0E0,0E0,0E0,0E0,0E0,0E0],"parents":[2147483647,0,0,1,1,2,2,3,3,4,4,5,5,6,6,7,7,8,8,9,9,11,11,12,12,13,13,18,18,24,24,25,25,26,26,27,27,28,28],"right_children":[2,4,6,8,10,12,14,16,18,20,-1,22,24,26,-1,-1,-1,-1,28,-1,-1,-1,-1,-1,30,32,34,36,38,-1,-1,-1,-1,-1,-1,-1,-1,-1,-1],"split_conditions":[1.3486E0,1.341E0,1.521E0,2.0411E0,1.0156348E3,2.969E0,1.0124578E3,6.48E-1,1.0113783E3,2.5655E0,-4.6077208E-3,8.914E-1,1.506E-1,7.771E-1,9.75081E-3,-5.459839E-3,-1.5065079E-2,7.842682E-3,2.3599E0,-1.7235612E-2,-4.768628E-3,9.5042875E-3,3.4855574E-3,5.598311E-3,1.3124E0,1.0207E0,1.0098472E3,1.0134489E3,5.577E-1,2.0093776E-2,7.7270786E-3,-7.970125E-4,-5.067022E-3,1.4999509E-4,2.230306E-3,-7.225549E-4,-4.816405E-3,3.6542417E-4,2.6762844E-3],"split_indices":[16,9,9,19,4,19,12,1,21,6,0,0,6,6,0,0,0,0,18,0,0,0,0,0,0,1,4,4,0,0,0,0,0,0,0,0,0,0,0],"split_type":[0,0,0,0,0,0,0,0,0,0,0,0,0,0,0,0,0,0,0,0,0,0,0,0,0,0,0,0,0,0,0,0,0,0,0,0,0,0,0],"sum_hessian":[6.2E1,3.3E1,2.9E1,2.1E1,1.2E1,1.8E1,1.1E1,5E0,1.6E1,9E0,3E0,7E0,1.1E1,8E0,3E0,2E0,3E0,4E0,1.2E1,8E0,1E0,4E0,3E0,2E0,9E0,4E0,4E0,9E0,3E0,7E0,2E0,1E0,3E0,1E0,3E0,4E0,5E0,1E0,2E0],"tree_param":{"num_deleted":"0","num_feature":"24","num_nodes":"39","size_leaf_vector":"1"}},{"base_weights":[1.3841304E-2,-1.1945614E-1,1.9399135E-1,2.7851725E-2,-1.9410478E-1,2.7864945E-1,7.1288705E-2,-9.3315905E-3,9.702525E-2,-2.3453464E-1,-3.931025E-2,1.9358368E-1,3.4220588E-1,-2.5715757E-2,2.510399E-1,6.008625E-3,1.2669651E-1,3.8795073E-3,-2.5857002E-1,-5.4602105E-2,1.3110221E-3,1.3135731E-3,2.0925488E-1,7.5343223E-3,2.0642562E-2,2.6387812E-3,-6.689429E-2,1.4044831E-2,3.2903254E-3,6.0648524E-4,-3.088653E-4,1.4678557E-1,3.244439E-3,-2.4992675E-3,2.7902306E-3,9.689331E-5,-2.7238294E-1,-6.4975023E-4,-3.0162265E-3,1.1126612E-2,2.5758983E-3,-4.87701E-3,-1.9524813E-2,8.049963E-3,1.8929302E-3,-1.6669024E-2,-8.378284E-3,-1.3991515E-3,1.4624596E-4],"categories":[],"categories_nodes":[],"categories_segments":[],"categories_sizes":[],"default_left":[0,0,0,0,0,0,0,0,0,0,0,0,0,0,0,0,0,0,0,0,0,0,0,0,0,0,0,0,0,0,0,0,0,0,0,0,0,0,0,0,0,0,0,0,0,0,0,0,0],"id":20,"left_children":[1,3,5,7,9,11,13,-1,15,17,19,21,23,25,27,29,31,33,35,37,-1,-1,39,-1,-1,-1,41,-1,-1,-1,-1,43,-1,-1,-1,-1,45,-1,-1,-1,-1,-1,47,-1,-1,-1,-1,-1,-1],"loss_changes":[1.7521484E0,4.6725202E-1,3.0215633E-1,2.4065673E-1,1.6601348E-1,3.1071186E-2,2.5056905E-1,0E0,3.164564E-2,1.2707138E-1,8.446291E-3,2.072239E-2,5.955863E-2,3.585199E-2,9.167463E-3,3.7329306E-4,1.6502142E-3,1.1180229E-2,7.249534E-2,6.4464286E-4,0E0,0E0,7.3845983E-3,0E0,0E0,0E0,8.257311E-3,0E0,0E0,0E0,0E0,3.1943023E-3,0E0,0E0,0E0,0E0,6.561518E-2,0E0,0E0,0E0,0E0,0E0,8.4138697E-4,0E0,0E0,0E0,0E0,0E0,0E0],"parents":[2147483647,0,0,1,1,2,2,3,3,4,4,5,5,6,6,8,8,9,9,10,10,11,11,12,12,13,13,14,14,15,15,16,16,17,17,18,18,19,19,22,22,26,26,31,31,36,36,42,42],"right_children":[2,4,6,8,10,12,14,-1,16,18,20,22,24,26,28,30,32,34,36,38,-1,-1,40,-1,-1,-1,42,-1,-1,-1,-1,44,-1,-1,-1,-1,46,-1,-1,-1,-1,-1,48,-1,-1,-1,-1,-1,-1],"split_conditions":[1.4444E0,7.745E-1,1.521E0,1.1538E0,1.2106E0,1.5415E0,1.6786E0,-9.3315905E-3,1.1935E0,1.1086E0,1.3444E0,1.0113297E3,8.444E-1,1.343E-1,1.1925E0,6.422E-1,1.4991E0,6.422E-1,1.0098038E3,9.578E-1,1.3110221E-3,1.3135731E-3,1.3124E0,7.5343223E-3,2.0642562E-2,2.6387812E-3,1.2239E0,1.4044831E-2,3.2903254E-3,6.0648524E-4,-3.088653E-4,7.7092E0,3.244439E-3,-2.4992675E-3,2.7902306E-3,9.689331E-5,1.1234E0,-6.4975023E-4,-3.0162265E-3,1.1126612E-2,2.5758983E-3,-4.87701E-3,1.1667E0,8.049963E-3,1.8929302E-3,-1.6669024E-2,-8.378284E-3,-1.3991515E-3,1.4624596E-4],"split_indices":[16,1,9,2,1,16,16,0,16,9,0,21,1,7,0,1,2,0,20,0,0,0,1,0,0,0,7,0,0,0,0,7,0,0,0,0,1,0,0,0,0,0,0,0,0,0,0,0,0],"split_type":[0,0,0,0,0,0,0,0,0,0,0,0,0,0,0,0,0,0,0,0,0,0,0,0,0,0,0,0,0,0,0,0,0,0,0,0,0,0,0,0,0,0,0,0,0,0,0,0,0],"sum_hessian":[7.1E1,4.1E1,3E1,1.4E1,2.7E1,1.7E1,1.3E1,3E0,1.1E1,2.1E1,6E0,9E0,8E0,9E0,4E0,3E0,8E0,2E0,1.9E1,5E0,1E0,1E0,8E0,3E0,5E0,3E0,6E0,3E0,1E0,2E0,1E0,5E0,3E0,1E0,1E0,1E0,1.8E1,1E0,4E0,7E0,1E0,3E0,3E0,4E0,1E0,1E1,8E0,2E0,1E0],"tree_param":{"num_deleted":"0","num_feature":"24","num_nodes":"49","size_leaf_vector":"1"}},{"base_weights":[1.919083E-2,-1.1431124E-1,1.4833024E-1,4.8482053E-2,-2.0531131E-1,2.453617E-1,4.3058224E-2,-1.9337326E-2,1.3082755E-1,-2.296357E-1,-3.844267E-2,1.4913747E-1,3.0742735E-1,-3.1051908E-2,2.4195495E-1,-7.166198E-2,2.6389861E-2,8.0232145E-3,2.3851355E-3,-9.030912E-2,-2.6076883E-1,-5.818784E-4,-2.1749258E-3,9.008191E-3,3.2656789E-3,3.2635698E-1,3.4265162E-3,-7.326583E-2,3.7444293E-2,1.3518152E-2,3.2080652E-3,-7.459909E-4,-4.2801383E-3,5.7825744E-3,2.7204752E-3,-5.327566E-3,-6.3350797E-4,-4.609235E-2,-2.9025042E-1,1.8323895E-2,6.1977943E-3,7.1485043E-3,-9.726257E-2,2.3075938E-5,4.4748545E-2,5.862673E-4,-3.0114353E-4,-3.5513968E-3,9.4470386E-5,-5.982E-3,-1.5519707E-2,-7.4210763E-4,1.2782455E-3,-1.2866616E-3,-5.244763E-3,2.5398254E-3,5.1391724E-4],"categories":[],"categories_nodes":[],"categories_segments":[],"categories_sizes":[],"default_left":[0,0,0,0,0,0,0,0,0,0,0,0,0,0,0,0,0,0,0,0,0,0,0,0,0,0,0,0,0,0,0,0,0,0,0,0,0,0,0,0,0,0,0,0,0,0,0,0,0,0,0,0,0,0,0,0,0],"id":21,"left_children":[1,3,5,7,9,11,13,15,17,19,21,23,25,27,29,31,33,-1,-1,35,37,-1,-1,-1,-1,39,-1,41,43,-1,-1,-1,-1,45,-1,-1,-1,47,49,-1,-1,51,53,-1,55,-1,-1,-1,-1,-1,-1,-1,-1,-1,-1,-1,-1],"loss_changes":[1.1893016E0,5.1363677E-1,3.4694952E-1,7.512992E-2,8.046961E-2,6.165111E-2,2.7283785E-1,2.1032423E-2,7.1267188E-3,5.8866024E-2,3.5872683E-5,1.1639595E-2,2.2856891E-2,4.3224297E-2,7.907063E-3,1.8869415E-3,2.5724173E-3,0E0,0E0,4.955113E-3,8.155668E-2,0E0,0E0,0E0,0E0,2.7657568E-2,0E0,1.8062416E-2,1.600136E-3,0E0,0E0,0E0,0E0,3.5124848E-4,0E0,0E0,0E0,3.7235594E-3,7.542014E-3,0E0,0E0,1.5944048E-3,1.12243E-3,0E0,5.202694E-4,0E0,0E0,0E0,0E0,0E0,0E0,0E0,0E0,0E0,0E0,0E0,0E0],"parents":[2147483647,0,0,1,1,2,2,3,3,4,4,5,5,6,6,7,7,8,8,9,9,10,10,11,11,12,12,13,13,14,14,15,15,16,16,19,19,20,20,25,25,27,27,28,28,33,33,37,37,38,38,41,41,42,42,44,44],"right_children":[2,4,6,8,10,12,14,16,18,20,22,24,26,28,30,32,34,-1,-1,36,38,-1,-1,-1,-1,40,-1,42,44,-1,-1,-1,-1,46,-1,-1,-1,48,50,-1,-1,52,54,-1,56,-1,-1,-1,-1,-1,-1,-1,-1,-1,-1,-1,-1],"split_conditions":[1.3486E0,1.1946E0,1.5096E0,1.1935E0,2.356E0,2.969E0,1.6786E0,2.2588E0,1.1283E0,1.0110933E3,1.0337E0,9.133E-1,1.7117E0,3.1358E0,1.1925E0,5.451E-1,7.161E-1,8.0232145E-3,2.3851355E-3,1.1278E0,1.1086E0,-5.818784E-4,-2.1749258E-3,9.008191E-3,3.2656789E-3,1.5081E0,3.4265162E-3,1.0101521E3,1.0100713E3,1.3518152E-2,3.2080652E-3,-7.459909E-4,-4.2801383E-3,6.422E-1,2.7204752E-3,-5.327566E-3,-6.3350797E-4,6.644E-1,6.352E-1,1.8323895E-2,6.1977943E-3,1.1667E0,2.2485E0,2.3075938E-5,1.0137984E3,5.862673E-4,-3.0114353E-4,-3.5513968E-3,9.4470386E-5,-5.982E-3,-1.5519707E-2,-7.4210763E-4,1.2782455E-3,-1.2866616E-3,-5.244763E-3,2.5398254E-3,5.1391724E-4],"split_indices":[16,9,9,16,3,19,16,10,9,12,0,0,8,18,0,1,0,0,0,1,8,0,0,0,0,15,0,20,4,0,0,0,0,1,0,0,0,0,14,0,0,0,2,0,4,0,0,0,0,0,0,0,0,0,0,0,0],"split_type":[0,0,0,0,0,0,0,0,0,0,0,0,0,0,0,0,0,0,0,0,0,0,0,0,0,0,0,0,0,0,0,0,0,0,0,0,0,0,0,0,0,0,0,0,0,0,0,0,0,0,0,0,0,0,0,0,0],"sum_hessian":[6.7E1,3.3E1,3.4E1,1.2E1,2.1E1,1.7E1,1.7E1,7E0,5E0,1.8E1,3E0,8E0,9E0,1.3E1,4E0,3E0,4E0,3E0,2E0,4E0,1.4E1,1E0,2E0,5E0,3E0,8E0,1E0,8E0,5E0,3E0,1E0,1E0,2E0,3E0,1E0,3E0,1E0,2E0,1.2E1,6E0,2E0,2E0,6E0,1E0,4E0,2E0,1E0,1E0,1E0,2E0,1E1,1E0,1E0,1E0,5E0,3E0,1E0],"tree_param":{"num_deleted":"0","num_feature":"24","num_nodes":"57","size_leaf_vector":"1"}},{"base_weights":[1.3433517E-2,-1.519839E-1,1.34143E-1,-8.365335E-2,-2.8027964E-1,2.2854832E-1,1.280272E-2,-3.696506E-3,-1.8985176E-1,-1.5433832E-2,-6.17671E-4,1.277687E-1,2.6465386E-1,-6.1517373E-2,2.3320246E-1,9.3919516E-2,-5.7516906E-2,-2.5380054E-1,-2.3232817E-3,6.806314E-3,1.7316401E-3,2.8949028E-1,3.0266286E-3,-7.3769055E-3,1.2222912E-2,1.3011224E-2,3.127861E-3,1.16478294E-1,9.2110036E-5,-8.402649E-2,-3.373295E-3,-1.5461055E-2,-4.765316E-3,4.484705E-3,1.5765758E-2,4.3121815E-2,-2.1120572E-2,1.7268062E-3,6.6140154E-3,-7.273406E-4,-4.7506536E-3,5.236179E-4,-5.7396496E-4,2.4445802E-3,5.0106645E-4,1.0967255E-4,-1.8697203E-3],"categories":[],"categories_nodes":[],"categories_segments":[],"categories_sizes":[],"default_left":[0,0,0,0,0,0,0,0,0,0,0,0,0,0,0,0,0,0,0,0,0,0,0,0,0,0,0,0,0,0,0,0,0,0,0,0,0,0,0,0,0,0,0,0,0,0,0],"id":22,"left_children":[1,3,5,7,9,11,13,15,17,-1,-1,19,21,23,25,27,29,31,-1,-1,-1,33,-1,-1,35,-1,-1,37,-1,39,41,-1,-1,-1,-1,43,45,-1,-1,-1,-1,-1,-1,-1,-1,-1,-1],"loss_changes":[1.4181092E0,2.3954916E-1,4.667359E-1,1.7761527E-1,7.22698E-2,4.9875617E-2,3.2556844E-1,7.370049E-2,7.073134E-2,0E0,0E0,1.5127063E-3,6.3590646E-2,9.695126E-2,6.7769587E-3,1.0171186E-2,1.2634473E-2,2.3232281E-2,0E0,0E0,0E0,4.3954015E-2,0E0,0E0,1.0183251E-2,0E0,0E0,6.1095506E-4,0E0,3.197927E-3,5.6914694E-4,0E0,0E0,0E0,0E0,4.649544E-4,1.9790656E-3,0E0,0E0,0E0,0E0,0E0,0E0,0E0,0E0,0E0,0E0],"parents":[2147483647,0,0,1,1,2,2,3,3,4,4,5,5,6,6,7,7,8,8,11,11,12,12,13,13,14,14,15,15,16,16,17,17,21,21,24,24,27,27,29,29,30,30,35,35,36,36],"right_children":[2,4,6,8,10,12,14,16,18,-1,-1,20,22,24,26,28,30,32,-1,-1,-1,34,-1,-1,36,-1,-1,38,-1,40,42,-1,-1,-1,-1,44,46,-1,-1,-1,-1,-1,-1,-1,-1,-1,-1],"split_conditions":[2.5864E0,1.6565E0,1.521E0,1.341E0,2.1807E0,1.3796E0,1.705E0,1.0113783E3,1.0706E0,-1.5433832E-2,-6.17671E-4,1.9676E0,1.521E0,3.0724E0,1.1925E0,1.5485E0,6.422E-1,1.0136462E3,-2.3232817E-3,6.806314E-3,1.7316401E-3,1.343E-1,3.0266286E-3,-7.3769055E-3,1.506E-1,1.3011224E-2,3.127861E-3,6.373E-1,9.2110036E-5,1.0447E0,1.2285E0,-1.5461055E-2,-4.765316E-3,4.484705E-3,1.5765758E-2,1.0137984E3,1.0100713E3,1.7268062E-3,6.6140154E-3,-7.273406E-4,-4.7506536E-3,5.236179E-4,-5.7396496E-4,2.4445802E-3,5.0106645E-4,1.0967255E-4,-1.8697203E-3],"split_indices":[18,15,9,9,3,3,17,20,0,0,0,6,8,18,0,2,0,13,0,0,0,6,0,0,7,0,0,0,0,3,2,0,0,0,0,4,4,0,0,0,0,0,0,0,0,0,0],"split_type":[0,0,0,0,0,0,0,0,0,0,0,0,0,0,0,0,0,0,0,0,0,0,0,0,0,0,0,0,0,0,0,0,0,0,0,0,0,0,0,0,0,0,0,0,0,0,0],"sum_hessian":[6.9E1,2.9E1,4E1,2E1,9E0,2.2E1,1.8E1,1.2E1,8E0,8E0,1E0,7E0,1.5E1,1.4E1,4E0,4E0,8E0,5E0,3E0,6E0,1E0,1.3E1,2E0,6E0,8E0,3E0,1E0,3E0,1E0,5E0,3E0,3E0,2E0,2E0,1.1E1,4E0,4E0,1E0,2E0,1E0,4E0,1E0,2E0,3E0,1E0,2E0,2E0],"tree_param":{"num_deleted":"0","num_feature":"24","num_nodes":"47","size_leaf_vector":"1"}},{"base_weights":[1.9220106E-3,-1.0957592E-1,1.7102501E-1,2.9140877E-2,-1.9799542E-1,2.539995E-1,4.9364116E-2,-6.407134E-2,1.5366507E-1,-2.225444E-1,-4.5470975E-2,1.4823067E-1,3.1321463E-1,-5.9359685E-2,1.8610184E-1,-1.4590085E-1,3.5313538E-3,1.8240686E-1,2.2479892E-3,-6.678468E-2,-2.4256913E-1,-6.0223043E-4,-2.540821E-3,9.1152E-3,1.5336912E-3,1.7116958E-2,6.5572183E-3,-2.510349E-3,-3.8945538E-3,3.8694441E-3,1.3450925E-2,-8.013293E-3,-2.2110194E-3,-3.09197E-2,3.709957E-2,1.0618559E-2,4.0826085E-3,-4.512183E-3,8.980632E-5,-2.5417176E-1,-5.529821E-4,4.8853754E-4,-6.768137E-4,-1.8751363E-3,-2.7926566E-4,8.152287E-4,2.4871142E-3,-1.5943827E-2,-8.906248E-3],"categories":[],"categories_nodes":[],"categories_segments":[],"categories_sizes":[],"default_left":[0,0,0,0,0,0,0,0,0,0,0,0,0,0,0,0,0,0,0,0,0,0,0,0,0,0,0,0,0,0,0,0,0,0,0,0,0,0,0,0,0,0,0,0,0,0,0,0,0],"id":23,"left_children":[1,3,5,7,9,11,13,15,17,19,21,23,25,27,29,31,33,35,-1,37,39,-1,-1,-1,-1,-1,-1,41,-1,-1,-1,-1,-1,43,45,-1,-1,-1,-1,47,-1,-1,-1,-1,-1,-1,-1,-1,-1],"loss_changes":[1.376274E0,5.454417E-1,2.8020924E-1,2.1877469E-1,9.097731E-2,6.0045004E-2,2.0431331E-1,6.136607E-2,1.6794115E-2,5.5538177E-2,2.8132927E-4,2.6452452E-2,8.131206E-3,8.232443E-3,3.3265635E-2,2.1618605E-4,9.242332E-3,7.736981E-4,0E0,6.5974295E-3,5.0911307E-2,0E0,0E0,0E0,0E0,0E0,0E0,5.3849106E-4,0E0,0E0,0E0,0E0,0E0,4.5764353E-4,2.4059368E-4,0E0,0E0,0E0,0E0,3.6691308E-2,0E0,0E0,0E0,0E0,0E0,0E0,0E0,0E0,0E0],"parents":[2147483647,0,0,1,1,2,2,3,3,4,4,5,5,6,6,7,7,8,8,9,9,10,10,11,11,12,12,13,13,14,14,15,15,16,16,17,17,19,19,20,20,27,27,33,33,34,34,39,39],"right_children":[2,4,6,8,10,12,14,16,18,20,22,24,26,28,30,32,34,36,-1,38,40,-1,-1,-1,-1,-1,-1,42,-1,-1,-1,-1,-1,44,46,-1,-1,-1,-1,48,-1,-1,-1,-1,-1,-1,-1,-1,-1],"split_conditions":[1.4444E0,2.4419E0,3.0776E0,1.1935E0,1.2106E0,2.9798E0,3.208E0,1.0332E0,1.6607E0,1.0116568E3,9.578E-1,9.133E-1,1.3124E0,1.0207E0,1.0126547E3,1.0138726E3,1.0150991E3,1.0129489E3,2.2479892E-3,1.4839E0,2.5655E0,-6.0223043E-4,-2.540821E-3,9.1152E-3,1.5336912E-3,1.7116958E-2,6.5572183E-3,1.0259E0,-3.8945538E-3,3.8694441E-3,1.3450925E-2,-8.013293E-3,-2.2110194E-3,6.23E-1,7.161E-1,1.0618559E-2,4.0826085E-3,-4.512183E-3,8.980632E-5,2.3859E0,-5.529821E-4,4.8853754E-4,-6.768137E-4,-1.8751363E-3,-2.7926566E-4,8.152287E-4,2.4871142E-3,-1.5943827E-2,-8.906248E-3],"split_indices":[16,11,11,16,1,19,18,16,6,5,0,0,0,1,4,4,5,5,0,2,7,0,0,0,0,0,0,0,0,0,0,0,0,0,0,0,0,0,0,18,0,0,0,0,0,0,0,0,0],"split_type":[0,0,0,0,0,0,0,0,0,0,0,0,0,0,0,0,0,0,0,0,0,0,0,0,0,0,0,0,0,0,0,0,0,0,0,0,0,0,0,0,0,0,0,0,0,0,0,0,0],"sum_hessian":[7.1E1,4.3E1,2.8E1,1.7E1,2.6E1,1.6E1,1.2E1,1E1,7E0,2.2E1,4E0,7E0,9E0,7E0,5E0,4E0,6E0,5E0,2E0,3E0,1.9E1,1E0,3E0,5E0,2E0,7E0,2E0,2E0,5E0,3E0,2E0,3E0,1E0,3E0,3E0,3E0,2E0,2E0,1E0,1.8E1,1E0,1E0,1E0,2E0,1E0,2E0,1E0,8E0,1E1],"tree_param":{"num_deleted":"0","num_feature":"24","num_nodes":"49","size_leaf_vector":"1"}},{"base_weights":[1.0168953E-2,-7.014725E-2,1.6337523E-1,-2.126069E-1,-2.1994216E-2,2.6183787E-1,6.749335E-2,-4.455204E-3,-1.352254E-2,8.591565E-2,-1.018269E-1,9.027463E-2,3.1488976E-1,8.841797E-3,1.3002562E-2,3.5187858E-3,1.404559E-1,1.4366885E-2,-1.4151596E-1,1.1387706E-3,5.2591283E-3,3.3198893E-3,1.704516E-2,-3.984757E-2,5.605753E-2,-2.9912293E-2,3.6070168E-2,1.6195999E-1,2.1730543E-3,4.3520737E-2,-3.2850595E-3,-1.7860748E-1,-5.611076E-2,-8.309524E-3,-2.6769608E-3,6.9181123E-3,3.944886E-3,-1.8126309E-3,-2.7228295E-4,7.8805286E-4,2.4249374E-3,1.02203665E-2,3.9511323E-3,8.7562206E-5,2.676265E-3,-4.080658E-3,-1.0425872E-2,-5.391568E-4,-3.1509828E-3,3.667772E-5,-6.59892E-4,4.7632455E-4,4.2533877E-5],"categories":[],"categories_nodes":[],"categories_segments":[],"categories_sizes":[],"default_left":[0,0,0,0,0,0,0,0,0,0,0,0,0,0,0,0,0,0,0,0,0,0,0,0,0,0,0,0,0,0,0,0,0,0,0,0,0,0,0,0,0,0,0,0,0,0,0,0,0,0,0,0,0],"id":24,"left_children":[1,3,5,7,9,11,13,-1,-1,15,17,19,21,23,-1,25,27,29,31,-1,-1,-1,-1,33,35,37,39,41,-1,43,-1,45,47,49,-1,51,-1,-1,-1,-1,-1,-1,-1,-1,-1,-1,-1,-1,-1,-1,-1,-1,-1],"loss_changes":[8.2358676E-1,2.9715794E-1,1.9946575E-1,5.4484457E-2,3.0164948E-1,7.1692705E-2,1.4452034E-1,0E0,0E0,6.691496E-2,9.426555E-2,1.6295202E-3,2.9077888E-2,2.7521705E-2,0E0,8.6965365E-3,1.1733115E-2,1.6865121E-2,3.7495315E-2,0E0,0E0,0E0,0E0,2.145961E-3,6.188296E-3,4.230861E-4,2.4526194E-4,8.490473E-3,0E0,1.995691E-3,0E0,1.19932E-2,1.1994336E-3,1.4229759E-4,0E0,3.937453E-5,0E0,0E0,0E0,0E0,0E0,0E0,0E0,0E0,0E0,0E0,0E0,0E0,0E0,0E0,0E0,0E0,0E0],"parents":[2147483647,0,0,1,1,2,2,3,3,4,4,5,5,6,6,9,9,10,10,11,11,12,12,13,13,15,15,16,16,17,17,18,18,23,23,24,24,25,25,26,26,27,27,29,29,31,31,32,32,33,33,35,35],"right_children":[2,4,6,8,10,12,14,-1,-1,16,18,20,22,24,-1,26,28,30,32,-1,-1,-1,-1,34,36,38,40,42,-1,44,-1,46,48,50,-1,52,-1,-1,-1,-1,-1,-1,-1,-1,-1,-1,-1,-1,-1,-1,-1,-1,-1],"split_conditions":[2.9694E0,1.0475E0,3.0776E0,8.978E-1,2.4419E0,1.0117489E3,1.705E0,-4.455204E-3,-1.352254E-2,1.1935E0,1.0107771E3,1.0120322E3,8.444E-1,3.1793E0,1.3002562E-2,1.0150991E3,1.6607E0,3.0259E0,2.356E0,1.1387706E-3,5.2591283E-3,3.3198893E-3,1.704516E-2,2.2089E0,1.0118526E3,6.23E-1,7.161E-1,1.0129573E3,2.1730543E-3,7.579E-1,-3.2850595E-3,2.1174E0,1.0337E0,1.1137E0,-2.6769608E-3,1.0259E0,3.944886E-3,-1.8126309E-3,-2.7228295E-4,7.8805286E-4,2.4249374E-3,1.02203665E-2,3.9511323E-3,8.7562206E-5,2.676265E-3,-4.080658E-3,-1.0425872E-2,-5.391568E-4,-3.1509828E-3,3.667772E-5,-6.59892E-4,4.7632455E-4,4.2533877E-5],"split_indices":[18,16,11,6,11,5,16,0,0,16,20,4,0,18,0,5,6,11,3,0,0,0,0,2,5,0,0,12,0,0,0,3,0,0,0,0,0,0,0,0,0,0,0,0,0,0,0,0,0,0,0,0,0],"split_type":[0,0,0,0,0,0,0,0,0,0,0,0,0,0,0,0,0,0,0,0,0,0,0,0,0,0,0,0,0,0,0,0,0,0,0,0,0,0,0,0,0,0,0,0,0,0,0,0,0,0,0,0,0],"sum_hessian":[6.5E1,4.3E1,2.2E1,1E1,3.3E1,1E1,1.2E1,4E0,6E0,1.4E1,1.9E1,3E0,7E0,1E1,2E0,6E0,8E0,5E0,1.4E1,1E0,2E0,1E0,6E0,5E0,5E0,3E0,3E0,6E0,2E0,4E0,1E0,9E0,5E0,2E0,3E0,2E0,3E0,2E0,1E0,2E0,1E0,3E0,3E0,1E0,3E0,3E0,6E0,1E0,4E0,1E0,1E0,1E0,1E0],"tree_param":{"num_deleted":"0","num_feature":"24","num_nodes":"53","size_leaf_vector":"1"}},{"base_weights":[2.9203452E-2,-8.20803E-2,1.22147575E-1,-7.3554576E-3,-1.776297E-1,2.1462588E-1,2.8185809E-2,-1.2526387E-1,4.3702107E-2,-2.113635E-1,-2.0227178E-3,1.17004566E-1,2.5068152E-1,-2.9559985E-2,2.0733519E-1,-1.7522117E-3,-8.0806315E-3,-2.1686533E-2,8.2438745E-2,-2.2284478E-1,-2.4137646E-3,6.9689727E-3,2.0355782E-3,2.8700472E-3,2.6200482E-1,-7.109778E-2,3.4002576E-2,1.1531296E-2,2.8543056E-3,-3.0176432E-3,-1.8826962E-3,1.0357486E-1,5.6415796E-3,-6.3916105E-3,-1.3244057E-2,5.0838273E-3,1.4195141E-2,-5.3763576E-3,1.0428071E-2,5.148649E-5,4.6985768E-2,-5.2743556E-4,3.705442E-4,5.8675124E-3,2.304546E-3,6.7223015E-4,-2.4911165E-4,-1.0434658E-3,1.3908487E-3,2.704403E-3,4.6441556E-4],"categories":[],"categories_nodes":[],"categories_segments":[],"categories_sizes":[],"default_left":[0,0,0,0,0,0,0,0,0,0,0,0,0,0,0,0,0,0,0,0,0,0,0,0,0,0,0,0,0,0,0,0,0,0,0,0,0,0,0,0,0,0,0,0,0,0,0,0,0,0,0],"id":25,"left_children":[1,3,5,7,9,11,13,15,17,19,-1,21,23,25,27,-1,-1,29,31,33,-1,-1,-1,-1,35,37,39,-1,-1,-1,41,43,45,-1,-1,-1,-1,-1,47,-1,49,-1,-1,-1,-1,-1,-1,-1,-1,-1,-1],"loss_changes":[7.2370464E-1,2.2717068E-1,3.2414877E-1,1.19856514E-1,5.6233644E-2,3.7545264E-2,2.1303129E-1,1.4012642E-2,3.7248917E-2,9.839207E-3,0E0,6.274976E-3,1.3412178E-2,4.4661485E-2,4.331529E-3,0E0,0E0,4.480824E-3,1.4024414E-2,6.079495E-3,0E0,0E0,0E0,0E0,1.326412E-2,3.082066E-2,2.9482674E-3,0E0,0E0,0E0,4.8086676E-4,1.3425946E-4,3.156777E-4,0E0,0E0,0E0,0E0,0E0,2.7574294E-3,0E0,8.3630346E-4,0E0,0E0,0E0,0E0,0E0,0E0,0E0,0E0,0E0,0E0],"parents":[2147483647,0,0,1,1,2,2,3,3,4,4,5,5,6,6,7,7,8,8,9,9,11,11,12,12,13,13,14,14,17,17,18,18,19,19,24,24,25,25,26,26,30,30,31,31,32,32,38,38,40,40],"right_children":[2,4,6,8,10,12,14,16,18,20,-1,22,24,26,28,-1,-1,30,32,34,-1,-1,-1,-1,36,38,40,-1,-1,-1,42,44,46,-1,-1,-1,-1,-1,48,-1,50,-1,-1,-1,-1,-1,-1,-1,-1,-1,-1],"split_conditions":[2.6792E0,1.341E0,1.521E0,1.0109544E3,1.1519E0,7.161E-1,1.705E0,5.451E-1,1.0561E0,1.016148E3,-2.0227178E-3,1.0121054E3,1.0105485E3,3.1358E0,1.1925E0,-1.7522117E-3,-8.0806315E-3,5.451E-1,1.0129489E3,6.908E-1,-2.4137646E-3,6.9689727E-3,2.0355782E-3,2.8700472E-3,1.0117489E3,1.0132265E3,1.0100713E3,1.1531296E-2,2.8543056E-3,-3.0176432E-3,1.0121438E3,1.0129062E3,5.577E-1,-6.3916105E-3,-1.3244057E-2,5.0838273E-3,1.4195141E-2,-5.3763576E-3,1.0122588E3,5.148649E-5,1.0126547E3,-5.2743556E-4,3.705442E-4,5.8675124E-3,2.304546E-3,6.7223015E-4,-2.4911165E-4,-1.0434658E-3,1.3908487E-3,2.704403E-3,4.6441556E-4],"split_indices":[18,9,8,5,0,1,17,1,17,5,0,12,4,18,0,0,0,0,4,14,0,0,0,0,5,13,4,0,0,0,4,4,0,0,0,0,0,0,4,0,4,0,0,0,0,0,0,0,0,0,0],"split_type":[0,0,0,0,0,0,0,0,0,0,0,0,0,0,0,0,0,0,0,0,0,0,0,0,0,0,0,0,0,0,0,0,0,0,0,0,0,0,0,0,0,0,0,0,0,0,0,0,0,0,0],"sum_hessian":[6.8E1,3.1E1,3.7E1,1.8E1,1.3E1,1.8E1,1.9E1,5E0,1.3E1,1E1,3E0,6E0,1.2E1,1.5E1,4E0,2E0,3E0,5E0,8E0,9E0,1E0,4E0,2E0,1E0,1.1E1,9E0,6E0,3E0,1E0,1E0,4E0,6E0,2E0,4E0,5E0,2E0,9E0,6E0,3E0,2E0,4E0,2E0,2E0,4E0,2E0,1E0,1E0,1E0,2E0,3E0,1E0],"tree_param":{"num_deleted":"0","num_feature":"24","num_nodes":"51","size_leaf_vector":"1"}},{"base_weights":[1.3805432E-2,-1.348669E-1,1.1137488E-1,-2.2898485E-1,-6.603368E-2,1.7497507E-1,-2.378084E-2,-2.509118E-1,-2.4288298E-4,-3.4520891E-3,-1.21278204E-1,1.22119516E-1,1.5804803E-2,-1.407692E-1,8.155657E-2,-3.2439262E-3,-1.3218673E-2,-3.1295717E-2,3.9176375E-2,-3.777494E-3,-9.377579E-3,2.0183863E-1,3.8867038E-2,-7.5097764E-3,-2.1052808E-3,-2.260538E-2,1.2004479E-1,-6.8867505E-3,-2.670455E-3,7.4440445E-4,2.8010309E-3,4.135258E-3,1.2904993E-2,7.6128274E-2,-2.852435E-2,-1.735586E-3,4.0182473E-5,1.1610687E-3,6.73826E-3,-5.0985615E-4,7.610917E-5,4.853654E-3,1.5457601E-3,-3.1634173E-4,-2.0606876E-3],"categories":[],"categories_nodes":[],"categories_segments":[],"categories_sizes":[],"default_left":[0,0,0,0,0,0,0,0,0,0,0,0,0,0,0,0,0,0,0,0,0,0,0,0,0,0,0,0,0,0,0,0,0,0,0,0,0,0,0,0,0,0,0,0,0],"id":26,"left_children":[1,3,5,7,9,11,13,15,-1,17,19,21,-1,23,25,-1,-1,27,29,-1,-1,31,33,-1,-1,35,37,39,-1,-1,-1,-1,-1,41,43,-1,-1,-1,-1,-1,-1,-1,-1,-1,-1],"loss_changes":[9.8691446E-1,1.5979716E-1,3.5659415E-1,5.2839875E-2,5.835527E-2,1.7025131E-1,1.8400615E-1,7.890999E-3,0E0,1.19084325E-2,1.3105631E-2,1.3816506E-1,0E0,1.861602E-4,3.4785714E-2,0E0,0E0,2.8707744E-3,8.024317E-4,0E0,0E0,5.238235E-2,3.2304548E-2,0E0,0E0,8.780889E-4,5.4222494E-3,1.2686872E-4,0E0,0E0,0E0,0E0,0E0,4.574798E-3,1.1476134E-3,0E0,0E0,0E0,0E0,0E0,0E0,0E0,0E0,0E0,0E0],"parents":[2147483647,0,0,1,1,2,2,3,3,4,4,5,5,6,6,7,7,9,9,10,10,11,11,13,13,14,14,17,17,18,18,21,21,22,22,25,25,26,26,27,27,33,33,34,34],"right_children":[2,4,6,8,10,12,14,16,-1,18,20,22,-1,24,26,-1,-1,28,30,-1,-1,32,34,-1,-1,36,38,40,-1,-1,-1,-1,-1,42,44,-1,-1,-1,-1,-1,-1,-1,-1,-1,-1],"split_conditions":[2.4592E0,2.0855E0,2.1929E0,9.693E-1,2.2423E0,1.6246E0,2.356E0,6.48E-1,-2.4288298E-4,2.2423E0,1.4387E0,1.2934E0,1.5804803E-2,1.2106E0,1.0126547E3,-3.2439262E-3,-1.3218673E-2,1.0134489E3,6.422E-1,-3.777494E-3,-9.377579E-3,7.161E-1,9.407E-1,-7.5097764E-3,-2.1052808E-3,1.1834E0,6.66E-2,1.0121438E3,-2.670455E-3,7.4440445E-4,2.8010309E-3,4.135258E-3,1.2904993E-2,4.82E-1,1.0207E0,-1.735586E-3,4.0182473E-5,1.1610687E-3,6.73826E-3,-5.0985615E-4,7.610917E-5,4.853654E-3,1.5457601E-3,-3.1634173E-4,-2.0606876E-3],"split_indices":[18,18,3,1,19,16,2,1,0,18,8,9,0,1,5,0,0,4,1,0,0,1,1,0,0,1,7,4,0,0,0,0,0,6,1,0,0,0,0,0,0,0,0,0,0],"split_type":[0,0,0,0,0,0,0,0,0,0,0,0,0,0,0,0,0,0,0,0,0,0,0,0,0,0,0,0,0,0,0,0,0,0,0,0,0,0,0,0,0,0,0,0,0],"sum_hessian":[6.6E1,2.6E1,4E1,1E1,1.6E1,2.7E1,1.3E1,9E0,1E0,8E0,8E0,2.1E1,6E0,6E0,7E0,1E0,8E0,5E0,3E0,6E0,2E0,1E1,1.1E1,5E0,1E0,2E0,5E0,3E0,2E0,2E0,1E0,4E0,6E0,7E0,4E0,1E0,1E0,1E0,4E0,2E0,1E0,4E0,3E0,2E0,2E0],"tree_param":{"num_deleted":"0","num_feature":"24","num_nodes":"45","size_leaf_vector":"1"}},{"base_weights":[2.535992E-3,-1.2849054E-1,1.0154298E-1,-5.6511994E-2,-2.118565E-1,1.9415742E-1,-5.4100575E-3,-1.5349296E-3,-1.6621031E-1,-2.5603858E-1,-3.7391633E-2,1.4019775E-1,2.8975704E-1,-5.366218E-2,2.0101398E-1,-4.3019615E-2,1.0256052E-1,-9.467437E-3,-1.2629539E-3,-2.8611035E-3,-2.7019802E-1,-2.3681224E-4,-2.334901E-3,1.4955415E-1,4.9801987E-2,2.8808713E-3,1.5942205E-2,-8.886302E-2,2.5683204E-2,1.1657937E-2,2.6144923E-3,-6.155392E-2,1.7032027E-4,1.4121116E-3,5.8959606E-3,-3.6918432E-3,-1.4190592E-2,1.4235497E-3,1.5667817E-1,3.1496168E-3,5.855322E-4,9.640296E-3,-1.0952772E-1,1.8778086E-3,6.457567E-5,-5.333046E-4,-3.9887917E-3,3.4451883E-4,-4.9974624E-4,4.269276E-3,8.943825E-3,-5.010754E-4,1.2240977E-3,-6.8830284E-3,-2.693138E-3],"categories":[],"categories_nodes":[],"categories_segments":[],"categories_sizes":[],"default_left":[0,0,0,0,0,0,0,0,0,0,0,0,0,0,0,0,0,0,0,0,0,0,0,0,0,0,0,0,0,0,0,0,0,0,0,0,0,0,0,0,0,0,0,0,0,0,0,0,0,0,0,0,0,0,0],"id":27,"left_children":[1,3,5,7,9,11,13,15,17,19,21,23,25,27,29,31,33,-1,-1,-1,35,-1,-1,37,39,-1,-1,41,43,-1,-1,45,47,-1,-1,-1,-1,-1,49,-1,-1,51,53,-1,-1,-1,-1,-1,-1,-1,-1,-1,-1,-1,-1],"loss_changes":[9.340978E-1,1.7404497E-1,4.0717167E-1,1.08300924E-1,9.8341346E-2,7.2864294E-2,2.0999482E-1,6.0550883E-2,1.4785558E-2,1.5505195E-2,9.944406E-4,6.0843527E-3,2.8894782E-2,4.97637E-2,6.930977E-3,8.015437E-3,1.2354255E-3,0E0,0E0,0E0,5.776465E-3,0E0,0E0,7.615626E-3,7.6963333E-4,0E0,0E0,2.5482379E-2,1.6891062E-3,0E0,0E0,5.640017E-3,3.4211282E-4,0E0,0E0,0E0,0E0,0E0,5.300015E-3,0E0,0E0,1.1207872E-3,8.245364E-3,0E0,0E0,0E0,0E0,0E0,0E0,0E0,0E0,0E0,0E0,0E0,0E0],"parents":[2147483647,0,0,1,1,2,2,3,3,4,4,5,5,6,6,7,7,8,8,9,9,10,10,11,11,12,12,13,13,14,14,15,15,16,16,20,20,23,23,24,24,27,27,28,28,31,31,32,32,38,38,41,41,42,42],"right_children":[2,4,6,8,10,12,14,16,18,20,22,24,26,28,30,32,34,-1,-1,-1,36,-1,-1,38,40,-1,-1,42,44,-1,-1,46,48,-1,-1,-1,-1,-1,50,-1,-1,52,54,-1,-1,-1,-1,-1,-1,-1,-1,-1,-1,-1,-1],"split_conditions":[2.5892E0,1.3887E0,1.521E0,1.341E0,1.1519E0,1.5415E0,1.6786E0,1.1545E0,1.1519E0,5.041E-1,9.578E-1,1.0149925E3,8.444E-1,3.1358E0,1.1844E0,6.644E-1,6.373E-1,-9.467437E-3,-1.2629539E-3,-2.8611035E-3,9.687E-1,-2.3681224E-4,-2.334901E-3,2.4622E0,8.744E-1,2.8808713E-3,1.5942205E-2,1.0101521E3,1.343E-1,1.1657937E-2,2.6144923E-3,6.382E-1,7.579E-1,1.4121116E-3,5.8959606E-3,-3.6918432E-3,-1.4190592E-2,1.4235497E-3,1.0113297E3,3.1496168E-3,5.855322E-4,1.1667E0,2.9631E0,1.8778086E-3,6.457567E-5,-5.333046E-4,-3.9887917E-3,3.4451883E-4,-4.9974624E-4,4.269276E-3,8.943825E-3,-5.010754E-4,1.2240977E-3,-6.8830284E-3,-2.693138E-3],"split_indices":[18,15,9,9,1,16,16,16,0,1,0,4,1,18,0,0,0,0,0,0,16,0,0,19,0,0,0,20,7,0,0,23,0,0,0,0,0,0,20,0,0,0,18,0,0,0,0,0,0,0,0,0,0,0,0],"split_type":[0,0,0,0,0,0,0,0,0,0,0,0,0,0,0,0,0,0,0,0,0,0,0,0,0,0,0,0,0,0,0,0,0,0,0,0,0,0,0,0,0,0,0,0,0,0,0,0,0,0,0,0,0,0,0],"sum_hessian":[7E1,3E1,4E1,1.7E1,1.3E1,2.1E1,1.9E1,1.2E1,5E0,1E1,3E0,1.5E1,6E0,1.6E1,3E0,9E0,3E0,4E0,1E0,1E0,9E0,1E0,2E0,1.3E1,2E0,1E0,5E0,1.1E1,5E0,2E0,1E0,6E0,3E0,1E0,2E0,1E0,8E0,1E0,1.2E1,1E0,1E0,2E0,9E0,3E0,2E0,2E0,4E0,2E0,1E0,4E0,8E0,1E0,1E0,5E0,4E0],"tree_param":{"num_deleted":"0","num_feature":"24","num_nodes":"55","size_leaf_vector":"1"}},{"base_weights":[1.6376333E-2,-7.2108135E-2,1.468579E-1,-1.5652671E-1,-2.0631712E-2,2.1175739E-1,4.808708E-2,-3.7437975E-2,-2.1232729E-1,7.538406E-2,-9.606888E-2,1.2817556E-1,2.6252377E-1,-2.7398506E-2,1.0295394E-2,-6.560664E-2,2.585134E-3,-1.3256867E-2,-5.324489E-3,2.5777062E-2,1.0713519E-1,-1.2170012E-1,-2.0466376E-2,7.7084126E-3,1.6732494E-3,1.5277951E-2,6.616998E-3,-2.9024684E-3,8.732056E-3,-3.826876E-3,-5.4707826E-4,-2.2621154E-4,3.2742165E-2,1.3768077E-3,5.790617E-3,-2.5959692E-3,-6.571907E-3,-1.8758968E-3,1.1934966E-3,9.571076E-4,6.719977E-5,4.3395758E-4,1.8294066E-3],"categories":[],"categories_nodes":[],"categories_segments":[],"categories_sizes":[],"default_left":[0,0,0,0,0,0,0,0,0,0,0,0,0,0,0,0,0,0,0,0,0,0,0,0,0,0,0,0,0,0,0,0,0,0,0,0,0,0,0,0,0,0,0],"id":28,"left_children":[1,3,5,7,9,11,13,15,17,19,21,23,25,27,-1,29,-1,-1,-1,31,33,35,37,-1,-1,-1,-1,-1,39,-1,-1,-1,41,-1,-1,-1,-1,-1,-1,-1,-1,-1,-1],"loss_changes":[7.7259874E-1,1.7059328E-1,1.6289192E-1,9.1729194E-2,1.9556417E-1,3.42412E-2,1.4859991E-1,1.8457878E-2,2.7658373E-2,1.6139306E-2,2.6576042E-2,1.4535025E-2,9.984791E-3,1.0473787E-2,0E0,2.1502469E-3,0E0,0E0,0E0,1.4144429E-3,1.6458258E-3,6.505847E-4,4.675566E-3,0E0,0E0,0E0,0E0,0E0,3.5882514E-4,0E0,0E0,0E0,1.451741E-4,0E0,0E0,0E0,0E0,0E0,0E0,0E0,0E0,0E0,0E0],"parents":[2147483647,0,0,1,1,2,2,3,3,4,4,5,5,6,6,7,7,8,8,9,9,10,10,11,11,12,12,13,13,15,15,19,19,20,20,21,21,22,22,28,28,32,32],"right_children":[2,4,6,8,10,12,14,16,18,20,22,24,26,28,-1,30,-1,-1,-1,32,34,36,38,-1,-1,-1,-1,-1,40,-1,-1,-1,42,-1,-1,-1,-1,-1,-1,-1,-1,-1,-1],"split_conditions":[1.4444E0,2.2318E0,1.521E0,1.0636E0,7.745E-1,3.0198E0,1.6729E0,6.48E-1,1.0123593E3,1.7568E0,1.2106E0,7.566E-1,1.0706E0,3.1358E0,1.0295394E-2,1.1048E0,2.585134E-3,-1.3256867E-2,-5.324489E-3,1.0121438E3,1.1108E0,1.1981E0,2.7198E0,7.7084126E-3,1.6732494E-3,1.5277951E-2,6.616998E-3,-2.9024684E-3,9.407E-1,-3.826876E-3,-5.4707826E-4,-2.2621154E-4,6.05E-1,1.3768077E-3,5.790617E-3,-2.5959692E-3,-6.571907E-3,-1.8758968E-3,1.1934966E-3,9.571076E-4,6.719977E-5,4.3395758E-4,1.8294066E-3],"split_indices":[16,18,9,8,1,19,16,1,4,7,1,1,1,18,0,2,0,0,0,4,8,16,2,0,0,0,0,0,1,0,0,0,1,0,0,0,0,0,0,0,0,0,0],"split_type":[0,0,0,0,0,0,0,0,0,0,0,0,0,0,0,0,0,0,0,0,0,0,0,0,0,0,0,0,0,0,0,0,0,0,0,0,0,0,0,0,0,0,0],"sum_hessian":[6.5E1,3.9E1,2.6E1,1.4E1,2.5E1,1.5E1,1.1E1,5E0,9E0,1.1E1,1.4E1,7E0,8E0,8E0,3E0,4E0,1E0,5E0,4E0,5E0,6E0,1E1,4E0,5E0,2E0,5E0,3E0,4E0,4E0,3E0,1E0,1E0,4E0,1E0,5E0,2E0,8E0,3E0,1E0,1E0,3E0,1E0,3E0],"tree_param":{"num_deleted":"0","num_feature":"24","num_nodes":"43","size_leaf_vector":"1"}},{"base_weights":[1.4629846E-2,-7.743093E-2,1.2856507E-1,-4.004908E-2,-2.058943E-1,1.9613168E-1,4.451731E-2,2.0829722E-2,-9.193862E-2,-2.3085195E-1,-1.5583039E-4,1.3517508E-1,2.5543055E-1,-1.43448515E-2,1.7688303E-1,-8.576175E-2,9.336078E-2,-1.2368714E-1,-2.4378505E-2,-1.2632283E-2,-1.9573958E-3,7.7215405E-3,1.6174754E-3,4.7746617E-3,1.4641373E-2,2.6911497E-2,-3.8336962E-2,9.909317E-3,2.291745E-3,-5.3340197E-4,-4.824968E-3,4.8226327E-2,9.129954E-3,-6.814722E-3,-2.0216883E-3,3.5863847E-2,-7.852623E-2,1.654774E-3,5.438924E-5,-3.250201E-3,-9.335923E-3,4.2310954E-4,2.6349018E-3,2.4561088E-3,-9.7778444E-5,-4.5223674E-3,-1.0690719E-3,4.9978495E-5,-8.2797214E-4],"categories":[],"categories_nodes":[],"categories_segments":[],"categories_sizes":[],"default_left":[0,0,0,0,0,0,0,0,0,0,0,0,0,0,0,0,0,0,0,0,0,0,0,0,0,0,0,0,0,0,0,0,0,0,0,0,0,0,0,0,0,0,0,0,0,0,0,0,0],"id":29,"left_children":[1,3,5,7,9,11,13,15,17,19,-1,21,23,25,27,29,31,33,35,-1,-1,-1,-1,-1,-1,37,39,-1,-1,-1,-1,41,-1,-1,-1,43,45,-1,-1,-1,47,-1,-1,-1,-1,-1,-1,-1,-1],"loss_changes":[7.756494E-1,1.886443E-1,1.7866987E-1,1.0616116E-1,4.4828176E-2,3.0535996E-2,1.2719867E-1,1.3170588E-1,3.559351E-2,2.3533016E-2,0E0,1.6784042E-2,1.9886196E-2,1.2909628E-2,4.8749596E-3,4.6148337E-3,3.1471133E-2,7.084295E-3,2.5650157E-2,0E0,0E0,0E0,0E0,0E0,0E0,7.624661E-4,5.5801068E-3,0E0,0E0,0E0,0E0,9.765662E-4,0E0,0E0,0E0,2.1017506E-3,7.910244E-4,0E0,0E0,0E0,3.8984546E-4,0E0,0E0,0E0,0E0,0E0,0E0,0E0,0E0],"parents":[2147483647,0,0,1,1,2,2,3,3,4,4,5,5,6,6,7,7,8,8,9,9,11,11,12,12,13,13,14,14,15,15,16,16,17,17,18,18,25,25,26,26,31,31,35,35,36,36,40,40],"right_children":[2,4,6,8,10,12,14,16,18,20,-1,22,24,26,28,30,32,34,36,-1,-1,-1,-1,-1,-1,38,40,-1,-1,-1,-1,42,-1,-1,-1,44,46,-1,-1,-1,48,-1,-1,-1,-1,-1,-1,-1,-1],"split_conditions":[1.4444E0,1.8173E0,1.521E0,1.6079E0,1.1234E0,1.5415E0,1.6786E0,1.0922E0,1.6697E0,1.0147673E3,-1.5583039E-4,1.521E0,7.409E-1,1.506E-1,2.4679E0,1.0447E0,7.431E-1,1.2106E0,3.007E0,-1.2632283E-2,-1.9573958E-3,7.7215405E-3,1.6174754E-3,4.7746617E-3,1.4641373E-2,1.0137984E3,1.2239E0,9.909317E-3,2.291745E-3,-5.3340197E-4,-4.824968E-3,6.05E-1,9.129954E-3,-6.814722E-3,-2.0216883E-3,1.0151574E3,1.1266E0,1.654774E-3,5.438924E-5,-3.250201E-3,1.0100713E3,4.2310954E-4,2.6349018E-3,2.4561088E-3,-9.7778444E-5,-4.5223674E-3,-1.0690719E-3,4.9978495E-5,-8.2797214E-4],"split_indices":[16,14,9,3,1,16,16,8,22,5,0,8,1,7,2,3,1,1,22,0,0,0,0,0,0,4,7,0,0,0,0,1,0,0,0,4,1,0,0,0,4,0,0,0,0,0,0,0,0],"split_type":[0,0,0,0,0,0,0,0,0,0,0,0,0,0,0,0,0,0,0,0,0,0,0,0,0,0,0,0,0,0,0,0,0,0,0,0,0,0,0,0,0,0,0,0,0,0,0,0,0],"sum_hessian":[7.2E1,4E1,3.2E1,3.2E1,8E0,1.7E1,1.5E1,1.5E1,1.7E1,7E0,1E0,1E1,7E0,1.1E1,4E0,6E0,9E0,1.1E1,6E0,6E0,1E0,8E0,2E0,2E0,5E0,4E0,7E0,3E0,1E0,1E0,5E0,7E0,2E0,9E0,2E0,3E0,3E0,3E0,1E0,3E0,4E0,1E0,6E0,2E0,1E0,2E0,1E0,2E0,2E0],"tree_param":{"num_deleted":"0","num_feature":"24","num_nodes":"49","size_leaf_vector":"1"}},{"base_weights":[-3.4746635E-3,-1.1017478E-1,6.687602E-2,-4.2494386E-2,-1.9123408E-1,1.6395368E-1,-1.622623E-2,-7.555224E-3,-5.807097E-3,-2.3634098E-1,-2.0967515E-3,7.660552E-2,1.9837548E-1,-7.901596E-2,9.022624E-2,3.479159E-3,-2.5840163E-2,-3.3533783E-3,-1.2455836E-2,5.2124024E-3,2.2349453E-3,8.918107E-4,2.1193407E-1,-9.5668964E-2,1.9485712E-2,8.740038E-3,1.2951267E-1,-5.4063488E-2,-1.9891944E-3,2.3595751E-3,1.1131027E-2,3.7837028E-5,-1.0376751E-1,-3.952861E-4,1.8567145E-3,5.8442354E-5,7.863403E-4,3.3956112E-3,8.423786E-3,-5.200654E-4,-3.1189353E-3,4.4600765E-4,-1.6861319E-3,-5.9252707E-3,-2.2332668E-3],"categories":[],"categories_nodes":[],"categories_segments":[],"categories_sizes":[],"default_left":[0,0,0,0,0,0,0,0,0,0,0,0,0,0,0,0,0,0,0,0,0,0,0,0,0,0,0,0,0,0,0,0,0,0,0,0,0,0,0,0,0,0,0,0,0],"id":30,"left_children":[1,3,5,7,9,11,13,-1,15,17,-1,19,21,23,25,-1,27,-1,-1,-1,-1,-1,29,31,33,35,37,39,41,-1,-1,-1,43,-1,-1,-1,-1,-1,-1,-1,-1,-1,-1,-1,-1],"loss_changes":[5.102986E-1,1.39999E-1,3.3342254E-1,6.287628E-2,7.090202E-2,4.1930318E-2,1.6086411E-1,0E0,2.143192E-2,2.7557015E-3,0E0,1.5140846E-3,2.8042078E-2,2.646941E-2,2.7679779E-2,0E0,7.297148E-3,0E0,0E0,0E0,0E0,0E0,1.0620415E-2,1.0230318E-2,1.743833E-3,1.9321038E-4,2.9592738E-3,1.1664825E-3,2.7241493E-3,0E0,0E0,0E0,5.1594377E-3,0E0,0E0,0E0,0E0,0E0,0E0,0E0,0E0,0E0,0E0,0E0,0E0],"parents":[2147483647,0,0,1,1,2,2,3,3,4,4,5,5,6,6,8,8,9,9,11,11,12,12,13,13,14,14,16,16,22,22,23,23,24,24,25,25,26,26,27,27,28,28,32,32],"right_children":[2,4,6,8,10,12,14,-1,16,18,-1,20,22,24,26,-1,28,-1,-1,-1,-1,-1,30,32,34,36,38,40,42,-1,-1,-1,44,-1,-1,-1,-1,-1,-1,-1,-1,-1,-1,-1,-1],"split_conditions":[2.4065E0,1.341E0,3.0084E0,2.0807E0,9.693E-1,7.161E-1,3.1793E0,-7.555224E-3,1.0113783E3,9.31E-1,-2.0967515E-3,1.0121054E3,1.0105485E3,1.7686E0,1.0126342E3,3.479159E-3,1.0109544E3,-3.3533783E-3,-1.2455836E-2,5.2124024E-3,2.2349453E-3,8.918107E-4,1.0105485E3,9.853E-1,1.1667E0,1.0118526E3,1.705E0,1.0120822E3,1.0152975E3,2.3595751E-3,1.1131027E-2,3.7837028E-5,1.1519E0,-3.952861E-4,1.8567145E-3,5.8442354E-5,7.863403E-4,3.3956112E-3,8.423786E-3,-5.200654E-4,-3.1189353E-3,4.4600765E-4,-1.6861319E-3,-5.9252707E-3,-2.2332668E-3],"split_indices":[18,9,11,18,0,1,18,0,21,1,0,12,5,7,12,0,5,0,0,0,0,0,4,1,0,5,16,4,4,0,0,0,0,0,0,0,0,0,0,0,0,0,0,0,0],"split_type":[0,0,0,0,0,0,0,0,0,0,0,0,0,0,0,0,0,0,0,0,0,0,0,0,0,0,0,0,0,0,0,0,0,0,0,0,0,0,0,0,0,0,0,0,0],"sum_hessian":[6.6E1,2.6E1,4E1,1.5E1,1.1E1,1.8E1,2.2E1,3E0,1.2E1,8E0,3E0,6E0,1.2E1,1.4E1,8E0,2E0,1E1,1E0,7E0,2E0,4E0,1E0,1.1E1,1.2E1,2E0,3E0,5E0,4E0,6E0,1E0,1E1,1E0,1.1E1,1E0,1E0,2E0,1E0,3E0,2E0,1E0,3E0,5E0,1E0,8E0,3E0],"tree_param":{"num_deleted":"0","num_feature":"24","num_nodes":"45","size_leaf_vector":"1"}},{"base_weights":[1.2339687E-2,-7.625226E-2,1.1070386E-1,-8.551311E-3,-1.5476163E-1,1.789593E-1,2.790639E-2,-1.4302148E-1,3.941177E-2,-1.816003E-1,-2.4330497E-3,2.2749186E-3,1.919842E-1,-2.6870746E-2,1.6474566E-1,-7.923697E-3,-1.6439796E-3,-5.208807E-2,7.157234E-2,-1.9512244E-1,-3.3489168E-3,1.9904326E-1,1.9759834E-3,-4.4065036E-2,2.2832662E-2,1.0315052E-2,3.413753E-3,-5.070627E-4,-3.001973E-3,3.3076524E-3,1.01544686E-1,-4.679823E-3,-1.0928242E-2,3.766839E-3,2.1133442E-1,-6.123199E-2,-3.0066073E-3,3.6892296E-5,1.4975826E-3,-2.3056865E-4,5.0620636E-4,8.454585E-3,2.9044792E-3,1.1867753E-2,5.8513116E-3,-7.9538825E-4,-3.3067365E-3,5.6495268E-5,-3.8540363E-4],"categories":[],"categories_nodes":[],"categories_segments":[],"categories_sizes":[],"default_left":[0,0,0,0,0,0,0,0,0,0,0,0,0,0,0,0,0,0,0,0,0,0,0,0,0,0,0,0,0,0,0,0,0,0,0,0,0,0,0,0,0,0,0,0,0,0,0,0,0],"id":31,"left_children":[1,3,5,7,9,11,13,15,17,19,-1,-1,21,23,25,-1,-1,27,29,31,-1,33,-1,35,37,-1,-1,-1,-1,39,41,-1,-1,-1,43,45,47,-1,-1,-1,-1,-1,-1,-1,-1,-1,-1,-1,-1],"loss_changes":[6.445834E-1,2.059678E-1,1.9280407E-1,1.4752802E-1,4.241994E-2,2.4293065E-2,1.3185313E-1,5.0012097E-3,5.375375E-2,8.630097E-3,0E0,0E0,1.0430217E-2,1.2116115E-2,5.959153E-3,0E0,0E0,1.058802E-3,2.6262812E-2,8.103251E-3,0E0,8.406699E-3,0E0,6.86438E-3,6.0707144E-4,0E0,0E0,0E0,0E0,3.165853E-4,1.6594894E-2,0E0,0E0,0E0,6.578684E-3,5.0343573E-4,8.650009E-5,0E0,0E0,0E0,0E0,0E0,0E0,0E0,0E0,0E0,0E0,0E0,0E0],"parents":[2147483647,0,0,1,1,2,2,3,3,4,4,5,5,6,6,7,7,8,8,9,9,12,12,13,13,14,14,17,17,18,18,19,19,21,21,23,23,24,24,29,29,30,30,34,34,35,35,36,36],"right_children":[2,4,6,8,10,12,14,16,18,20,-1,-1,22,24,26,-1,-1,28,30,32,-1,34,-1,36,38,-1,-1,-1,-1,40,42,-1,-1,-1,44,46,48,-1,-1,-1,-1,-1,-1,-1,-1,-1,-1,-1,-1],"split_conditions":[1.3486E0,1.341E0,1.521E0,1.0332E0,2.3398E0,1.4192E0,1.6729E0,1.0138726E3,1.0109544E3,1.0156348E3,-2.4330497E-3,2.2749186E-3,1.7117E0,1.0140457E3,1.1844E0,-7.923697E-3,-1.6439796E-3,1.0447E0,1.0561E0,6.908E-1,-3.3489168E-3,1.0117489E3,1.9759834E-3,1.6077E0,1.0100713E3,1.0315052E-2,3.413753E-3,-5.070627E-4,-3.001973E-3,1.0121438E3,1.0120336E3,-4.679823E-3,-1.0928242E-2,3.766839E-3,1.6607E0,2.1052E0,1.0118526E3,3.6892296E-5,1.4975826E-3,-2.3056865E-4,5.0620636E-4,8.454585E-3,2.9044792E-3,1.1867753E-2,5.8513116E-3,-7.9538825E-4,-3.3067365E-3,5.6495268E-5,-3.8540363E-4],"split_indices":[16,9,9,16,3,16,16,4,5,5,0,0,8,5,0,0,0,3,17,14,0,5,0,16,4,0,0,0,0,4,5,0,0,0,7,3,5,0,0,0,0,0,0,0,0,0,0,0,0],"split_type":[0,0,0,0,0,0,0,0,0,0,0,0,0,0,0,0,0,0,0,0,0,0,0,0,0,0,0,0,0,0,0,0,0,0,0,0,0,0,0,0,0,0,0,0,0,0,0,0,0],"sum_hessian":[7.2E1,3.8E1,3.4E1,2.1E1,1.7E1,1.8E1,1.6E1,5E0,1.6E1,1.3E1,4E0,2E0,1.6E1,1.2E1,4E0,4E0,1E0,4E0,1.2E1,1.1E1,2E0,1.5E1,1E0,9E0,3E0,2E0,2E0,1E0,3E0,4E0,8E0,3E0,8E0,2E0,1.3E1,6E0,3E0,1E0,2E0,2E0,2E0,2E0,6E0,9E0,4E0,1E0,5E0,2E0,1E0],"tree_param":{"num_deleted":"0","num_feature":"24","num_nodes":"49","size_leaf_vector":"1"}},{"base_weights":[5.57756E-3,-9.363924E-2,8.68432E-2,-2.9450364E-2,-1.6442327E-1,1.6461708E-1,-3.6880844E-3,-1.413545E-1,2.4463113E-2,-2.1526192E-1,-2.6144169E-3,1.16680965E-1,2.2792813E-1,-6.2296472E-2,5.5289112E-2,-3.097429E-3,-8.278516E-3,5.58342E-2,-3.689747E-2,-3.1525493E-3,-2.2516859E-1,7.253298E-3,6.757225E-2,4.071935E-3,1.3159241E-2,-4.345539E-3,-3.6473274E-3,1.6577432E-2,5.460614E-3,7.562334E-2,-4.4759313E-4,-2.5004565E-3,3.887296E-4,-2.3702508E-1,-3.2579154E-3,1.4685233E-3,3.8489439E-3,-7.675151E-4,7.865399E-4,5.8944523E-5,1.3915807E-3,4.6963147E-3,9.955327E-4,-1.252777E-2,-3.5578192E-3],"categories":[],"categories_nodes":[],"categories_segments":[],"categories_sizes":[],"default_left":[0,0,0,0,0,0,0,0,0,0,0,0,0,0,0,0,0,0,0,0,0,0,0,0,0,0,0,0,0,0,0,0,0,0,0,0,0,0,0,0,0,0,0,0,0],"id":32,"left_children":[1,3,5,7,9,11,13,15,17,19,-1,21,23,25,27,-1,-1,29,31,-1,33,-1,35,-1,-1,-1,37,39,-1,41,-1,-1,-1,43,-1,-1,-1,-1,-1,-1,-1,-1,-1,-1,-1],"loss_changes":[5.725362E-1,1.4055118E-1,2.752049E-1,1.1205451E-1,7.425615E-2,3.7137747E-2,6.911893E-2,1.2804344E-3,2.7084466E-2,8.819103E-4,0E0,9.712875E-3,1.9884437E-2,1.4119089E-2,1.9064104E-2,0E0,0E0,1.2215517E-2,3.317426E-3,0E0,1.6303062E-3,0E0,2.5454536E-4,0E0,0E0,0E0,1.1485994E-3,1.1802755E-3,0E0,5.26781E-3,0E0,0E0,0E0,1.2543797E-4,0E0,0E0,0E0,0E0,0E0,0E0,0E0,0E0,0E0,0E0,0E0],"parents":[2147483647,0,0,1,1,2,2,3,3,4,4,5,5,6,6,7,7,8,8,9,9,11,11,12,12,13,13,14,14,17,17,18,18,20,20,22,22,26,26,27,27,29,29,33,33],"right_children":[2,4,6,8,10,12,14,16,18,20,-1,22,24,26,28,-1,-1,30,32,-1,34,-1,36,-1,-1,-1,38,40,-1,42,-1,-1,-1,44,-1,-1,-1,-1,-1,-1,-1,-1,-1,-1,-1],"split_conditions":[2.5892E0,1.341E0,1.521E0,2.0807E0,1.0706E0,3.091E0,3.1358E0,6.48E-1,1.0134489E3,9.31E-1,-2.6144169E-3,1.0121054E3,1.8078E0,1.0124373E3,3.3741E0,-3.097429E-3,-8.278516E-3,1.0139695E3,1.0135213E3,-3.1525493E-3,2.5655E0,7.253298E-3,1.013787E3,4.071935E-3,1.3159241E-2,-4.345539E-3,1.1667E0,1.2239E0,5.460614E-3,1.012923E3,-4.4759313E-4,-2.5004565E-3,3.887296E-4,4.0269E0,-3.2579154E-3,1.4685233E-3,3.8489439E-3,-7.675151E-4,7.865399E-4,5.8944523E-5,1.3915807E-3,4.6963147E-3,9.955327E-4,-1.252777E-2,-3.5578192E-3],"split_indices":[18,9,9,18,0,18,18,1,4,1,0,12,2,13,18,0,0,13,5,0,6,0,5,0,0,0,0,6,0,4,0,0,0,14,0,0,0,0,0,0,0,0,0,0,0],"split_type":[0,0,0,0,0,0,0,0,0,0,0,0,0,0,0,0,0,0,0,0,0,0,0,0,0,0,0,0,0,0,0,0,0,0,0,0,0,0,0,0,0,0,0,0,0],"sum_hessian":[6.9E1,3.1E1,3.8E1,1.7E1,1.4E1,2E1,1.8E1,5E0,1.2E1,9E0,5E0,1.3E1,7E0,9E0,9E0,2E0,3E0,8E0,4E0,1E0,8E0,7E0,6E0,2E0,5E0,6E0,3E0,6E0,3E0,6E0,2E0,3E0,1E0,7E0,1E0,2E0,4E0,2E0,1E0,3E0,3E0,4E0,2E0,6E0,1E0],"tree_param":{"num_deleted":"0","num_feature":"24","num_nodes":"45","size_leaf_vector":"1"}},{"base_weights":[4.7450685E-3,-5.658729E-2,1.1779154E-1,-1.6829018E-1,-1.8829938E-2,1.6562544E-1,2.4694765E-2,-1.8483151E-1,3.4160912E-4,5.6920186E-2,-8.606355E-2,4.5831203E-2,1.9895972E-1,-1.6794017E-2,9.112644E-2,-2.9941818E-3,-2.0594397E-1,8.587273E-2,-3.5530996E-2,-6.3555846E-3,-2.1770094E-2,5.996579E-2,-2.676785E-4,2.5417607E-3,2.2127007E-1,-2.0902415E-3,1.5712738E-3,1.3501644E-3,5.1749866E-3,-1.0815914E-2,-3.073737E-3,1.0325734E-1,3.3928968E-2,7.864893E-4,-2.613932E-3,-4.1331053E-2,1.5564422E-3,3.4279823E-3,8.5460546E-4,2.5185558E-1,5.2390755E-3,5.5299103E-3,-3.5658182E-4,7.973603E-3,3.463483E-3,2.3611507E-3,4.662633E-4,-2.7472974E-4,-2.3194016E-3,3.6892653E-3,1.3337672E-2,5.2648782E-5,4.7401787E-4],"categories":[],"categories_nodes":[],"categories_segments":[],"categories_sizes":[],"default_left":[0,0,0,0,0,0,0,0,0,0,0,0,0,0,0,0,0,0,0,0,0,0,0,0,0,0,0,0,0,0,0,0,0,0,0,0,0,0,0,0,0,0,0,0,0,0,0,0,0,0,0,0,0],"id":33,"left_children":[1,3,5,7,9,11,13,15,-1,17,19,21,23,25,27,-1,29,31,33,-1,35,37,-1,-1,39,-1,41,-1,-1,-1,-1,43,45,-1,-1,47,-1,-1,-1,49,-1,51,-1,-1,-1,-1,-1,-1,-1,-1,-1,-1,-1],"loss_changes":[5.128042E-1,1.9927616E-1,1.1169258E-1,3.6023885E-2,1.9333807E-1,5.8766842E-2,2.9092073E-2,1.668486E-2,0E0,5.1231697E-2,5.0015286E-2,3.9384076E-3,3.171289E-2,3.2810029E-3,3.7882105E-4,0E0,1.9082427E-4,9.1389045E-3,5.114818E-3,0E0,1.0599373E-2,3.0197203E-4,0E0,0E0,1.2801647E-2,0E0,2.1169559E-4,0E0,0E0,0E0,0E0,8.059502E-3,1.1950461E-3,0E0,0E0,1.013686E-3,0E0,0E0,0E0,1.5404224E-3,0E0,6.0760984E-5,0E0,0E0,0E0,0E0,0E0,0E0,0E0,0E0,0E0,0E0,0E0],"parents":[2147483647,0,0,1,1,2,2,3,3,4,4,5,5,6,6,7,7,9,9,10,10,11,11,12,12,13,13,14,14,16,16,17,17,18,18,20,20,21,21,24,24,26,26,31,31,32,32,35,35,39,39,41,41],"right_children":[2,4,6,8,10,12,14,16,-1,18,20,22,24,26,28,-1,30,32,34,-1,36,38,-1,-1,40,-1,42,-1,-1,-1,-1,44,46,-1,-1,48,-1,-1,-1,50,-1,52,-1,-1,-1,-1,-1,-1,-1,-1,-1,-1,-1],"split_conditions":[2.9631E0,2.0855E0,3.2207E0,9.257E-1,1.0337E0,2.9798E0,1.0126342E3,6.48E-1,3.4160912E-4,1.0147904E3,2.356E0,1.0121054E3,1.506E-1,1.0108649E3,1.0207E0,-2.9941818E-3,1.0152973E3,9.868E-1,5.577E-1,-6.3555846E-3,1.3444E0,9.133E-1,-2.676785E-4,2.5417607E-3,1.2776E0,-2.0902415E-3,3.474E0,1.3501644E-3,5.1749866E-3,-1.0815914E-2,-3.073737E-3,1.0120336E3,6.738E-1,7.864893E-4,-2.613932E-3,1.0337E0,1.5564422E-3,3.4279823E-3,8.5460546E-4,7.409E-1,5.2390755E-3,1.0118526E3,-3.5658182E-4,7.973603E-3,3.463483E-3,2.3611507E-3,4.662633E-4,-2.7472974E-4,-2.3194016E-3,3.6892653E-3,1.3337672E-2,5.2648782E-5,4.7401787E-4],"split_indices":[18,18,11,0,1,19,12,1,0,4,3,13,6,12,0,0,12,14,0,0,0,0,0,0,0,0,11,0,0,0,0,5,0,0,0,0,0,0,0,1,0,5,0,0,0,0,0,0,0,0,0,0,0],"split_type":[0,0,0,0,0,0,0,0,0,0,0,0,0,0,0,0,0,0,0,0,0,0,0,0,0,0,0,0,0,0,0,0,0,0,0,0,0,0,0,0,0,0,0,0,0,0,0,0,0,0,0,0,0],"sum_hessian":[7.2E1,4.7E1,2.5E1,1.1E1,3.6E1,1.6E1,9E0,1E1,1E0,1.7E1,1.9E1,4E0,1.2E1,6E0,3E0,2E0,8E0,1.3E1,4E0,1.1E1,8E0,3E0,1E0,2E0,1E1,2E0,4E0,1E0,2E0,7E0,1E0,9E0,4E0,1E0,3E0,6E0,2E0,2E0,1E0,7E0,3E0,3E0,1E0,2E0,7E0,2E0,2E0,1E0,5E0,1E0,6E0,2E0,1E0],"tree_param":{"num_deleted":"0","num_feature":"24","num_nodes":"53","size_leaf_vector":"1"}},{"base_weights":[7.6180226E-3,-5.8653176E-2,9.965227E-2,1.1347598E-2,-1.13260485E-1,1.8215749E-1,5.75423E-2,-9.372422E-2,8.6731866E-2,-1.3751224E-1,-4.1647844E-2,5.7721394E-3,1.1834509E-2,1.6928812E-2,1.0788202E-2,-4.8968792E-2,-7.599684E-3,5.4620188E-2,7.707814E-3,-3.6890656E-2,-1.5789486E-1,8.694331E-4,-2.9414322E-3,-2.1587515E-2,6.295812E-2,-2.84819E-3,-2.2484362E-4,1.0329009E-3,3.4079135E-3,-2.6651958E-3,3.0872822E-4,-2.4948716E-3,-8.649732E-3,3.330678E-4,-2.678603E-4,1.3427794E-2,-3.851233E-2,-2.9894113E-4,3.6830187E-3,4.7367812E-5,8.636077E-4,-4.0576854E-4,-2.4524021E-3],"categories":[],"categories_nodes":[],"categories_segments":[],"categories_sizes":[],"default_left":[0,0,0,0,0,0,0,0,0,0,0,0,0,0,0,0,0,0,0,0,0,0,0,0,0,0,0,0,0,0,0,0,0,0,0,0,0,0,0,0,0,0,0],"id":34,"left_children":[1,3,5,7,9,11,13,15,17,19,21,-1,-1,23,-1,25,-1,27,-1,29,31,33,-1,35,37,-1,-1,-1,-1,-1,-1,-1,-1,-1,-1,39,41,-1,-1,-1,-1,-1,-1],"loss_changes":[4.0839344E-1,1.5036482E-1,8.679843E-2,1.507026E-1,3.2481015E-2,5.418986E-3,1.248661E-1,1.3420053E-2,1.5396178E-2,2.6990086E-2,5.1645115E-3,0E0,0E0,3.149807E-2,0E0,1.8771607E-3,0E0,2.7300287E-3,0E0,3.1564916E-3,1.256758E-2,1.4387889E-4,0E0,6.4434125E-3,6.3426457E-3,0E0,0E0,0E0,0E0,0E0,0E0,0E0,0E0,0E0,0E0,1.755543E-4,1.8437319E-3,0E0,0E0,0E0,0E0,0E0,0E0],"parents":[2147483647,0,0,1,1,2,2,3,3,4,4,5,5,6,6,7,7,